<?xml version="1.0"?>
<opencv_storage>
<stage10>
  <maxWeakCount>5</maxWeakCount>
  <stageThreshold>-4.6928998827934265e-01</stageThreshold>
  <weakClassifiers>
    <_>
      <internalNodes>
        0 -1 141994 -5508 -830537730 -65948 -587399171 -201891976
        2105016189 -747211403 -109641761</internalNodes>
      <leafValues>
        -3.7748345732688904e-01 6.9230771064758301e-01</leafValues></_>
    <_>
      <internalNodes>
        0 -1 234570 1121186887 -1809776576 1610694685 209715840
        1091094922 1099628544 536889355 982147347</internalNodes>
      <leafValues>
        -5.0253385305404663e-01 6.1339497566223145e-01</leafValues></_>
    <_>
      <internalNodes>
        0 -1 73950 1702866435 15689314 2130636637 -680837831 -948043777
        1424949215 -975211715 -168664005</internalNodes>
      <leafValues>
        -4.9764248728752136e-01 6.4003300666809082e-01</leafValues></_>
    <_>
      <internalNodes>
        0 -1 267843 -654225127 319340821 67129565 1855072274 -1073610466
        -1588985696 -1979051807 1545519257</internalNodes>
      <leafValues>
        -5.7518684864044189e-01 5.7284522056579590e-01</leafValues></_>
    <_>
      <internalNodes>
        0 -1 346344 538649951 -1160773631 2099331 613720593 -1610088081
        -796884864 1208633869 -357017439</internalNodes>
      <leafValues>
        -7.3426657915115356e-01 4.7849839925765991e-01</leafValues></_></weakClassifiers></stage10>
</opencv_storage>
