<?xml version="1.0"?>
<opencv_storage>
<stage17>
  <maxWeakCount>5</maxWeakCount>
  <stageThreshold>-6.4032500982284546e-01</stageThreshold>
  <weakClassifiers>
    <_>
      <internalNodes>
        0 -1 299280 218070839 717330943 -1073758209 -1572864011
        1039679283 -129 -536912011 -1392722123</internalNodes>
      <leafValues>
        -5.8914726972579956e-01 7.0404982566833496e-01</leafValues></_>
    <_>
      <internalNodes>
        0 -1 339934 4735293 -1932177357 -1047195267 -603975349
        -2146827222 -267616253 -1450964528 -1906286496</internalNodes>
      <leafValues>
        -6.7794007062911987e-01 6.0213547945022583e-01</leafValues></_>
    <_>
      <internalNodes>
        0 -1 293595 100877659 85067921 545364504 805617691 -1610590185
        -2146828254 -1065151663 -1091815392</internalNodes>
      <leafValues>
        -7.0298826694488525e-01 5.6687587499618530e-01</leafValues></_>
    <_>
      <internalNodes>
        0 -1 78824 -289690949 -1686393303 -830572865 -1863340243
        721339519 -1626374273 1329487359 231595959</internalNodes>
      <leafValues>
        -5.6428194046020508e-01 7.8107637166976929e-01</leafValues></_>
    <_>
      <internalNodes>
        0 -1 294841 -1459591371 -124526291 -2013230955 -1121353465
        683705485 -670367614 -2142576479 -1164261272</internalNodes>
      <leafValues>
        -6.7924016714096069e-01 6.3819712400436401e-01</leafValues></_></weakClassifiers></stage17>
</opencv_storage>
