<?xml version="1.0"?>
<opencv_storage>
<stage8>
  <maxWeakCount>6</maxWeakCount>
  <stageThreshold>-7.3284640908241272e-02</stageThreshold>
  <weakClassifiers>
    <_>
      <internalNodes>
        0 -1 325554 -1911628168 2147236881 285278719 -16506543
        -1380007943 -8454147 2143051612 462963732</internalNodes>
      <leafValues>
        -4.7126436233520508e-01 6.6197180747985840e-01</leafValues></_>
    <_>
      <internalNodes>
        0 -1 298956 -1315950129 -1841216127 1090519305 1101835
        -1879044029 -662663030 -534675455 -84885504</internalNodes>
      <leafValues>
        -5.6507092714309692e-01 5.5997592210769653e-01</leafValues></_>
    <_>
      <internalNodes>
        0 -1 15119 159418130 -583991296 1342246913 1392705858 1207976067
        -1711270396 -486342487 1472750083</internalNodes>
      <leafValues>
        -5.9961289167404175e-01 5.6283795833587646e-01</leafValues></_>
    <_>
      <internalNodes>
        0 -1 384011 1225183612 -234717166 -2129587839 -845447164
        -1333484616 -2130181760 536937128 254330912</internalNodes>
      <leafValues>
        -6.2181872129440308e-01 5.6285881996154785e-01</leafValues></_>
    <_>
      <internalNodes>
        0 -1 134033 -427760248 -251559424 -2130636751 -384626303
        33630859 1512570928 25165994 -616494962</internalNodes>
      <leafValues>
        -5.6988131999969482e-01 6.4603555202484131e-01</leafValues></_>
    <_>
      <internalNodes>
        0 -1 239875 290476633 -1719664511 4441 -251281279 -1841102560
        -1698594680 1073760397 161480744</internalNodes>
      <leafValues>
        -6.6637027263641357e-01 5.9101778268814087e-01</leafValues></_></weakClassifiers></stage8>
</opencv_storage>
