<?xml version="1.0"?>
<opencv_storage>
<stage9>
  <maxWeakCount>5</maxWeakCount>
  <stageThreshold>-2.6479664444923401e-01</stageThreshold>
  <weakClassifiers>
    <_>
      <internalNodes>
        0 -1 395136 1018707837 -1124303076 -1 789249343 -33718275
        -536870913 -1090617345 1066466800</internalNodes>
      <leafValues>
        -4.5247149467468262e-01 6.5777081251144409e-01</leafValues></_>
    <_>
      <internalNodes>
        0 -1 205380 -710227810 430325731 -268468648 1006624613 368526503
        -672169985 1375623375 -1714030721</internalNodes>
      <leafValues>
        -4.1012683510780334e-01 7.2273463010787964e-01</leafValues></_>
    <_>
      <internalNodes>
        0 -1 9317 -315627849 1555037933 -4526498 -1955532814 67395015
        -805798018 126347263 -564002881</internalNodes>
      <leafValues>
        -4.0231013298034668e-01 7.5112575292587280e-01</leafValues></_>
    <_>
      <internalNodes>
        0 -1 400217 987840541 940675073 65867 268634515 4292766
        -1065353215 -1610440501 673483271</internalNodes>
      <leafValues>
        -6.1060076951980591e-01 5.4542779922485352e-01</leafValues></_>
    <_>
      <internalNodes>
        0 -1 14198 -1006577860 -751795834 1157628169 -788463488 19219
        -511704959 420284531 1468194881</internalNodes>
      <leafValues>
        -6.3239115476608276e-01 5.2652072906494141e-01</leafValues></_></weakClassifiers></stage9>
</opencv_storage>
