<?xml version="1.0"?>
<opencv_storage>
<stage28>
  <maxWeakCount>6</maxWeakCount>
  <stageThreshold>4.4413488358259201e-02</stageThreshold>
  <weakClassifiers>
    <_>
      <internalNodes>
        0 -1 228030 1286735392 -1037685001 183266865 2130689875 66504368
        -41957515 505593891 -1505759433</internalNodes>
      <leafValues>
        -4.4855967164039612e-01 6.2252664566040039e-01</leafValues></_>
    <_>
      <internalNodes>
        0 -1 285621 67185523 -1873735535 285245569 -1358053375
        -1610602070 -796393472 -1475739253 1808671779</internalNodes>
      <leafValues>
        -5.1478844881057739e-01 5.8443331718444824e-01</leafValues></_>
    <_>
      <internalNodes>
        0 -1 428042 186308971 29622273 -1862270525 1711411457 822249831
        -1181974528 -804614071 692881928</internalNodes>
      <leafValues>
        -6.5252542495727539e-01 4.5394513010978699e-01</leafValues></_>
    <_>
      <internalNodes>
        0 -1 106758 -854400493 -451870445 -2130182113 319295697
        -1878875602 -536608252 -930574312 1544569096</internalNodes>
      <leafValues>
        -6.1573195457458496e-01 4.9136254191398621e-01</leafValues></_>
    <_>
      <internalNodes>
        0 -1 58024 1160231731 -961890894 -139231239 -545833424 116907445
        1862270463 1601434998 -964725131</internalNodes>
      <leafValues>
        -5.0531631708145142e-01 6.4461815357208252e-01</leafValues></_>
    <_>
      <internalNodes>
        0 -1 205865 -1636113581 1848344160 -1359008903 -1365770522
        -294713258 -1497903117 -25172097 2011938679</internalNodes>
      <leafValues>
        -4.9544331431388855e-01 6.6488331556320190e-01</leafValues></_></weakClassifiers></stage28>
</opencv_storage>
