<?xml version="1.0"?>
<opencv_storage>
<stage19>
  <maxWeakCount>23</maxWeakCount>
  <stageThreshold>-1.0171780586242676e+00</stageThreshold>
  <weakClassifiers>
    <_>
      <internalNodes>
        0 -1 39 -15466753 2134369619 -311304225 1499042673 -222833763
        -388881509 -1643673591 -345244707</internalNodes>
      <leafValues>
        -3.1520080566406250e-01 2.2514070570468903e-01</leafValues></_>
    <_>
      <internalNodes>
        0 -1 581 -461475009 997347387 -1071321907 1847786207 1095790303
        -890083072 -1006314392 -429786879</internalNodes>
      <leafValues>
        -2.5542640686035156e-01 2.1430532634258270e-01</leafValues></_>
    <_>
      <internalNodes>
        0 -1 3894 -364633608 -559119064 -787836464 -11607728 537977772
        -1924660745 311092181 -1158613259</internalNodes>
      <leafValues>
        -2.3748926818370819e-01 2.2514468431472778e-01</leafValues></_>
    <_>
      <internalNodes>
        0 -1 1645 -1015596481 1771496767 -1440827045 -1345301794
        50407959 -193613719 1976742741 1446009396</internalNodes>
      <leafValues>
        -3.5093668103218079e-01 1.5300837159156799e-01</leafValues></_>
    <_>
      <internalNodes>
        0 -1 5305 -421556703 -1679199778 -904816404 1892808091
        1002582020 1595736098 -73731162 -21040263</internalNodes>
      <leafValues>
        -2.5760754942893982e-01 2.2247971594333649e-01</leafValues></_>
    <_>
      <internalNodes>
        0 -1 2469 118467376 2075124048 -192837415 1205178561 156857589
        -1173749632 1369183153 -652762045</internalNodes>
      <leafValues>
        -2.6446893811225891e-01 2.2779047489166260e-01</leafValues></_>
    <_>
      <internalNodes>
        0 -1 5883 1877585154 735237601 607395922 1359121101 1623425666
        1225228433 -2096174612 -335697517</internalNodes>
      <leafValues>
        -3.1115922331809998e-01 2.0144011080265045e-01</leafValues></_>
    <_>
      <internalNodes>
        0 -1 3526 -1561355600 -1209094620 846525182 1353612980
        -2030133618 240540997 -144318994 -716741145</internalNodes>
      <leafValues>
        -2.4573197960853577e-01 2.6163011789321899e-01</leafValues></_>
    <_>
      <internalNodes>
        0 -1 5984 2086742490 314323848 67265024 -1342152092 535465
        -2012938112 167785184 -1649149475</internalNodes>
      <leafValues>
        -3.3322218060493469e-01 1.8326897919178009e-01</leafValues></_>
    <_>
      <internalNodes>
        0 -1 6436 -1216362409 549400518 1878818683 137313770 1794566906
        -578822273 -1099172088 -399951237</internalNodes>
      <leafValues>
        -2.5120005011558533e-01 2.5851500034332275e-01</leafValues></_>
    <_>
      <internalNodes>
        0 -1 5416 -669529165 -777383944 1333759935 503010401 280092318
        -1660985476 364252602 -543195493</internalNodes>
      <leafValues>
        -1.3709163665771484e-01 4.4387495517730713e-01</leafValues></_>
    <_>
      <internalNodes>
        0 -1 5950 -2139379350 291175398 -268156737 -253222398 591905594
        445265568 1038610536 1507387622</internalNodes>
      <leafValues>
        -2.8900828957557678e-01 2.1387520432472229e-01</leafValues></_>
    <_>
      <internalNodes>
        0 -1 5344 -818449242 327259426 361191873 126194141 1645204385
        -467466167 1112367410 -917178249</internalNodes>
      <leafValues>
        -2.7365276217460632e-01 2.3176160454750061e-01</leafValues></_>
    <_>
      <internalNodes>
        0 -1 3927 -1910715264 454272368 9779728 -1852604287 1231163616
        -1607827151 1103500074 951527623</internalNodes>
      <leafValues>
        -3.9910236001014709e-01 1.6228601336479187e-01</leafValues></_>
    <_>
      <internalNodes>
        0 -1 4155 -1455416231 -113090478 2016011229 2061392116
        -373272368 -477200197 -1358267402 -13325124</internalNodes>
      <leafValues>
        -2.5585031509399414e-01 2.5162300467491150e-01</leafValues></_>
    <_>
      <internalNodes>
        0 -1 2310 -1601665024 -741769031 -1991186165 -849914880
        1050285172 1766983714 -749858204 862536116</internalNodes>
      <leafValues>
        -3.9464995265007019e-01 1.6515377163887024e-01</leafValues></_>
    <_>
      <internalNodes>
        0 -1 5211 -481982970 -1884389095 -746405409 542564416 -904254966
        2055733263 -929435172 -2112835087</internalNodes>
      <leafValues>
        -3.6243358254432678e-01 1.6857616603374481e-01</leafValues></_>
    <_>
      <internalNodes>
        0 -1 1547 -550597410 1257295459 1055091903 -1489006673 -6139196
        -1082432218 -193546659 -479767216</internalNodes>
      <leafValues>
        -2.3884768784046173e-01 2.7033996582031250e-01</leafValues></_>
    <_>
      <internalNodes>
        0 -1 2014 1292773050 303025102 -788375986 -1953268 -73589672
        1909661834 -1354413944 -664742101</internalNodes>
      <leafValues>
        -3.0970758199691772e-01 2.2012706100940704e-01</leafValues></_>
    <_>
      <internalNodes>
        0 -1 3532 170316440 672631703 209945658 738605614 1269481473
        1892189290 1242200091 1192065031</internalNodes>
      <leafValues>
        -4.1550332307815552e-01 1.5566501021385193e-01</leafValues></_>
    <_>
      <internalNodes>
        0 -1 3352 172013162 533356930 -343900158 503369987 172104792
        -1396170591 1761755228 -1198165433</internalNodes>
      <leafValues>
        -3.8030865788459778e-01 1.6949649155139923e-01</leafValues></_>
    <_>
      <internalNodes>
        0 -1 5724 -106168585 2125807074 1832204944 -1120985537 666677146
        -1133641736 255823259 -620233477</internalNodes>
      <leafValues>
        -1.3716439902782440e-01 4.7859013080596924e-01</leafValues></_>
    <_>
      <internalNodes>
        0 -1 209 -428880718 2085652625 -1802954661 -1241226872
        1180135859 1512342496 -2057078596 -77351523</internalNodes>
      <leafValues>
        -2.4548032879829407e-01 2.6065102219581604e-01</leafValues></_></weakClassifiers></stage19>
</opencv_storage>
