<?xml version="1.0"?>
<opencv_storage>
<stage0>
  <maxWeakCount>6</maxWeakCount>
  <stageThreshold>-1.2513232231140137e+00</stageThreshold>
  <weakClassifiers>
    <_>
      <internalNodes>
        0 -1 2428 -620506358 1560383491 1342242818 1459867799 1158398091
        229386 2855851 1600120527</internalNodes>
      <leafValues>
        -6.1741340160369873e-01 5.0890445709228516e-01</leafValues></_>
    <_>
      <internalNodes>
        0 -1 315 -28326806 1996606343 1679048776 1881131075 1951596547
        419513379 2017693343 1600125903</internalNodes>
      <leafValues>
        -5.4015201330184937e-01 4.5391073822975159e-01</leafValues></_>
    <_>
      <internalNodes>
        0 -1 6343 -822088657 553371561 -1564543168 -521150465 -239911161
        1628149755 -156241962 -168301569</internalNodes>
      <leafValues>
        -5.0997394323348999e-01 4.3403932452201843e-01</leafValues></_>
    <_>
      <internalNodes>
        0 -1 1836 -251674560 -759012304 1724932353 -236194249 -453517066
        1077366643 -949231109 -67109889</internalNodes>
      <leafValues>
        -4.4310101866722107e-01 4.8780685663223267e-01</leafValues></_>
    <_>
      <internalNodes>
        0 -1 5331 668952067 774280461 -359153492 -1560618533 1590654837
        562284762 -80124431 -251922133</internalNodes>
      <leafValues>
        -5.0592672824859619e-01 4.2247396707534790e-01</leafValues></_>
    <_>
      <internalNodes>
        0 -1 3509 -51315888 -267593930 1778716864 -53611873 1489169881
        1653252387 -266898191 -436245569</internalNodes>
      <leafValues>
        -4.7326636314392090e-01 4.3433603644371033e-01</leafValues></_></weakClassifiers></stage0>
</opencv_storage>
