<?xml version="1.0"?>
<opencv_storage>
<stage4>
  <maxWeakCount>11</maxWeakCount>
  <stageThreshold>-1.0976629257202148e+00</stageThreshold>
  <weakClassifiers>
    <_>
      <internalNodes>
        0 -1 6022 -67109909 -1034947905 -122630144 859398043 -388760701
        707000514 -221256189 -738197521</internalNodes>
      <leafValues>
        -4.6959897875785828e-01 2.3689727485179901e-01</leafValues></_>
    <_>
      <internalNodes>
        0 -1 207 1085268515 1176807171 1153810486 -960905641 1466397495
        1145980933 1460134179 -8373</internalNodes>
      <leafValues>
        -4.5013409852981567e-01 2.7988171577453613e-01</leafValues></_>
    <_>
      <internalNodes>
        0 -1 5991 -486822142 552459699 157779970 -490737724 1662146305
        35465783 -101010297 -185073693</internalNodes>
      <leafValues>
        -5.1666796207427979e-01 2.1727637946605682e-01</leafValues></_>
    <_>
      <internalNodes>
        0 -1 3689 -670316360 -576389497 -1179423887 -811862278 230542843
        -1897472001 161185275 -543171137</internalNodes>
      <leafValues>
        -2.8418672084808350e-01 4.2968395352363586e-01</leafValues></_>
    <_>
      <internalNodes>
        0 -1 3837 -8271909 -1323584653 -704553891 789644919 -113899777
        -1079424871 1401443103 711153207</internalNodes>
      <leafValues>
        -3.5223752260208130e-01 3.1622037291526794e-01</leafValues></_>
    <_>
      <internalNodes>
        0 -1 734 -128004618 -1561135159 -1664165448 -899508014
        -245412495 -586769949 -1039671119 -527041801</internalNodes>
      <leafValues>
        -5.0829088687896729e-01 2.0535628497600555e-01</leafValues></_>
    <_>
      <internalNodes>
        0 -1 24 -2135964977 -211033202 -79200317 -538756184 1741119403
        -542114827 725571387 -6334589</internalNodes>
      <leafValues>
        -2.8018638491630554e-01 3.8628965616226196e-01</leafValues></_>
    <_>
      <internalNodes>
        0 -1 6186 -755561941 585324957 -838383552 -491024354 1967066432
        2009854536 1470352002 -252059905</internalNodes>
      <leafValues>
        -4.3800914287567139e-01 2.5534775853157043e-01</leafValues></_>
    <_>
      <internalNodes>
        0 -1 1920 -150241918 42639874 403949780 1287967248 69045279
        1415186587 -446315621 1467170803</internalNodes>
      <leafValues>
        -4.7752514481544495e-01 2.2403328120708466e-01</leafValues></_>
    <_>
      <internalNodes>
        0 -1 1679 421744826 2030760696 -296644469 1004130702 -351664317
        -637334686 -666402101 2138518251</internalNodes>
      <leafValues>
        -4.2340502142906189e-01 2.4707323312759399e-01</leafValues></_>
    <_>
      <internalNodes>
        0 -1 3490 -357568818 859984322 -862903074 -1298468406 -646035961
        740335713 -1018720019 -232010777</internalNodes>
      <leafValues>
        -3.4039181470870972e-01 3.2353818416595459e-01</leafValues></_></weakClassifiers></stage4>
</opencv_storage>
