<?xml version="1.0"?>
<opencv_storage>
<stage12>
  <maxWeakCount>19</maxWeakCount>
  <stageThreshold>-1.2358820438385010e+00</stageThreshold>
  <weakClassifiers>
    <_>
      <internalNodes>
        0 -1 3785 -51973920 -800946671 -737884152 1697745675 -1065303903
        -1333358432 67148478 -687383605</internalNodes>
      <leafValues>
        -5.0986152887344360e-01 8.2155138254165649e-02</leafValues></_>
    <_>
      <internalNodes>
        0 -1 4894 1969075336 2064712039 -1987798016 788648835 1507840714
        8374484 -328343029 1840247531</internalNodes>
      <leafValues>
        -3.1910040974617004e-01 2.5623536109924316e-01</leafValues></_>
    <_>
      <internalNodes>
        0 -1 303 -750702358 -739582230 -340590637 -403970201 1968682747
        1998028783 1969455103 -104335617</internalNodes>
      <leafValues>
        -2.2969041764736176e-01 3.5219821333885193e-01</leafValues></_>
    <_>
      <internalNodes>
        0 -1 6226 -596123134 1078372050 297884304 1906111634 1158029568
        4800520 1997246914 1346894010</internalNodes>
      <leafValues>
        -3.4691914916038513e-01 2.2383935749530792e-01</leafValues></_>
    <_>
      <internalNodes>
        0 -1 2743 -498948082 306532430 -1937672054 16090317 1092899892
        18432 -1044020666 1347547915</internalNodes>
      <leafValues>
        -4.2344698309898376e-01 1.9397835433483124e-01</leafValues></_>
    <_>
      <internalNodes>
        0 -1 13 704817696 -1898674168 1460262189 492246426 1987930005
        2088534049 1570053410 1441755934</internalNodes>
      <leafValues>
        -4.7379282116889954e-01 1.7136090993881226e-01</leafValues></_>
    <_>
      <internalNodes>
        0 -1 3527 -89483534 1599539256 4222294 412816456 1871354098
        1040318468 -1320769234 827018183</internalNodes>
      <leafValues>
        -3.0472552776336670e-01 2.4479465186595917e-01</leafValues></_>
    <_>
      <internalNodes>
        0 -1 721 1762305615 -1509455414 -995358098 -1436562723
        1076119829 1652687165 -838282906 1934969698</internalNodes>
      <leafValues>
        -3.5845333337783813e-01 2.2718980908393860e-01</leafValues></_>
    <_>
      <internalNodes>
        0 -1 3701 -241119024 -1692934 532502525 2038330628 1819781800
        -4233 -1339625782 725222712</internalNodes>
      <leafValues>
        -2.0126958191394806e-01 3.7913733720779419e-01</leafValues></_>
    <_>
      <internalNodes>
        0 -1 3197 -690119368 -1734973551 1128643032 -191653167
        1423759401 1083229741 62605795 -654846355</internalNodes>
      <leafValues>
        -3.4261006116867065e-01 2.2729483246803284e-01</leafValues></_>
    <_>
      <internalNodes>
        0 -1 5827 -338440704 217572391 289477436 542459109 724658970
        379130028 -1332790757 182975439</internalNodes>
      <leafValues>
        -4.0711909532546997e-01 1.9768926501274109e-01</leafValues></_>
    <_>
      <internalNodes>
        0 -1 5716 -180396808 1466920183 386821881 1603092983 791432122
        515465144 439815387 -1826805893</internalNodes>
      <leafValues>
        -2.2229431569576263e-01 3.4764775633811951e-01</leafValues></_>
    <_>
      <internalNodes>
        0 -1 5170 -129529662 1834463309 -1324627923 1080025219
        1367835864 -977663603 -427722361 -638191165</internalNodes>
      <leafValues>
        -2.7579858899116516e-01 2.8895601630210876e-01</leafValues></_>
    <_>
      <internalNodes>
        0 -1 151 568165408 772661698 -1852832765 -710511084 1900684577
        1367376528 1879228960 634746438</internalNodes>
      <leafValues>
        -4.8415198922157288e-01 1.6791318356990814e-01</leafValues></_>
    <_>
      <internalNodes>
        0 -1 6579 1696595555 651200243 692478368 1075122204 318963017
        1671171 -1712915678 139899535</internalNodes>
      <leafValues>
        -3.5157042741775513e-01 2.1337503194808960e-01</leafValues></_>
    <_>
      <internalNodes>
        0 -1 837 1141686896 -708127828 -41155171 1163415556 1091158715
        -1616862583 25711968 400385942</internalNodes>
      <leafValues>
        -3.3082139492034912e-01 2.1992111206054688e-01</leafValues></_>
    <_>
      <internalNodes>
        0 -1 4927 1491210788 286486987 -1828601172 550192603 549853688
        -1992155008 -1069545076 -1597769260</internalNodes>
      <leafValues>
        -3.3912557363510132e-01 2.3578067123889923e-01</leafValues></_>
    <_>
      <internalNodes>
        0 -1 3991 1971646714 833603417 -131083538 288992235 1414791616
        517144447 -2060798514 -380436669</internalNodes>
      <leafValues>
        -2.5101855397224426e-01 3.1310692429542542e-01</leafValues></_>
    <_>
      <internalNodes>
        0 -1 3630 -2069091304 2032415533 -653209320 -71843451
        -2147454220 304114895 -2121787574 1840924491</internalNodes>
      <leafValues>
        -3.2164120674133301e-01 2.5140714645385742e-01</leafValues></_></weakClassifiers></stage12>
</opencv_storage>
