<?xml version="1.0"?>
<opencv_storage>
<stage16>
  <maxWeakCount>22</maxWeakCount>
  <stageThreshold>-1.1713459491729736e+00</stageThreshold>
  <weakClassifiers>
    <_>
      <internalNodes>
        0 -1 987 1234163129 -250902016 1639042387 1316061714 404727807
        -1906734714 1913772761 -36181585</internalNodes>
      <leafValues>
        -3.7035900354385376e-01 1.1889718472957611e-01</leafValues></_>
    <_>
      <internalNodes>
        0 -1 5899 1870628418 2069101627 1686413658 -236796993 1231717378
        525926965 -392246850 -317721659</internalNodes>
      <leafValues>
        -2.5645881891250610e-01 2.2179214656352997e-01</leafValues></_>
    <_>
      <internalNodes>
        0 -1 6599 1432351615 794792127 -1723476353 180410767 -1165121747
        -1075896161 2076952828 1549657849</internalNodes>
      <leafValues>
        -2.6217600703239441e-01 2.2979620099067688e-01</leafValues></_>
    <_>
      <internalNodes>
        0 -1 520 -287371746 2131128543 -2079719394 -2043481569
        1195726225 974594177 578901454 -565855717</internalNodes>
      <leafValues>
        -3.1050959229469299e-01 1.9888372719287872e-01</leafValues></_>
    <_>
      <internalNodes>
        0 -1 4864 -933431016 -225017259 1610622076 -1569980338
        -1982267148 -1182486468 -827557251 517626225</internalNodes>
      <leafValues>
        -3.3331340551376343e-01 1.9489490985870361e-01</leafValues></_>
    <_>
      <internalNodes>
        0 -1 2634 -1392850518 686775246 1577666248 2004899274 1912605047
        1141476049 998504324 -134884366</internalNodes>
      <leafValues>
        -3.1934767961502075e-01 2.1023209393024445e-01</leafValues></_>
    <_>
      <internalNodes>
        0 -1 6059 -562084319 1162957009 623061313 40776020 -288142815
        1102537623 1183255589 213162707</internalNodes>
      <leafValues>
        -4.3060895800590515e-01 1.2784783542156219e-01</leafValues></_>
    <_>
      <internalNodes>
        0 -1 6311 1624219599 736591615 670027689 540471295 -127098424
        1056964607 -193397270 -218828821</internalNodes>
      <leafValues>
        -2.0636351406574249e-01 2.9004156589508057e-01</leafValues></_>
    <_>
      <internalNodes>
        0 -1 5909 1601939160 1513350946 -21495952 -1502004400 1012783102
        -1343178908 1723199998 -613024011</internalNodes>
      <leafValues>
        -2.2321829199790955e-01 2.9605507850646973e-01</leafValues></_>
    <_>
      <internalNodes>
        0 -1 4431 -2036460382 772299843 -1000554169 145821913 516366298
        -527783763 1122005110 -219794463</internalNodes>
      <leafValues>
        -3.7468186020851135e-01 1.7956395447254181e-01</leafValues></_>
    <_>
      <internalNodes>
        0 -1 3875 -451508030 -554802734 1493269312 -1276678080
        1781965546 -1445230582 1388466382 -1436007081</internalNodes>
      <leafValues>
        -2.8588277101516724e-01 2.2842602431774139e-01</leafValues></_>
    <_>
      <internalNodes>
        0 -1 37 992200399 847103095 -134776858 -214507906 1547636277
        -41965569 -1636448408 -21015054</internalNodes>
      <leafValues>
        -2.3492868244647980e-01 2.7227914333343506e-01</leafValues></_>
    <_>
      <internalNodes>
        0 -1 4048 -84042104 475274308 1119514559 254365685 -1103127847
        2147441374 440582026 456072347</internalNodes>
      <leafValues>
        -2.2752305865287781e-01 2.8602734208106995e-01</leafValues></_>
    <_>
      <internalNodes>
        0 -1 2552 -939928550 -1819346794 -398180198 1921146496
        -2003825765 1478578214 -920333139 1983676159</internalNodes>
      <leafValues>
        -3.1748881936073303e-01 2.0412330329418182e-01</leafValues></_>
    <_>
      <internalNodes>
        0 -1 6268 803277345 714125455 868230065 1815015964 -1177218241
        1178304938 1003043408 1275382516</internalNodes>
      <leafValues>
        -4.9402925372123718e-01 1.5242020785808563e-01</leafValues></_>
    <_>
      <internalNodes>
        0 -1 5696 -795524600 1628065964 -1743381228 -1719413558
        443390467 1817137298 137118888 -549992305</internalNodes>
      <leafValues>
        -2.8732457756996155e-01 2.2729618847370148e-01</leafValues></_>
    <_>
      <internalNodes>
        0 -1 780 52390059 1317437902 -1593758443 -455217122 1267170353
        1384218802 1671693079 2037179940</internalNodes>
      <leafValues>
        -3.8598850369453430e-01 1.8255405128002167e-01</leafValues></_>
    <_>
      <internalNodes>
        0 -1 3990 100812908 584368384 839430786 844812436 1403404548
        1688862880 -1434439072 -252266749</internalNodes>
      <leafValues>
        -5.1216328144073486e-01 1.1203476041555405e-01</leafValues></_>
    <_>
      <internalNodes>
        0 -1 4321 -66924880 1515062355 -40889519 85228169 -448765232
        1454477699 1384231145 -1913789573</internalNodes>
      <leafValues>
        -3.0456402897834778e-01 2.2081090509891510e-01</leafValues></_>
    <_>
      <internalNodes>
        0 -1 6116 -342423435 38166660 -1861627693 -220443199 910717372
        -1189511037 -1433621765 694290959</internalNodes>
      <leafValues>
        -3.3314585685729980e-01 2.1582955121994019e-01</leafValues></_>
    <_>
      <internalNodes>
        0 -1 5259 631275546 909878166 16892116 856740040 -1329356590
        -1726905715 1673613697 998584769</internalNodes>
      <leafValues>
        -4.2080864310264587e-01 1.6935980319976807e-01</leafValues></_>
    <_>
      <internalNodes>
        0 -1 5623 2017829408 1968832311 1732175855 -1918801109 456780960
        -189431842 -1065356918 -385919617</internalNodes>
      <leafValues>
        -2.4111972749233246e-01 2.9570850729942322e-01</leafValues></_></weakClassifiers></stage16>
</opencv_storage>
