<?xml version="1.0"?>
<opencv_storage>
<stage2>
  <maxWeakCount>11</maxWeakCount>
  <stageThreshold>-1.1509124040603638e+00</stageThreshold>
  <weakClassifiers>
    <_>
      <internalNodes>
        0 -1 850 -2113745278 1943266206 22278507 1404295075 1996743579
        1997766785 1393023663 -137888833</internalNodes>
      <leafValues>
        -5.7715582847595215e-01 2.2325976192951202e-01</leafValues></_>
    <_>
      <internalNodes>
        0 -1 3424 -909128190 576010 -796134144 2140788963 1098894026
        56573960 -796135005 -536880133</internalNodes>
      <leafValues>
        -5.2273273468017578e-01 2.8515580296516418e-01</leafValues></_>
    <_>
      <internalNodes>
        0 -1 2790 -471865682 711971359 -1064048410 -757235234 -507387065
        100919811 -752419760 -724042818</internalNodes>
      <leafValues>
        -4.6683230996131897e-01 2.8942874073982239e-01</leafValues></_>
    <_>
      <internalNodes>
        0 -1 593 -1071451930 1606669084 1006817870 -165228536 1079034116
        -1089011712 -837692709 -109064349</internalNodes>
      <leafValues>
        -4.0836247801780701e-01 3.5254406929016113e-01</leafValues></_>
    <_>
      <internalNodes>
        0 -1 1150 -73414097 -1467487958 -917387616 -1677995662
        2009530643 1133183105 -523046064 -134482949</internalNodes>
      <leafValues>
        -3.7285032868385315e-01 3.8496628403663635e-01</leafValues></_>
    <_>
      <internalNodes>
        0 -1 3654 1098104834 1375718427 1677513971 292015695 -487464541
        889102285 -1036562453 -839137569</internalNodes>
      <leafValues>
        -3.6585742235183716e-01 3.8406151533126831e-01</leafValues></_>
    <_>
      <internalNodes>
        0 -1 5575 -68178421 292552566 855566242 -1838048134 -51444416
        134143836 -1510607717 -33554754</internalNodes>
      <leafValues>
        -3.4943839907646179e-01 3.8963773846626282e-01</leafValues></_>
    <_>
      <internalNodes>
        0 -1 3904 -476389864 823854514 -1073118944 663652033 341443002
        1807749314 1792169999 506286935</internalNodes>
      <leafValues>
        -4.8909640312194824e-01 2.6282581686973572e-01</leafValues></_>
    <_>
      <internalNodes>
        0 -1 6207 786410019 709263811 -738016094 -1561210741 -1097092273
        1091010569 -427048056 -740304433</internalNodes>
      <leafValues>
        -4.0995085239410400e-01 3.4057378768920898e-01</leafValues></_>
    <_>
      <internalNodes>
        0 -1 1211 2093991598 830538182 1342195291 1513161431 -574442879
        873677057 1845972703 1585422239</internalNodes>
      <leafValues>
        -4.1776585578918457e-01 3.1835037469863892e-01</leafValues></_>
    <_>
      <internalNodes>
        0 -1 416 1086817318 987530374 1147526 872600198 1396850737
        1343227010 1159283553 1935014883</internalNodes>
      <leafValues>
        -5.0941556692123413e-01 2.5138786435127258e-01</leafValues></_></weakClassifiers></stage2>
</opencv_storage>
