<?xml version="1.0"?>
<opencv_storage>
<stage9>
  <maxWeakCount>16</maxWeakCount>
  <stageThreshold>-1.0874301195144653e+00</stageThreshold>
  <weakClassifiers>
    <_>
      <internalNodes>
        0 -1 1633 -40372737 -409527329 -1709466438 -153316962
        -1177902289 -1078294341 -516170767 -167773281</internalNodes>
      <leafValues>
        -5.0142335891723633e-01 9.1696180403232574e-02</leafValues></_>
    <_>
      <internalNodes>
        0 -1 4410 -1897144641 2139058171 -1207959561 -361169033
        -1509949441 -537624577 1476214389 -19071023</internalNodes>
      <leafValues>
        -2.8828406333923340e-01 3.1659966707229614e-01</leafValues></_>
    <_>
      <internalNodes>
        0 -1 6524 729755395 646971167 2050707762 -2110064892 1971217975
        -830603368 -694168507 -725292034</internalNodes>
      <leafValues>
        -4.1675946116447449e-01 2.1822932362556458e-01</leafValues></_>
    <_>
      <internalNodes>
        0 -1 375 -1896896989 707494050 -1470693358 -125492697 1322081573
        1518249065 830730277 -153247381</internalNodes>
      <leafValues>
        -4.2082238197326660e-01 2.3104116320610046e-01</leafValues></_>
    <_>
      <internalNodes>
        0 -1 4433 539755600 961446668 667718621 1036093188 772559307
        -2010905973 2021881807 -1372760220</internalNodes>
      <leafValues>
        -4.4602116942405701e-01 1.7518250644207001e-01</leafValues></_>
    <_>
      <internalNodes>
        0 -1 1675 278970562 1472726815 -947539661 1475627102 1598021162
        -18995146 1298120460 -272122561</internalNodes>
      <leafValues>
        -3.5807770490646362e-01 2.2258459031581879e-01</leafValues></_>
    <_>
      <internalNodes>
        0 -1 5867 -84422905 252583890 -1597780523 2047533135 -1655855994
        -338705832 37464768 -1110971709</internalNodes>
      <leafValues>
        -3.0734795331954956e-01 2.7221000194549561e-01</leafValues></_>
    <_>
      <internalNodes>
        0 -1 790 -294666193 176155605 346582454 -387299122 -728821197
        1300994083 1141198963 1232333797</internalNodes>
      <leafValues>
        -3.9211952686309814e-01 2.3353050649166107e-01</leafValues></_>
    <_>
      <internalNodes>
        0 -1 4062 622069052 -1610848816 1682864473 969032560 1797811112
        -85927802 162061468 -1441649872</internalNodes>
      <leafValues>
        -5.5091595649719238e-01 1.5573735535144806e-01</leafValues></_>
    <_>
      <internalNodes>
        0 -1 5853 1119290387 49551442 -631459590 1752990174 1948062212
        -1628354554 -895395681 -1202127028</internalNodes>
      <leafValues>
        -4.2687281966209412e-01 1.8443901836872101e-01</leafValues></_>
    <_>
      <internalNodes>
        0 -1 3496 -29707630 -752112861 -2139967240 1598468720 44991207
        1852766899 1596444671 -632037923</internalNodes>
      <leafValues>
        -2.3099918663501740e-01 3.6232748627662659e-01</leafValues></_>
    <_>
      <internalNodes>
        0 -1 6024 1862250267 1853282201 -1617948911 694352659
        -1998876631 -1914928503 -640726748 -598999441</internalNodes>
      <leafValues>
        -2.9270446300506592e-01 2.9057019948959351e-01</leafValues></_>
    <_>
      <internalNodes>
        0 -1 3262 -459313823 713225034 -1055717814 -135006830 1420909523
        112804224 -247176734 -378078007</internalNodes>
      <leafValues>
        -3.3387556672096252e-01 2.5186553597450256e-01</leafValues></_>
    <_>
      <internalNodes>
        0 -1 137 455534167 50521827 1657319077 940397456 -296059373
        1624389675 -134032843 2085595377</internalNodes>
      <leafValues>
        -3.5857546329498291e-01 2.5601464509963989e-01</leafValues></_>
    <_>
      <internalNodes>
        0 -1 4620 -1910360776 -1966206593 -1724820163 1456783536
        30262052 -1230280630 2026847195 -201525602</internalNodes>
      <leafValues>
        -3.2102295756340027e-01 2.7342230081558228e-01</leafValues></_>
    <_>
      <internalNodes>
        0 -1 5279 -302151404 2135512421 -2079579685 -1092578863
        -118742852 1044624065 -760320790 682579409</internalNodes>
      <leafValues>
        -3.3384132385253906e-01 2.7498507499694824e-01</leafValues></_></weakClassifiers></stage9>
</opencv_storage>
