<?xml version="1.0"?>
<opencv_storage>
<stage5>
  <maxWeakCount>13</maxWeakCount>
  <stageThreshold>-1.3942174911499023e+00</stageThreshold>
  <weakClassifiers>
    <_>
      <internalNodes>
        0 -1 2781 1411376770 386780186 1543916130 -1118836677 33753787
        169576880 1335623323 -3146845</internalNodes>
      <leafValues>
        -5.3388172388076782e-01 1.4834491908550262e-01</leafValues></_>
    <_>
      <internalNodes>
        0 -1 5457 1717501952 811560411 104948061 945783631 969431723
        966820025 182774751 987749019</internalNodes>
      <leafValues>
        -4.9647557735443115e-01 2.2472955286502838e-01</leafValues></_>
    <_>
      <internalNodes>
        0 -1 836 606776506 -1090473014 -2124856867 2106671602 549527781
        1990921099 137384179 -948833337</internalNodes>
      <leafValues>
        -3.6168077588081360e-01 2.7294683456420898e-01</leafValues></_>
    <_>
      <internalNodes>
        0 -1 3378 -4258038 1782993418 -934978042 -255470814 421476943
        1707544130 -476596976 -422054013</internalNodes>
      <leafValues>
        -4.0162542462348938e-01 2.6488935947418213e-01</leafValues></_>
    <_>
      <internalNodes>
        0 -1 2643 -741349393 939135176 -871415546 927678530 -1840141121
        781861521 -1513532837 455178007</internalNodes>
      <leafValues>
        -3.4939920902252197e-01 3.0974543094635010e-01</leafValues></_>
    <_>
      <internalNodes>
        0 -1 5384 -745560712 1427140952 336093456 -1646437507 145510655
        -660421492 44682612 214692277</internalNodes>
      <leafValues>
        -3.7447705864906311e-01 2.9451125860214233e-01</leafValues></_>
    <_>
      <internalNodes>
        0 -1 5620 136283418 30775481 497557968 1603914970 40881576
        146399912 495291873 -100801043</internalNodes>
      <leafValues>
        -3.9356225728988647e-01 2.3097921907901764e-01</leafValues></_>
    <_>
      <internalNodes>
        0 -1 4449 749152525 650541352 -435059092 780054800 466421077
        1785407115 1944393540 -218835227</internalNodes>
      <leafValues>
        -5.3854626417160034e-01 1.9862449169158936e-01</leafValues></_>
    <_>
      <internalNodes>
        0 -1 4816 -23458704 -786951325 -1337352803 462425380 690487372
        1814694152 -400845894 -4457541</internalNodes>
      <leafValues>
        -3.2143512368202209e-01 3.0153241753578186e-01</leafValues></_>
    <_>
      <internalNodes>
        0 -1 3508 -95827422 1312866360 -2025275311 -442990573 2076950658
        1157358762 1905213571 -593363013</internalNodes>
      <leafValues>
        -4.1354086995124817e-01 2.4626392126083374e-01</leafValues></_>
    <_>
      <internalNodes>
        0 -1 204 -821565650 715891818 -1985984734 -696319918 510751287
        575277319 1090983796 1374249299</internalNodes>
      <leafValues>
        -6.7131823301315308e-01 1.1428081244230270e-01</leafValues></_>
    <_>
      <internalNodes>
        0 -1 1665 2351138 2140328000 1409864071 -12107189 382172827
        -546881536 1442914735 -70522317</internalNodes>
      <leafValues>
        -3.8372370600700378e-01 2.6422393321990967e-01</leafValues></_>
    <_>
      <internalNodes>
        0 -1 4749 -1206138166 1501425017 -58753062 284454619 1996073109
        1425511902 1249632682 -79302946</internalNodes>
      <leafValues>
        -2.8868937492370605e-01 3.3929634094238281e-01</leafValues></_></weakClassifiers></stage5>
</opencv_storage>
