<?xml version="1.0"?>
<opencv_storage>
<stage7>
  <maxWeakCount>16</maxWeakCount>
  <stageThreshold>-1.1702096462249756e+00</stageThreshold>
  <weakClassifiers>
    <_>
      <internalNodes>
        0 -1 3088 -536882277 -707931653 -854098981 -6293441 248236475
        -668303138 1503125947 -537397569</internalNodes>
      <leafValues>
        -3.5453841090202332e-01 3.2744926214218140e-01</leafValues></_>
    <_>
      <internalNodes>
        0 -1 638 -422597969 2067120294 617218191 575136719 67381629
        -350868895 406739631 2103965471</internalNodes>
      <leafValues>
        -3.4155997633934021e-01 2.5213974714279175e-01</leafValues></_>
    <_>
      <internalNodes>
        0 -1 5559 -404804093 807005494 60111071 1924199334 2059340612
        2066098203 -1011695957 -209735783</internalNodes>
      <leafValues>
        -3.1594860553741455e-01 2.6166030764579773e-01</leafValues></_>
    <_>
      <internalNodes>
        0 -1 3860 -465371456 -1726581241 -1362338603 263708061
        1041434511 513372723 146541423 544175975</internalNodes>
      <leafValues>
        -4.0730711817741394e-01 2.0768082141876221e-01</leafValues></_>
    <_>
      <internalNodes>
        0 -1 4586 1033140732 361892377 -1827221371 1026434817
        -1353924164 -1099128823 -1135994468 983586112</internalNodes>
      <leafValues>
        -5.0976139307022095e-01 1.6734638810157776e-01</leafValues></_>
    <_>
      <internalNodes>
        0 -1 5786 -556273835 582561660 -9437319 981184315 920515996
        738197245 -50930562 -21496261</internalNodes>
      <leafValues>
        -2.2644062340259552e-01 3.7608489394187927e-01</leafValues></_>
    <_>
      <internalNodes>
        0 -1 3230 -269488145 -1948062161 -537921545 -12981506 2146920190
        1870561271 -134224129 -138412321</internalNodes>
      <leafValues>
        -2.5353410840034485e-01 3.8271644711494446e-01</leafValues></_>
    <_>
      <internalNodes>
        0 -1 5903 -926945608 944108471 964693648 2068953103 441295552
        478790793 -16658171 -637805575</internalNodes>
      <leafValues>
        -2.9574802517890930e-01 2.8339391946792603e-01</leafValues></_>
    <_>
      <internalNodes>
        0 -1 1402 -464785910 1408968784 207085794 1510894515 1078809170
        1595576328 1619482549 -737674249</internalNodes>
      <leafValues>
        -4.0440002083778381e-01 2.3855763673782349e-01</leafValues></_>
    <_>
      <internalNodes>
        0 -1 4280 -103823676 1427310853 -535281423 295009043 1073777048
        1487407238 -491402453 -44851505</internalNodes>
      <leafValues>
        -2.7720355987548828e-01 2.9734924435615540e-01</leafValues></_>
    <_>
      <internalNodes>
        0 -1 4431 -1432680668 57298197 -1069378718 -1428885370 445014098
        1789411348 -201032892 -86969615</internalNodes>
      <leafValues>
        -4.9769487977027893e-01 1.6897720098495483e-01</leafValues></_>
    <_>
      <internalNodes>
        0 -1 803 1860054838 1218234142 806503534 -35992998 1092599398
        -169791200 -744018655 1551233910</internalNodes>
      <leafValues>
        -4.2591395974159241e-01 1.8957909941673279e-01</leafValues></_>
    <_>
      <internalNodes>
        0 -1 550 2141710079 1110551759 -2031350163 -1435865357
        1195867582 2147040629 1778193786 -548032902</internalNodes>
      <leafValues>
        -2.6105344295501709e-01 3.3657005429267883e-01</leafValues></_>
    <_>
      <internalNodes>
        0 -1 2310 -1480016775 -608912391 1065242623 -1175230721
        1333597253 1035345783 -1209606147 -2619475</internalNodes>
      <leafValues>
        -2.5232604146003723e-01 3.5537150502204895e-01</leafValues></_>
    <_>
      <internalNodes>
        0 -1 5535 1985187343 1532991199 -893702153 1232781291 -94396260
        1600094037 -394796134 -570949926</internalNodes>
      <leafValues>
        -2.2664958238601685e-01 4.0442657470703125e-01</leafValues></_>
    <_>
      <internalNodes>
        0 -1 714 -527442320 -1439769570 318919061 -723745385 -536119179
        -524664637 -1836271035 2093959885</internalNodes>
      <leafValues>
        -4.0719762444496155e-01 2.4039272964000702e-01</leafValues></_></weakClassifiers></stage7>
</opencv_storage>
