<?xml version="1.0"?>
<opencv_storage>
<stage26>
  <maxWeakCount>8</maxWeakCount>
  <stageThreshold>-1.3507344722747803e+00</stageThreshold>
  <weakClassifiers>
    <_>
      <internalNodes>
        0 -1 3788 245781593 1363841426 420563967 1973752065 -125248804
        1520151557 -271046006 -1076918245</internalNodes>
      <leafValues>
        -5.8153241872787476e-01 1.0876133292913437e-01</leafValues></_>
    <_>
      <internalNodes>
        0 -1 6648 -1530391377 -1648160195 -1860972173 582649325
        415844234 -830046013 206072487 -355578060</internalNodes>
      <leafValues>
        -5.1462876796722412e-01 2.5852736830711365e-01</leafValues></_>
    <_>
      <internalNodes>
        0 -1 4724 -122102052 1606352092 -17 431717629 -1078026504
        -1073783585 -4278305 -1648665410</internalNodes>
      <leafValues>
        -3.0216097831726074e-01 4.8427018523216248e-01</leafValues></_>
    <_>
      <internalNodes>
        0 -1 5892 -1609661596 -141557055 -2147417193 515671041 814391489
        -520060285 -1379778007 1794668613</internalNodes>
      <leafValues>
        -6.1069196462631226e-01 2.5600215792655945e-01</leafValues></_>
    <_>
      <internalNodes>
        0 -1 2527 -692325637 -155975938 -470658387 -558633042 242204607
        -1346404625 2012716086 -941662825</internalNodes>
      <leafValues>
        -3.0722188949584961e-01 5.4207026958465576e-01</leafValues></_>
    <_>
      <internalNodes>
        0 -1 699 -1924907452 777535966 956434818 -935161023 -573437866
        -246931425 -1823668108 1642331428</internalNodes>
      <leafValues>
        -7.1411812305450439e-01 2.5298219919204712e-01</leafValues></_>
    <_>
      <internalNodes>
        0 -1 6740 -62637168 -1717955626 -1996471975 -1307440640 25757753
        1510769162 -1476367779 -1140246398</internalNodes>
      <leafValues>
        -5.3505611419677734e-01 3.0908757448196411e-01</leafValues></_>
    <_>
      <internalNodes>
        0 -1 6371 -42214320 -1633239126 771724848 -1179976753 243258842
        -1690304524 -671130498 -545759372</internalNodes>
      <leafValues>
        -4.0554970502853394e-01 4.5902469754219055e-01</leafValues></_></weakClassifiers></stage26>
</opencv_storage>
