<?xml version="1.0"?>
<opencv_storage>
<stage29>
  <maxWeakCount>9</maxWeakCount>
  <stageThreshold>-9.3508303165435791e-01</stageThreshold>
  <weakClassifiers>
    <_>
      <internalNodes>
        0 -1 7784 -138675201 -643006678 -8388751 -42467970 -574624293
        -1615855723 509605119 -17217</internalNodes>
      <leafValues>
        -4.2951688170433044e-01 7.6331359148025513e-01</leafValues></_>
    <_>
      <internalNodes>
        0 -1 5629 -1338353392 2077688465 956424665 -1273675381
        -394212710 -880246136 -2096729462 -1347285632</internalNodes>
      <leafValues>
        -5.1034092903137207e-01 3.3035880327224731e-01</leafValues></_>
    <_>
      <internalNodes>
        0 -1 2241 1368328106 -2109177172 1145569744 1975962343
        -2033513753 -2121375062 -1585432428 1997709499</internalNodes>
      <leafValues>
        -5.1012682914733887e-01 3.7663993239402771e-01</leafValues></_>
    <_>
      <internalNodes>
        0 -1 4125 -669023922 286565013 1157829004 474026544 1947934779
        989999104 1082656267 -737494399</internalNodes>
      <leafValues>
        -5.0667935609817505e-01 3.6187076568603516e-01</leafValues></_>
    <_>
      <internalNodes>
        0 -1 7368 603979800 420519952 184555605 1058291848 195330136
        -506916472 -1190133333 716710731</internalNodes>
      <leafValues>
        -6.1338263750076294e-01 3.2550692558288574e-01</leafValues></_>
    <_>
      <internalNodes>
        0 -1 7082 -2138434689 626332701 537399323 -922447855 -1593796134
        -2146270962 -2129034459 878844232</internalNodes>
      <leafValues>
        -5.9534597396850586e-01 3.3949750661849976e-01</leafValues></_>
    <_>
      <internalNodes>
        0 -1 2430 -882665570 1564823295 -360812962 436186995 796769791
        268205816 1291739103 -286464009</internalNodes>
      <leafValues>
        -4.0531599521636963e-01 5.1599979400634766e-01</leafValues></_>
    <_>
      <internalNodes>
        0 -1 4854 1462232983 600297327 922738533 -873103377 1744561063
        -1082134547 586018815 460107735</internalNodes>
      <leafValues>
        -3.7195718288421631e-01 5.5036455392837524e-01</leafValues></_>
    <_>
      <internalNodes>
        0 -1 2695 -2067767622 -1067335293 -1690052528 -1065091065
        1306826010 1141416641 386343393 -771413623</internalNodes>
      <leafValues>
        -5.6287842988967896e-01 3.9971357583999634e-01</leafValues></_></weakClassifiers></stage29>
</opencv_storage>
