<?xml version="1.0"?>
<opencv_storage>
<stage3>
  <maxWeakCount>5</maxWeakCount>
  <stageThreshold>-1.0410145521163940e+00</stageThreshold>
  <weakClassifiers>
    <_>
      <internalNodes>
        0 -1 3885 -1060706624 -150892399 1291949205 1427755044
        -2000119559 -1164965759 -535461441 -581449809</internalNodes>
      <leafValues>
        -7.3947107791900635e-01 3.5660091042518616e-01</leafValues></_>
    <_>
      <internalNodes>
        0 -1 4101 1478279322 285278813 -1718497187 487915545 1073944707
        965772840 1080037594 1068392655</internalNodes>
      <leafValues>
        -6.6644710302352905e-01 3.7394735217094421e-01</leafValues></_>
    <_>
      <internalNodes>
        0 -1 6072 -1618471936 -1115405544 -2116823139 -6838080
        -1052461924 -5141878 -307750759 -1076132102</internalNodes>
      <leafValues>
        -5.9724134206771851e-01 4.7611474990844727e-01</leafValues></_>
    <_>
      <internalNodes>
        0 -1 7078 -1895505963 -1114186415 -318713381 -620703470
        -1048394754 -1197324280 -1913986631 -1678748776</internalNodes>
      <leafValues>
        -5.1783955097198486e-01 5.1485747098922729e-01</leafValues></_>
    <_>
      <internalNodes>
        0 -1 2668 -1950740460 -1744666423 -985296492 -614969184
        -1601948231 -1501331287 -792704265 -1662232060</internalNodes>
      <leafValues>
        -5.9310698509216309e-01 4.5757651329040527e-01</leafValues></_></weakClassifiers></stage3>
</opencv_storage>
