<?xml version="1.0"?>
<opencv_storage>
<stage12>
  <maxWeakCount>7</maxWeakCount>
  <stageThreshold>-1.2073925733566284e+00</stageThreshold>
  <weakClassifiers>
    <_>
      <internalNodes>
        0 -1 6734 -3678393 166412827 -753723183 1566165083 -531644901
        2023360014 1636951684 -1070165</internalNodes>
      <leafValues>
        -6.2463343143463135e-01 1.8112632632255554e-01</leafValues></_>
    <_>
      <internalNodes>
        0 -1 1135 1858539135 106931818 848419978 2013693151 269172738
        -634978225 -754079196 -2626602</internalNodes>
      <leafValues>
        -5.2102905511856079e-01 3.3744117617607117e-01</leafValues></_>
    <_>
      <internalNodes>
        0 -1 7358 -1898679011 -1391750731 -1736338979 482492679
        -821569341 1317581031 -397666123 1292036280</internalNodes>
      <leafValues>
        -5.9646528959274292e-01 3.1165519356727600e-01</leafValues></_>
    <_>
      <internalNodes>
        0 -1 5025 -634076473 -199683189 155205854 312041493 -116772629
        -1173762046 1892315671 1040339909</internalNodes>
      <leafValues>
        -5.2909100055694580e-01 4.0737408399581909e-01</leafValues></_>
    <_>
      <internalNodes>
        0 -1 5239 381879779 -715931644 336106993 -674853873 -1874808148
        -1472069428 1101978249 1317460184</internalNodes>
      <leafValues>
        -5.3870987892150879e-01 4.1618424654006958e-01</leafValues></_>
    <_>
      <internalNodes>
        0 -1 9 631974366 -708763520 327275447 -1726914030 -1165280873
        -552816127 -1322949609 -1118044975</internalNodes>
      <leafValues>
        -4.9607801437377930e-01 4.3819934129714966e-01</leafValues></_>
    <_>
      <internalNodes>
        0 -1 7261 709330914 415744154 -805185368 -1571632896 1392840738
        1343408259 -2100694045 -363339921</internalNodes>
      <leafValues>
        -5.7788807153701782e-01 3.7829667329788208e-01</leafValues></_></weakClassifiers></stage12>
</opencv_storage>
