<?xml version="1.0"?>
<opencv_storage>
<stage19>
  <maxWeakCount>8</maxWeakCount>
  <stageThreshold>-1.2808271646499634e+00</stageThreshold>
  <weakClassifiers>
    <_>
      <internalNodes>
        0 -1 3289 1364713426 -280198944 -1659809315 1461542960
        1797492382 -53867383 2023283450 2027420307</internalNodes>
      <leafValues>
        -5.9843289852142334e-01 1.3808801770210266e-01</leafValues></_>
    <_>
      <internalNodes>
        0 -1 2017 2145811423 -144408107 -2070089381 -1120493097
        684839698 -1081180029 -1156645968 1001442100</internalNodes>
      <leafValues>
        -5.0508946180343628e-01 3.1549727916717529e-01</leafValues></_>
    <_>
      <internalNodes>
        0 -1 500 1825293862 -520449691 -1333584712 -926510196 2013287219
        974045368 193108492 -494226765</internalNodes>
      <leafValues>
        -6.7837989330291748e-01 2.4889609217643738e-01</leafValues></_>
    <_>
      <internalNodes>
        0 -1 1674 -789580425 1978367982 -777 1542975287 266329998
        1423933439 1742155255 -26163865</internalNodes>
      <leafValues>
        -3.0041399598121643e-01 5.6216996908187866e-01</leafValues></_>
    <_>
      <internalNodes>
        0 -1 8337 -1550379229 545828875 61906 59245850 834861382
        323584106 -1165798220 1285528203</internalNodes>
      <leafValues>
        -6.0700017213821411e-01 2.9117563366889954e-01</leafValues></_>
    <_>
      <internalNodes>
        0 -1 4240 -2013155150 -805224045 -209053607 -783589294
        -2029387591 -1744723772 638111867 1495691339</internalNodes>
      <leafValues>
        -4.3504658341407776e-01 3.9976024627685547e-01</leafValues></_>
    <_>
      <internalNodes>
        0 -1 6824 -805216236 2043164874 -1065336324 1049641094
        1479197150 -41254788 -2004267015 -1716589409</internalNodes>
      <leafValues>
        -4.4843941926956177e-01 4.3539753556251526e-01</leafValues></_>
    <_>
      <internalNodes>
        0 -1 3521 -1850870793 1042415539 -562148226 1069023203
        -1661080450 473923443 -621052193 -1627414539</internalNodes>
      <leafValues>
        -3.3269155025482178e-01 5.6953227519989014e-01</leafValues></_></weakClassifiers></stage19>
</opencv_storage>
