<?xml version="1.0"?>
<opencv_storage>
<stage13>
  <maxWeakCount>6</maxWeakCount>
  <stageThreshold>-1.4821728467941284e+00</stageThreshold>
  <weakClassifiers>
    <_>
      <internalNodes>
        0 -1 416 -1352716449 -1883779653 -972958132 -91250236 -347938201
        -474341959 -138585927 -75505605</internalNodes>
      <leafValues>
        -6.1804223060607910e-01 1.9435736536979675e-01</leafValues></_>
    <_>
      <internalNodes>
        0 -1 6260 -2065525227 -180670143 -649945397 608891821
        -1486277792 -1283268127 -1585000320 -1430359008</internalNodes>
      <leafValues>
        -5.9925329685211182e-01 2.9704529047012329e-01</leafValues></_>
    <_>
      <internalNodes>
        0 -1 2646 -212232462 -866843898 1563579860 -732405461
        -1651787447 1526964235 1665270272 -2051801161</internalNodes>
      <leafValues>
        -7.2490900754928589e-01 2.6182287931442261e-01</leafValues></_>
    <_>
      <internalNodes>
        0 -1 8321 1707814411 642695304 -794815740 -1473608221
        -1765133803 455327915 -383399760 -254826961</internalNodes>
      <leafValues>
        -5.6204718351364136e-01 3.8997387886047363e-01</leafValues></_>
    <_>
      <internalNodes>
        0 -1 3220 -1441506288 -78052976 -643394583 -139488631 998769396
        -1496874967 -2102756634 -1175628803</internalNodes>
      <leafValues>
        -5.4902428388595581e-01 3.8388404250144958e-01</leafValues></_>
    <_>
      <internalNodes>
        0 -1 3004 -798240109 2019655649 2088759035 2125201379
        -1799439633 -426246157 -18882929 -151283785</internalNodes>
      <leafValues>
        -3.4853705763816833e-01 6.5214264392852783e-01</leafValues></_></weakClassifiers></stage13>
</opencv_storage>
