<?xml version="1.0"?>
<opencv_storage>
<stage25>
  <maxWeakCount>8</maxWeakCount>
  <stageThreshold>-9.3184173107147217e-01</stageThreshold>
  <weakClassifiers>
    <_>
      <internalNodes>
        0 -1 667 1723853563 -1360289697 1644941725 -1384787261
        -917360603 -912774648 22108233 1601651009</internalNodes>
      <leafValues>
        -6.2734287977218628e-01 6.3389390707015991e-02</leafValues></_>
    <_>
      <internalNodes>
        0 -1 506 -565157714 1024712767 -443537282 -427890106 1099119732
        1276354816 223025332 1880641263</internalNodes>
      <leafValues>
        -6.6357761621475220e-01 1.9245471060276031e-01</leafValues></_>
    <_>
      <internalNodes>
        0 -1 5998 -74346623 1710901401 -1693934831 1292589311
        -1305687949 -1567938423 -1438061999 -341194625</internalNodes>
      <leafValues>
        -4.4271752238273621e-01 3.4840846061706543e-01</leafValues></_>
    <_>
      <internalNodes>
        0 -1 6465 1964113920 235735916 1636840491 148460301 1140854954
        -1342110496 8849418 587192525</internalNodes>
      <leafValues>
        -6.7906558513641357e-01 2.5243541598320007e-01</leafValues></_>
    <_>
      <internalNodes>
        0 -1 4240 464515634 -172242832 1919572468 -181437788 1583318975
        -1904480524 92167398 -551190929</internalNodes>
      <leafValues>
        -3.7296670675277710e-01 4.6767333149909973e-01</leafValues></_>
    <_>
      <internalNodes>
        0 -1 2102 -776933317 71639700 1572865517 1610314242 -1944819661
        -385875968 160209295 210510777</internalNodes>
      <leafValues>
        -4.4570058584213257e-01 3.7641569972038269e-01</leafValues></_>
    <_>
      <internalNodes>
        0 -1 6472 -1235595175 -1106624108 -1316871983 289898961
        -1858281056 -209125237 1057114778 -1670489971</internalNodes>
      <leafValues>
        -5.0988388061523438e-01 3.3262801170349121e-01</leafValues></_>
    <_>
      <internalNodes>
        0 -1 7575 1570755786 -257407094 1967505492 -2076639117
        -1197750367 -905291776 71959224 2030565883</internalNodes>
      <leafValues>
        -4.2606252431869507e-01 4.3396750092506409e-01</leafValues></_></weakClassifiers></stage25>
</opencv_storage>
