<?xml version="1.0"?>
<opencv_storage>
<stage20>
  <maxWeakCount>9</maxWeakCount>
  <stageThreshold>-1.2528065443038940e+00</stageThreshold>
  <weakClassifiers>
    <_>
      <internalNodes>
        0 -1 8419 -378585297 -2066972662 -788014334 106742738 1804822054
        1262502538 829215717 -889979181</internalNodes>
      <leafValues>
        -7.0469796657562256e-01 5.3475936874747276e-03</leafValues></_>
    <_>
      <internalNodes>
        0 -1 7500 -1506101480 993587816 353411772 -1215986926 1237162987
        -838131584 33682600 -912393751</internalNodes>
      <leafValues>
        -5.6704664230346680e-01 2.4266867339611053e-01</leafValues></_>
    <_>
      <internalNodes>
        0 -1 71 1462756827 -273747994 -1662518343 -1114320 796868535
        1299676926 -571142153 -1051293</internalNodes>
      <leafValues>
        -3.6425963044166565e-01 4.4191613793373108e-01</leafValues></_>
    <_>
      <internalNodes>
        0 -1 5541 -140270376 859072633 -293605592 1064955835 510992350
        -1073774657 -537232657 -1098928139</internalNodes>
      <leafValues>
        -4.0318539738655090e-01 4.3174225091934204e-01</leafValues></_>
    <_>
      <internalNodes>
        0 -1 6111 270975257 -637369826 -1690199083 -870850280 52965968
        -1283374976 -1199567222 268436809</internalNodes>
      <leafValues>
        -5.5602151155471802e-01 3.2498723268508911e-01</leafValues></_>
    <_>
      <internalNodes>
        0 -1 7680 198665223 861880431 -968565380 1984923279 -803634850
        -1199013885 -1173857654 -365762241</internalNodes>
      <leafValues>
        -4.9873715639114380e-01 3.4421700239181519e-01</leafValues></_>
    <_>
      <internalNodes>
        0 -1 728 1274798047 2006077461 -1542332133 386160249 1791027875
        -117341822 -1952775680 1560298487</internalNodes>
      <leafValues>
        -5.0650942325592041e-01 3.6874189972877502e-01</leafValues></_>
    <_>
      <internalNodes>
        0 -1 2738 -8326971 592543814 1858691357 85082320 1529652200
        -1300217845 -1434412858 -1474542429</internalNodes>
      <leafValues>
        -4.1048017144203186e-01 4.6405935287475586e-01</leafValues></_>
    <_>
      <internalNodes>
        0 -1 3070 -1696866920 21473610 612401430 -1690185550 273535405
        -2145206136 2082996872 660757007</internalNodes>
      <leafValues>
        -5.3322947025299072e-01 3.6665868759155273e-01</leafValues></_></weakClassifiers></stage20>
</opencv_storage>
