<?xml version="1.0"?>
<opencv_storage>
<stage24>
  <maxWeakCount>8</maxWeakCount>
  <stageThreshold>-9.0731233358383179e-01</stageThreshold>
  <weakClassifiers>
    <_>
      <internalNodes>
        0 -1 6979 672803585 554983439 -1051192947 -2003005105 1393118006
        -132609917 268829123 -1428493191</internalNodes>
      <leafValues>
        -7.7049177885055542e-01 -4.6728972345590591e-02</leafValues></_>
    <_>
      <internalNodes>
        0 -1 4364 -1550932840 -4676992 -1505126379 -75410984 692304667
        -876510840 -1014884610 -1128631891</internalNodes>
      <leafValues>
        -4.8295691609382629e-01 2.9095408320426941e-01</leafValues></_>
    <_>
      <internalNodes>
        0 -1 4823 -896543016 -1138115693 -799964143 -1810972479
        1076709343 -794131939 1096809707 1603266783</internalNodes>
      <leafValues>
        -4.8505318164825439e-01 3.3157387375831604e-01</leafValues></_>
    <_>
      <internalNodes>
        0 -1 245 1217957290 -737767166 -1987985273 -318287744 1267275127
        1205309602 1493381280 -942149583</internalNodes>
      <leafValues>
        -4.9278584122657776e-01 3.2726010680198669e-01</leafValues></_>
    <_>
      <internalNodes>
        0 -1 5043 -1809970581 118451411 865690065 -39993015 1508051054
        411041893 880970977 -1238058873</internalNodes>
      <leafValues>
        -4.6354115009307861e-01 3.5669276118278503e-01</leafValues></_>
    <_>
      <internalNodes>
        0 -1 8394 -299930613 1615470635 1347727874 1255641183
        -1567098102 -134152048 -1022766135 -67372901</internalNodes>
      <leafValues>
        -4.0427526831626892e-01 4.2085388302803040e-01</leafValues></_>
    <_>
      <internalNodes>
        0 -1 6575 1636254799 291222626 250161 -108492152 -1289646015
        1805682689 427954599 -1649804405</internalNodes>
      <leafValues>
        -4.7643777728080750e-01 3.6398193240165710e-01</leafValues></_>
    <_>
      <internalNodes>
        0 -1 6927 -1569457233 1226309882 -987688936 158618641 1812137614
        2030594441 1338022106 17273765</internalNodes>
      <leafValues>
        -4.6972411870956421e-01 4.0466147661209106e-01</leafValues></_></weakClassifiers></stage24>
</opencv_storage>
