<?xml version="1.0"?>
<opencv_storage>
<stage7>
  <maxWeakCount>6</maxWeakCount>
  <stageThreshold>-1.3868061304092407e+00</stageThreshold>
  <weakClassifiers>
    <_>
      <internalNodes>
        0 -1 105 2065953503 1493656405 1343476959 2097656371 -933150469
        -133742208 2107830479 2136733915</internalNodes>
      <leafValues>
        -5.8708578348159790e-01 3.3996024727821350e-01</leafValues></_>
    <_>
      <internalNodes>
        0 -1 8203 150414943 982913043 431862655 182170228 -376247798
        -1216097144 672020655 -1431639621</internalNodes>
      <leafValues>
        -5.5854701995849609e-01 3.7976109981536865e-01</leafValues></_>
    <_>
      <internalNodes>
        0 -1 6065 1493365497 -482082469 -788278947 -1139092720
        -514790855 -28593786 1467078101 -1669688012</internalNodes>
      <leafValues>
        -5.5859452486038208e-01 3.7928280234336853e-01</leafValues></_>
    <_>
      <internalNodes>
        0 -1 5342 -1523329980 1417388749 1359083647 294910677 836477408
        1250470406 2019754379 -1051335349</internalNodes>
      <leafValues>
        -6.0937595367431641e-01 3.6087852716445923e-01</leafValues></_>
    <_>
      <internalNodes>
        0 -1 6686 -178520223 328755481 -787791743 728483219 1029610263
        -1714782055 1359061745 -626068741</internalNodes>
      <leafValues>
        -4.7567594051361084e-01 4.8815917968750000e-01</leafValues></_>
    <_>
      <internalNodes>
        0 -1 5636 245680801 -283549666 -2147479175 -1634266672 51943674
        -287306111 151054723 -311829901</internalNodes>
      <leafValues>
        -5.0608950853347778e-01 4.7988009452819824e-01</leafValues></_></weakClassifiers></stage7>
</opencv_storage>
