<?xml version="1.0"?>
<opencv_storage>
<stage11>
  <maxWeakCount>7</maxWeakCount>
  <stageThreshold>-1.1187043190002441e+00</stageThreshold>
  <weakClassifiers>
    <_>
      <internalNodes>
        0 -1 542 -268436225 -547906937 537455262 -965754729 141676667
        -653384958 1699564767 -830221365</internalNodes>
      <leafValues>
        -6.3245356082916260e-01 1.9330288469791412e-01</leafValues></_>
    <_>
      <internalNodes>
        0 -1 6808 -1542431408 -1822771107 -192655913 -6903391 -259278683
        -199259768 1879732971 -20003</internalNodes>
      <leafValues>
        -5.0955605506896973e-01 3.5213473439216614e-01</leafValues></_>
    <_>
      <internalNodes>
        0 -1 7544 -1007683813 1011536450 -779914975 160390403 -522196469
        1065787636 -1896896383 -842401571</internalNodes>
      <leafValues>
        -4.4227421283721924e-01 4.2270401120185852e-01</leafValues></_>
    <_>
      <internalNodes>
        0 -1 800 688621218 -271908856 1145369055 1468339089 570635009
        -553090675 1666026970 400516946</internalNodes>
      <leafValues>
        -6.1272341012954712e-01 3.1066972017288208e-01</leafValues></_>
    <_>
      <internalNodes>
        0 -1 600 -402665729 -81301522 -1342243209 1719570151 250027894
        -1908965513 -1896023297 -78385413</internalNodes>
      <leafValues>
        -3.6861330270767212e-01 5.5249977111816406e-01</leafValues></_>
    <_>
      <internalNodes>
        0 -1 4465 -1983944694 -1817132888 -1052709486 2073814226
        394985656 832244875 34464427 1968699837</internalNodes>
      <leafValues>
        -6.5922611951828003e-01 3.0878803133964539e-01</leafValues></_>
    <_>
      <internalNodes>
        0 -1 7644 1218222680 211945002 -1852190697 -418754414
        -1838094136 -1467252478 -503252226 1518637817</internalNodes>
      <leafValues>
        -5.6412035226821899e-01 3.8902553915977478e-01</leafValues></_></weakClassifiers></stage11>
</opencv_storage>
