<?xml version="1.0"?>
<opencv_storage>
<stage21>
  <maxWeakCount>7</maxWeakCount>
  <stageThreshold>-1.2909395694732666e+00</stageThreshold>
  <weakClassifiers>
    <_>
      <internalNodes>
        0 -1 2056 1644360784 -1406917734 -1811766819 -101641771
        1879872156 1595134641 -1431062088 -84960997</internalNodes>
      <leafValues>
        -6.5680474042892456e-01 4.1916169226169586e-02</leafValues></_>
    <_>
      <internalNodes>
        0 -1 5069 883294303 680526231 -1022634874 744378420 1485926480
        -1165766494 -1652469679 -1361156011</internalNodes>
      <leafValues>
        -6.7529827356338501e-01 1.8478122353553772e-01</leafValues></_>
    <_>
      <internalNodes>
        0 -1 8463 1037788149 1194509670 -1986444835 1578483914
        -922348571 -877539281 1531581404 1224456569</internalNodes>
      <leafValues>
        -4.9651366472244263e-01 3.2019218802452087e-01</leafValues></_>
    <_>
      <internalNodes>
        0 -1 2926 -1021132760 -1941667665 -2129641310 -275899614
        45089451 1486047368 -2137882561 1909694577</internalNodes>
      <leafValues>
        -6.2171578407287598e-01 3.0065494775772095e-01</leafValues></_>
    <_>
      <internalNodes>
        0 -1 7092 1486910720 -1021566472 1296120991 1841607696
        -1639126856 -5630847 -587194707 -775358631</internalNodes>
      <leafValues>
        -5.1412892341613770e-01 3.2707059383392334e-01</leafValues></_>
    <_>
      <internalNodes>
        0 -1 3797 998588466 -1882160560 17121429 1400461396 -1568266056
        -1562756816 302133985 -95037477</internalNodes>
      <leafValues>
        -4.7874045372009277e-01 3.7473824620246887e-01</leafValues></_>
    <_>
      <internalNodes>
        0 -1 4831 -439878031 -1726857078 1099666129 1468129344
        -1475694564 -1995407342 41983902 5513700</internalNodes>
      <leafValues>
        -4.7730335593223572e-01 3.8869196176528931e-01</leafValues></_></weakClassifiers></stage21>
</opencv_storage>
