<?xml version="1.0"?>
<opencv_storage>
<stage10>
  <maxWeakCount>7</maxWeakCount>
  <stageThreshold>-1.3333586454391479e+00</stageThreshold>
  <weakClassifiers>
    <_>
      <internalNodes>
        0 -1 1069 -616564867 -1712127813 -719849505 907678621
        -1164285633 -1904734091 -1248928307 -818230804</internalNodes>
      <leafValues>
        -6.2053960561752319e-01 1.7357911169528961e-01</leafValues></_>
    <_>
      <internalNodes>
        0 -1 1019 -1428189841 193058125 -133893665 140441563 552016531
        337272851 2056000051 -89460528</internalNodes>
      <leafValues>
        -5.9868478775024414e-01 2.9081845283508301e-01</leafValues></_>
    <_>
      <internalNodes>
        0 -1 41 2064379994 2131478535 1879179511 963842572 -635567973
        -1723071607 1500725723 2087865945</internalNodes>
      <leafValues>
        -5.2161830663681030e-01 3.4551766514778137e-01</leafValues></_>
    <_>
      <internalNodes>
        0 -1 614 1888461552 -852443005 -257292910 -1105759424
        -1069345421 1236901953 814166403 -408179969</internalNodes>
      <leafValues>
        -5.4933232069015503e-01 3.7058025598526001e-01</leafValues></_>
    <_>
      <internalNodes>
        0 -1 987 1447283776 410157515 269613290 838292007 -2146463272
        1705019448 1770135779 -983303854</internalNodes>
      <leafValues>
        -6.0090476274490356e-01 2.9398548603057861e-01</leafValues></_>
    <_>
      <internalNodes>
        0 -1 1300 -1231875687 -1316286330 1913201024 810541600
        -1011621760 -924811255 1476470991 -1645225592</internalNodes>
      <leafValues>
        -4.7538042068481445e-01 4.2231398820877075e-01</leafValues></_>
    <_>
      <internalNodes>
        0 -1 576 1088585738 1674745026 277139560 -758437526 36194544
        1192628890 1527370576 -137235262</internalNodes>
      <leafValues>
        -6.7400860786437988e-01 2.8822350502014160e-01</leafValues></_></weakClassifiers></stage10>
</opencv_storage>
