<?xml version="1.0"?>
<opencv_storage>
<stage9>
  <maxWeakCount>7</maxWeakCount>
  <stageThreshold>-1.0409168004989624e+00</stageThreshold>
  <weakClassifiers>
    <_>
      <internalNodes>
        0 -1 818 -744891429 -342109933 -1819929132 -28163304 -1876850209
        -843345525 -751877452 -705192617</internalNodes>
      <leafValues>
        -7.0824950933456421e-01 1.2903225421905518e-01</leafValues></_>
    <_>
      <internalNodes>
        0 -1 1197 -1845475056 1070623064 -683621121 -1121445480
        -90115172 -91528963 1861529087 -71521283</internalNodes>
      <leafValues>
        -5.3179997205734253e-01 3.6431634426116943e-01</leafValues></_>
    <_>
      <internalNodes>
        0 -1 713 -897072430 -683343465 -1878267055 -42890879 206522574
        4967151 206250193 -576724951</internalNodes>
      <leafValues>
        -4.7942385077476501e-01 4.2137172818183899e-01</leafValues></_>
    <_>
      <internalNodes>
        0 -1 112 -1391612122 -1432048762 -80736090 -24594127 335832135
        252440836 -155637915 -143656253</internalNodes>
      <leafValues>
        -6.2556231021881104e-01 3.4111428260803223e-01</leafValues></_>
    <_>
      <internalNodes>
        0 -1 252 203593008 352623112 223387001 1473364789 -924753808
        -389398324 1338795759 -1349168207</internalNodes>
      <leafValues>
        -4.9910807609558105e-01 4.0833216905593872e-01</leafValues></_>
    <_>
      <internalNodes>
        0 -1 627 -1124110475 -872520100 -1358954497 -53809812 -4882708
        2147483516 -571015169 -287900420</internalNodes>
      <leafValues>
        -4.1719034314155579e-01 5.0507628917694092e-01</leafValues></_>
    <_>
      <internalNodes>
        0 -1 180 1862233999 -370180098 -66892 -16842777 -176198033
        2147483519 2013069308 -134742025</internalNodes>
      <leafValues>
        -4.3992668390274048e-01 4.8193144798278809e-01</leafValues></_></weakClassifiers></stage9>
</opencv_storage>
