<?xml version="1.0"?>
<opencv_storage>
<stage15>
  <maxWeakCount>31</maxWeakCount>
  <stageThreshold>-1.2835385799407959e+00</stageThreshold>
  <weakClassifiers>
    <_>
      <internalNodes>
        0 -1 21 1285736190 -1124065056 -947866113 1067808118 1233223679
        -2417990 -556009477 -2102273</internalNodes>
      <leafValues>
        -4.4853800535202026e-01 -9.8159508779644966e-03</leafValues></_>
    <_>
      <internalNodes>
        0 -1 6226 -44040254 1728241906 -790671232 -668337734 358460672
        172878088 891015586 -800393330</internalNodes>
      <leafValues>
        -2.7876806259155273e-01 1.5904282033443451e-01</leafValues></_>
    <_>
      <internalNodes>
        0 -1 4529 -912851152 1415437108 -1928072335 -585286179
        -1919280720 -806755333 1545398545 486390499</internalNodes>
      <leafValues>
        -2.7768459916114807e-01 1.5628045797348022e-01</leafValues></_>
    <_>
      <internalNodes>
        0 -1 4467 10029088 706564360 -794895116 710475744 839582303
        1810075174 1085028452 -520946476</internalNodes>
      <leafValues>
        -3.9824622869491577e-01 1.4443276822566986e-01</leafValues></_>
    <_>
      <internalNodes>
        0 -1 4390 -627906052 -103786696 -1119749676 -1179157807
        846523378 -776158675 996439823 -1564846635</internalNodes>
      <leafValues>
        -2.1585150063037872e-01 2.0406435430049896e-01</leafValues></_>
    <_>
      <internalNodes>
        0 -1 416 1623713454 1918871086 -1635284203 839579942 89085233
        2065189126 1611481536 -161682461</internalNodes>
      <leafValues>
        -2.9753673076629639e-01 1.5383839607238770e-01</leafValues></_>
    <_>
      <internalNodes>
        0 -1 3320 460295168 -1429412458 557805873 -1518091983 101913932
        232697862 11267523 1269801703</internalNodes>
      <leafValues>
        -3.6880436539649963e-01 1.1617980152368546e-01</leafValues></_>
    <_>
      <internalNodes>
        0 -1 4722 -1944370112 536463384 -1465741319 281348438 -730523520
        1523222544 1080201866 -341430706</internalNodes>
      <leafValues>
        -3.3028838038444519e-01 1.2925077974796295e-01</leafValues></_>
    <_>
      <internalNodes>
        0 -1 820 1865264895 -350883585 -1954051603 1266323848 1675316483
        998762675 -284157835 1227161443</internalNodes>
      <leafValues>
        -2.8653505444526672e-01 1.5511564910411835e-01</leafValues></_>
    <_>
      <internalNodes>
        0 -1 5826 -815014386 576230621 -103813665 1979735311 2106723336
        972783851 -91039016 1761592302</internalNodes>
      <leafValues>
        -2.9507231712341309e-01 1.4599581062793732e-01</leafValues></_>
    <_>
      <internalNodes>
        0 -1 3249 -2038268222 -468880756 -1962246286 137130062
        -705885978 -2112520012 78473363 270890861</internalNodes>
      <leafValues>
        -3.5287791490554810e-01 1.3037839531898499e-01</leafValues></_>
    <_>
      <internalNodes>
        0 -1 1964 -1739898752 1997039432 1823623294 2114822379
        -331985829 1919529891 -1327448042 1333744587</internalNodes>
      <leafValues>
        -3.1297156214714050e-01 1.4244200289249420e-01</leafValues></_>
    <_>
      <internalNodes>
        0 -1 5376 -185929474 -113635304 252709335 1600872347 -1345789701
        -1079025774 6244763 -1683226693</internalNodes>
      <leafValues>
        -1.4979802072048187e-01 3.3071106672286987e-01</leafValues></_>
    <_>
      <internalNodes>
        0 -1 3230 -402799454 681756046 -804867648 -6702464 465793277
        1300140423 -1790848683 -1222653298</internalNodes>
      <leafValues>
        -2.2852092981338501e-01 1.9415396451950073e-01</leafValues></_>
    <_>
      <internalNodes>
        0 -1 4601 1108526594 1758998868 310550576 987107410 -1835416058
        87768346 -1762962410 1701026783</internalNodes>
      <leafValues>
        -4.4082823395729065e-01 1.0612546652555466e-01</leafValues></_>
    <_>
      <internalNodes>
        0 -1 5479 1723583007 465430995 1333897674 1879025162 1967497605
        -1350050375 1448061176 674750544</internalNodes>
      <leafValues>
        -2.3400011658668518e-01 2.0627442002296448e-01</leafValues></_>
    <_>
      <internalNodes>
        0 -1 5909 2122294998 239299753 -560974976 707261056 1313195954
        -1422665595 42326223 994533333</internalNodes>
      <leafValues>
        -2.2275890409946442e-01 1.9010014832019806e-01</leafValues></_>
    <_>
      <internalNodes>
        0 -1 6394 685640921 1016775453 -1891296975 1943826977 -762831972
        -1647549783 1557594939 1278539680</internalNodes>
      <leafValues>
        -2.6698023080825806e-01 1.5927928686141968e-01</leafValues></_>
    <_>
      <internalNodes>
        0 -1 3021 -663818031 -1075142064 -545292297 -4832136 1027403404
        -16777225 1778958124 -1654138890</internalNodes>
      <leafValues>
        -1.5133096277713776e-01 3.2117238640785217e-01</leafValues></_>
    <_>
      <internalNodes>
        0 -1 4926 -1366094046 283177395 -700427122 14472535 1039349828
        1639848507 -2010613902 -50662155</internalNodes>
      <leafValues>
        -3.3151578903198242e-01 1.4277617633342743e-01</leafValues></_>
    <_>
      <internalNodes>
        0 -1 28 407249442 858743309 -191241648 -1192216774 1949851302
        -365194854 2036996376 -483934560</internalNodes>
      <leafValues>
        -3.5783296823501587e-01 1.2967468798160553e-01</leafValues></_>
    <_>
      <internalNodes>
        0 -1 3827 -443812430 -1402206272 1565981428 -810571055 578865901
        -1366800199 -371461987 27772415</internalNodes>
      <leafValues>
        -2.1926636993885040e-01 2.1334947645664215e-01</leafValues></_>
    <_>
      <internalNodes>
        0 -1 3876 77894224 414393580 -1755915123 639787844 42474993
        -1445945338 478954831 6297171</internalNodes>
      <leafValues>
        -4.2391446232795715e-01 1.0635913163423538e-01</leafValues></_>
    <_>
      <internalNodes>
        0 -1 5921 803120136 550310728 302190764 571208906 1939550468
        618283097 -506556376 1892069343</internalNodes>
      <leafValues>
        -4.4906604290008545e-01 9.5963761210441589e-02</leafValues></_>
    <_>
      <internalNodes>
        0 -1 4021 -37752621 -138816268 237173718 -1624273065 -1697461078
        -274639140 973843418 -547881217</internalNodes>
      <leafValues>
        -1.1755976825952530e-01 4.0253877639770508e-01</leafValues></_>
    <_>
      <internalNodes>
        0 -1 12 494130 -1471896298 588643663 1809740034 428242269
        1423281868 206186052 1994487798</internalNodes>
      <leafValues>
        -4.1013133525848389e-01 1.1379788070917130e-01</leafValues></_>
    <_>
      <internalNodes>
        0 -1 4402 -1775758120 286293553 -1899833892 -1511032192
        1081904264 1035660207 1013977666 487561553</internalNodes>
      <leafValues>
        -3.6815413832664490e-01 1.2756858766078949e-01</leafValues></_>
    <_>
      <internalNodes>
        0 -1 1087 -1211678706 839559720 2058966288 583025159 761170961
        1423977851 -144655424 1933995966</internalNodes>
      <leafValues>
        -3.7209329009056091e-01 1.1613474786281586e-01</leafValues></_>
    <_>
      <internalNodes>
        0 -1 1635 674229071 -285490825 -1319964166 386955775 380305219
        -1726872645 -1222713535 1201892114</internalNodes>
      <leafValues>
        -2.5537177920341492e-01 1.8042498826980591e-01</leafValues></_>
    <_>
      <internalNodes>
        0 -1 5402 -143001453 -1751162976 1326268311 1336389271
        1015801275 -3277132 690169307 -4472129</internalNodes>
      <leafValues>
        -1.1858940124511719e-01 4.0358659625053406e-01</leafValues></_>
    <_>
      <internalNodes>
        0 -1 5426 -2093860940 2043073429 1059585525 -1086432324
        161353513 137449600 -802826951 1289741034</internalNodes>
      <leafValues>
        -2.2863781452178955e-01 2.0247036218643188e-01</leafValues></_></weakClassifiers></stage15>
</opencv_storage>
