<?xml version="1.0"?>
<opencv_storage>
<stage11>
  <maxWeakCount>27</maxWeakCount>
  <stageThreshold>-1.5133655071258545e+00</stageThreshold>
  <weakClassifiers>
    <_>
      <internalNodes>
        0 -1 3504 -581763084 -1612735435 -148709891 -1136211 -760308741
        -1196717126 -1075946259 -34938371</internalNodes>
      <leafValues>
        -4.9769738316535950e-01 -1.8407959491014481e-02</leafValues></_>
    <_>
      <internalNodes>
        0 -1 3641 -1937244072 536448884 534114655 1401167125 1335514360
        -67374442 -106373220 -1078236221</internalNodes>
      <leafValues>
        -2.8601720929145813e-01 1.9872339069843292e-01</leafValues></_>
    <_>
      <internalNodes>
        0 -1 4047 -400303438 -1078301774 -266175756 -1854443148
        -1034828594 -1351152051 -727540481 -547627603</internalNodes>
      <leafValues>
        -1.6681993007659912e-01 3.3078378438949585e-01</leafValues></_>
    <_>
      <internalNodes>
        0 -1 5685 -347093214 2879746 -534781312 -202377075 -1144794302
        101703683 -202442814 -137365041</internalNodes>
      <leafValues>
        -2.7267897129058838e-01 1.9153729081153870e-01</leafValues></_>
    <_>
      <internalNodes>
        0 -1 4369 -117793647 -724268712 -555942055 -1678748240
        -151672907 -544433866 687736693 -1161668667</internalNodes>
      <leafValues>
        -2.1965865790843964e-01 2.4442841112613678e-01</leafValues></_>
    <_>
      <internalNodes>
        0 -1 5776 -270925731 584388421 -619002505 207419848 -115198050
        -1126201105 -1172294785 -21430561</internalNodes>
      <leafValues>
        -2.4684731662273407e-01 2.0923294126987457e-01</leafValues></_>
    <_>
      <internalNodes>
        0 -1 4261 -805442038 534726524 6033688 538048718 182259466
        179769514 1233722122 -637543205</internalNodes>
      <leafValues>
        -3.2818308472633362e-01 1.6636219620704651e-01</leafValues></_>
    <_>
      <internalNodes>
        0 -1 6005 -569910054 971754986 1577258120 1047229402 -1623641669
        253836664 2034598072 -649480199</internalNodes>
      <leafValues>
        -2.1192933619022369e-01 2.4595466256141663e-01</leafValues></_>
    <_>
      <internalNodes>
        0 -1 355 -292919806 1931556482 1180601086 807755859 -785633773
        858583159 1986478239 2138533799</internalNodes>
      <leafValues>
        -3.8023337721824646e-01 1.3712021708488464e-01</leafValues></_>
    <_>
      <internalNodes>
        0 -1 300 1867450102 293299742 -559460289 -1355627966 1097938356
        2131501571 -809118844 -43977810</internalNodes>
      <leafValues>
        -2.7609446644783020e-01 1.6808253526687622e-01</leafValues></_>
    <_>
      <internalNodes>
        0 -1 5331 726345218 692488 -1671900724 677562332 2122934020
        290630256 -1305951516 -218572044</internalNodes>
      <leafValues>
        -3.9881107211112976e-01 1.4008812606334686e-01</leafValues></_>
    <_>
      <internalNodes>
        0 -1 3350 -1352676210 211845902 -111684960 -75640672 -892705557
        151603646 2006611634 -184551949</internalNodes>
      <leafValues>
        -2.6858925819396973e-01 1.8393462896347046e-01</leafValues></_>
    <_>
      <internalNodes>
        0 -1 4020 -55590266 -1106346614 1916033096 808384848 -1060157888
        945556521 -199830530 -1032333147</internalNodes>
      <leafValues>
        -2.7680179476737976e-01 1.7471386492252350e-01</leafValues></_>
    <_>
      <internalNodes>
        0 -1 4793 -661467911 -550210024 -1584071427 1606827829
        -1091392024 -335609900 -1372287077 -1153573189</internalNodes>
      <leafValues>
        -1.8204270303249359e-01 2.9688894748687744e-01</leafValues></_>
    <_>
      <internalNodes>
        0 -1 5095 275253812 1056875052 -2053716515 1028522245 268967100
        -1415935313 1189223724 207775072</internalNodes>
      <leafValues>
        -4.0784454345703125e-01 1.3181760907173157e-01</leafValues></_>
    <_>
      <internalNodes>
        0 -1 5946 1807699845 66034551 -312533866 2060731332 692577922
        525916767 -758553689 -556272899</internalNodes>
      <leafValues>
        -2.6522952318191528e-01 1.9731830060482025e-01</leafValues></_>
    <_>
      <internalNodes>
        0 -1 6344 662643722 570927503 462390290 1581018698 910557202
        1110329521 -638934632 1950415550</internalNodes>
      <leafValues>
        -3.8809677958488464e-01 1.1759465932846069e-01</leafValues></_>
    <_>
      <internalNodes>
        0 -1 4057 -370416128 1650090400 1443644707 -1186737697 512656257
        -877950311 348852131 -1787562053</internalNodes>
      <leafValues>
        -2.7876403927803040e-01 1.7843277752399445e-01</leafValues></_>
    <_>
      <internalNodes>
        0 -1 3824 -1841176934 -99821889 -1675670856 -711200447
        1489947034 1521077046 1284988083 1555552229</internalNodes>
      <leafValues>
        -2.4327716231346130e-01 2.2130003571510315e-01</leafValues></_>
    <_>
      <internalNodes>
        0 -1 1266 2144315951 2052825246 -1103046008 -84597045 2045600308
        89800906 -552093146 -135266437</internalNodes>
      <leafValues>
        -2.2113421559333801e-01 2.3354923725128174e-01</leafValues></_>
    <_>
      <internalNodes>
        0 -1 4243 -1960178640 532029464 -1659546625 521225300 734530728
        -2112167 187199551 279973954</internalNodes>
      <leafValues>
        -4.0030983090400696e-01 1.2402401119470596e-01</leafValues></_>
    <_>
      <internalNodes>
        0 -1 2645 1914196658 581397194 2122992216 1752944330 8520301
        262290610 1115642427 1044665943</internalNodes>
      <leafValues>
        -4.0491834282875061e-01 1.3233879208564758e-01</leafValues></_>
    <_>
      <internalNodes>
        0 -1 5696 -265567558 699293880 -614499248 1527477707 138271928
        682507944 389111227 -654189477</internalNodes>
      <leafValues>
        -2.1298089623451233e-01 2.6232042908668518e-01</leafValues></_>
    <_>
      <internalNodes>
        0 -1 5539 1572863931 1572324731 468581622 -810174469 2128581352
        -1982466063 234823128 -579996175</internalNodes>
      <leafValues>
        -1.5193277597427368e-01 3.6196902394294739e-01</leafValues></_>
    <_>
      <internalNodes>
        0 -1 791 48115259 740079902 2101492279 -565780529 1413968183
        46142626 1496677744 1479867760</internalNodes>
      <leafValues>
        -4.0497332811355591e-01 1.2452821433544159e-01</leafValues></_>
    <_>
      <internalNodes>
        0 -1 5025 -1262496702 -106711504 -1229243984 1945960241
        203545780 1017855891 -25504533 -753672706</internalNodes>
      <leafValues>
        -1.6991928219795227e-01 2.9799807071685791e-01</leafValues></_>
    <_>
      <internalNodes>
        0 -1 1551 -2036946410 728943684 68478076 673364932 1159090197
        1664610674 1480940832 610794007</internalNodes>
      <leafValues>
        -4.8026460409164429e-01 1.0292637348175049e-01</leafValues></_></weakClassifiers></stage11>
</opencv_storage>
