<?xml version="1.0"?>
<opencv_storage>
<stage2>
  <maxWeakCount>12</maxWeakCount>
  <stageThreshold>-1.8252924680709839e+00</stageThreshold>
  <weakClassifiers>
    <_>
      <internalNodes>
        0 -1 4645 -713047033 291232855 -177472033 1230497663 -556023617
        1274970303 -111157777 -33</internalNodes>
      <leafValues>
        -5.4988664388656616e-01 2.5624179840087891e-01</leafValues></_>
    <_>
      <internalNodes>
        0 -1 4959 -67110125 153845595 -1583386319 858259259 -167772193
        193986463 2010642391 -1</internalNodes>
      <leafValues>
        -3.6119547486305237e-01 4.1748318076133728e-01</leafValues></_>
    <_>
      <internalNodes>
        0 -1 163 1185409571 1122971171 1281032055 -737150353 1094153847
        1650181503 1408226579 -67108865</internalNodes>
      <leafValues>
        -3.8952010869979858e-01 3.6360871791839600e-01</leafValues></_>
    <_>
      <internalNodes>
        0 -1 5991 -352325886 586153889 -361949664 -521213234 2069320454
        1110702347 -170920477 -184549385</internalNodes>
      <leafValues>
        -5.1758629083633423e-01 2.5581374764442444e-01</leafValues></_>
    <_>
      <internalNodes>
        0 -1 1831 -83638022 2132002938 -669104033 1594050111 -563622657
        -1087468105 -700458245 2136989407</internalNodes>
      <leafValues>
        -2.4949471652507782e-01 4.4883856177330017e-01</leafValues></_>
    <_>
      <internalNodes>
        0 -1 6343 -807965909 14413803 -2030659750 1616637759 1733524230
        1738381679 -404761642 -689965057</internalNodes>
      <leafValues>
        -4.1694760322570801e-01 2.6930147409439087e-01</leafValues></_>
    <_>
      <internalNodes>
        0 -1 2546 -421550581 1802431535 -1473030416 -211033870
        1125084126 1172167547 -255601421 -134217801</internalNodes>
      <leafValues>
        -3.4420043230056763e-01 3.0727010965347290e-01</leafValues></_>
    <_>
      <internalNodes>
        0 -1 618 -433328634 1048953711 1078434535 1716219426 1141840933
        1244355341 2105529227 -3146245</internalNodes>
      <leafValues>
        -4.3348589539527893e-01 2.4617761373519897e-01</leafValues></_>
    <_>
      <internalNodes>
        0 -1 1661 61382704 2104391522 520435135 1902958485 772035597
        1741619270 591675568 -816318473</internalNodes>
      <leafValues>
        -3.9223098754882812e-01 2.5983503460884094e-01</leafValues></_>
    <_>
      <internalNodes>
        0 -1 3322 -288372630 1619708074 -930649200 -228134368
        -1997045761 1145818931 -1964387402 -420413449</internalNodes>
      <leafValues>
        -3.7814819812774658e-01 2.6453775167465210e-01</leafValues></_>
    <_>
      <internalNodes>
        0 -1 1065 -412094681 65847112 77126086 -141230130 274027127
        1266413588 1462202482 -705174537</internalNodes>
      <leafValues>
        -3.4975481033325195e-01 2.8012344241142273e-01</leafValues></_>
    <_>
      <internalNodes>
        0 -1 5178 -865451972 1968643409 -182789161 958889941 -645868387
        -635223873 1420950488 -1105082281</internalNodes>
      <leafValues>
        -3.4471926093101501e-01 2.8802049160003662e-01</leafValues></_></weakClassifiers></stage2>
</opencv_storage>
