<?xml version="1.0"?>
<opencv_storage>
<stage8>
  <maxWeakCount>17</maxWeakCount>
  <stageThreshold>-1.5961197614669800e+00</stageThreshold>
  <weakClassifiers>
    <_>
      <internalNodes>
        0 -1 5997 -2257 195032543 -824180746 -153616417 -69484953
        1878785979 -7357708 -134217793</internalNodes>
      <leafValues>
        -5.8351939916610718e-01 -4.3495070189237595e-02</leafValues></_>
    <_>
      <internalNodes>
        0 -1 341 -336597009 -276449937 -321259786 -18879526 2142994431
        2146799099 -208734209 -1071957</internalNodes>
      <leafValues>
        -3.0580198764801025e-01 2.7730724215507507e-01</leafValues></_>
    <_>
      <internalNodes>
        0 -1 482 -1344804049 -294686737 -51395358 -24773654 1608482639
        1599056687 -1214784651 -151129103</internalNodes>
      <leafValues>
        -4.0581476688385010e-01 1.9722771644592285e-01</leafValues></_>
    <_>
      <internalNodes>
        0 -1 4967 187700340 -103750700 -1079807523 -314284 -1081283080
        -1191277379 1069337085 -1078179555</internalNodes>
      <leafValues>
        -4.8920750617980957e-01 2.0190694928169250e-01</leafValues></_>
    <_>
      <internalNodes>
        0 -1 2311 -1423435919 -1078692355 -78809601 -537004091 889016701
        -1075168805 1603826037 -1679002639</internalNodes>
      <leafValues>
        -3.2998606562614441e-01 2.2756765782833099e-01</leafValues></_>
    <_>
      <internalNodes>
        0 -1 6434 719286079 654302077 1142020595 14599679 -537135778
        -336365378 232741748 1492975604</internalNodes>
      <leafValues>
        -3.8258206844329834e-01 1.9539701938629150e-01</leafValues></_>
    <_>
      <internalNodes>
        0 -1 6365 725593899 703592303 -1038588382 1846476527 2052585033
        1600892891 -1744969242 -5767221</internalNodes>
      <leafValues>
        -3.3163079619407654e-01 2.1562246978282928e-01</leafValues></_>
    <_>
      <internalNodes>
        0 -1 110 -351283201 52751658 -69370369 -70334286 1989365887
        1664012027 1440442293 1970730803</internalNodes>
      <leafValues>
        -3.1473493576049805e-01 2.2204641997814178e-01</leafValues></_>
    <_>
      <internalNodes>
        0 -1 3426 -2067855346 585841582 -1225083894 1658255174
        1940324358 1198735987 1962033479 -160694281</internalNodes>
      <leafValues>
        -5.1288557052612305e-01 1.2560838460922241e-01</leafValues></_>
    <_>
      <internalNodes>
        0 -1 5833 2052300976 444102563 -540233772 1575229908 412945637
        -1683222336 1088314733 -644546571</internalNodes>
      <leafValues>
        -3.2204711437225342e-01 2.2620292007923126e-01</leafValues></_>
    <_>
      <internalNodes>
        0 -1 6597 -1140908777 251132863 -557976125 721022811 2077145939
        -22364891 -68064432 139263985</internalNodes>
      <leafValues>
        -3.7360447645187378e-01 1.9267593324184418e-01</leafValues></_>
    <_>
      <internalNodes>
        0 -1 3894 -1404321810 -290677446 -1281427790 -1162418510
        -592216089 190799537 -672475146 -151980043</internalNodes>
      <leafValues>
        -3.3060187101364136e-01 2.1464048326015472e-01</leafValues></_>
    <_>
      <internalNodes>
        0 -1 5591 936355693 329111931 1716014400 1888481151 -423647716
        2105097051 -291571568 -52435970</internalNodes>
      <leafValues>
        -2.6085186004638672e-01 2.6665577292442322e-01</leafValues></_>
    <_>
      <internalNodes>
        0 -1 4586 219959092 766527901 1528477935 1066016309 -1445182487
        -340360905 -1648620579 137518360</internalNodes>
      <leafValues>
        -4.5472282171249390e-01 1.5067744255065918e-01</leafValues></_>
    <_>
      <internalNodes>
        0 -1 815 -1545866241 -442514529 -1161577155 -865829041
        1931703159 2145725951 -725916043 1340387075</internalNodes>
      <leafValues>
        -3.1278902292251587e-01 2.1710254251956940e-01</leafValues></_>
    <_>
      <internalNodes>
        0 -1 849 33572386 -1332469022 -1409032801 -1788776090 1401902395
        -18356294 185153103 -561384397</internalNodes>
      <leafValues>
        -4.1140571236610413e-01 1.5893535315990448e-01</leafValues></_>
    <_>
      <internalNodes>
        0 -1 5409 -1380069709 -1348310232 -456247853 -1667378281
        1306992284 246710245 332459986 -650459137</internalNodes>
      <leafValues>
        -2.2616039216518402e-01 3.0724102258682251e-01</leafValues></_></weakClassifiers></stage8>
</opencv_storage>
