<?xml version="1.0"?>
<opencv_storage>
<stage5>
  <maxWeakCount>20</maxWeakCount>
  <stageThreshold>-1.6178165674209595e+00</stageThreshold>
  <weakClassifiers>
    <_>
      <internalNodes>
        0 -1 5457 1610549277 458981343 2138529759 994049887 -106999057
        -1311781 149281791 -84934913</internalNodes>
      <leafValues>
        -5.1411229372024536e-01 8.2051284611225128e-02</leafValues></_>
    <_>
      <internalNodes>
        0 -1 3861 -553398568 925337587 -1893086963 791111295 -1537342034
        1000147454 513563359 737104891</internalNodes>
      <leafValues>
        -3.8721752166748047e-01 2.1378809213638306e-01</leafValues></_>
    <_>
      <internalNodes>
        0 -1 587 -144245570 -145572738 -594495817 539161271 1145316933
        -79416768 -1102591301 -59648009</internalNodes>
      <leafValues>
        -3.3842641115188599e-01 2.4677903950214386e-01</leafValues></_>
    <_>
      <internalNodes>
        0 -1 4978 -33554685 16897801 -1348112367 1568668631 2046816199
        431709177 1374281793 -909126753</internalNodes>
      <leafValues>
        -2.8097844123840332e-01 2.7161180973052979e-01</leafValues></_>
    <_>
      <internalNodes>
        0 -1 6170 -404754641 544981855 -359097334 712408984 334971206
        1468004729 -977476882 -227540997</internalNodes>
      <leafValues>
        -3.2712900638580322e-01 2.4740643799304962e-01</leafValues></_>
    <_>
      <internalNodes>
        0 -1 840 1210311299 -252459341 -147095555 -45097453 540918717
        -1108099083 1878475835 -17409</internalNodes>
      <leafValues>
        -2.2696095705032349e-01 3.2405179738998413e-01</leafValues></_>
    <_>
      <internalNodes>
        0 -1 5673 1733012258 572691235 -356192602 -1037331633 1999262021
        1074770759 -492837162 -184549401</internalNodes>
      <leafValues>
        -4.2324781417846680e-01 1.8141980469226837e-01</leafValues></_>
    <_>
      <internalNodes>
        0 -1 3198 -336613589 -420492312 -68225419 -134940944 939455991
        268430191 100431091 -134498321</internalNodes>
      <leafValues>
        -2.5582987070083618e-01 2.7222779393196106e-01</leafValues></_>
    <_>
      <internalNodes>
        0 -1 5305 -422605822 1031533567 -1639588762 -119801869
        1072960268 2048653898 -3485474 -54593547</internalNodes>
      <leafValues>
        -2.6355168223381042e-01 2.5795263051986694e-01</leafValues></_>
    <_>
      <internalNodes>
        0 -1 2893 -1042484176 527491452 1484709365 -1608368777
        1380927605 -630550853 699987869 -116129793</internalNodes>
      <leafValues>
        -3.1350949406623840e-01 2.0829918980598450e-01</leafValues></_>
    <_>
      <internalNodes>
        0 -1 4346 -756882384 451323552 -1405445995 -1109976219
        -1617117323 -55006256 1857448661 681333857</internalNodes>
      <leafValues>
        -3.6529105901718140e-01 1.8970434367656708e-01</leafValues></_>
    <_>
      <internalNodes>
        0 -1 3089 1355990736 210563190 628832673 -321680391 81301681
        1219723927 142462641 -654316557</internalNodes>
      <leafValues>
        -3.4328368306159973e-01 1.9889007508754730e-01</leafValues></_>
    <_>
      <internalNodes>
        0 -1 2830 -837835218 115754222 -1072344350 273277642 820717382
        1413681159 1985229172 1432601955</internalNodes>
      <leafValues>
        -5.4475820064544678e-01 1.2225891649723053e-01</leafValues></_>
    <_>
      <internalNodes>
        0 -1 250 -284963034 791094944 -473830900 -141034934 1269239613
        2094091261 931394788 -138545433</internalNodes>
      <leafValues>
        -3.3319750428199768e-01 1.8158653378486633e-01</leafValues></_>
    <_>
      <internalNodes>
        0 -1 4006 -628455238 1067536960 1584583754 189930078 29900872
        -1138882303 -996769590 1300645919</internalNodes>
      <leafValues>
        -3.1072160601615906e-01 2.0628209412097931e-01</leafValues></_>
    <_>
      <internalNodes>
        0 -1 5175 -1263009191 980090740 -200738947 955971584 -1479267308
        1794294121 -262393124 -1070051328</internalNodes>
      <leafValues>
        -3.3253458142280579e-01 1.9543515145778656e-01</leafValues></_>
    <_>
      <internalNodes>
        0 -1 4828 -1080050550 828723607 -1929327072 1703002193
        1279734962 329457247 931952802 260036585</internalNodes>
      <leafValues>
        -3.5010510683059692e-01 1.8053773045539856e-01</leafValues></_>
    <_>
      <internalNodes>
        0 -1 39 956612658 1997785107 710577855 1047040819 2048386131
        2142702487 -1169847253 -29926403</internalNodes>
      <leafValues>
        -3.0701965093612671e-01 2.1204575896263123e-01</leafValues></_>
    <_>
      <internalNodes>
        0 -1 487 -270014753 2088495655 773999719 -1082724545 1363417007
        2087924085 245697630 -115228673</internalNodes>
      <leafValues>
        -2.0011559128761292e-01 3.4577554464340210e-01</leafValues></_>
    <_>
      <internalNodes>
        0 -1 5552 1337452043 1482550713 -1592670155 1627296762
        -597303031 441955709 -672340558 -103290002</internalNodes>
      <leafValues>
        -2.7938500046730042e-01 2.4636973440647125e-01</leafValues></_></weakClassifiers></stage5>
</opencv_storage>
