<?xml version="1.0"?>
<opencv_storage>
<stage8>
  <maxWeakCount>6</maxWeakCount>
  <stageThreshold>-8.8264042139053345e-01</stageThreshold>
  <weakClassifiers>
    <_>
      <internalNodes>
        0 -1 1071 1831358548 -7022148 -1583834637 -10958732 -268070930
        -75331200 -1178550645 -3286839</internalNodes>
      <leafValues>
        -6.3701069355010986e-01 1.7159762978553772e-01</leafValues></_>
    <_>
      <internalNodes>
        0 -1 212 -1032923180 -674327798 -1869458996 -1337552140
        -1676400113 -108867195 -1216109601 -39069289</internalNodes>
      <leafValues>
        -5.9230124950408936e-01 3.1918537616729736e-01</leafValues></_>
    <_>
      <internalNodes>
        0 -1 380 1754088976 1456532766 -1567594986 -126991906 1140936823
        1596467782 1317618906 -2622837</internalNodes>
      <leafValues>
        -6.2255501747131348e-01 3.0843690037727356e-01</leafValues></_>
    <_>
      <internalNodes>
        0 -1 662 -183770942 1234228837 -1798998439 1405427727 941858851
        -1491859053 -1551687509 -412096097</internalNodes>
      <leafValues>
        -4.6648147702217102e-01 4.5495477318763733e-01</leafValues></_>
    <_>
      <internalNodes>
        0 -1 773 -136865278 1654892046 270656177 111526341 -808790006
        -1695955778 -1238892413 -1292139602</internalNodes>
      <leafValues>
        -5.7413059473037720e-01 3.6318925023078918e-01</leafValues></_>
    <_>
      <internalNodes>
        0 -1 1079 1310146577 559333693 540137311 67185389 -1936559205
        1339130912 546908479 214690219</internalNodes>
      <leafValues>
        -6.5119791030883789e-01 2.9730439186096191e-01</leafValues></_></weakClassifiers></stage8>
</opencv_storage>
