<?xml version="1.0"?>
<opencv_storage>
<stage19>
  <maxWeakCount>9</maxWeakCount>
  <stageThreshold>-1.1094560623168945e+00</stageThreshold>
  <weakClassifiers>
    <_>
      <internalNodes>
        0 -1 1323 -706220001 -1107846981 -754625219 -246201845
        -746473208 -662470630 -886474294 -84153409</internalNodes>
      <leafValues>
        -5.0916785001754761e-01 3.1937173008918762e-01</leafValues></_>
    <_>
      <internalNodes>
        0 -1 92 -624434552 -2138914388 1076072526 -1173302704 1380610564
        1263130705 1980486470 -952379197</internalNodes>
      <leafValues>
        -5.8009415864944458e-01 2.3767991364002228e-01</leafValues></_>
    <_>
      <internalNodes>
        0 -1 14 -755887481 315715287 84421557 -1755377013 1070533892
        -116883057 420016943 -28379217</internalNodes>
      <leafValues>
        -3.9534929394721985e-01 3.7271812558174133e-01</leafValues></_>
    <_>
      <internalNodes>
        0 -1 0 -940657670 -620036108 -16894742 -134222083 931102647
        -671252482 2138406886 -68420137</internalNodes>
      <leafValues>
        -3.2259094715118408e-01 4.8436164855957031e-01</leafValues></_>
    <_>
      <internalNodes>
        0 -1 1242 -1005326334 547001366 -1073722174 -2143034214
        -2058321778 -2063367933 1921811154 1180947007</internalNodes>
      <leafValues>
        -5.7114946842193604e-01 3.0619913339614868e-01</leafValues></_>
    <_>
      <internalNodes>
        0 -1 126 -301437360 -1123888896 136333470 -758083452 35673040
        1946751491 -1143982114 -361544721</internalNodes>
      <leafValues>
        -6.9010192155838013e-01 2.3568701744079590e-01</leafValues></_>
    <_>
      <internalNodes>
        0 -1 465 -1140918529 -1153467654 2147481535 1442215648
        1811873726 -8388741 -1431508804 -303400986</internalNodes>
      <leafValues>
        -3.0701264739036560e-01 5.7355344295501709e-01</leafValues></_>
    <_>
      <internalNodes>
        0 -1 1053 -1443345221 -843243981 -1078038531 -423792786
        -1163752456 -1946290244 -1925186066 -1422576471</internalNodes>
      <leafValues>
        -3.9197960495948792e-01 4.3649625778198242e-01</leafValues></_>
    <_>
      <internalNodes>
        0 -1 876 1150310754 -967998262 -251637129 -1603648995 -427668719
        98392 815035703 975324341</internalNodes>
      <leafValues>
        -6.7577892541885376e-01 2.5741216540336609e-01</leafValues></_></weakClassifiers></stage19>
</opencv_storage>
