<?xml version="1.0"?>
<opencv_storage>
<stage9>
  <maxWeakCount>6</maxWeakCount>
  <stageThreshold>-1.5534604787826538e+00</stageThreshold>
  <weakClassifiers>
    <_>
      <internalNodes>
        0 -1 1301 -34079777 -44965413 -209596005 -7677862 -740040417
        -248049528 -1040000003 1530058868</internalNodes>
      <leafValues>
        -6.4956587553024292e-01 9.3231163918972015e-02</leafValues></_>
    <_>
      <internalNodes>
        0 -1 4983 -840962257 1680594061 -134042966 1793952475 -609681316
        1569423375 -909914481 -50338374</internalNodes>
      <leafValues>
        -4.9359634518623352e-01 3.3789885044097900e-01</leafValues></_>
    <_>
      <internalNodes>
        0 -1 557 -287052034 1937687130 537887432 552433862 1348985654
        -2128261110 1212483979 1426450918</internalNodes>
      <leafValues>
        -5.5344706773757935e-01 3.0734902620315552e-01</leafValues></_>
    <_>
      <internalNodes>
        0 -1 3214 1104511618 1181966995 -1583756976 -1122122590
        142852104 -1174797629 -33517567 -508580953</internalNodes>
      <leafValues>
        -5.5507147312164307e-01 3.5384958982467651e-01</leafValues></_>
    <_>
      <internalNodes>
        0 -1 1971 -452533619 928284672 1636111545 126297220 579020970
        -1446935392 1098910602 722113458</internalNodes>
      <leafValues>
        -5.1536554098129272e-01 3.5104790329933167e-01</leafValues></_>
    <_>
      <internalNodes>
        0 -1 3838 1582909508 1497224737 1359202495 1099692447 1395327209
        1623294122 1614862793 566490825</internalNodes>
      <leafValues>
        -6.0910761356353760e-01 3.0466476082801819e-01</leafValues></_></weakClassifiers></stage9>
</opencv_storage>
