<?xml version="1.0"?>
<opencv_storage>
<stage10>
  <maxWeakCount>7</maxWeakCount>
  <stageThreshold>-1.1936043500900269e+00</stageThreshold>
  <weakClassifiers>
    <_>
      <internalNodes>
        0 -1 5006 -36718333 256823239 -770584064 1800395163 1103871451
        -1857330992 -122580528 -540019969</internalNodes>
      <leafValues>
        -6.2536442279815674e-01 1.5929204225540161e-01</leafValues></_>
    <_>
      <internalNodes>
        0 -1 4348 -816597185 -275905915 447073169 -178633889 -657675125
        -1567995507 -1752956995 1752361852</internalNodes>
      <leafValues>
        -4.7327521443367004e-01 3.6553716659545898e-01</leafValues></_>
    <_>
      <internalNodes>
        0 -1 1558 -418943066 830908974 1360639042 -145413310 1073992431
        109593244 -204289345 52515703</internalNodes>
      <leafValues>
        -5.9800124168395996e-01 2.7943438291549683e-01</leafValues></_>
    <_>
      <internalNodes>
        0 -1 440 1793558059 -866271162 -402618218 -667573694 1250103667
        565249 -1310541530 -350749125</internalNodes>
      <leafValues>
        -5.0384491682052612e-01 3.7374627590179443e-01</leafValues></_>
    <_>
      <internalNodes>
        0 -1 2356 -486023150 2063577783 -930897789 2088889747 143167579
        -108461896 1074548881 -366517278</internalNodes>
      <leafValues>
        -5.2077341079711914e-01 3.4697571396827698e-01</leafValues></_>
    <_>
      <internalNodes>
        0 -1 3871 -1438126452 -653961711 -2092901924 -1618754073
        -2004355968 -248163838 1376461414 1533801455</internalNodes>
      <leafValues>
        -4.6596634387969971e-01 3.9570268988609314e-01</leafValues></_>
    <_>
      <internalNodes>
        0 -1 195 235656962 -838171135 -254782672 -749632496 1082991615
        1250005121 444865196 -680144074</internalNodes>
      <leafValues>
        -5.8445137739181519e-01 3.0359587073326111e-01</leafValues></_></weakClassifiers></stage10>
</opencv_storage>
