<?xml version="1.0"?>
<opencv_storage>
<stage6>
  <maxWeakCount>7</maxWeakCount>
  <stageThreshold>-1.2126194238662720e+00</stageThreshold>
  <weakClassifiers>
    <_>
      <internalNodes>
        0 -1 5025 -570427641 596628475 -658124112 -237247733 -793774585
        1621215259 -142552364 -671094329</internalNodes>
      <leafValues>
        -6.3662582635879517e-01 2.0060332119464874e-01</leafValues></_>
    <_>
      <internalNodes>
        0 -1 580 -2097425 -20266430 -425573654 -531914516 1619915018
        705894408 19286007 1195604207</internalNodes>
      <leafValues>
        -6.0705786943435669e-01 3.0798399448394775e-01</leafValues></_>
    <_>
      <internalNodes>
        0 -1 2586 -386210208 -264440538 -738155273 -719944949 -866360393
        -861306749 1100449491 -597821457</internalNodes>
      <leafValues>
        -5.6790947914123535e-01 3.5971102118492126e-01</leafValues></_>
    <_>
      <internalNodes>
        0 -1 3715 1460370384 -1648894892 564265812 -581074017 -987448840
        310477457 -1256988331 -704651073</internalNodes>
      <leafValues>
        -4.7726553678512573e-01 4.6245476603507996e-01</leafValues></_>
    <_>
      <internalNodes>
        0 -1 305 -879760598 -1564417888 -1064037312 -557084406
        1426784615 1389912330 1401834053 -87033413</internalNodes>
      <leafValues>
        -5.9705227613449097e-01 3.4193176031112671e-01</leafValues></_>
    <_>
      <internalNodes>
        0 -1 3617 844342046 542312797 421106519 -1475858195 1889669167
        1602257036 -523037403 -18963579</internalNodes>
      <leafValues>
        -6.1752527952194214e-01 3.3304983377456665e-01</leafValues></_>
    <_>
      <internalNodes>
        0 -1 4350 -1440730024 1394475359 -921657953 2135495303
        -1173775485 -99997535 -206843670 -1170703445</internalNodes>
      <leafValues>
        -5.0242060422897339e-01 4.2986491322517395e-01</leafValues></_></weakClassifiers></stage6>
</opencv_storage>
