<?xml version="1.0"?>
<opencv_storage>
<stage7>
  <maxWeakCount>6</maxWeakCount>
  <stageThreshold>-1.3733205795288086e+00</stageThreshold>
  <weakClassifiers>
    <_>
      <internalNodes>
        0 -1 4547 -75497541 453759882 668174385 1001365381 -712524621
        -126430400 -558919455 -704647513</internalNodes>
      <leafValues>
        -6.4469915628433228e-01 2.2935779392719269e-01</leafValues></_>
    <_>
      <internalNodes>
        0 -1 451 -825267457 -58474429 -2113257189 -371194229 77951371
        1505771650 21119631 -93261025</internalNodes>
      <leafValues>
        -4.9951088428497314e-01 3.9182057976722717e-01</leafValues></_>
    <_>
      <internalNodes>
        0 -1 4418 1853603843 1534828091 1759959486 360693438 -847278874
        1434443767 -989860353 -1012928513</internalNodes>
      <leafValues>
        -3.9735820889472961e-01 4.6329191327095032e-01</leafValues></_>
    <_>
      <internalNodes>
        0 -1 4587 -751052029 118968670 419917844 789151779 -1584824819
        139160203 1795776545 -638722070</internalNodes>
      <leafValues>
        -5.0899595022201538e-01 3.9473736286163330e-01</leafValues></_>
    <_>
      <internalNodes>
        0 -1 4813 197879334 17273223 1082139735 679972930 -100293876
        1245905281 -930428690 582912043</internalNodes>
      <leafValues>
        -6.8485546112060547e-01 3.2101699709892273e-01</leafValues></_>
    <_>
      <internalNodes>
        0 -1 2465 -2070281200 285496535 -687727617 -549334462 1128914873
        2013890969 596338921 -1613075509</internalNodes>
      <leafValues>
        -5.1783031225204468e-01 3.7975502014160156e-01</leafValues></_></weakClassifiers></stage7>
</opencv_storage>
