<?xml version="1.0"?>
<opencv_storage>
<stage5>
  <maxWeakCount>6</maxWeakCount>
  <stageThreshold>-1.5618586540222168e+00</stageThreshold>
  <weakClassifiers>
    <_>
      <internalNodes>
        0 -1 4380 -44173025 2101305521 1531001663 1465747541 -122968406
        -91062003 -1434211670 -1161827681</internalNodes>
      <leafValues>
        -5.8210784196853638e-01 4.7846889495849609e-01</leafValues></_>
    <_>
      <internalNodes>
        0 -1 1268 -712060456 -997958514 872564216 -2003020782 1233844593
        -754417654 -352224140 -184949777</internalNodes>
      <leafValues>
        -8.0742537975311279e-01 2.5254550576210022e-01</leafValues></_>
    <_>
      <internalNodes>
        0 -1 2613 -1738452772 -1180716909 -2097135139 901863769
        453462490 -402503549 428103995 530796699</internalNodes>
      <leafValues>
        -6.8670290708541870e-01 2.6460468769073486e-01</leafValues></_>
    <_>
      <internalNodes>
        0 -1 3770 -1434315751 983171046 2121842687 -684327173 1878875871
        -269060233 -134324225 -26742785</internalNodes>
      <leafValues>
        -4.2583751678466797e-01 5.0082784891128540e-01</leafValues></_>
    <_>
      <internalNodes>
        0 -1 3448 -460040848 475058260 1099061436 -552230895 -1838585157
        -1977765854 1292419551 -11056541</internalNodes>
      <leafValues>
        -5.3349125385284424e-01 4.1171306371688843e-01</leafValues></_>
    <_>
      <internalNodes>
        0 -1 1126 -536099298 1775883638 -268337000 1912918146 1118470178
        1342865449 -1471965008 -722342969</internalNodes>
      <leafValues>
        -5.3757226467132568e-01 4.4064143300056458e-01</leafValues></_></weakClassifiers></stage5>
</opencv_storage>
