<?xml version="1.0"?>
<opencv_storage>
<stage1>
  <maxWeakCount>5</maxWeakCount>
  <stageThreshold>-1.0029094219207764e+00</stageThreshold>
  <weakClassifiers>
    <_>
      <internalNodes>
        0 -1 1924 -653802048 -175929525 1085699 1359206403 1481885131
        -2147368829 1141867451 1605368831</internalNodes>
      <leafValues>
        -7.3821991682052612e-01 3.3239832520484924e-01</leafValues></_>
    <_>
      <internalNodes>
        0 -1 2284 -674234784 1412448260 1359053328 -173018957 -242623816
        -217857910 1031897733 -34608453</internalNodes>
      <leafValues>
        -5.9514546394348145e-01 4.4665673375129700e-01</leafValues></_>
    <_>
      <internalNodes>
        0 -1 4879 -405835986 787261179 -517891390 46721423 -1280670389
        1394731159 -87579673 -150995985</internalNodes>
      <leafValues>
        -6.4260745048522949e-01 4.3137234449386597e-01</leafValues></_>
    <_>
      <internalNodes>
        0 -1 3164 1954009167 731268063 1367661019 710919515 255959379
        726122839 -309365967 -83959501</internalNodes>
      <leafValues>
        -5.8628743886947632e-01 4.5379519462585449e-01</leafValues></_>
    <_>
      <internalNodes>
        0 -1 4975 1944344327 592234691 -735203730 -497333993 331919620
        -215928437 -1087766637 -18103381</internalNodes>
      <leafValues>
        -5.2253407239913940e-01 5.3144997358322144e-01</leafValues></_></weakClassifiers></stage1>
</opencv_storage>
