<?xml version="1.0"?>
<opencv_storage>
<stage0>
  <maxWeakCount>4</maxWeakCount>
  <stageThreshold>-1.6718463897705078e+00</stageThreshold>
  <weakClassifiers>
    <_>
      <internalNodes>
        0 -1 1415 -787752822 1527726155 16842754 1392869379 420201099
        419463692 168411275 527428559</internalNodes>
      <leafValues>
        -7.7081853151321411e-01 5.1627904176712036e-01</leafValues></_>
    <_>
      <internalNodes>
        0 -1 2051 -1027423200 -216558827 1354876309 -1248733917
        -536750964 1552892553 -914318677 -536892437</internalNodes>
      <leafValues>
        -6.5054410696029663e-01 5.8120685815811157e-01</leafValues></_>
    <_>
      <internalNodes>
        0 -1 564 -523843364 -133250938 -2147450814 -2138390014 536871272
        -2113699840 -1006591301 1919022927</internalNodes>
      <leafValues>
        -7.9306739568710327e-01 4.6882885694503784e-01</leafValues></_>
    <_>
      <internalNodes>
        0 -1 3649 -238036480 146997249 -1073709056 466862671 -125810680
        1224968203 13206149 1902101423</internalNodes>
      <leafValues>
        -7.1931266784667969e-01 4.3555799126625061e-01</leafValues></_></weakClassifiers></stage0>
</opencv_storage>
