<?xml version="1.0"?>
<opencv_storage>
<cascade>
  <stageType>BOOST</stageType>
  <featureType>LBP</featureType>
  <height>32</height>
  <width>16</width>
  <stageParams>
    <boostType>GAB</boostType>
    <minHitRate>9.9500000476837158e-01</minHitRate>
    <maxFalseAlarm>5.0000000000000000e-01</maxFalseAlarm>
    <weightTrimRate>9.4999999999999996e-01</weightTrimRate>
    <maxDepth>1</maxDepth>
    <maxWeakCount>100</maxWeakCount></stageParams>
  <featureParams>
    <maxCatCount>256</maxCatCount>
    <featSize>1</featSize></featureParams>
  <stageNum>25</stageNum>
  <stages>
    <!-- stage 0 -->
    <_>
      <maxWeakCount>3</maxWeakCount>
      <stageThreshold>-9.2516136169433594e-01</stageThreshold>
      <weakClassifiers>
        <_>
          <internalNodes>
            0 -1 57 -779364662 1392762894 16867328 355405953 228311183
            1208025354 9144971 456102831</internalNodes>
          <leafValues>
            -7.7946126461029053e-01 5.3267973661422729e-01</leafValues></_>
        <_>
          <internalNodes>
            0 -1 42 -526597120 -517811944 -1039138791 2005369106
            1074038921 -218038098 -2147358325 -439374661</internalNodes>
          <leafValues>
            -7.1943342685699463e-01 5.2984875440597534e-01</leafValues></_>
        <_>
          <internalNodes>
            0 -1 74 -249967040 196611 98368 -1761378299 -796671288
            160858123 -1862188873 -1073745925</internalNodes>
          <leafValues>
            -6.7554885149002075e-01 5.7480078935623169e-01</leafValues></_></weakClassifiers></_>
    <!-- stage 1 -->
    <_>
      <maxWeakCount>4</maxWeakCount>
      <stageThreshold>-1.5883736610412598e+00</stageThreshold>
      <weakClassifiers>
        <_>
          <internalNodes>
            0 -1 8 -246877614 -251465466 1142947898 -96026482 1644445701
            1359020032 -440008565 -92813073</internalNodes>
          <leafValues>
            -7.7939838171005249e-01 3.6273115873336792e-01</leafValues></_>
        <_>
          <internalNodes>
            0 -1 69 -163789792 -176948447 1963041685 -170830830
            -532543846 1354893441 -737009222 -17839217</internalNodes>
          <leafValues>
            -6.4459538459777832e-01 4.4719561934471130e-01</leafValues></_>
        <_>
          <internalNodes>
            0 -1 144 -1596988504 -1437269753 -645349234 -464199710
            -1416584382 1091338463 -242687086 -419437621</internalNodes>
          <leafValues>
            -6.4657115936279297e-01 4.6309229731559753e-01</leafValues></_>
        <_>
          <internalNodes>
            0 -1 148 467611215 582210463 1107842059 -1560395021
            -1205952244 2014023684 -359032790 -491799585</internalNodes>
          <leafValues>
            -6.2747228145599365e-01 4.8023977875709534e-01</leafValues></_></weakClassifiers></_>
    <!-- stage 2 -->
    <_>
      <maxWeakCount>5</maxWeakCount>
      <stageThreshold>-1.0402548313140869e+00</stageThreshold>
      <weakClassifiers>
        <_>
          <internalNodes>
            0 -1 156 -136322777 684820483 -134182614 -1062235837
            -375369210 1263714432 -475079905 -21505</internalNodes>
          <leafValues>
            -7.1428573131561279e-01 2.6390871405601501e-01</leafValues></_>
        <_>
          <internalNodes>
            0 -1 35 -665919784 -573914657 1342623704 -790701413
            -344797587 -515270543 -276454675 -221643861</internalNodes>
          <leafValues>
            -6.4013904333114624e-01 4.5371970534324646e-01</leafValues></_>
        <_>
          <internalNodes>
            0 -1 25 56675458 861009635 1342522075 1467207683 2072749195
            -372619254 -1083970037 -217601089</internalNodes>
          <leafValues>
            -5.9339243173599243e-01 4.4661825895309448e-01</leafValues></_>
        <_>
          <internalNodes>
            0 -1 15 1785724654 -87691962 -1071198508 -99819858
            -782146523 1212224137 -728735209 -204079185</internalNodes>
          <leafValues>
            -6.0368305444717407e-01 4.4971445202827454e-01</leafValues></_>
        <_>
          <internalNodes>
            0 -1 159 -1157634137 -403963905 -17858718 -419889170
            -1073760441 1199568743 -134742025 -673185793</internalNodes>
          <leafValues>
            -5.0695973634719849e-01 5.6784838438034058e-01</leafValues></_></weakClassifiers></_>
    <!-- stage 3 -->
    <_>
      <maxWeakCount>5</maxWeakCount>
      <stageThreshold>-1.0970715284347534e+00</stageThreshold>
      <weakClassifiers>
        <_>
          <internalNodes>
            0 -1 14 -833884433 1192087687 -867692457 -469344033
            1109725967 -905211838 1641991083 -68683089</internalNodes>
          <leafValues>
            -6.8438816070556641e-01 3.4308943152427673e-01</leafValues></_>
        <_>
          <internalNodes>
            0 -1 137 -44306158 -1425550573 285426192 995831835
            1216862482 302383235 25903121 1468790783</internalNodes>
          <leafValues>
            -6.7113202810287476e-01 3.4645229578018188e-01</leafValues></_>
        <_>
          <internalNodes>
            0 -1 155 -270541045 -2081425609 1056403182 -889194501
            -8421555 2147417951 -1090519041 -67108865</internalNodes>
          <leafValues>
            -4.8193949460983276e-01 5.2179872989654541e-01</leafValues></_>
        <_>
          <internalNodes>
            0 -1 66 1242810962 513229250 286121431 1393815763 332071083
            1872071170 414161666 1342172157</internalNodes>
          <leafValues>
            -6.6847908496856689e-01 3.9616188406944275e-01</leafValues></_>
        <_>
          <internalNodes>
            0 -1 70 -1568214464 2068955175 1359204694 1396942406
            -1030960567 424214568 -922500723 -68170869</internalNodes>
          <leafValues>
            -6.2234854698181152e-01 4.2965456843376160e-01</leafValues></_></weakClassifiers></_>
    <!-- stage 4 -->
    <_>
      <maxWeakCount>7</maxWeakCount>
      <stageThreshold>-1.2319593429565430e+00</stageThreshold>
      <weakClassifiers>
        <_>
          <internalNodes>
            0 -1 107 -1954525128 2044199230 809706747 -108473571
            -2130148627 1015611401 -752637510 -71304789</internalNodes>
          <leafValues>
            -6.6869038343429565e-01 2.6429674029350281e-01</leafValues></_>
        <_>
          <internalNodes>
            0 -1 26 235619498 1494991107 1107296855 322389522
            -2012632897 1376845888 425913307 2088728927</internalNodes>
          <leafValues>
            -7.0268529653549194e-01 3.0980652570724487e-01</leafValues></_>
        <_>
          <internalNodes>
            0 -1 62 -502607744 2114920498 -1870508031 -134119166
            10356986 -131874686 1799443427 -218384477</internalNodes>
          <leafValues>
            -6.5167421102523804e-01 3.5947361588478088e-01</leafValues></_>
        <_>
          <internalNodes>
            0 -1 5 -275529714 -1451130677 -536803840 861118803
            1157759490 -301981437 294814213 -873207093</internalNodes>
          <leafValues>
            -5.6188112497329712e-01 4.5195400714874268e-01</leafValues></_>
        <_>
          <internalNodes>
            0 -1 84 -990519226 1999721621 268488727 1929892102
            -2011651891 -1291517926 1937998475 -651705669</internalNodes>
          <leafValues>
            -5.0637620687484741e-01 4.9575161933898926e-01</leafValues></_>
        <_>
          <internalNodes>
            0 -1 44 -206865118 285379086 1627586936 -548683264
            -2009034083 -2104997750 -1056575333 938695639</internalNodes>
          <leafValues>
            -5.2307003736495972e-01 4.8138776421546936e-01</leafValues></_>
        <_>
          <internalNodes>
            0 -1 132 -1298940382 2047164690 -401497964 1431490641
            -1241144960 201359490 -1073016659 -884755623</internalNodes>
          <leafValues>
            -5.4653245210647583e-01 4.3828296661376953e-01</leafValues></_></weakClassifiers></_>
    <!-- stage 5 -->
    <_>
      <maxWeakCount>6</maxWeakCount>
      <stageThreshold>-1.5152302980422974e+00</stageThreshold>
      <weakClassifiers>
        <_>
          <internalNodes>
            0 -1 99 142756184 435841164 1921821151 2011645469 463194776
            -121110133 -124163361 -1541</internalNodes>
          <leafValues>
            -6.9651269912719727e-01 1.8809202313423157e-01</leafValues></_>
        <_>
          <internalNodes>
            0 -1 115 2132802288 -2133616491 1074796948 1573094685
            -745672456 -1828683520 285642833 -708051973</internalNodes>
          <leafValues>
            -6.1165505647659302e-01 3.4759232401847839e-01</leafValues></_>
        <_>
          <internalNodes>
            0 -1 17 -842275158 -112738164 1079210591 -1002012466
            50872362 -77200887 1187666423 1341247823</internalNodes>
          <leafValues>
            -6.2504303455352783e-01 3.4526625275611877e-01</leafValues></_>
        <_>
          <internalNodes>
            0 -1 3 1202450211 -1624785366 1869731773 -549456030 53960667
            536805375 2138568361 -679479809</internalNodes>
          <leafValues>
            -4.0212720632553101e-01 6.0060453414916992e-01</leafValues></_>
        <_>
          <internalNodes>
            0 -1 111 -83897981 494107667 -270634319 1001647997 -42479667
            1602178935 2004735441 -654837825</internalNodes>
          <leafValues>
            -4.7634431719779968e-01 5.1700013875961304e-01</leafValues></_>
        <_>
          <internalNodes>
            0 -1 98 1938544127 -473939325 -988702307 1447051658
            -1328763806 1309769858 -176117648 1364314394</internalNodes>
          <leafValues>
            -7.0158851146697998e-01 3.2614269852638245e-01</leafValues></_></weakClassifiers></_>
    <!-- stage 6 -->
    <_>
      <maxWeakCount>8</maxWeakCount>
      <stageThreshold>-1.2388880252838135e+00</stageThreshold>
      <weakClassifiers>
        <_>
          <internalNodes>
            0 -1 152 -218145265 1477697883 -1056935079 -1974452141
            -771521910 -100630359 -894989894 -357568529</internalNodes>
          <leafValues>
            -6.2037795782089233e-01 2.6586621999740601e-01</leafValues></_>
        <_>
          <internalNodes>
            0 -1 9 -1033916633 -490258258 -933551442 -19560629
            1791612007 102486323 1649464127 -143395017</internalNodes>
          <leafValues>
            -6.0651445388793945e-01 3.4014117717742920e-01</leafValues></_>
        <_>
          <internalNodes>
            0 -1 112 -10513920 1087105303 -783705855 1471406518
            -532034750 1503887627 -217351467 -439881765</internalNodes>
          <leafValues>
            -6.1236113309860229e-01 3.4642714262008667e-01</leafValues></_>
        <_>
          <internalNodes>
            0 -1 21 1103615452 -1898065446 -1732983472 -1001247284
            558102905 -654073720 2013605237 -1771572513</internalNodes>
          <leafValues>
            -7.5123995542526245e-01 2.8827926516532898e-01</leafValues></_>
        <_>
          <internalNodes>
            0 -1 104 1267625771 605241408 -1056841253 -1473579169
            303784787 1615169701 63434773 -289481229</internalNodes>
          <leafValues>
            -6.5865427255630493e-01 3.8007321953773499e-01</leafValues></_>
        <_>
          <internalNodes>
            0 -1 101 -1126240652 2082202177 -754581353 1359446401
            -399834696 -1809836030 -250830145 -519706233</internalNodes>
          <leafValues>
            -5.4923772811889648e-01 4.5387002825737000e-01</leafValues></_>
        <_>
          <internalNodes>
            0 -1 141 -1413873809 1860535063 286261727 1548800145
            1828956939 -490700670 -326496104 2132472148</internalNodes>
          <leafValues>
            -6.3840383291244507e-01 3.6027997732162476e-01</leafValues></_>
        <_>
          <internalNodes>
            0 -1 87 -1164914768 -1871473575 -805187255 269185153
            1082204296 277401739 818153870 696212159</internalNodes>
          <leafValues>
            -7.1324527263641357e-01 3.3911499381065369e-01</leafValues></_></weakClassifiers></_>
    <!-- stage 7 -->
    <_>
      <maxWeakCount>7</maxWeakCount>
      <stageThreshold>-1.1911914348602295e+00</stageThreshold>
      <weakClassifiers>
        <_>
          <internalNodes>
            0 -1 27 -553136630 1059039492 805490296 2145732674
            -510934353 972663169 -226043557 2071460303</internalNodes>
          <leafValues>
            -7.1702128648757935e-01 8.6046509444713593e-02</leafValues></_>
        <_>
          <internalNodes>
            0 -1 163 1389879143 -993279457 -637314352 264758172
            -1463161963 -366886700 -353394416 2113524721</internalNodes>
          <leafValues>
            -5.5528402328491211e-01 3.1907147169113159e-01</leafValues></_>
        <_>
          <internalNodes>
            0 -1 5 -1560563801 709022618 58873984 -310524480 594253911
            -753909626 1370122357 -247471389</internalNodes>
          <leafValues>
            -5.6610101461410522e-01 3.6110258102416992e-01</leafValues></_>
        <_>
          <internalNodes>
            0 -1 123 2012222232 1533640561 729186293 -604143728
            1995935432 -587237633 1349578749 -17436673</internalNodes>
          <leafValues>
            -4.1924446821212769e-01 5.1631695032119751e-01</leafValues></_>
        <_>
          <internalNodes>
            0 -1 60 1478205570 -1423854591 -2012736296 1271120481
            -1869576026 704677250 1523970718 2059915919</internalNodes>
          <leafValues>
            -5.0383591651916504e-01 4.2727482318878174e-01</leafValues></_>
        <_>
          <internalNodes>
            0 -1 158 -68689117 7339874 -16793998 872333299 1056931829
            1341620087 -18876688 -704643461</internalNodes>
          <leafValues>
            -4.4261831045150757e-01 5.1179158687591553e-01</leafValues></_>
        <_>
          <internalNodes>
            0 -1 32 1141629414 -1282310008 -536346536 1088274955 3366922
            -1517699068 1333788814 1582416391</internalNodes>
          <leafValues>
            -6.2645858526229858e-01 3.3549031615257263e-01</leafValues></_></weakClassifiers></_>
    <!-- stage 8 -->
    <_>
      <maxWeakCount>7</maxWeakCount>
      <stageThreshold>-1.1410576105117798e+00</stageThreshold>
      <weakClassifiers>
        <_>
          <internalNodes>
            0 -1 99 -1918347907 -44534955 2018743103 -49163869
            -1991915048 -1294835553 -359926085 -5248801</internalNodes>
          <leafValues>
            -5.8717745542526245e-01 2.8982725739479065e-01</leafValues></_>
        <_>
          <internalNodes>
            0 -1 13 1321165534 -3435817 -1605877683 -318577021 74531282
            2021785730 26430126 -78589157</internalNodes>
          <leafValues>
            -5.5027502775192261e-01 3.3384764194488525e-01</leafValues></_>
        <_>
          <internalNodes>
            0 -1 69 -1574116256 -787220671 1703003125 828359026
            -66910565 -612171365 -1274812229 -170407117</internalNodes>
          <leafValues>
            -6.1953181028366089e-01 3.1807765364646912e-01</leafValues></_>
        <_>
          <internalNodes>
            0 -1 121 1901449372 405994911 585902208 998768614 1702752251
            1064304631 -1087508754 -77861027</internalNodes>
          <leafValues>
            -4.1969773173332214e-01 4.9206838011741638e-01</leafValues></_>
        <_>
          <internalNodes>
            0 -1 113 475656144 -986689216 286858512 -1345371511
            -1081115748 -628579955 -1281637983 292282585</internalNodes>
          <leafValues>
            -6.5590786933898926e-01 3.1734094023704529e-01</leafValues></_>
        <_>
          <internalNodes>
            0 -1 53 -1182166822 608309640 -1005494023 -113113982
            -527916460 764051689 -259397380 -1271420779</internalNodes>
          <leafValues>
            -5.7124203443527222e-01 3.8084021210670471e-01</leafValues></_>
        <_>
          <internalNodes>
            0 -1 153 -79692009 -520126913 1862172671 -1371668497
            -16785662 -327155841 -285280530 -890241042</internalNodes>
          <leafValues>
            -4.5043531060218811e-01 4.9049255251884460e-01</leafValues></_></weakClassifiers></_>
    <!-- stage 9 -->
    <_>
      <maxWeakCount>6</maxWeakCount>
      <stageThreshold>-1.1421698331832886e+00</stageThreshold>
      <weakClassifiers>
        <_>
          <internalNodes>
            0 -1 30 -455104338 1424770179 -691998034 -84745314
            1888217883 185731336 -258344294 -106959938</internalNodes>
          <leafValues>
            -6.5391969680786133e-01 1.1140583455562592e-01</leafValues></_>
        <_>
          <internalNodes>
            0 -1 78 -1679860777 1006588143 415704023 -168109683
            1807970921 -937934848 1921627032 1301987552</internalNodes>
          <leafValues>
            -5.1906770467758179e-01 3.3480954170227051e-01</leafValues></_>
        <_>
          <internalNodes>
            0 -1 72 -532003296 -1327180151 -670561036 -39284303
            -1328897803 -1067155415 -779646281 -1059333161</internalNodes>
          <leafValues>
            -5.8213853836059570e-01 3.3100542426109314e-01</leafValues></_>
        <_>
          <internalNodes>
            0 -1 110 -1604907925 786071571 1427361878 576473498 51071007
            1600847882 1705996849 -566311049</internalNodes>
          <leafValues>
            -6.8170630931854248e-01 3.2035019993782043e-01</leafValues></_>
        <_>
          <internalNodes>
            0 -1 155 -498309877 36704775 478150666 -522522050 2013266240
            1496047625 -124998738 -77666049</internalNodes>
          <leafValues>
            -6.1217147111892700e-01 3.1453216075897217e-01</leafValues></_>
        <_>
          <internalNodes>
            0 -1 55 -869409584 1364150411 470008593 1347801155 274024654
            -1677684599 8440529 1479512831</internalNodes>
          <leafValues>
            -6.3907259702682495e-01 3.1698334217071533e-01</leafValues></_></weakClassifiers></_>
    <!-- stage 10 -->
    <_>
      <maxWeakCount>6</maxWeakCount>
      <stageThreshold>-7.5523549318313599e-01</stageThreshold>
      <weakClassifiers>
        <_>
          <internalNodes>
            0 -1 128 -582190763 -1109748073 -1316728681 -45150000
            -920003332 -376858487 -376906294 -1195574275</internalNodes>
          <leafValues>
            -5.9934318065643311e-01 2.2336769104003906e-01</leafValues></_>
        <_>
          <internalNodes>
            0 -1 7 -385093937 172667149 1073831242 -1664167406
            -763141561 1570347097 -1042967792 -218128853</internalNodes>
          <leafValues>
            -5.4811370372772217e-01 3.0307310819625854e-01</leafValues></_>
        <_>
          <internalNodes>
            0 -1 59 1096871818 755598598 2027057565 488702939 436358687
            1027410322 1113787343 1269548995</internalNodes>
          <leafValues>
            -6.5651279687881470e-01 2.7602684497833252e-01</leafValues></_>
        <_>
          <internalNodes>
            0 -1 134 -1702111734 -1877869677 134257235 -1944345773
            155685347 973816034 726649524 -875566485</internalNodes>
          <leafValues>
            -4.6298986673355103e-01 4.0352326631546021e-01</leafValues></_>
        <_>
          <internalNodes>
            0 -1 33 -494451168 -1199164917 -1942809597 -1603894495
            581671854 -91635240 1900610155 -357995725</internalNodes>
          <leafValues>
            -5.7510328292846680e-01 3.1717500090599060e-01</leafValues></_>
        <_>
          <internalNodes>
            0 -1 48 -221584838 1401198868 671203476 -1224484721
            1168183782 740888584 831806459 -1017025782</internalNodes>
          <leafValues>
            -4.5358347892761230e-01 4.4553279876708984e-01</leafValues></_></weakClassifiers></_>
    <!-- stage 11 -->
    <_>
      <maxWeakCount>5</maxWeakCount>
      <stageThreshold>-1.0466601848602295e+00</stageThreshold>
      <weakClassifiers>
        <_>
          <internalNodes>
            0 -1 102 -1547229505 2009785959 -680265345 776926332
            1502408747 -15004265 -1256689116 -352395531</internalNodes>
          <leafValues>
            -7.0703125000000000e-01 1.5979380905628204e-01</leafValues></_>
        <_>
          <internalNodes>
            0 -1 129 2069174811 580405663 57252351 845891721 1791732234
            -43341173 -1737510390 -1432879490</internalNodes>
          <leafValues>
            -5.8404880762100220e-01 3.6773109436035156e-01</leafValues></_>
        <_>
          <internalNodes>
            0 -1 117 742293503 1069514111 -131 -1073807497 -131203
            -4227073 -1883283459 -9789967</internalNodes>
          <leafValues>
            -4.6455243229866028e-01 5.1911419630050659e-01</leafValues></_>
        <_>
          <internalNodes>
            0 -1 91 1872751211 779040478 -796723277 542775805 2017145215
            1787648907 1636317047 -87040015</internalNodes>
          <leafValues>
            -6.6624081134796143e-01 3.5082191228866577e-01</leafValues></_>
        <_>
          <internalNodes>
            0 -1 118 -650181057 1002073972 2130702327 2147417789
            -1224971004 -622721 -402751778 -923787963</internalNodes>
          <leafValues>
            -4.7527858614921570e-01 5.0248837471008301e-01</leafValues></_></weakClassifiers></_>
    <!-- stage 12 -->
    <_>
      <maxWeakCount>8</maxWeakCount>
      <stageThreshold>-9.5998406410217285e-01</stageThreshold>
      <weakClassifiers>
        <_>
          <internalNodes>
            0 -1 138 -606088425 186342371 591401245 2132007507
            -1470387905 -1194798205 1507556805 -653395171</internalNodes>
          <leafValues>
            -6.3898915052413940e-01 1.5606936812400818e-01</leafValues></_>
        <_>
          <internalNodes>
            0 -1 4 -901274081 -629260483 1577023351 -37800397 1178509311
            1526726527 1609528795 -536941809</internalNodes>
          <leafValues>
            -4.0522480010986328e-01 4.4132113456726074e-01</leafValues></_>
        <_>
          <internalNodes>
            0 -1 109 619380919 159139023 1082258943 -1468493559
            1887848494 -1430740853 986411617 -923208715</internalNodes>
          <leafValues>
            -5.7091492414474487e-01 3.0959358811378479e-01</leafValues></_>
        <_>
          <internalNodes>
            0 -1 100 1728837395 -1688037614 -1826512811 -1690300204
            2076341020 -16112710 -125722946 -319687851</internalNodes>
          <leafValues>
            -4.3666520714759827e-01 4.4102454185485840e-01</leafValues></_>
        <_>
          <internalNodes>
            0 -1 105 -380682718 169052162 -947461583 1025288662
            -568276941 -1438049615 270655523 577227667</internalNodes>
          <leafValues>
            -6.6339153051376343e-01 3.1693762540817261e-01</leafValues></_>
        <_>
          <internalNodes>
            0 -1 83 -1933929680 -746798943 -2125881699 1540784204
            146959773 -1985871864 -1134049365 -1163827355</internalNodes>
          <leafValues>
            -6.2251180410385132e-01 3.4600543975830078e-01</leafValues></_>
        <_>
          <internalNodes>
            0 -1 50 -534331829 -727154438 5308698 -1130388856 1757983359
            705172258 1544042175 -3932469</internalNodes>
          <leafValues>
            -4.8384016752243042e-01 4.2678388953208923e-01</leafValues></_>
        <_>
          <internalNodes>
            0 -1 28 -1232516430 119956035 -802144097 788545552
            1308852621 987904431 -1430019811 2054637423</internalNodes>
          <leafValues>
            -6.5929049253463745e-01 3.0829679965972900e-01</leafValues></_></weakClassifiers></_>
    <!-- stage 13 -->
    <_>
      <maxWeakCount>5</maxWeakCount>
      <stageThreshold>-9.7846204042434692e-01</stageThreshold>
      <weakClassifiers>
        <_>
          <internalNodes>
            0 -1 106 -1644176897 -304245357 -111463979 -1162556941
            -427667585 -69679015 -756378123 -4527172</internalNodes>
          <leafValues>
            -6.2021189928054810e-01 2.8097730875015259e-01</leafValues></_>
        <_>
          <internalNodes>
            0 -1 103 787949295 1255688575 -482223626 -1432814767
            1842161014 1542709672 1906975573 -18168861</internalNodes>
          <leafValues>
            -6.3868296146392822e-01 3.1916239857673645e-01</leafValues></_>
        <_>
          <internalNodes>
            0 -1 80 -1389475215 -17924360 -781 -8390663 -1090586660
            -1073807489 -721164 -4409859</internalNodes>
          <leafValues>
            -4.4442686438560486e-01 5.4571378231048584e-01</leafValues></_>
        <_>
          <internalNodes>
            0 -1 2 -1956702225 262185230 1103069664 1473916466 -86427349
            1993974664 -1557404556 -153789</internalNodes>
          <leafValues>
            -5.4388946294784546e-01 4.6487039327621460e-01</leafValues></_>
        <_>
          <internalNodes>
            0 -1 143 -227596249 1252640847 -939183518 1647747460
            1636368646 1724416265 -220163386 -725746754</internalNodes>
          <leafValues>
            -5.9028536081314087e-01 4.0684804320335388e-01</leafValues></_></weakClassifiers></_>
    <!-- stage 14 -->
    <_>
      <maxWeakCount>8</maxWeakCount>
      <stageThreshold>-8.7824261188507080e-01</stageThreshold>
      <weakClassifiers>
        <_>
          <internalNodes>
            0 -1 36 -8979489 -645017521 -380528233 -539851554 -116655553
            -216559493 -1148585045 1945291200</internalNodes>
          <leafValues>
            -6.2171626091003418e-01 1.6717325150966644e-01</leafValues></_>
        <_>
          <internalNodes>
            0 -1 56 -924407542 -1798798458 1104267724 -575225516
            1694122175 1084266505 -239792025 1990577547</internalNodes>
          <leafValues>
            -6.4200705289840698e-01 2.3891548812389374e-01</leafValues></_>
        <_>
          <internalNodes>
            0 -1 18 -1494299441 -335044606 -880099233 -1978991701
            1121209169 -820969438 -301923353 1584524605</internalNodes>
          <leafValues>
            -5.6867045164108276e-01 2.8165221214294434e-01</leafValues></_>
        <_>
          <internalNodes>
            0 -1 147 2057242691 227740290 -1324264630 369289319
            -704468018 -91895160 -1434449238 542571355</internalNodes>
          <leafValues>
            -5.5752354860305786e-01 3.3298981189727783e-01</leafValues></_>
        <_>
          <internalNodes>
            0 -1 85 2086540960 1951764564 186911167 -1248245734
            -114726476 -1197733118 1661313452 -4742705</internalNodes>
          <leafValues>
            -3.9887031912803650e-01 4.3687751889228821e-01</leafValues></_>
        <_>
          <internalNodes>
            0 -1 161 -346056017 -1975971429 -2076110846 273777858
            -250895934 -2105343870 -1560098288 1179250210</internalNodes>
          <leafValues>
            -5.0883477926254272e-01 3.8664007186889648e-01</leafValues></_>
        <_>
          <internalNodes>
            0 -1 61 -1642384485 526205119 268455953 1720353171
            1157922931 -2105540600 -500290789 -121210546</internalNodes>
          <leafValues>
            -4.8726803064346313e-01 3.8843756914138794e-01</leafValues></_>
        <_>
          <internalNodes>
            0 -1 38 19650547 1493348496 1963065680 666973088 41962548
            -368111615 -938560902 1233736539</internalNodes>
          <leafValues>
            -4.9878329038619995e-01 3.8930651545524597e-01</leafValues></_></weakClassifiers></_>
    <!-- stage 15 -->
    <_>
      <maxWeakCount>7</maxWeakCount>
      <stageThreshold>-9.9584847688674927e-01</stageThreshold>
      <weakClassifiers>
        <_>
          <internalNodes>
            0 -1 54 -45616901 -1345219904 98329951 1469267970 1017686186
            -1171320714 -1442740054 -633605465</internalNodes>
          <leafValues>
            -5.7460319995880127e-01 2.2962963581085205e-01</leafValues></_>
        <_>
          <internalNodes>
            0 -1 23 -820378118 -727809130 1429769182 -16629414 397139990
            -1115647446 545507900 1595075431</internalNodes>
          <leafValues>
            -5.1738876104354858e-01 2.8988102078437805e-01</leafValues></_>
        <_>
          <internalNodes>
            0 -1 43 -1307122398 1029673439 -1458024894 -1417312366
            -1199388455 -1418755927 -1028988077 561193935</internalNodes>
          <leafValues>
            -5.8422029018402100e-01 2.8541138768196106e-01</leafValues></_>
        <_>
          <internalNodes>
            0 -1 11 -814772497 -292593921 -1501562318 -789925972
            134184551 1878490871 -16777530 -67109513</internalNodes>
          <leafValues>
            -3.5416999459266663e-01 4.5390796661376953e-01</leafValues></_>
        <_>
          <internalNodes>
            0 -1 127 -62396928 1309756695 85059678 2034960784 1770041820
            -628965147 814455551 1857014575</internalNodes>
          <leafValues>
            -4.9623024463653564e-01 3.4522053599357605e-01</leafValues></_>
        <_>
          <internalNodes>
            0 -1 86 -2008037702 1002652296 -1324726774 1595491163
            -1173414948 -134159848 -1649863936 852464525</internalNodes>
          <leafValues>
            -4.7642818093299866e-01 3.8766801357269287e-01</leafValues></_>
        <_>
          <internalNodes>
            0 -1 79 -1895295680 -1075928943 286300951 -44199663 35668380
            -1125638008 -242440038 -71349714</internalNodes>
          <leafValues>
            -4.4576123356819153e-01 4.3009355664253235e-01</leafValues></_></weakClassifiers></_>
    <!-- stage 16 -->
    <_>
      <maxWeakCount>8</maxWeakCount>
      <stageThreshold>-1.5195118188858032e+00</stageThreshold>
      <weakClassifiers>
        <_>
          <internalNodes>
            0 -1 67 -90710561 -719786790 1049565 1700596756 -1325102934
            -21445678 -1845454402 -20723081</internalNodes>
          <leafValues>
            -5.3779071569442749e-01 3.3018869161605835e-01</leafValues></_>
        <_>
          <internalNodes>
            0 -1 96 -13236611 1591615897 -654306849 1530413917
            -2095353609 -114228982 -1936793347 -1082985108</internalNodes>
          <leafValues>
            -4.9767208099365234e-01 3.4905463457107544e-01</leafValues></_>
        <_>
          <internalNodes>
            0 -1 136 1778232846 12816715 -1306699774 -360017519
            398418497 1906360452 -211701417 -151128837</internalNodes>
          <leafValues>
            -6.2753802537918091e-01 2.7060982584953308e-01</leafValues></_>
        <_>
          <internalNodes>
            0 -1 133 -1122814198 524282930 -1989850991 1979099272
            -2084702231 -1702255735 151947420 -571502276</internalNodes>
          <leafValues>
            -5.1836067438125610e-01 3.3194759488105774e-01</leafValues></_>
        <_>
          <internalNodes>
            0 -1 114 -451476328 1597571076 77912347 2077087822
            -2105368432 -292969400 671121539 -794181335</internalNodes>
          <leafValues>
            -4.3729728460311890e-01 4.2816340923309326e-01</leafValues></_>
        <_>
          <internalNodes>
            0 -1 39 895580826 -1525267904 -803780771 391204880
            2068570116 -123419999 -1974818318 -2007861697</internalNodes>
          <leafValues>
            -4.6686464548110962e-01 3.8482305407524109e-01</leafValues></_>
        <_>
          <internalNodes>
            0 -1 31 -238554054 314792448 -804691888 -1274669680
            1125225394 833584 1627743320 274129390</internalNodes>
          <leafValues>
            -6.1249744892120361e-01 3.1280824542045593e-01</leafValues></_>
        <_>
          <internalNodes>
            0 -1 75 1572113138 964841695 -1819148906 1354027446
            1344931230 1225296080 459858831 -1148802263</internalNodes>
          <leafValues>
            -5.2393335103988647e-01 3.5505551099777222e-01</leafValues></_></weakClassifiers></_>
    <!-- stage 17 -->
    <_>
      <maxWeakCount>10</maxWeakCount>
      <stageThreshold>-1.0446437597274780e+00</stageThreshold>
      <weakClassifiers>
        <_>
          <internalNodes>
            0 -1 151 -20459745 1364271601 1368719881 2048651539
            -498863478 -737104880 -520881973 -355747921</internalNodes>
          <leafValues>
            -5.4204201698303223e-01 2.6068377494812012e-01</leafValues></_>
        <_>
          <internalNodes>
            0 -1 164 1271345567 1329545687 319410638 -1434070639
            -353552803 -208944854 1259030640 1549324552</internalNodes>
          <leafValues>
            -6.2360078096389771e-01 2.2939886152744293e-01</leafValues></_>
        <_>
          <internalNodes>
            0 -1 97 866064379 -67947199 285413791 -605367905 413678141
            -1400350575 1371617501 1567018125</internalNodes>
          <leafValues>
            -4.3451517820358276e-01 3.6095491051673889e-01</leafValues></_>
        <_>
          <internalNodes>
            0 -1 73 -1124389465 1659326920 -669484028 -1198168000
            453145230 1310853193 -494149326 -1294996529</internalNodes>
          <leafValues>
            -4.6993216872215271e-01 3.8748854398727417e-01</leafValues></_>
        <_>
          <internalNodes>
            0 -1 45 1493666310 1170294810 1090535450 -628995902
            -801043727 1107316896 -2122041150 2102028923</internalNodes>
          <leafValues>
            -5.2335602045059204e-01 3.6090651154518127e-01</leafValues></_>
        <_>
          <internalNodes>
            0 -1 95 1532931436 -1256582923 1091043645 227426904
            1252044893 -1995800419 327843284 -1916106279</internalNodes>
          <leafValues>
            -5.5350810289382935e-01 3.1117132306098938e-01</leafValues></_>
        <_>
          <internalNodes>
            0 -1 82 -2032830588 1363462599 537118460 1883723577
            625020400 360810687 -1341103172 -108397905</internalNodes>
          <leafValues>
            -5.2847141027450562e-01 3.2987198233604431e-01</leafValues></_>
        <_>
          <internalNodes>
            0 -1 12 -556271874 -2005950604 -2147466084 1914902981
            -214289292 -681848558 1125714586 -391160917</internalNodes>
          <leafValues>
            -5.3256291151046753e-01 3.4406146407127380e-01</leafValues></_>
        <_>
          <internalNodes>
            0 -1 89 -984340665 1023662233 -2130585167 365285545
            1497391340 -603848051 1259024193 732586871</internalNodes>
          <leafValues>
            -6.1503291130065918e-01 2.9226335883140564e-01</leafValues></_>
        <_>
          <internalNodes>
            0 -1 160 1373490949 680915076 268470288 1114403147
            -998070390 -2113699838 420749508 -782570509</internalNodes>
          <leafValues>
            -4.6973919868469238e-01 4.3656674027442932e-01</leafValues></_></weakClassifiers></_>
    <!-- stage 18 -->
    <_>
      <maxWeakCount>8</maxWeakCount>
      <stageThreshold>-1.6103682518005371e+00</stageThreshold>
      <weakClassifiers>
        <_>
          <internalNodes>
            0 -1 146 -112200261 -1042580849 323311639 2111213981
            -740584981 -357007207 -1067725825 1808700840</internalNodes>
          <leafValues>
            -5.9121620655059814e-01 1.6233766078948975e-01</leafValues></_>
        <_>
          <internalNodes>
            0 -1 1 -1059983162 312967321 -2050875553 -1809223343
            1334574386 -164064085 -1184209389 -680529581</internalNodes>
          <leafValues>
            -5.1948577165603638e-01 2.9307284951210022e-01</leafValues></_>
        <_>
          <internalNodes>
            0 -1 135 -883950576 184716426 159455264 991413003
            -1266573022 1120568738 1441775920 293333869</internalNodes>
          <leafValues>
            -7.1920597553253174e-01 2.0572200417518616e-01</leafValues></_>
        <_>
          <internalNodes>
            0 -1 81 1692060479 -728137716 688494451 530137361 555757737
            -662531957 1346595002 187843929</internalNodes>
          <leafValues>
            -4.2881959676742554e-01 3.9239302277565002e-01</leafValues></_>
        <_>
          <internalNodes>
            0 -1 10 -1996534994 -273151849 1073796226 -766230375
            1477013539 -314930786 1258452499 -40912081</internalNodes>
          <leafValues>
            -5.3911817073822021e-01 3.0474600195884705e-01</leafValues></_>
        <_>
          <internalNodes>
            0 -1 119 1448463558 341819119 -1082654721 1098579961
            1518181832 -8650753 -830542597 -503317537</internalNodes>
          <leafValues>
            -3.9107581973075867e-01 4.5125243067741394e-01</leafValues></_>
        <_>
          <internalNodes>
            0 -1 0 642427826 -1522269566 8438799 -142540014 1213012119
            -1064943032 811012370 -4620697</internalNodes>
          <leafValues>
            -4.9842628836631775e-01 3.6192065477371216e-01</leafValues></_>
        <_>
          <internalNodes>
            0 -1 77 -501529088 1704886393 -1352622331 444977157 33802548
            -1723842132 797491858 -442039673</internalNodes>
          <leafValues>
            -5.9878277778625488e-01 3.0818751454353333e-01</leafValues></_></weakClassifiers></_>
    <!-- stage 19 -->
    <_>
      <maxWeakCount>8</maxWeakCount>
      <stageThreshold>-8.8911378383636475e-01</stageThreshold>
      <weakClassifiers>
        <_>
          <internalNodes>
            0 -1 107 -1348448069 -1176737 1259063263 -573207624
            -1719079960 -645289816 -1711035685 -67109729</internalNodes>
          <leafValues>
            -5.5177742242813110e-01 2.2529643774032593e-01</leafValues></_>
        <_>
          <internalNodes>
            0 -1 145 -179873110 -494710522 134599890 -791099894
            -475282868 1090945610 1470444486 1081600169</internalNodes>
          <leafValues>
            -6.3549989461898804e-01 2.0928052067756653e-01</leafValues></_>
        <_>
          <internalNodes>
            0 -1 146 -1256853573 718142739 -1995235753 1341959143
            -109045658 -894860888 -626418705 1599644600</internalNodes>
          <leafValues>
            -4.7634941339492798e-01 3.2006064057350159e-01</leafValues></_>
        <_>
          <internalNodes>
            0 -1 36 -1185714193 2144782619 1359726035 1549814424
            -627584649 -1179385309 -234370435 1433422210</internalNodes>
          <leafValues>
            -4.7777357697486877e-01 3.5693278908729553e-01</leafValues></_>
        <_>
          <internalNodes>
            0 -1 16 -2177474 -317077487 -2143272812 -1594824109 59320366
            1031342210 568740780 -59693974</internalNodes>
          <leafValues>
            -5.2535951137542725e-01 3.3221116662025452e-01</leafValues></_>
        <_>
          <internalNodes>
            0 -1 76 1483913210 -1298615561 268976400 -686714624
            176161470 -2113552384 -528313413 -836407066</internalNodes>
          <leafValues>
            -4.4047749042510986e-01 3.8422283530235291e-01</leafValues></_>
        <_>
          <internalNodes>
            0 -1 58 -795623391 -25013709 -1717454781 -867310670
            -1436990721 721076359 -100652805 -753247293</internalNodes>
          <leafValues>
            -4.3450865149497986e-01 4.4879212975502014e-01</leafValues></_>
        <_>
          <internalNodes>
            0 -1 68 716431970 -900553533 1296279063 69589248 556794488
            1653547016 -786099325 1537425847</internalNodes>
          <leafValues>
            -6.6149914264678955e-01 2.8857719898223877e-01</leafValues></_></weakClassifiers></_>
    <!-- stage 20 -->
    <_>
      <maxWeakCount>9</maxWeakCount>
      <stageThreshold>-9.8596715927124023e-01</stageThreshold>
      <weakClassifiers>
        <_>
          <internalNodes>
            0 -1 126 -487058340 -609480572 -654159459 2132360033
            -1453157748 -36662560 -296164405 -1790978</internalNodes>
          <leafValues>
            -5.8838599920272827e-01 1.4149443805217743e-01</leafValues></_>
        <_>
          <internalNodes>
            0 -1 88 -544159016 1489559933 -1811591128 956649739
            656214924 68157548 28002507 485476459</internalNodes>
          <leafValues>
            -6.0585951805114746e-01 2.2338213026523590e-01</leafValues></_>
        <_>
          <internalNodes>
            0 -1 140 -2027998460 55019850 285484817 1008935427
            -2138080458 -843570023 -233947792 1571679158</internalNodes>
          <leafValues>
            -6.2563073635101318e-01 2.3115767538547516e-01</leafValues></_>
        <_>
          <internalNodes>
            0 -1 6 1527443370 -718569621 -277744029 -12720286 1342175223
            1321138165 -8915288 -526465</internalNodes>
          <leafValues>
            -3.1528037786483765e-01 5.2465522289276123e-01</leafValues></_>
        <_>
          <internalNodes>
            0 -1 139 -279217726 134496526 -1876848574 -494806696
            1136845636 1074429954 -1327381626 88603043</internalNodes>
          <leafValues>
            -7.1376675367355347e-01 2.3246103525161743e-01</leafValues></_>
        <_>
          <internalNodes>
            0 -1 71 -2073503920 -569170362 4314593 -1766479851 5594488
            241819881 -1970657883 -657733111</internalNodes>
          <leafValues>
            -5.8942776918411255e-01 2.8046238422393799e-01</leafValues></_>
        <_>
          <internalNodes>
            0 -1 24 -1970896204 -1581103597 835899857 2112050385
            34283644 -1831829352 -932470043 2079558084</internalNodes>
          <leafValues>
            -5.4366570711135864e-01 3.1572103500366211e-01</leafValues></_>
        <_>
          <internalNodes>
            0 -1 93 -1063992720 1422950544 1082683902 1321685530
            37535411 -1727389548 1208505438 1409894186</internalNodes>
          <leafValues>
            -5.9483462572097778e-01 2.7353110909461975e-01</leafValues></_>
        <_>
          <internalNodes>
            0 -1 149 126805140 -1658632048 -1593617272 1754453142
            806341033 320995426 -177484925 522110404</internalNodes>
          <leafValues>
            -5.4892098903656006e-01 3.0508372187614441e-01</leafValues></_></weakClassifiers></_>
    <!-- stage 21 -->
    <_>
      <maxWeakCount>8</maxWeakCount>
      <stageThreshold>-1.0524268150329590e+00</stageThreshold>
      <weakClassifiers>
        <_>
          <internalNodes>
            0 -1 51 -563676968 -40058734 151329239 2010497363 1124782314
            -14776136 673250014 -105125429</internalNodes>
          <leafValues>
            -5.5207514762878418e-01 2.0076481997966766e-01</leafValues></_>
        <_>
          <internalNodes>
            0 -1 22 -614927009 -1906945837 -2113741862 -1527188067
            323899704 -2000543597 2031229264 2102454901</internalNodes>
          <leafValues>
            -5.8412122726440430e-01 2.2546325623989105e-01</leafValues></_>
        <_>
          <internalNodes>
            0 -1 124 2104689883 964126431 2092694783 166459370
            -228736822 1467998165 788528890 -50856193</internalNodes>
          <leafValues>
            -3.6870774626731873e-01 4.2983126640319824e-01</leafValues></_>
        <_>
          <internalNodes>
            0 -1 150 -1554272639 -1140407408 -1012616169 881950800
            1887671074 -1475655647 810117424 224573644</internalNodes>
          <leafValues>
            -6.1474317312240601e-01 2.5974792242050171e-01</leafValues></_>
        <_>
          <internalNodes>
            0 -1 108 -891785148 852758724 553795995 -260013567 671202984
            -964435831 -1278688840 1833017483</internalNodes>
          <leafValues>
            -5.6473058462142944e-01 2.9081362485885620e-01</leafValues></_>
        <_>
          <internalNodes>
            0 -1 20 -1496324481 558981134 -1073538469 705695810
            200659308 -922214399 1074807322 1222033511</internalNodes>
          <leafValues>
            -5.3998309373855591e-01 2.9767292737960815e-01</leafValues></_>
        <_>
          <internalNodes>
            0 -1 63 -1093767026 1334920379 570430803 1338312711
            1753786351 -343009279 741816362 464886827</internalNodes>
          <leafValues>
            -4.8082327842712402e-01 3.4812134504318237e-01</leafValues></_>
        <_>
          <internalNodes>
            0 -1 40 637537207 1879423040 67176795 -1793637368 701446875
            -1324842847 512256033 98451824</internalNodes>
          <leafValues>
            -6.9202804565429688e-01 2.4583430588245392e-01</leafValues></_></weakClassifiers></_>
    <!-- stage 22 -->
    <_>
      <maxWeakCount>8</maxWeakCount>
      <stageThreshold>-1.5442304611206055e+00</stageThreshold>
      <weakClassifiers>
        <_>
          <internalNodes>
            0 -1 154 -205022689 1520296923 -787880431 269190550
            -779777528 -1064263551 -230305554 -293605649</internalNodes>
          <leafValues>
            -5.7142859697341919e-01 2.2222222387790680e-01</leafValues></_>
        <_>
          <internalNodes>
            0 -1 37 -1543493632 2109804891 1476954589 2132590857
            679547216 -1433997300 1007208901 -1422281937</internalNodes>
          <leafValues>
            -5.2806800603866577e-01 2.8786441683769226e-01</leafValues></_>
        <_>
          <internalNodes>
            0 -1 34 -1034487108 -1905114404 -1050361580 -1437585077
            -1602092931 -1033142256 -131758943 -295366149</internalNodes>
          <leafValues>
            -6.4035463333129883e-01 2.5212433934211731e-01</leafValues></_>
        <_>
          <internalNodes>
            0 -1 29 1388521391 411402688 285246001 318982144 1084253628
            -1006079093 25190506 2053077567</internalNodes>
          <leafValues>
            -4.4532328844070435e-01 4.0378090739250183e-01</leafValues></_>
        <_>
          <internalNodes>
            0 -1 90 -662083851 403017884 -251032929 336810327 1266680642
            1476558848 730468870 -287389561</internalNodes>
          <leafValues>
            -4.7344505786895752e-01 3.8488543033599854e-01</leafValues></_>
        <_>
          <internalNodes>
            0 -1 122 -99555328 -436145918 478180737 1468629136
            1208172776 -1585381184 253392589 -496664099</internalNodes>
          <leafValues>
            -4.5433449745178223e-01 4.3336984515190125e-01</leafValues></_>
        <_>
          <internalNodes>
            0 -1 162 1192226579 -1467777015 1141541126 1427222803
            8493363 -2147318782 -1182017468 738568323</internalNodes>
          <leafValues>
            -5.4546111822128296e-01 3.5992026329040527e-01</leafValues></_>
        <_>
          <internalNodes>
            0 -1 157 -906021822 1090914394 -2011092718 717332681
            1170465068 -973012991 1476772256 -385944930</internalNodes>
          <leafValues>
            -5.4200607538223267e-01 3.6636143922805786e-01</leafValues></_></weakClassifiers></_>
    <!-- stage 23 -->
    <_>
      <maxWeakCount>9</maxWeakCount>
      <stageThreshold>-9.5814651250839233e-01</stageThreshold>
      <weakClassifiers>
        <_>
          <internalNodes>
            0 -1 130 -77870725 2077475766 402686175 -1721459636
            -934936434 1362282665 -401561269 -22042194</internalNodes>
          <leafValues>
            -5.2544802427291870e-01 3.2839506864547729e-01</leafValues></_>
        <_>
          <internalNodes>
            0 -1 116 290775416 -1336803324 -1877374453 352501896
            -268261136 -2069229112 1795345053 -789923543</internalNodes>
          <leafValues>
            -5.1522856950759888e-01 2.6847106218338013e-01</leafValues></_>
        <_>
          <internalNodes>
            0 -1 49 -762676486 1444348062 1112574486 1746748939
            -2070837633 -2062935456 1774522539 2132230662</internalNodes>
          <leafValues>
            -4.5450112223625183e-01 3.3932802081108093e-01</leafValues></_>
        <_>
          <internalNodes>
            0 -1 64 289963505 -1118056364 -1186758153 -49487536
            -737959150 -2139029478 1107314745 386050364</internalNodes>
          <leafValues>
            -5.1323211193084717e-01 3.2586356997489929e-01</leafValues></_>
        <_>
          <internalNodes>
            0 -1 52 -804400240 155500674 -1861150697 -1122692684
            595728816 1510613666 2013309352 -1132363645</internalNodes>
          <leafValues>
            -4.4424951076507568e-01 3.9515960216522217e-01</leafValues></_>
        <_>
          <internalNodes>
            0 -1 47 806244003 1986657843 1149197937 641728499 -595668555
            1312554871 -822083841 -547373066</internalNodes>
          <leafValues>
            -3.9159825444221497e-01 4.8455449938774109e-01</leafValues></_>
        <_>
          <internalNodes>
            0 -1 120 -1709091380 805863795 -794752502 286640969
            -352223224 805474435 -930550582 360293234</internalNodes>
          <leafValues>
            -5.1737833023071289e-01 3.5320225358009338e-01</leafValues></_>
        <_>
          <internalNodes>
            0 -1 142 -1307681699 349634851 -1065337337 -1929265000
            1208662680 -58552319 -1417639782 1309868810</internalNodes>
          <leafValues>
            -4.5625048875808716e-01 4.1937458515167236e-01</leafValues></_>
        <_>
          <internalNodes>
            0 -1 65 1849490138 -1342492948 -277119041 1442795292
            918424186 2013229052 578287999 -86682973</internalNodes>
          <leafValues>
            -4.2746517062187195e-01 4.5942208170890808e-01</leafValues></_></weakClassifiers></_>
    <!-- stage 24 -->
    <_>
      <maxWeakCount>7</maxWeakCount>
      <stageThreshold>-8.6983364820480347e-01</stageThreshold>
      <weakClassifiers>
        <_>
          <internalNodes>
            0 -1 92 -581504073 494626149 -805199651 -572173808 146852072
            -1335883648 -41287621 -879054817</internalNodes>
          <leafValues>
            -5.3303962945938110e-01 2.8767123818397522e-01</leafValues></_>
        <_>
          <internalNodes>
            0 -1 131 -393018357 881934441 -804174756 172019779 402789930
            425265156 -394241042 -231287925</internalNodes>
          <leafValues>
            -5.4129767417907715e-01 2.7649027109146118e-01</leafValues></_>
        <_>
          <internalNodes>
            0 -1 41 825157098 -786264047 -1056865849 1146159938
            -1316371877 -1417478136 -733738460 -68730691</internalNodes>
          <leafValues>
            -4.4680586457252502e-01 3.9498361945152283e-01</leafValues></_>
        <_>
          <internalNodes>
            0 -1 46 1749639466 780374152 352899920 -1270572382 572039287
            -526841453 -2139082437 1154833783</internalNodes>
          <leafValues>
            -6.6039651632308960e-01 2.6888194680213928e-01</leafValues></_>
        <_>
          <internalNodes>
            0 -1 94 -722762512 -559665537 1065352181 1033346687
            -26018079 -1074397327 -4401665 -25178373</internalNodes>
          <leafValues>
            -3.2759034633636475e-01 5.6865829229354858e-01</leafValues></_>
        <_>
          <internalNodes>
            0 -1 125 1212220283 -2062383741 1141965653 -780140410
            -1593212775 -2146271104 -1987860231 1516433576</internalNodes>
          <leafValues>
            -4.4582152366638184e-01 4.3509697914123535e-01</leafValues></_>
        <_>
          <internalNodes>
            0 -1 19 -269504513 -285245697 -269652105 -285212937
            1840688967 -1527480449 1316932834 1341638481</internalNodes>
          <leafValues>
            -3.9517042040824890e-01 4.9369874596595764e-01</leafValues></_></weakClassifiers></_></stages>
  <features>
    <_>
      <rect>
        0 0 1 3</rect></_>
    <_>
      <rect>
        0 0 4 5</rect></_>
    <_>
      <rect>
        0 3 1 1</rect></_>
    <_>
      <rect>
        0 3 2 4</rect></_>
    <_>
      <rect>
        0 3 2 5</rect></_>
    <_>
      <rect>
        0 5 1 1</rect></_>
    <_>
      <rect>
        0 5 2 3</rect></_>
    <_>
      <rect>
        0 6 1 1</rect></_>
    <_>
      <rect>
        0 8 4 8</rect></_>
    <_>
      <rect>
        0 10 2 2</rect></_>
    <_>
      <rect>
        0 11 1 1</rect></_>
    <_>
      <rect>
        0 11 1 2</rect></_>
    <_>
      <rect>
        0 11 5 7</rect></_>
    <_>
      <rect>
        0 12 2 6</rect></_>
    <_>
      <rect>
        0 12 3 6</rect></_>
    <_>
      <rect>
        0 13 2 3</rect></_>
    <_>
      <rect>
        0 13 2 5</rect></_>
    <_>
      <rect>
        0 16 3 4</rect></_>
    <_>
      <rect>
        0 18 2 4</rect></_>
    <_>
      <rect>
        0 20 1 3</rect></_>
    <_>
      <rect>
        0 22 1 2</rect></_>
    <_>
      <rect>
        0 23 5 3</rect></_>
    <_>
      <rect>
        0 26 1 2</rect></_>
    <_>
      <rect>
        0 26 2 2</rect></_>
    <_>
      <rect>
        1 0 1 1</rect></_>
    <_>
      <rect>
        1 0 3 6</rect></_>
    <_>
      <rect>
        1 4 4 8</rect></_>
    <_>
      <rect>
        1 5 3 5</rect></_>
    <_>
      <rect>
        1 6 3 6</rect></_>
    <_>
      <rect>
        1 8 2 3</rect></_>
    <_>
      <rect>
        1 14 1 1</rect></_>
    <_>
      <rect>
        1 16 2 2</rect></_>
    <_>
      <rect>
        1 16 2 3</rect></_>
    <_>
      <rect>
        1 17 4 4</rect></_>
    <_>
      <rect>
        1 20 3 4</rect></_>
    <_>
      <rect>
        1 20 4 4</rect></_>
    <_>
      <rect>
        1 29 1 1</rect></_>
    <_>
      <rect>
        2 0 2 1</rect></_>
    <_>
      <rect>
        2 1 2 2</rect></_>
    <_>
      <rect>
        2 1 3 2</rect></_>
    <_>
      <rect>
        2 2 1 2</rect></_>
    <_>
      <rect>
        2 3 2 4</rect></_>
    <_>
      <rect>
        2 3 3 4</rect></_>
    <_>
      <rect>
        2 6 3 4</rect></_>
    <_>
      <rect>
        2 7 2 3</rect></_>
    <_>
      <rect>
        2 8 2 5</rect></_>
    <_>
      <rect>
        2 9 2 2</rect></_>
    <_>
      <rect>
        2 9 4 7</rect></_>
    <_>
      <rect>
        2 16 2 2</rect></_>
    <_>
      <rect>
        2 17 2 3</rect></_>
    <_>
      <rect>
        2 20 2 2</rect></_>
    <_>
      <rect>
        3 0 3 2</rect></_>
    <_>
      <rect>
        3 1 2 1</rect></_>
    <_>
      <rect>
        3 1 3 1</rect></_>
    <_>
      <rect>
        3 1 3 2</rect></_>
    <_>
      <rect>
        3 2 4 10</rect></_>
    <_>
      <rect>
        3 6 2 2</rect></_>
    <_>
      <rect>
        3 7 4 6</rect></_>
    <_>
      <rect>
        3 9 4 7</rect></_>
    <_>
      <rect>
        3 10 3 4</rect></_>
    <_>
      <rect>
        3 10 3 7</rect></_>
    <_>
      <rect>
        3 12 2 6</rect></_>
    <_>
      <rect>
        3 18 3 4</rect></_>
    <_>
      <rect>
        3 19 2 2</rect></_>
    <_>
      <rect>
        3 29 1 1</rect></_>
    <_>
      <rect>
        4 0 3 3</rect></_>
    <_>
      <rect>
        4 0 4 10</rect></_>
    <_>
      <rect>
        4 1 3 2</rect></_>
    <_>
      <rect>
        4 2 3 4</rect></_>
    <_>
      <rect>
        4 3 3 4</rect></_>
    <_>
      <rect>
        4 4 3 3</rect></_>
    <_>
      <rect>
        4 5 4 9</rect></_>
    <_>
      <rect>
        4 7 2 2</rect></_>
    <_>
      <rect>
        4 12 1 1</rect></_>
    <_>
      <rect>
        4 12 4 6</rect></_>
    <_>
      <rect>
        4 14 2 3</rect></_>
    <_>
      <rect>
        4 14 2 4</rect></_>
    <_>
      <rect>
        4 20 3 3</rect></_>
    <_>
      <rect>
        4 29 1 1</rect></_>
    <_>
      <rect>
        5 0 1 1</rect></_>
    <_>
      <rect>
        5 1 1 1</rect></_>
    <_>
      <rect>
        5 2 2 2</rect></_>
    <_>
      <rect>
        5 3 3 4</rect></_>
    <_>
      <rect>
        5 4 1 4</rect></_>
    <_>
      <rect>
        5 4 3 3</rect></_>
    <_>
      <rect>
        5 7 2 2</rect></_>
    <_>
      <rect>
        5 7 3 3</rect></_>
    <_>
      <rect>
        5 8 2 5</rect></_>
    <_>
      <rect>
        5 8 3 5</rect></_>
    <_>
      <rect>
        5 9 1 3</rect></_>
    <_>
      <rect>
        5 12 1 1</rect></_>
    <_>
      <rect>
        5 13 2 1</rect></_>
    <_>
      <rect>
        5 16 2 3</rect></_>
    <_>
      <rect>
        5 18 2 2</rect></_>
    <_>
      <rect>
        5 22 2 2</rect></_>
    <_>
      <rect>
        5 23 2 3</rect></_>
    <_>
      <rect>
        5 26 1 2</rect></_>
    <_>
      <rect>
        5 29 1 1</rect></_>
    <_>
      <rect>
        5 29 3 1</rect></_>
    <_>
      <rect>
        6 0 1 1</rect></_>
    <_>
      <rect>
        6 1 2 1</rect></_>
    <_>
      <rect>
        6 5 2 3</rect></_>
    <_>
      <rect>
        6 11 1 1</rect></_>
    <_>
      <rect>
        6 12 1 1</rect></_>
    <_>
      <rect>
        6 13 1 1</rect></_>
    <_>
      <rect>
        6 15 3 4</rect></_>
    <_>
      <rect>
        6 27 1 1</rect></_>
    <_>
      <rect>
        7 0 1 1</rect></_>
    <_>
      <rect>
        7 5 1 3</rect></_>
    <_>
      <rect>
        7 11 1 1</rect></_>
    <_>
      <rect>
        7 12 1 1</rect></_>
    <_>
      <rect>
        7 13 3 5</rect></_>
    <_>
      <rect>
        7 17 3 4</rect></_>
    <_>
      <rect>
        7 17 3 5</rect></_>
    <_>
      <rect>
        7 19 2 2</rect></_>
    <_>
      <rect>
        7 20 3 4</rect></_>
    <_>
      <rect>
        7 24 1 2</rect></_>
    <_>
      <rect>
        7 26 1 2</rect></_>
    <_>
      <rect>
        8 3 1 1</rect></_>
    <_>
      <rect>
        8 4 2 4</rect></_>
    <_>
      <rect>
        8 6 2 3</rect></_>
    <_>
      <rect>
        8 11 2 4</rect></_>
    <_>
      <rect>
        8 20 1 1</rect></_>
    <_>
      <rect>
        9 0 2 2</rect></_>
    <_>
      <rect>
        9 4 2 4</rect></_>
    <_>
      <rect>
        9 28 1 1</rect></_>
    <_>
      <rect>
        10 0 1 1</rect></_>
    <_>
      <rect>
        10 0 2 2</rect></_>
    <_>
      <rect>
        10 1 1 1</rect></_>
    <_>
      <rect>
        10 1 2 2</rect></_>
    <_>
      <rect>
        10 3 2 4</rect></_>
    <_>
      <rect>
        10 4 1 1</rect></_>
    <_>
      <rect>
        10 7 2 6</rect></_>
    <_>
      <rect>
        10 7 2 8</rect></_>
    <_>
      <rect>
        10 9 2 5</rect></_>
    <_>
      <rect>
        10 13 2 4</rect></_>
    <_>
      <rect>
        10 14 1 1</rect></_>
    <_>
      <rect>
        10 14 2 4</rect></_>
    <_>
      <rect>
        10 15 2 5</rect></_>
    <_>
      <rect>
        10 16 1 1</rect></_>
    <_>
      <rect>
        10 18 2 4</rect></_>
    <_>
      <rect>
        10 29 1 1</rect></_>
    <_>
      <rect>
        11 0 1 1</rect></_>
    <_>
      <rect>
        11 10 1 1</rect></_>
    <_>
      <rect>
        11 14 1 1</rect></_>
    <_>
      <rect>
        11 17 1 1</rect></_>
    <_>
      <rect>
        11 29 1 1</rect></_>
    <_>
      <rect>
        12 2 1 2</rect></_>
    <_>
      <rect>
        12 4 1 1</rect></_>
    <_>
      <rect>
        12 11 1 4</rect></_>
    <_>
      <rect>
        12 16 1 3</rect></_>
    <_>
      <rect>
        13 1 1 2</rect></_>
    <_>
      <rect>
        13 1 1 3</rect></_>
    <_>
      <rect>
        13 2 1 1</rect></_>
    <_>
      <rect>
        13 2 1 2</rect></_>
    <_>
      <rect>
        13 5 1 1</rect></_>
    <_>
      <rect>
        13 7 1 1</rect></_>
    <_>
      <rect>
        13 9 1 2</rect></_>
    <_>
      <rect>
        13 11 1 2</rect></_>
    <_>
      <rect>
        13 14 1 1</rect></_>
    <_>
      <rect>
        13 14 1 2</rect></_>
    <_>
      <rect>
        13 18 1 2</rect></_>
    <_>
      <rect>
        13 22 1 2</rect></_>
    <_>
      <rect>
        13 28 1 1</rect></_>
    <_>
      <rect>
        13 29 1 1</rect></_></features></cascade>
</opencv_storage>
