<?xml version="1.0"?>
<opencv_storage>
<stage7>
  <maxWeakCount>7</maxWeakCount>
  <stageThreshold>-1.1911914348602295e+00</stageThreshold>
  <weakClassifiers>
    <_>
      <internalNodes>
        0 -1 1087 -553136630 1059039492 805490296 2145732674 -510934353
        972663169 -226043557 2071460303</internalNodes>
      <leafValues>
        -7.1702128648757935e-01 8.6046509444713593e-02</leafValues></_>
    <_>
      <internalNodes>
        0 -1 6598 1389879143 -993279457 -637314352 264758172 -1463161963
        -366886700 -353394416 2113524721</internalNodes>
      <leafValues>
        -5.5528402328491211e-01 3.1907147169113159e-01</leafValues></_>
    <_>
      <internalNodes>
        0 -1 240 -1560563801 709022618 58873984 -310524480 594253911
        -753909626 1370122357 -247471389</internalNodes>
      <leafValues>
        -5.6610101461410522e-01 3.6110258102416992e-01</leafValues></_>
    <_>
      <internalNodes>
        0 -1 5456 2012222232 1533640561 729186293 -604143728 1995935432
        -587237633 1349578749 -17436673</internalNodes>
      <leafValues>
        -4.1924446821212769e-01 5.1631695032119751e-01</leafValues></_>
    <_>
      <internalNodes>
        0 -1 2682 1478205570 -1423854591 -2012736296 1271120481
        -1869576026 704677250 1523970718 2059915919</internalNodes>
      <leafValues>
        -5.0383591651916504e-01 4.2727482318878174e-01</leafValues></_>
    <_>
      <internalNodes>
        0 -1 6531 -68689117 7339874 -16793998 872333299 1056931829
        1341620087 -18876688 -704643461</internalNodes>
      <leafValues>
        -4.4261831045150757e-01 5.1179158687591553e-01</leafValues></_>
    <_>
      <internalNodes>
        0 -1 1457 1141629414 -1282310008 -536346536 1088274955 3366922
        -1517699068 1333788814 1582416391</internalNodes>
      <leafValues>
        -6.2645858526229858e-01 3.3549031615257263e-01</leafValues></_></weakClassifiers></stage7>
</opencv_storage>
