<?xml version="1.0"?>
<opencv_storage>
<stage24>
  <maxWeakCount>7</maxWeakCount>
  <stageThreshold>-8.6983364820480347e-01</stageThreshold>
  <weakClassifiers>
    <_>
      <internalNodes>
        0 -1 4012 -581504073 494626149 -805199651 -572173808 146852072
        -1335883648 -41287621 -879054817</internalNodes>
      <leafValues>
        -5.3303962945938110e-01 2.8767123818397522e-01</leafValues></_>
    <_>
      <internalNodes>
        0 -1 5853 -393018357 881934441 -804174756 172019779 402789930
        425265156 -394241042 -231287925</internalNodes>
      <leafValues>
        -5.4129767417907715e-01 2.7649027109146118e-01</leafValues></_>
    <_>
      <internalNodes>
        0 -1 1782 825157098 -786264047 -1056865849 1146159938
        -1316371877 -1417478136 -733738460 -68730691</internalNodes>
      <leafValues>
        -4.4680586457252502e-01 3.9498361945152283e-01</leafValues></_>
    <_>
      <internalNodes>
        0 -1 1982 1749639466 780374152 352899920 -1270572382 572039287
        -526841453 -2139082437 1154833783</internalNodes>
      <leafValues>
        -6.6039651632308960e-01 2.6888194680213928e-01</leafValues></_>
    <_>
      <internalNodes>
        0 -1 4084 -722762512 -559665537 1065352181 1033346687 -26018079
        -1074397327 -4401665 -25178373</internalNodes>
      <leafValues>
        -3.2759034633636475e-01 5.6865829229354858e-01</leafValues></_>
    <_>
      <internalNodes>
        0 -1 5771 1212220283 -2062383741 1141965653 -780140410
        -1593212775 -2146271104 -1987860231 1516433576</internalNodes>
      <leafValues>
        -4.4582152366638184e-01 4.3509697914123535e-01</leafValues></_>
    <_>
      <internalNodes>
        0 -1 717 -269504513 -285245697 -269652105 -285212937 1840688967
        -1527480449 1316932834 1341638481</internalNodes>
      <leafValues>
        -3.9517042040824890e-01 4.9369874596595764e-01</leafValues></_></weakClassifiers></stage24>
</opencv_storage>
