<?xml version="1.0"?>
<opencv_storage>
<stage11>
  <maxWeakCount>5</maxWeakCount>
  <stageThreshold>-1.0466601848602295e+00</stageThreshold>
  <weakClassifiers>
    <_>
      <internalNodes>
        0 -1 4410 -1547229505 2009785959 -680265345 776926332 1502408747
        -15004265 -1256689116 -352395531</internalNodes>
      <leafValues>
        -7.0703125000000000e-01 1.5979380905628204e-01</leafValues></_>
    <_>
      <internalNodes>
        0 -1 5806 2069174811 580405663 57252351 845891721 1791732234
        -43341173 -1737510390 -1432879490</internalNodes>
      <leafValues>
        -5.8404880762100220e-01 3.6773109436035156e-01</leafValues></_>
    <_>
      <internalNodes>
        0 -1 5101 742293503 1069514111 -131 -1073807497 -131203 -4227073
        -1883283459 -9789967</internalNodes>
      <leafValues>
        -4.6455243229866028e-01 5.1911419630050659e-01</leafValues></_>
    <_>
      <internalNodes>
        0 -1 3960 1872751211 779040478 -796723277 542775805 2017145215
        1787648907 1636317047 -87040015</internalNodes>
      <leafValues>
        -6.6624081134796143e-01 3.5082191228866577e-01</leafValues></_>
    <_>
      <internalNodes>
        0 -1 5175 -650181057 1002073972 2130702327 2147417789
        -1224971004 -622721 -402751778 -923787963</internalNodes>
      <leafValues>
        -4.7527858614921570e-01 5.0248837471008301e-01</leafValues></_></weakClassifiers></stage11>
</opencv_storage>
