<?xml version="1.0"?>
<opencv_storage>
<stage14>
  <maxWeakCount>8</maxWeakCount>
  <stageThreshold>-8.7824261188507080e-01</stageThreshold>
  <weakClassifiers>
    <_>
      <internalNodes>
        0 -1 1645 -8979489 -645017521 -380528233 -539851554 -116655553
        -216559493 -1148585045 1945291200</internalNodes>
      <leafValues>
        -6.2171626091003418e-01 1.6717325150966644e-01</leafValues></_>
    <_>
      <internalNodes>
        0 -1 2547 -924407542 -1798798458 1104267724 -575225516
        1694122175 1084266505 -239792025 1990577547</internalNodes>
      <leafValues>
        -6.4200705289840698e-01 2.3891548812389374e-01</leafValues></_>
    <_>
      <internalNodes>
        0 -1 682 -1494299441 -335044606 -880099233 -1978991701
        1121209169 -820969438 -301923353 1584524605</internalNodes>
      <leafValues>
        -5.6867045164108276e-01 2.8165221214294434e-01</leafValues></_>
    <_>
      <internalNodes>
        0 -1 6291 2057242691 227740290 -1324264630 369289319 -704468018
        -91895160 -1434449238 542571355</internalNodes>
      <leafValues>
        -5.5752354860305786e-01 3.3298981189727783e-01</leafValues></_>
    <_>
      <internalNodes>
        0 -1 3834 2086540960 1951764564 186911167 -1248245734 -114726476
        -1197733118 1661313452 -4742705</internalNodes>
      <leafValues>
        -3.9887031912803650e-01 4.3687751889228821e-01</leafValues></_>
    <_>
      <internalNodes>
        0 -1 6571 -346056017 -1975971429 -2076110846 273777858
        -250895934 -2105343870 -1560098288 1179250210</internalNodes>
      <leafValues>
        -5.0883477926254272e-01 3.8664007186889648e-01</leafValues></_>
    <_>
      <internalNodes>
        0 -1 2729 -1642384485 526205119 268455953 1720353171 1157922931
        -2105540600 -500290789 -121210546</internalNodes>
      <leafValues>
        -4.8726803064346313e-01 3.8843756914138794e-01</leafValues></_>
    <_>
      <internalNodes>
        0 -1 1701 19650547 1493348496 1963065680 666973088 41962548
        -368111615 -938560902 1233736539</internalNodes>
      <leafValues>
        -4.9878329038619995e-01 3.8930651545524597e-01</leafValues></_></weakClassifiers></stage14>
</opencv_storage>
