<?xml version="1.0"?>
<opencv_storage>
<stage21>
  <maxWeakCount>8</maxWeakCount>
  <stageThreshold>-1.0524268150329590e+00</stageThreshold>
  <weakClassifiers>
    <_>
      <internalNodes>
        0 -1 2331 -563676968 -40058734 151329239 2010497363 1124782314
        -14776136 673250014 -105125429</internalNodes>
      <leafValues>
        -5.5207514762878418e-01 2.0076481997966766e-01</leafValues></_>
    <_>
      <internalNodes>
        0 -1 801 -614927009 -1906945837 -2113741862 -1527188067
        323899704 -2000543597 2031229264 2102454901</internalNodes>
      <leafValues>
        -5.8412122726440430e-01 2.2546325623989105e-01</leafValues></_>
    <_>
      <internalNodes>
        0 -1 5535 2104689883 964126431 2092694783 166459370 -228736822
        1467998165 788528890 -50856193</internalNodes>
      <leafValues>
        -3.6870774626731873e-01 4.2983126640319824e-01</leafValues></_>
    <_>
      <internalNodes>
        0 -1 6397 -1554272639 -1140407408 -1012616169 881950800
        1887671074 -1475655647 810117424 224573644</internalNodes>
      <leafValues>
        -6.1474317312240601e-01 2.5974792242050171e-01</leafValues></_>
    <_>
      <internalNodes>
        0 -1 4766 -891785148 852758724 553795995 -260013567 671202984
        -964435831 -1278688840 1833017483</internalNodes>
      <leafValues>
        -5.6473058462142944e-01 2.9081362485885620e-01</leafValues></_>
    <_>
      <internalNodes>
        0 -1 751 -1496324481 558981134 -1073538469 705695810 200659308
        -922214399 1074807322 1222033511</internalNodes>
      <leafValues>
        -5.3998309373855591e-01 2.9767292737960815e-01</leafValues></_>
    <_>
      <internalNodes>
        0 -1 2871 -1093767026 1334920379 570430803 1338312711 1753786351
        -343009279 741816362 464886827</internalNodes>
      <leafValues>
        -4.8082327842712402e-01 3.4812134504318237e-01</leafValues></_>
    <_>
      <internalNodes>
        0 -1 1731 637537207 1879423040 67176795 -1793637368 701446875
        -1324842847 512256033 98451824</internalNodes>
      <leafValues>
        -6.9202804565429688e-01 2.4583430588245392e-01</leafValues></_></weakClassifiers></stage21>
</opencv_storage>
