<?xml version="1.0"?>
<opencv_storage>
<stage8>
  <maxWeakCount>7</maxWeakCount>
  <stageThreshold>-1.1410576105117798e+00</stageThreshold>
  <weakClassifiers>
    <_>
      <internalNodes>
        0 -1 4125 -1918347907 -44534955 2018743103 -49163869 -1991915048
        -1294835553 -359926085 -5248801</internalNodes>
      <leafValues>
        -5.8717745542526245e-01 2.8982725739479065e-01</leafValues></_>
    <_>
      <internalNodes>
        0 -1 521 1321165534 -3435817 -1605877683 -318577021 74531282
        2021785730 26430126 -78589157</internalNodes>
      <leafValues>
        -5.5027502775192261e-01 3.3384764194488525e-01</leafValues></_>
    <_>
      <internalNodes>
        0 -1 3111 -1574116256 -787220671 1703003125 828359026 -66910565
        -612171365 -1274812229 -170407117</internalNodes>
      <leafValues>
        -6.1953181028366089e-01 3.1807765364646912e-01</leafValues></_>
    <_>
      <internalNodes>
        0 -1 5315 1901449372 405994911 585902208 998768614 1702752251
        1064304631 -1087508754 -77861027</internalNodes>
      <leafValues>
        -4.1969773173332214e-01 4.9206838011741638e-01</leafValues></_>
    <_>
      <internalNodes>
        0 -1 5024 475656144 -986689216 286858512 -1345371511 -1081115748
        -628579955 -1281637983 292282585</internalNodes>
      <leafValues>
        -6.5590786933898926e-01 3.1734094023704529e-01</leafValues></_>
    <_>
      <internalNodes>
        0 -1 2370 -1182166822 608309640 -1005494023 -113113982
        -527916460 764051689 -259397380 -1271420779</internalNodes>
      <leafValues>
        -5.7124203443527222e-01 3.8084021210670471e-01</leafValues></_>
    <_>
      <internalNodes>
        0 -1 6455 -79692009 -520126913 1862172671 -1371668497 -16785662
        -327155841 -285280530 -890241042</internalNodes>
      <leafValues>
        -4.5043531060218811e-01 4.9049255251884460e-01</leafValues></_></weakClassifiers></stage8>
</opencv_storage>
