<?xml version="1.0"?>
<opencv_storage>
<stage17>
  <maxWeakCount>10</maxWeakCount>
  <stageThreshold>-1.0446437597274780e+00</stageThreshold>
  <weakClassifiers>
    <_>
      <internalNodes>
        0 -1 6446 -20459745 1364271601 1368719881 2048651539 -498863478
        -737104880 -520881973 -355747921</internalNodes>
      <leafValues>
        -5.4204201698303223e-01 2.6068377494812012e-01</leafValues></_>
    <_>
      <internalNodes>
        0 -1 6599 1271345567 1329545687 319410638 -1434070639 -353552803
        -208944854 1259030640 1549324552</internalNodes>
      <leafValues>
        -6.2360078096389771e-01 2.2939886152744293e-01</leafValues></_>
    <_>
      <internalNodes>
        0 -1 4122 866064379 -67947199 285413791 -605367905 413678141
        -1400350575 1371617501 1567018125</internalNodes>
      <leafValues>
        -4.3451517820358276e-01 3.6095491051673889e-01</leafValues></_>
    <_>
      <internalNodes>
        0 -1 3378 -1124389465 1659326920 -669484028 -1198168000
        453145230 1310853193 -494149326 -1294996529</internalNodes>
      <leafValues>
        -4.6993216872215271e-01 3.8748854398727417e-01</leafValues></_>
    <_>
      <internalNodes>
        0 -1 1954 1493666310 1170294810 1090535450 -628995902 -801043727
        1107316896 -2122041150 2102028923</internalNodes>
      <leafValues>
        -5.2335602045059204e-01 3.6090651154518127e-01</leafValues></_>
    <_>
      <internalNodes>
        0 -1 4094 1532931436 -1256582923 1091043645 227426904 1252044893
        -1995800419 327843284 -1916106279</internalNodes>
      <leafValues>
        -5.5350810289382935e-01 3.1117132306098938e-01</leafValues></_>
    <_>
      <internalNodes>
        0 -1 3741 -2032830588 1363462599 537118460 1883723577 625020400
        360810687 -1341103172 -108397905</internalNodes>
      <leafValues>
        -5.2847141027450562e-01 3.2987198233604431e-01</leafValues></_>
    <_>
      <internalNodes>
        0 -1 509 -556271874 -2005950604 -2147466084 1914902981
        -214289292 -681848558 1125714586 -391160917</internalNodes>
      <leafValues>
        -5.3256291151046753e-01 3.4406146407127380e-01</leafValues></_>
    <_>
      <internalNodes>
        0 -1 3875 -984340665 1023662233 -2130585167 365285545 1497391340
        -603848051 1259024193 732586871</internalNodes>
      <leafValues>
        -6.1503291130065918e-01 2.9226335883140564e-01</leafValues></_>
    <_>
      <internalNodes>
        0 -1 6550 1373490949 680915076 268470288 1114403147 -998070390
        -2113699838 420749508 -782570509</internalNodes>
      <leafValues>
        -4.6973919868469238e-01 4.3656674027442932e-01</leafValues></_></weakClassifiers></stage17>
</opencv_storage>
