<?xml version="1.0"?>
<opencv_storage>
<stage16>
  <maxWeakCount>8</maxWeakCount>
  <stageThreshold>-1.5195118188858032e+00</stageThreshold>
  <weakClassifiers>
    <_>
      <internalNodes>
        0 -1 3031 -90710561 -719786790 1049565 1700596756 -1325102934
        -21445678 -1845454402 -20723081</internalNodes>
      <leafValues>
        -5.3779071569442749e-01 3.3018869161605835e-01</leafValues></_>
    <_>
      <internalNodes>
        0 -1 4111 -13236611 1591615897 -654306849 1530413917 -2095353609
        -114228982 -1936793347 -1082985108</internalNodes>
      <leafValues>
        -4.9767208099365234e-01 3.4905463457107544e-01</leafValues></_>
    <_>
      <internalNodes>
        0 -1 6003 1778232846 12816715 -1306699774 -360017519 398418497
        1906360452 -211701417 -151128837</internalNodes>
      <leafValues>
        -6.2753802537918091e-01 2.7060982584953308e-01</leafValues></_>
    <_>
      <internalNodes>
        0 -1 5920 -1122814198 524282930 -1989850991 1979099272
        -2084702231 -1702255735 151947420 -571502276</internalNodes>
      <leafValues>
        -5.1836067438125610e-01 3.3194759488105774e-01</leafValues></_>
    <_>
      <internalNodes>
        0 -1 5042 -451476328 1597571076 77912347 2077087822 -2105368432
        -292969400 671121539 -794181335</internalNodes>
      <leafValues>
        -4.3729728460311890e-01 4.2816340923309326e-01</leafValues></_>
    <_>
      <internalNodes>
        0 -1 1711 895580826 -1525267904 -803780771 391204880 2068570116
        -123419999 -1974818318 -2007861697</internalNodes>
      <leafValues>
        -4.6686464548110962e-01 3.8482305407524109e-01</leafValues></_>
    <_>
      <internalNodes>
        0 -1 1456 -238554054 314792448 -804691888 -1274669680 1125225394
        833584 1627743320 274129390</internalNodes>
      <leafValues>
        -6.1249744892120361e-01 3.1280824542045593e-01</leafValues></_>
    <_>
      <internalNodes>
        0 -1 3434 1572113138 964841695 -1819148906 1354027446 1344931230
        1225296080 459858831 -1148802263</internalNodes>
      <leafValues>
        -5.2393335103988647e-01 3.5505551099777222e-01</leafValues></_></weakClassifiers></stage16>
</opencv_storage>
