<?xml version="1.0"?>
<opencv_storage>
<stage20>
  <maxWeakCount>9</maxWeakCount>
  <stageThreshold>-9.8596715927124023e-01</stageThreshold>
  <weakClassifiers>
    <_>
      <internalNodes>
        0 -1 5775 -487058340 -609480572 -654159459 2132360033
        -1453157748 -36662560 -296164405 -1790978</internalNodes>
      <leafValues>
        -5.8838599920272827e-01 1.4149443805217743e-01</leafValues></_>
    <_>
      <internalNodes>
        0 -1 3869 -544159016 1489559933 -1811591128 956649739 656214924
        68157548 28002507 485476459</internalNodes>
      <leafValues>
        -6.0585951805114746e-01 2.2338213026523590e-01</leafValues></_>
    <_>
      <internalNodes>
        0 -1 6052 -2027998460 55019850 285484817 1008935427 -2138080458
        -843570023 -233947792 1571679158</internalNodes>
      <leafValues>
        -6.2563073635101318e-01 2.3115767538547516e-01</leafValues></_>
    <_>
      <internalNodes>
        0 -1 251 1527443370 -718569621 -277744029 -12720286 1342175223
        1321138165 -8915288 -526465</internalNodes>
      <leafValues>
        -3.1528037786483765e-01 5.2465522289276123e-01</leafValues></_>
    <_>
      <internalNodes>
        0 -1 6025 -279217726 134496526 -1876848574 -494806696 1136845636
        1074429954 -1327381626 88603043</internalNodes>
      <leafValues>
        -7.1376675367355347e-01 2.3246103525161743e-01</leafValues></_>
    <_>
      <internalNodes>
        0 -1 3197 -2073503920 -569170362 4314593 -1766479851 5594488
        241819881 -1970657883 -657733111</internalNodes>
      <leafValues>
        -5.8942776918411255e-01 2.8046238422393799e-01</leafValues></_>
    <_>
      <internalNodes>
        0 -1 825 -1970896204 -1581103597 835899857 2112050385 34283644
        -1831829352 -932470043 2079558084</internalNodes>
      <leafValues>
        -5.4366570711135864e-01 3.1572103500366211e-01</leafValues></_>
    <_>
      <internalNodes>
        0 -1 4040 -1063992720 1422950544 1082683902 1321685530 37535411
        -1727389548 1208505438 1409894186</internalNodes>
      <leafValues>
        -5.9483462572097778e-01 2.7353110909461975e-01</leafValues></_>
    <_>
      <internalNodes>
        0 -1 6368 126805140 -1658632048 -1593617272 1754453142 806341033
        320995426 -177484925 522110404</internalNodes>
      <leafValues>
        -5.4892098903656006e-01 3.0508372187614441e-01</leafValues></_></weakClassifiers></stage20>
</opencv_storage>
