<?xml version="1.0"?>
<opencv_storage>
<stage1>
  <maxWeakCount>4</maxWeakCount>
  <stageThreshold>-1.5883736610412598e+00</stageThreshold>
  <weakClassifiers>
    <_>
      <internalNodes>
        0 -1 396 -246877614 -251465466 1142947898 -96026482 1644445701
        1359020032 -440008565 -92813073</internalNodes>
      <leafValues>
        -7.7939838171005249e-01 3.6273115873336792e-01</leafValues></_>
    <_>
      <internalNodes>
        0 -1 3111 -163789792 -176948447 1963041685 -170830830 -532543846
        1354893441 -737009222 -17839217</internalNodes>
      <leafValues>
        -6.4459538459777832e-01 4.4719561934471130e-01</leafValues></_>
    <_>
      <internalNodes>
        0 -1 6219 -1596988504 -1437269753 -645349234 -464199710
        -1416584382 1091338463 -242687086 -419437621</internalNodes>
      <leafValues>
        -6.4657115936279297e-01 4.6309229731559753e-01</leafValues></_>
    <_>
      <internalNodes>
        0 -1 6309 467611215 582210463 1107842059 -1560395021 -1205952244
        2014023684 -359032790 -491799585</internalNodes>
      <leafValues>
        -6.2747228145599365e-01 4.8023977875709534e-01</leafValues></_></weakClassifiers></stage1>
</opencv_storage>
