<?xml version="1.0"?>
<opencv_storage>
<cascade>
  <stageType>BOOST</stageType>
  <featureType>LBP</featureType>
  <height>64</height>
  <width>64</width>
  <stageParams>
    <boostType>GAB</boostType>
    <minHitRate>9.9500000476837158e-01</minHitRate>
    <maxFalseAlarm>5.0000000000000000e-01</maxFalseAlarm>
    <weightTrimRate>9.4999999999999996e-01</weightTrimRate>
    <maxDepth>1</maxDepth>
    <maxWeakCount>100</maxWeakCount></stageParams>
  <featureParams>
    <maxCatCount>256</maxCatCount>
    <featSize>1</featSize></featureParams>
  <stageNum>20</stageNum>
  <stages>
    <!-- stage 0 -->
    <_>
      <maxWeakCount>2</maxWeakCount>
      <stageThreshold>3.6037933081388474e-02</stageThreshold>
      <weakClassifiers>
        <_>
          <internalNodes>
            0 -1 7 -830020064 81980982 2130702064 -92274713 1132228208
            899153687 2013262711 -268435457</internalNodes>
          <leafValues>
            -7.5221240520477295e-01 8.2781457901000977e-01</leafValues></_>
        <_>
          <internalNodes>
            0 -1 0 1078116482 537412162 168259 539033869 1074368522
            371195968 -1744731853 -447761649</internalNodes>
          <leafValues>
            -6.9668185710906982e-01 7.8825032711029053e-01</leafValues></_></weakClassifiers></_>
    <!-- stage 1 -->
    <_>
      <maxWeakCount>4</maxWeakCount>
      <stageThreshold>1.4909471385180950e-02</stageThreshold>
      <weakClassifiers>
        <_>
          <internalNodes>
            0 -1 10 1860885744 -822083601 -1262551056 -521867528
            2004279164 -671154433 -9469963 -436535306</internalNodes>
          <leafValues>
            -5.1072961091995239e-01 7.5209379196166992e-01</leafValues></_>
        <_>
          <internalNodes>
            0 -1 56 536887572 361365765 16842761 -1341112319 268500993
            -1409236862 -2147446271 -1397956095</internalNodes>
          <leafValues>
            -7.5829613208770752e-01 6.0646891593933105e-01</leafValues></_>
        <_>
          <internalNodes>
            0 -1 37 774379600 1571870440 -9437441 394212848 -1354890052
            -1092649090 -1187446994 -125110529</internalNodes>
          <leafValues>
            -6.3003087043762207e-01 7.0509225130081177e-01</leafValues></_>
        <_>
          <internalNodes>
            0 -1 45 509808308 -1576009533 92275968 -1291747199
            1753219342 674234496 1686348160 -7747446</internalNodes>
          <leafValues>
            -6.8398046493530273e-01 6.6706943511962891e-01</leafValues></_></weakClassifiers></_>
    <!-- stage 2 -->
    <_>
      <maxWeakCount>4</maxWeakCount>
      <stageThreshold>-1.1339715719223022e+00</stageThreshold>
      <weakClassifiers>
        <_>
          <internalNodes>
            0 -1 53 757073173 784137217 -1778384899 -1097793792
            -1896055307 -1073741825 -98955 -1632338572</internalNodes>
          <leafValues>
            -6.4761906862258911e-01 7.5161290168762207e-01</leafValues></_>
        <_>
          <internalNodes>
            0 -1 26 1107341450 285806736 -2113929200 361299973
            1073959368 403702786 285425803 380060123</internalNodes>
          <leafValues>
            -6.9277137517929077e-01 7.1359121799468994e-01</leafValues></_>
        <_>
          <internalNodes>
            0 -1 18 -2107420136 1394341744 1744516529 833609699
            -453074760 1728049151 1165652463 -134756881</internalNodes>
          <leafValues>
            -6.0444730520248413e-01 7.4126058816909790e-01</leafValues></_>
        <_>
          <internalNodes>
            0 -1 24 -2130570977 -1254063744 -2147382800 -1887432191
            813760705 -1602224096 -939524061 -1400190204</internalNodes>
          <leafValues>
            -5.9549641609191895e-01 7.8171110153198242e-01</leafValues></_></weakClassifiers></_>
    <!-- stage 3 -->
    <_>
      <maxWeakCount>4</maxWeakCount>
      <stageThreshold>-1.3078066520392895e-02</stageThreshold>
      <weakClassifiers>
        <_>
          <internalNodes>
            0 -1 38 243142455 538253298 1879036021 8407103 2130669831 -1
            -33657259 -17006732</internalNodes>
          <leafValues>
            -6.3720929622650146e-01 7.5934958457946777e-01</leafValues></_>
        <_>
          <internalNodes>
            0 -1 55 537409879 -1585446252 336611729 -1786773503 37767369
            -738098944 597690507 -1699159167</internalNodes>
          <leafValues>
            -6.3379383087158203e-01 7.1737158298492432e-01</leafValues></_>
        <_>
          <internalNodes>
            0 -1 70 144712063 594190355 -1040084964 -1844445184
            -1593163670 -2138898383 202113216 -23269184</internalNodes>
          <leafValues>
            -7.0977163314819336e-01 6.8292528390884399e-01</leafValues></_>
        <_>
          <internalNodes>
            0 -1 44 38209883 621806865 -2088644579 268577284 1098924038
            -671055863 -522182656 -23985659</internalNodes>
          <leafValues>
            -7.7616566419601440e-01 6.5320712327957153e-01</leafValues></_></weakClassifiers></_>
    <!-- stage 4 -->
    <_>
      <maxWeakCount>4</maxWeakCount>
      <stageThreshold>-1.0560013055801392e+00</stageThreshold>
      <weakClassifiers>
        <_>
          <internalNodes>
            0 -1 69 778911031 -1359020033 -32836 -1359069185 -1090551937
            -536870913 -34111628 -118030347</internalNodes>
          <leafValues>
            -4.5454546809196472e-01 7.4829930067062378e-01</leafValues></_>
        <_>
          <internalNodes>
            0 -1 36 1489125864 1024067075 -801046379 419508299
            1216348191 -671088638 213161 957891658</internalNodes>
          <leafValues>
            -6.6709363460540771e-01 6.3624858856201172e-01</leafValues></_>
        <_>
          <internalNodes>
            0 -1 35 -1979596800 386203666 4268051 1359188225 -863862130
            -1878982656 -938830934 -1012168049</internalNodes>
          <leafValues>
            -6.4685451984405518e-01 6.2837010622024536e-01</leafValues></_>
        <_>
          <internalNodes>
            0 -1 54 -289636611 1073250076 -131073 1005535229 -1342242823
            -1073807361 -1611088451 -1707452940</internalNodes>
          <leafValues>
            -5.9084999561309814e-01 7.1098262071609497e-01</leafValues></_></weakClassifiers></_>
    <!-- stage 5 -->
    <_>
      <maxWeakCount>4</maxWeakCount>
      <stageThreshold>1.1514113098382950e-01</stageThreshold>
      <weakClassifiers>
        <_>
          <internalNodes>
            0 -1 48 229924725 -1360069378 -1 -293826242 -33417 -1 -98444
            -1934328459</internalNodes>
          <leafValues>
            -6.2694299221038818e-01 7.0800626277923584e-01</leafValues></_>
        <_>
          <internalNodes>
            0 -1 32 -1308114910 -2120751242 1106539676 829947683
            1643595462 -155649 -731431713 -168040449</internalNodes>
          <leafValues>
            -5.8578962087631226e-01 7.2626125812530518e-01</leafValues></_>
        <_>
          <internalNodes>
            0 -1 21 4418133 33636800 268503312 -2104487160 1812273248
            -2012199409 -1706424047 -657284911</internalNodes>
          <leafValues>
            -6.9922596216201782e-01 6.2293022871017456e-01</leafValues></_>
        <_>
          <internalNodes>
            0 -1 25 -265867520 -152784965 -1627459589 1436811242
            -990060560 620035957 -167945041 -638190217</internalNodes>
          <leafValues>
            -6.0710740089416504e-01 7.2396063804626465e-01</leafValues></_></weakClassifiers></_>
    <!-- stage 6 -->
    <_>
      <maxWeakCount>5</maxWeakCount>
      <stageThreshold>-3.7338763475418091e-01</stageThreshold>
      <weakClassifiers>
        <_>
          <internalNodes>
            0 -1 34 184649360 -1666502661 1006368689 1010040825
            475993489 264224767 528474107 532676607</internalNodes>
          <leafValues>
            -5.0000000000000000e-01 7.3754155635833740e-01</leafValues></_>
        <_>
          <internalNodes>
            0 -1 52 1068523389 536866815 -1073741825 -1082327041
            536772093 2088763391 805273597 -16810115</internalNodes>
          <leafValues>
            -5.1347506046295166e-01 7.2648233175277710e-01</leafValues></_>
        <_>
          <internalNodes>
            0 -1 9 -788411774 138416418 1073762377 285284353 -1475837920
            -2012610527 1358956883 1763922667</internalNodes>
          <leafValues>
            -6.3464397192001343e-01 6.7749655246734619e-01</leafValues></_>
        <_>
          <internalNodes>
            0 -1 27 -670838734 554763264 1114177 1510547713 655880
            -1308491765 469698 -755240621</internalNodes>
          <leafValues>
            -6.4118713140487671e-01 6.9235652685165405e-01</leafValues></_>
        <_>
          <internalNodes>
            0 -1 60 -1865788559 285220864 -2147450723 -1878456320
            -2004877128 -1073020927 -1836777335 -1142799797</internalNodes>
          <leafValues>
            -6.3376355171203613e-01 6.9583481550216675e-01</leafValues></_></weakClassifiers></_>
    <!-- stage 7 -->
    <_>
      <maxWeakCount>4</maxWeakCount>
      <stageThreshold>1.1190590262413025e-01</stageThreshold>
      <weakClassifiers>
        <_>
          <internalNodes>
            0 -1 57 251092799 -1358954497 -1 -1359577091 1073512317 -1
            -32907 -1359446412</internalNodes>
          <leafValues>
            -6.2189054489135742e-01 7.2337043285369873e-01</leafValues></_>
        <_>
          <internalNodes>
            0 -1 65 -1777315339 805568769 -1869316047 -1241512959
            -1039081413 -1702854640 -1468005972 -24096271</internalNodes>
          <leafValues>
            -5.7385581731796265e-01 6.8314993381500244e-01</leafValues></_>
        <_>
          <internalNodes>
            0 -1 8 -1466449471 -1895755763 -786787878 -658505726 135234
            -1198522367 -562020318 -108334453</internalNodes>
          <leafValues>
            -5.6926751136779785e-01 6.9490951299667358e-01</leafValues></_>
        <_>
          <internalNodes>
            0 -1 58 340877365 429965377 -2130042860 -770162680
            -1845182280 -938999800 -1476360063 -837230031</internalNodes>
          <leafValues>
            -6.4426302909851074e-01 7.2000539302825928e-01</leafValues></_></weakClassifiers></_>
    <!-- stage 8 -->
    <_>
      <maxWeakCount>2</maxWeakCount>
      <stageThreshold>8.6432918906211853e-02</stageThreshold>
      <weakClassifiers>
        <_>
          <internalNodes>
            0 -1 49 754724727 -1359020033 -3 -1359052801 2139053943
            -16809985 -163979 -1393000587</internalNodes>
          <leafValues>
            -6.3285022974014282e-01 7.3996788263320923e-01</leafValues></_>
        <_>
          <internalNodes>
            0 -1 66 1047297845 742326269 -16449 989167614 -32899
            -536870913 -16810505 -1124713003</internalNodes>
          <leafValues>
            -6.2626904249191284e-01 7.1928316354751587e-01</leafValues></_></weakClassifiers></_>
    <!-- stage 9 -->
    <_>
      <maxWeakCount>4</maxWeakCount>
      <stageThreshold>-3.0072280205786228e-03</stageThreshold>
      <weakClassifiers>
        <_>
          <internalNodes>
            0 -1 47 -1090896005 -8421379 -65537 -1073774593 -32771
            -32771 -1073774595 247357301</internalNodes>
          <leafValues>
            -5.1923078298568726e-01 7.0418006181716919e-01</leafValues></_>
        <_>
          <internalNodes>
            0 -1 15 -1605988350 -1856957933 268452123 822198288
            1350566040 -653754224 19595 -1605402325</internalNodes>
          <leafValues>
            -6.3452684879302979e-01 6.2094956636428833e-01</leafValues></_>
        <_>
          <internalNodes>
            0 -1 62 -1916337385 239144970 268435609 -2110652287
            -1072562176 -939376640 545391393 -823743855</internalNodes>
          <leafValues>
            -6.8613189458847046e-01 5.6365662813186646e-01</leafValues></_>
        <_>
          <internalNodes>
            0 -1 28 1342406682 -1056861936 311323 335659030 553878098
            -368310272 1208041619 -569781757</internalNodes>
          <leafValues>
            -6.3631707429885864e-01 6.3476115465164185e-01</leafValues></_></weakClassifiers></_>
    <!-- stage 10 -->
    <_>
      <maxWeakCount>3</maxWeakCount>
      <stageThreshold>-4.7676196694374084e-01</stageThreshold>
      <weakClassifiers>
        <_>
          <internalNodes>
            0 -1 80 555242261 109142033 353419285 637534227 1082133061
            -519921535 34736677 243584224</internalNodes>
          <leafValues>
            -8.6394560337066650e-01 6.6910690069198608e-01</leafValues></_>
        <_>
          <internalNodes>
            0 -1 43 247414775 -1146802177 -536870913 -1377861771
            536854519 -65537 -8841 -1359020676</internalNodes>
          <leafValues>
            -5.1879435777664185e-01 7.9996526241302490e-01</leafValues></_>
        <_>
          <internalNodes>
            0 -1 42 545276176 830738625 1359024131 1531380051 76000
            -1735884672 16988395 -104234980</internalNodes>
          <leafValues>
            -6.2707453966140747e-01 6.5885388851165771e-01</leafValues></_></weakClassifiers></_>
    <!-- stage 11 -->
    <_>
      <maxWeakCount>4</maxWeakCount>
      <stageThreshold>-8.8345915079116821e-01</stageThreshold>
      <weakClassifiers>
        <_>
          <internalNodes>
            0 -1 6 774324776 53441455 1870594559 2055171822 1593454550
            1879027711 -1637989121 2139078647</internalNodes>
          <leafValues>
            -5.2195119857788086e-01 6.9919997453689575e-01</leafValues></_>
        <_>
          <internalNodes>
            0 -1 3 1477439702 1392640029 -494387190 1088606210
            1765876067 -2126413816 75563160 1750106185</internalNodes>
          <leafValues>
            -5.6230068206787109e-01 6.2911540269851685e-01</leafValues></_>
        <_>
          <internalNodes>
            0 -1 76 -260835298 243187327 -17825921 977239527 -92325238
            -16822273 -188827622 -290209802</internalNodes>
          <leafValues>
            -4.8095932602882385e-01 7.7274698019027710e-01</leafValues></_>
        <_>
          <internalNodes>
            0 -1 19 -1292931165 720371695 -1431653597 -1498677273
            -1627431237 -411144193 -1812049893 1404302335</internalNodes>
          <leafValues>
            -5.7195425033569336e-01 6.9959026575088501e-01</leafValues></_></weakClassifiers></_>
    <!-- stage 12 -->
    <_>
      <maxWeakCount>4</maxWeakCount>
      <stageThreshold>1.2902092933654785e-01</stageThreshold>
      <weakClassifiers>
        <_>
          <internalNodes>
            0 -1 22 -4472900 -855707649 -67624 -788987906 -537407618
            1979580415 2012706132 -2056126491</internalNodes>
          <leafValues>
            -5.6756758689880371e-01 6.7441862821578979e-01</leafValues></_>
        <_>
          <internalNodes>
            0 -1 17 -501154134 1126346666 -1477120265 904232953
            -993478665 1616771071 1895086013 -680429573</internalNodes>
          <leafValues>
            -5.3815180063247681e-01 7.1457171440124512e-01</leafValues></_>
        <_>
          <internalNodes>
            0 -1 75 -780807982 152043589 299008 268489035 1519092360
            -2126479352 -787832064 -1705004858</internalNodes>
          <leafValues>
            -5.4038858413696289e-01 6.6920995712280273e-01</leafValues></_>
        <_>
          <internalNodes>
            0 -1 14 -1793400776 -1068433408 1073741824 -937394047
            1761673306 -1039532030 -2138341238 -50227109</internalNodes>
          <leafValues>
            -6.7645585536956787e-01 5.9726440906524658e-01</leafValues></_></weakClassifiers></_>
    <!-- stage 13 -->
    <_>
      <maxWeakCount>5</maxWeakCount>
      <stageThreshold>-4.7661659121513367e-01</stageThreshold>
      <weakClassifiers>
        <_>
          <internalNodes>
            0 -1 51 -1409279944 452493240 16916351 1073498112 1971285934
            -1073741953 -1656919043 787972349</internalNodes>
          <leafValues>
            -4.2489269375801086e-01 7.1859294176101685e-01</leafValues></_>
        <_>
          <internalNodes>
            0 -1 67 -113248487 171963251 1845458704 297189179 -419440820
            523140983 -167774831 1375731709</internalNodes>
          <leafValues>
            -5.0652354955673218e-01 6.7823493480682373e-01</leafValues></_>
        <_>
          <internalNodes>
            0 -1 74 206133465 1225359443 8454661 1879183516 -1068982109
            -805306360 1224998939 1289388488</internalNodes>
          <leafValues>
            -6.0448133945465088e-01 6.5983510017395020e-01</leafValues></_>
        <_>
          <internalNodes>
            0 -1 64 -2067057585 -1068302134 -1069547039 969490465
            -1610549238 939556864 -2128058003 1309565188</internalNodes>
          <leafValues>
            -6.7837202548980713e-01 5.9685385227203369e-01</leafValues></_>
        <_>
          <internalNodes>
            0 -1 79 1619227657 34111553 -2143289341 86023 -1040056254
            -1610579960 -2138865526 -360021049</internalNodes>
          <leafValues>
            -6.7529994249343872e-01 5.9416735172271729e-01</leafValues></_></weakClassifiers></_>
    <!-- stage 14 -->
    <_>
      <maxWeakCount>5</maxWeakCount>
      <stageThreshold>-5.5728948116302490e-01</stageThreshold>
      <weakClassifiers>
        <_>
          <internalNodes>
            0 -1 50 783232831 712998911 -268435725 578224127 2147450751
            1744830463 2013233013 -831619082</internalNodes>
          <leafValues>
            -5.8888888359069824e-01 6.7076921463012695e-01</leafValues></_>
        <_>
          <internalNodes>
            0 -1 13 -368388238 1489142786 16802076 1745010689 21627008
            134365192 134369338 1180221838</internalNodes>
          <leafValues>
            -6.1044448614120483e-01 6.3203150033950806e-01</leafValues></_>
        <_>
          <internalNodes>
            0 -1 77 -268439589 -1364267233 -1342178735 438562611
            -1342211821 -2030605057 -536971984 -1850214601</internalNodes>
          <leafValues>
            -5.1625037193298340e-01 7.3369747400283813e-01</leafValues></_>
        <_>
          <internalNodes>
            0 -1 4 -494673781 -2103901952 -2113927035 -1132396541
            671130122 -2130149376 8519722 1703051659</internalNodes>
          <leafValues>
            -6.3212573528289795e-01 6.1170703172683716e-01</leafValues></_>
        <_>
          <internalNodes>
            0 -1 71 1141588054 17498688 49409 353009729 24 -401948671
            131215 1917046858</internalNodes>
          <leafValues>
            -7.1307092905044556e-01 5.9082072973251343e-01</leafValues></_></weakClassifiers></_>
    <!-- stage 15 -->
    <_>
      <maxWeakCount>5</maxWeakCount>
      <stageThreshold>-2.9283070564270020e-01</stageThreshold>
      <weakClassifiers>
        <_>
          <internalNodes>
            0 -1 29 263212849 1878917119 -1 -1073938435 -16875651
            -33587201 -4228 1711078904</internalNodes>
          <leafValues>
            -4.6017700433731079e-01 7.1854305267333984e-01</leafValues></_>
        <_>
          <internalNodes>
            0 -1 72 788495999 926842879 -16846849 -360906883 -1073799371
            -8421377 2130706277 -50659978</internalNodes>
          <leafValues>
            -5.0980764627456665e-01 6.9494390487670898e-01</leafValues></_>
        <_>
          <internalNodes>
            0 -1 63 -749734319 18092046 67109058 1430257922 10535050
            -662691838 81939 1032044634</internalNodes>
          <leafValues>
            -5.4992902278900146e-01 6.9990372657775879e-01</leafValues></_>
        <_>
          <internalNodes>
            0 -1 59 -720342854 -347008945 1627408413 -771735168
            -2122282362 -2113814512 1210616977 -1056511872</internalNodes>
          <leafValues>
            -5.9924733638763428e-01 6.7580902576446533e-01</leafValues></_>
        <_>
          <internalNodes>
            0 -1 78 -570966041 1340997622 -68157510 -17825922 -4341929
            -1879572481 -65547 -83953690</internalNodes>
          <leafValues>
            -5.5714124441146851e-01 7.1595299243927002e-01</leafValues></_></weakClassifiers></_>
    <!-- stage 16 -->
    <_>
      <maxWeakCount>4</maxWeakCount>
      <stageThreshold>-1.6002821922302246e-01</stageThreshold>
      <weakClassifiers>
        <_>
          <internalNodes>
            0 -1 5 17847125 587268175 -2079293069 -1031499615
            -2134871983 -258994165 -929474560 738222113</internalNodes>
          <leafValues>
            -8.4722220897674561e-01 6.5889215469360352e-01</leafValues></_>
        <_>
          <internalNodes>
            0 -1 1 286281757 594707 1082147457 -1132408827 -536791005
            -1870639008 -1952825307 940147177</internalNodes>
          <leafValues>
            -7.7506136894226074e-01 5.2857065200805664e-01</leafValues></_>
        <_>
          <internalNodes>
            0 -1 33 64036955 1370558593 268439557 -704643063 302514202
            -1073672048 1098910351 796917912</internalNodes>
          <leafValues>
            -7.2567570209503174e-01 6.0292917490005493e-01</leafValues></_>
        <_>
          <internalNodes>
            0 -1 16 -1979642984 295063760 50336089 93323280 1082730636
            -1165883343 67684520 -1979055829</internalNodes>
          <leafValues>
            -6.2181526422500610e-01 7.0717805624008179e-01</leafValues></_></weakClassifiers></_>
    <!-- stage 17 -->
    <_>
      <maxWeakCount>5</maxWeakCount>
      <stageThreshold>-4.9043300747871399e-01</stageThreshold>
      <weakClassifiers>
        <_>
          <internalNodes>
            0 -1 81 233897839 -1342242825 -1 251199487 1605730151 -129
            -137 2104786805</internalNodes>
          <leafValues>
            -5.3535354137420654e-01 6.8987339735031128e-01</leafValues></_>
        <_>
          <internalNodes>
            0 -1 39 134220660 -1824521919 16818765 294232280 486574270
            -1543469048 151556280 732637211</internalNodes>
          <leafValues>
            -5.8960038423538208e-01 6.0663974285125732e-01</leafValues></_>
        <_>
          <internalNodes>
            0 -1 2 -800661430 -805207788 -1073475549 -465199864
            553658923 135270402 192988195 -476970382</internalNodes>
          <leafValues>
            -5.9843105077743530e-01 6.0461348295211792e-01</leafValues></_>
        <_>
          <internalNodes>
            0 -1 31 -1612196493 -1342267086 -1342218409 -1678679484
            -1350571970 -8423555 -1968657189 1980831637</internalNodes>
          <leafValues>
            -5.2483183145523071e-01 7.1151602268218994e-01</leafValues></_>
        <_>
          <internalNodes>
            0 -1 46 -1878568496 1033388113 17125633 1359745153
            -2147216810 -1677262838 -1809808870 -1823599743</internalNodes>
          <leafValues>
            -6.6368323564529419e-01 6.1555975675582886e-01</leafValues></_></weakClassifiers></_>
    <!-- stage 18 -->
    <_>
      <maxWeakCount>6</maxWeakCount>
      <stageThreshold>3.5982616245746613e-02</stageThreshold>
      <weakClassifiers>
        <_>
          <internalNodes>
            0 -1 42 740296720 329711484 -268636161 2013261823 805207541
            -50462722 1577017085 704632828</internalNodes>
          <leafValues>
            -4.7272726893424988e-01 7.1147543191909790e-01</leafValues></_>
        <_>
          <internalNodes>
            0 -1 61 990479568 415629328 229632 -2130374623 -1072594804
            -1992291712 -2146723831 -1113599540</internalNodes>
          <leafValues>
            -5.7204794883728027e-01 6.1010712385177612e-01</leafValues></_>
        <_>
          <internalNodes>
            0 -1 11 1142468816 -410873789 134218130 -1676639463
            268500994 -1977090038 -1610378613 -1432247701</internalNodes>
          <leafValues>
            -6.8269205093383789e-01 5.5369234085083008e-01</leafValues></_>
        <_>
          <internalNodes>
            0 -1 30 1426137512 -1325383471 33620169 1158873221
            1073741863 -2012053376 268599961 713162764</internalNodes>
          <leafValues>
            -6.3430953025817871e-01 5.8254355192184448e-01</leafValues></_>
        <_>
          <internalNodes>
            0 -1 12 -135409798 498904579 -553759693 1073653495
            1878908924 -1619003530 -1929421315 956264279</internalNodes>
          <leafValues>
            -5.5179238319396973e-01 6.8170171976089478e-01</leafValues></_>
        <_>
          <internalNodes>
            0 -1 23 -2130704304 -1849688061 151011393 1594097921
            1091702948 -1725366128 176161304 455573538</internalNodes>
          <leafValues>
            -6.3365906476974487e-01 6.2264806032180786e-01</leafValues></_></weakClassifiers></_>
    <!-- stage 19 -->
    <_>
      <maxWeakCount>5</maxWeakCount>
      <stageThreshold>-1.1684129387140274e-01</stageThreshold>
      <weakClassifiers>
        <_>
          <internalNodes>
            0 -1 41 -1062200784 1055948582 -98628 -268435596 -864653315
            -1627586564 -839977484 -848351362</internalNodes>
          <leafValues>
            -3.6842104792594910e-01 7.2212690114974976e-01</leafValues></_>
        <_>
          <internalNodes>
            0 -1 73 38941049 281280537 302022801 302120979 -2113863491
            -1073217408 -2147450646 262930954</internalNodes>
          <leafValues>
            -5.6019401550292969e-01 6.0254913568496704e-01</leafValues></_>
        <_>
          <internalNodes>
            0 -1 68 -50401699 -1090850887 -268470403 -177537171
            2147007997 -25231425 -50571523 526968496</internalNodes>
          <leafValues>
            -4.6720024943351746e-01 7.4940055608749390e-01</leafValues></_>
        <_>
          <internalNodes>
            0 -1 40 1839387216 2074664548 1593376693 1471217585
            2012536012 -1241710723 -25329666 -18481189</internalNodes>
          <leafValues>
            -4.6157738566398621e-01 7.8715318441390991e-01</leafValues></_>
        <_>
          <internalNodes>
            0 -1 20 -700809853 857943969 -1702928710 -21250142 510119003
            2101313531 880476046 -50389122</internalNodes>
          <leafValues>
            -5.1273977756500244e-01 7.1135586500167847e-01</leafValues></_></weakClassifiers></_></stages>
  <features>
    <_>
      <rect>
        0 2 15 9</rect></_>
    <_>
      <rect>
        0 23 1 1</rect></_>
    <_>
      <rect>
        0 26 15 10</rect></_>
    <_>
      <rect>
        0 28 8 7</rect></_>
    <_>
      <rect>
        0 32 13 8</rect></_>
    <_>
      <rect>
        0 61 1 1</rect></_>
    <_>
      <rect>
        1 1 15 17</rect></_>
    <_>
      <rect>
        1 24 21 13</rect></_>
    <_>
      <rect>
        2 11 2 1</rect></_>
    <_>
      <rect>
        3 9 13 9</rect></_>
    <_>
      <rect>
        4 40 18 8</rect></_>
    <_>
      <rect>
        5 38 11 8</rect></_>
    <_>
      <rect>
        6 14 12 10</rect></_>
    <_>
      <rect>
        6 27 6 7</rect></_>
    <_>
      <rect>
        6 40 11 8</rect></_>
    <_>
      <rect>
        8 6 13 8</rect></_>
    <_>
      <rect>
        9 1 12 5</rect></_>
    <_>
      <rect>
        9 9 9 7</rect></_>
    <_>
      <rect>
        10 6 15 8</rect></_>
    <_>
      <rect>
        10 13 18 8</rect></_>
    <_>
      <rect>
        11 20 11 13</rect></_>
    <_>
      <rect>
        11 32 1 1</rect></_>
    <_>
      <rect>
        11 49 17 5</rect></_>
    <_>
      <rect>
        12 0 6 2</rect></_>
    <_>
      <rect>
        13 0 1 1</rect></_>
    <_>
      <rect>
        14 11 8 5</rect></_>
    <_>
      <rect>
        14 18 9 9</rect></_>
    <_>
      <rect>
        14 22 11 13</rect></_>
    <_>
      <rect>
        14 36 11 7</rect></_>
    <_>
      <rect>
        16 57 1 2</rect></_>
    <_>
      <rect>
        16 58 3 2</rect></_>
    <_>
      <rect>
        17 2 10 4</rect></_>
    <_>
      <rect>
        17 6 13 9</rect></_>
    <_>
      <rect>
        18 60 1 1</rect></_>
    <_>
      <rect>
        19 0 15 21</rect></_>
    <_>
      <rect>
        19 7 11 6</rect></_>
    <_>
      <rect>
        19 15 8 11</rect></_>
    <_>
      <rect>
        20 0 7 4</rect></_>
    <_>
      <rect>
        20 30 1 1</rect></_>
    <_>
      <rect>
        21 0 3 2</rect></_>
    <_>
      <rect>
        21 0 9 3</rect></_>
    <_>
      <rect>
        22 9 5 6</rect></_>
    <_>
      <rect>
        23 0 4 2</rect></_>
    <_>
      <rect>
        23 9 1 1</rect></_>
    <_>
      <rect>
        24 27 1 1</rect></_>
    <_>
      <rect>
        25 23 9 11</rect></_>
    <_>
      <rect>
        25 53 2 3</rect></_>
    <_>
      <rect>
        27 18 1 6</rect></_>
    <_>
      <rect>
        28 20 1 1</rect></_>
    <_>
      <rect>
        28 22 1 1</rect></_>
    <_>
      <rect>
        28 27 2 1</rect></_>
    <_>
      <rect>
        30 0 3 2</rect></_>
    <_>
      <rect>
        30 1 1 1</rect></_>
    <_>
      <rect>
        30 4 1 1</rect></_>
    <_>
      <rect>
        30 53 3 3</rect></_>
    <_>
      <rect>
        31 2 1 1</rect></_>
    <_>
      <rect>
        31 19 1 1</rect></_>
    <_>
      <rect>
        32 23 1 1</rect></_>
    <_>
      <rect>
        32 52 1 1</rect></_>
    <_>
      <rect>
        32 57 7 2</rect></_>
    <_>
      <rect>
        33 15 1 2</rect></_>
    <_>
      <rect>
        33 28 8 12</rect></_>
    <_>
      <rect>
        33 34 1 1</rect></_>
    <_>
      <rect>
        33 35 10 6</rect></_>
    <_>
      <rect>
        33 56 2 2</rect></_>
    <_>
      <rect>
        36 2 1 1</rect></_>
    <_>
      <rect>
        37 0 1 1</rect></_>
    <_>
      <rect>
        37 30 9 7</rect></_>
    <_>
      <rect>
        38 57 5 2</rect></_>
    <_>
      <rect>
        39 29 1 1</rect></_>
    <_>
      <rect>
        39 39 1 1</rect></_>
    <_>
      <rect>
        41 6 6 5</rect></_>
    <_>
      <rect>
        42 14 1 1</rect></_>
    <_>
      <rect>
        43 0 2 1</rect></_>
    <_>
      <rect>
        43 57 3 2</rect></_>
    <_>
      <rect>
        45 33 6 4</rect></_>
    <_>
      <rect>
        46 1 6 4</rect></_>
    <_>
      <rect>
        46 31 6 6</rect></_>
    <_>
      <rect>
        49 32 2 1</rect></_>
    <_>
      <rect>
        52 4 4 6</rect></_>
    <_>
      <rect>
        61 16 1 1</rect></_>
    <_>
      <rect>
        61 54 1 1</rect></_></features></cascade>
</opencv_storage>
