<?xml version="1.0"?>
<opencv_storage>
<stage24>
  <maxWeakCount>5</maxWeakCount>
  <stageThreshold>-7.2027993202209473e-01</stageThreshold>
  <weakClassifiers>
    <_>
      <internalNodes>
        0 -1 228563 -1022226320 135266308 -2146123392 1140981761 167972
        -931004280 -2139054016 296225411</internalNodes>
      <leafValues>
        -7.8571426868438721e-01 5.8217269182205200e-01</leafValues></_>
    <_>
      <internalNodes>
        0 -1 165951 273145247 -1761279865 -788430823 2089848840
        -1073069895 -2147352576 411107369 771784840</internalNodes>
      <leafValues>
        -5.5315554141998291e-01 5.6184589862823486e-01</leafValues></_>
    <_>
      <internalNodes>
        0 -1 232376 546497056 -720269243 -1073721315 118521860
        -2113267168 293601298 -2147448693 -813662181</internalNodes>
      <leafValues>
        -6.4838987588882446e-01 5.4144537448883057e-01</leafValues></_>
    <_>
      <internalNodes>
        0 -1 65708 -528429041 890306562 16908738 1078050834 8392728
        1073741824 419698859 1369604811</internalNodes>
      <leafValues>
        -6.8352735042572021e-01 5.0933700799942017e-01</leafValues></_>
    <_>
      <internalNodes>
        0 -1 33925 -385753073 136028642 1098908689 -133890047 1291913864
        1073840648 285245466 -753793994</internalNodes>
      <leafValues>
        -6.0721510648727417e-01 6.1327421665191650e-01</leafValues></_></weakClassifiers></stage24>
</opencv_storage>
