<?xml version="1.0"?>
<opencv_storage>
<stage5>
  <maxWeakCount>4</maxWeakCount>
  <stageThreshold>1.1514113098382950e-01</stageThreshold>
  <weakClassifiers>
    <_>
      <internalNodes>
        0 -1 314748 229924725 -1360069378 -1 -293826242 -33417 -1 -98444
        -1934328459</internalNodes>
      <leafValues>
        -6.2694299221038818e-01 7.0800626277923584e-01</leafValues></_>
    <_>
      <internalNodes>
        0 -1 211715 -1308114910 -2120751242 1106539676 829947683
        1643595462 -155649 -731431713 -168040449</internalNodes>
      <leafValues>
        -5.8578962087631226e-01 7.2626125812530518e-01</leafValues></_>
    <_>
      <internalNodes>
        0 -1 151755 4418133 33636800 268503312 -2104487160 1812273248
        -2012199409 -1706424047 -657284911</internalNodes>
      <leafValues>
        -6.9922596216201782e-01 6.2293022871017456e-01</leafValues></_>
    <_>
      <internalNodes>
        0 -1 180939 -265867520 -152784965 -1627459589 1436811242
        -990060560 620035957 -167945041 -638190217</internalNodes>
      <leafValues>
        -6.0710740089416504e-01 7.2396063804626465e-01</leafValues></_></weakClassifiers></stage5>
</opencv_storage>
