<?xml version="1.0"?>
<opencv_storage>
<stage12>
  <maxWeakCount>4</maxWeakCount>
  <stageThreshold>1.2902092933654785e-01</stageThreshold>
  <weakClassifiers>
    <_>
      <internalNodes>
        0 -1 154049 -4472900 -855707649 -67624 -788987906 -537407618
        1979580415 2012706132 -2056126491</internalNodes>
      <leafValues>
        -5.6756758689880371e-01 6.7441862821578979e-01</leafValues></_>
    <_>
      <internalNodes>
        0 -1 122280 -501154134 1126346666 -1477120265 904232953
        -993478665 1616771071 1895086013 -680429573</internalNodes>
      <leafValues>
        -5.3815180063247681e-01 7.1457171440124512e-01</leafValues></_>
    <_>
      <internalNodes>
        0 -1 416435 -780807982 152043589 299008 268489035 1519092360
        -2126479352 -787832064 -1705004858</internalNodes>
      <leafValues>
        -5.4038858413696289e-01 6.6920995712280273e-01</leafValues></_>
    <_>
      <internalNodes>
        0 -1 92419 -1793400776 -1068433408 1073741824 -937394047
        1761673306 -1039532030 -2138341238 -50227109</internalNodes>
      <leafValues>
        -6.7645585536956787e-01 5.9726440906524658e-01</leafValues></_></weakClassifiers></stage12>
</opencv_storage>
