<?xml version="1.0"?>
<opencv_storage>
<stage18>
  <maxWeakCount>6</maxWeakCount>
  <stageThreshold>3.5982616245746613e-02</stageThreshold>
  <weakClassifiers>
    <_>
      <internalNodes>
        0 -1 268192 740296720 329711484 -268636161 2013261823 805207541
        -50462722 1577017085 704632828</internalNodes>
      <leafValues>
        -4.7272726893424988e-01 7.1147543191909790e-01</leafValues></_>
    <_>
      <internalNodes>
        0 -1 352139 990479568 415629328 229632 -2130374623 -1072594804
        -1992291712 -2146723831 -1113599540</internalNodes>
      <leafValues>
        -5.7204794883728027e-01 6.1010712385177612e-01</leafValues></_>
    <_>
      <internalNodes>
        0 -1 79347 1142468816 -410873789 134218130 -1676639463 268500994
        -1977090038 -1610378613 -1432247701</internalNodes>
      <leafValues>
        -6.8269205093383789e-01 5.5369234085083008e-01</leafValues></_>
    <_>
      <internalNodes>
        0 -1 209589 1426137512 -1325383471 33620169 1158873221
        1073741863 -2012053376 268599961 713162764</internalNodes>
      <leafValues>
        -6.3430953025817871e-01 5.8254355192184448e-01</leafValues></_>
    <_>
      <internalNodes>
        0 -1 86513 -135409798 498904579 -553759693 1073653495 1878908924
        -1619003530 -1929421315 956264279</internalNodes>
      <leafValues>
        -5.5179238319396973e-01 6.8170171976089478e-01</leafValues></_>
    <_>
      <internalNodes>
        0 -1 154666 -2130704304 -1849688061 151011393 1594097921
        1091702948 -1725366128 176161304 455573538</internalNodes>
      <leafValues>
        -6.3365906476974487e-01 6.2264806032180786e-01</leafValues></_></weakClassifiers></stage18>
</opencv_storage>
