<?xml version="1.0"?>
<opencv_storage>
<stage0>
  <maxWeakCount>7</maxWeakCount>
  <stageThreshold>-1.7226285934448242e+00</stageThreshold>
  <weakClassifiers>
    <_>
      <internalNodes>
        0 -1 1836 -253239166 -254286797 1624465410 -234891585 -252189953
        1402458811 -254823425 -134217729</internalNodes>
      <leafValues>
        -6.6083484888076782e-01 3.3649554848670959e-01</leafValues></_>
    <_>
      <internalNodes>
        0 -1 467 -201144626 2064044578 -530414918 -228398961 1342504964
        1090847040 -328999009 -8389633</internalNodes>
      <leafValues>
        -5.4843240976333618e-01 4.1856989264488220e-01</leafValues></_>
    <_>
      <internalNodes>
        0 -1 6207 -268440817 720354287 -161481054 -420744278 -1083216057
        1161818959 -1052745 -134218753</internalNodes>
      <leafValues>
        -4.9362701177597046e-01 4.6361693739891052e-01</leafValues></_>
    <_>
      <internalNodes>
        0 -1 1230 -335566065 753924878 -495452670 -51449898 2013231943
        1080552299 -472401065 -134221825</internalNodes>
      <leafValues>
        -4.5326793193817139e-01 3.9869880676269531e-01</leafValues></_>
    <_>
      <internalNodes>
        0 -1 3048 1494208898 84922115 429881889 218627747 1372555931
        258399891 255838619 1473248959</internalNodes>
      <leafValues>
        -4.0208455920219421e-01 4.2733094096183777e-01</leafValues></_>
    <_>
      <internalNodes>
        0 -1 5921 -20989 1641004011 -156906782 -262292101 2013232133
        939476575 -403712014 -201853953</internalNodes>
      <leafValues>
        -4.1679731011390686e-01 3.9228874444961548e-01</leafValues></_>
    <_>
      <internalNodes>
        0 -1 2790 -402723154 1810544463 -488775002 -84017222 -435729913
        1147484267 -212075917 -151521289</internalNodes>
      <leafValues>
        -4.2896676063537598e-01 3.4987792372703552e-01</leafValues></_></weakClassifiers></stage0>
</opencv_storage>
