<?xml version="1.0"?>
<opencv_storage>
<stage21>
  <maxWeakCount>33</maxWeakCount>
  <stageThreshold>-1.2008376121520996e+00</stageThreshold>
  <weakClassifiers>
    <_>
      <internalNodes>
        0 -1 5806 -646194347 1004256767 2101563359 1499416899 616151720
        2030936491 -1742230886 -1157631014</internalNodes>
      <leafValues>
        -4.3170899152755737e-01 1.5985790640115738e-02</leafValues></_>
    <_>
      <internalNodes>
        0 -1 4554 -794306864 -632400262 -630040555 490202357 -1368404772
        -321204324 1651016171 -83164435</internalNodes>
      <leafValues>
        -1.5460582077503204e-01 2.9627645015716553e-01</leafValues></_>
    <_>
      <internalNodes>
        0 -1 689 -2134383066 1676296837 1511881743 -2037563257 553823247
        1719396573 500390319 -156882609</internalNodes>
      <leafValues>
        -3.0840620398521423e-01 1.3606895506381989e-01</leafValues></_>
    <_>
      <internalNodes>
        0 -1 1674 -1878998486 -2116562746 -777126787 -197932325
        1062518690 -101421007 -16523992 -450118269</internalNodes>
      <leafValues>
        -2.5845891237258911e-01 1.6228398680686951e-01</leafValues></_>
    <_>
      <internalNodes>
        0 -1 5846 1264536586 577428557 1291914358 680285042 -961211632
        2096861317 -199898746 -2095787118</internalNodes>
      <leafValues>
        -3.3336910605430603e-01 1.4058798551559448e-01</leafValues></_>
    <_>
      <internalNodes>
        0 -1 2031 1676012335 1942941669 720179834 -680412214 1859260303
        1255997020 -17325094 -108763793</internalNodes>
      <leafValues>
        -1.2723132967948914e-01 3.2266607880592346e-01</leafValues></_>
    <_>
      <internalNodes>
        0 -1 3873 -494140398 1690605776 956305626 -103222462 1627643996
        1089479074 1910556154 -6786587</internalNodes>
      <leafValues>
        -2.3157107830047607e-01 1.8586815893650055e-01</leafValues></_>
    <_>
      <internalNodes>
        0 -1 3200 -47449822 -672597977 1609629432 1473580721 1264711167
        1214078933 1986446871 -570596367</internalNodes>
      <leafValues>
        -1.6885858774185181e-01 2.5762379169464111e-01</leafValues></_>
    <_>
      <internalNodes>
        0 -1 6050 -1648407459 727159071 805519889 278591106 1539604616
        215156795 -1450420990 1452327408</internalNodes>
      <leafValues>
        -2.8234609961509705e-01 1.6949732601642609e-01</leafValues></_>
    <_>
      <internalNodes>
        0 -1 821 -996522853 263816019 -285110082 -1487503328 873198448
        834117907 1205908564 1632959350</internalNodes>
      <leafValues>
        -3.5972252488136292e-01 1.1067038774490356e-01</leafValues></_>
    <_>
      <internalNodes>
        0 -1 5686 -621284678 -5552262 -968167222 1530248191 -522726215
        -1928495415 -820047109 -582754337</internalNodes>
      <leafValues>
        -1.2841236591339111e-01 3.5569921135902405e-01</leafValues></_>
    <_>
      <internalNodes>
        0 -1 1691 763933994 -1630619808 228007165 1993564480 856416807
        -1164939064 1351524468 -1664786427</internalNodes>
      <leafValues>
        -3.0288520455360413e-01 1.4838793873786926e-01</leafValues></_>
    <_>
      <internalNodes>
        0 -1 3613 -730626846 -1148941420 79888221 88097456 1402692440
        709952024 -2046104791 -1887996340</internalNodes>
      <leafValues>
        -2.1412052214145660e-01 2.1067562699317932e-01</leafValues></_>
    <_>
      <internalNodes>
        0 -1 50 -143655937 -215987988 1878464251 158480776 718781520
        -1168806084 -681065667 2001831815</internalNodes>
      <leafValues>
        -2.0215360820293427e-01 2.3670737445354462e-01</leafValues></_>
    <_>
      <internalNodes>
        0 -1 520 -287931764 1712874554 -1542845218 706013015 1377925812
        1803239725 79955292 2080696366</internalNodes>
      <leafValues>
        -3.3388763666152954e-01 1.4908015727996826e-01</leafValues></_>
    <_>
      <internalNodes>
        0 -1 3482 40805386 173468087 -2080312320 1346824135 713769607
        1010317477 1930096656 833824965</internalNodes>
      <leafValues>
        -3.9112809300422668e-01 1.1202673614025116e-01</leafValues></_>
    <_>
      <internalNodes>
        0 -1 3208 -1165861342 -225778649 -2028433888 123751558
        -1807428691 -1610442719 -1608130910 1638672171</internalNodes>
      <leafValues>
        -2.9996731877326965e-01 1.5115886926651001e-01</leafValues></_>
    <_>
      <internalNodes>
        0 -1 5728 -541100768 5130092 210526240 810076306 1566784896
        342942013 -1752983294 1147546050</internalNodes>
      <leafValues>
        -4.4252914190292358e-01 9.1834023594856262e-02</leafValues></_>
    <_>
      <internalNodes>
        0 -1 5010 -180498286 -131630430 -1212419439 -134316314
        -1395192399 -1090519619 -757923861 -1732050965</internalNodes>
      <leafValues>
        -1.4006106555461884e-01 3.3849474787712097e-01</leafValues></_>
    <_>
      <internalNodes>
        0 -1 4555 -105126756 -1867492196 20253437 1273973909 855808055
        -935850313 892503443 154881599</internalNodes>
      <leafValues>
        -1.7499361932277679e-01 2.4832755327224731e-01</leafValues></_>
    <_>
      <internalNodes>
        0 -1 6485 743902986 705693019 -1601656920 782772948 101045792
        -359980831 -1604073016 425999168</internalNodes>
      <leafValues>
        -4.2172017693519592e-01 9.8081611096858978e-02</leafValues></_>
    <_>
      <internalNodes>
        0 -1 6590 -1904919776 235004608 1427125015 1242845258 1364925264
        -1978080735 1235229796 1289551104</internalNodes>
      <leafValues>
        -4.4418412446975708e-01 9.4269119203090668e-02</leafValues></_>
    <_>
      <internalNodes>
        0 -1 1181 642521296 1326517936 -1369408684 1545766137 134557768
        -686943967 34542513 1484374736</internalNodes>
      <leafValues>
        -3.7817654013633728e-01 1.1842468380928040e-01</leafValues></_>
    <_>
      <internalNodes>
        0 -1 3412 1592783419 -315938204 662641709 -1749030134 1220564467
        -38085257 2071758189 -169361577</internalNodes>
      <leafValues>
        -1.5957581996917725e-01 2.8917780518531799e-01</leafValues></_>
    <_>
      <internalNodes>
        0 -1 6026 2012469203 1998924494 1307181264 -1263677085
        1064163219 -1962312832 1494778026 -1986003351</internalNodes>
      <leafValues>
        -1.5524338185787201e-01 2.9794007539749146e-01</leafValues></_>
    <_>
      <internalNodes>
        0 -1 2851 732355222 534659674 -1035802538 1324302405 702755378
        -1198440448 1388796418 442615305</internalNodes>
      <leafValues>
        -2.9611924290657043e-01 1.6235227882862091e-01</leafValues></_>
    <_>
      <internalNodes>
        0 -1 4944 39542312 580505792 1519109120 620419300 317854242
        1792122984 1636856752 -1199254331</internalNodes>
      <leafValues>
        -4.1133883595466614e-01 9.4777747988700867e-02</leafValues></_>
    <_>
      <internalNodes>
        0 -1 5354 -2085248368 1082416832 143657920 2110572905 -342152976
        233369852 59144296 207014304</internalNodes>
      <leafValues>
        -3.8019987940788269e-01 1.2814292311668396e-01</leafValues></_>
    <_>
      <internalNodes>
        0 -1 6080 -696281316 -648070599 1845621553 604632274 448668443
        25807357 1540085806 145269746</internalNodes>
      <leafValues>
        -2.3864503204822540e-01 2.0568750798702240e-01</leafValues></_>
    <_>
      <internalNodes>
        0 -1 5717 -1177456805 114385683 1018647841 1938624444 535201433
        -1393016963 204965807 -818707525</internalNodes>
      <leafValues>
        -1.7669963836669922e-01 2.8004342317581177e-01</leafValues></_>
    <_>
      <internalNodes>
        0 -1 4904 1316523588 -603976152 -428625740 -283661496 935743347
        150649000 162275444 1099245607</internalNodes>
      <leafValues>
        -2.9824724793434143e-01 1.5844975411891937e-01</leafValues></_>
    <_>
      <internalNodes>
        0 -1 1130 457838247 575602305 -1341597088 942698664 -1063691260
        1645740332 -637404416 2103701850</internalNodes>
      <leafValues>
        -3.1297346949577332e-01 1.5006422996520996e-01</leafValues></_>
    <_>
      <internalNodes>
        0 -1 3087 -537068577 -40571396 520057532 -1489256469 1571790495
        -2063802381 1576974226 -1107362121</internalNodes>
      <leafValues>
        -1.1894787847995758e-01 4.1315060853958130e-01</leafValues></_></weakClassifiers></stage21>
</opencv_storage>
