<?xml version="1.0"?>
<opencv_storage>
<stage24>
  <maxWeakCount>31</maxWeakCount>
  <stageThreshold>-1.3475843667984009e+00</stageThreshold>
  <weakClassifiers>
    <_>
      <internalNodes>
        0 -1 926 -1928858309 -103963768 -1509691017 -171887 424832821
        -608449845 2126979528 -100667149</internalNodes>
      <leafValues>
        -4.5454546809196472e-01 -5.7287503033876419e-02</leafValues></_>
    <_>
      <internalNodes>
        0 -1 295 -1976652742 45000450 -1462477796 -496552253 531331579
        1715188752 1854932768 -50879653</internalNodes>
      <leafValues>
        -3.3368206024169922e-01 1.2577240169048309e-01</leafValues></_>
    <_>
      <internalNodes>
        0 -1 4621 -1884677000 -1146315364 -486534661 -1165410292
        596261821 1061396618 -1181827030 998324870</internalNodes>
      <leafValues>
        -3.0044922232627869e-01 1.3417811691761017e-01</leafValues></_>
    <_>
      <internalNodes>
        0 -1 3330 -1735201290 415777200 -996665275 748434880 1225938686
        1116227713 939676743 851342071</internalNodes>
      <leafValues>
        -2.7449429035186768e-01 1.6743507981300354e-01</leafValues></_>
    <_>
      <internalNodes>
        0 -1 1879 -13111385 2007809964 804719396 -203556958 1730654061
        1559556094 1425527690 -1042940312</internalNodes>
      <leafValues>
        -1.3949173688888550e-01 3.0703812837600708e-01</leafValues></_>
    <_>
      <internalNodes>
        0 -1 626 399324671 776213218 310407238 -1004358518 1112548101
        1125302276 894317541 1967438016</internalNodes>
      <leafValues>
        -2.9909494519233704e-01 1.5779700875282288e-01</leafValues></_>
    <_>
      <internalNodes>
        0 -1 5724 -652289551 1463500513 641547537 2000379703 -1483080710
        -1095942236 -2042786933 -567965697</internalNodes>
      <leafValues>
        -1.3195966184139252e-01 3.6444821953773499e-01</leafValues></_>
    <_>
      <internalNodes>
        0 -1 6220 -606356858 -477136462 1980158146 1369719774 1361776776
        352403584 1879569074 -926095198</internalNodes>
      <leafValues>
        -2.2048638761043549e-01 1.9939981400966644e-01</leafValues></_>
    <_>
      <internalNodes>
        0 -1 6269 282881387 715372471 889245787 139474317 1449416491
        1678326919 2046503231 282636832</internalNodes>
      <leafValues>
        -3.5561349987983704e-01 1.1340761184692383e-01</leafValues></_>
    <_>
      <internalNodes>
        0 -1 2603 621100038 1655418842 1418807452 -742172640 1350566588
        1260532121 843112602 -177376538</internalNodes>
      <leafValues>
        -2.1315646171569824e-01 2.1177862584590912e-01</leafValues></_>
    <_>
      <internalNodes>
        0 -1 6105 -33726695 -355431553 1295925105 993243069 -277416006
        -499450614 -1619460585 -351289366</internalNodes>
      <leafValues>
        -1.5483045578002930e-01 2.9704001545906067e-01</leafValues></_>
    <_>
      <internalNodes>
        0 -1 4535 -356947326 1595018547 1272994049 1561133585 -502751168
        918431925 596283426 1720095375</internalNodes>
      <leafValues>
        -2.8813990950584412e-01 1.5693491697311401e-01</leafValues></_>
    <_>
      <internalNodes>
        0 -1 5375 -893781342 -1954017756 -130256526 -109486347 255735197
        1218182444 318563578 -725164936</internalNodes>
      <leafValues>
        -1.8980163335800171e-01 2.4206341803073883e-01</leafValues></_>
    <_>
      <internalNodes>
        0 -1 6597 1604042083 1399316791 462471447 572455818 1913123653
        447822611 1267329552 1615157995</internalNodes>
      <leafValues>
        -2.8999644517898560e-01 1.6627265512943268e-01</leafValues></_>
    <_>
      <internalNodes>
        0 -1 5905 -490746066 551330128 -1073427248 1075628236 1934360644
        1929904139 -1868518660 -238839256</internalNodes>
      <leafValues>
        -3.2223349809646606e-01 1.5100866556167603e-01</leafValues></_>
    <_>
      <internalNodes>
        0 -1 5050 -17569799 1507137687 505978813 1996463175 -1927024664
        -323393539 -1439445330 -1947222597</internalNodes>
      <leafValues>
        -1.4085872471332550e-01 3.9284983277320862e-01</leafValues></_>
    <_>
      <internalNodes>
        0 -1 4555 1740299007 -573221289 -2074736356 1605321823
        -1970668889 2042474247 -1682879477 -1108134725</internalNodes>
      <leafValues>
        -1.0967918485403061e-01 3.9423787593841553e-01</leafValues></_>
    <_>
      <internalNodes>
        0 -1 2672 449634942 1218860832 816582170 983819522 1605517857
        228749312 1561092763 408590613</internalNodes>
      <leafValues>
        -3.4298130869865417e-01 1.4193971455097198e-01</leafValues></_>
    <_>
      <internalNodes>
        0 -1 3252 -100534664 -257340112 1661872985 -232142411 -827424547
        411488459 42619798 439753702</internalNodes>
      <leafValues>
        -2.5908121466636658e-01 1.8354269862174988e-01</leafValues></_>
    <_>
      <internalNodes>
        0 -1 4710 -4204325 -268551502 -1193070731 1571933472 -570651432
        -1225359433 -1664858134 -230013189</internalNodes>
      <leafValues>
        -1.2657998502254486e-01 3.8637974858283997e-01</leafValues></_>
    <_>
      <internalNodes>
        0 -1 10 -372737859 2135196304 822137117 1327727275 310403445
        -1369243077 -342883740 556360675</internalNodes>
      <leafValues>
        -2.7363586425781250e-01 1.7364926636219025e-01</leafValues></_>
    <_>
      <internalNodes>
        0 -1 4792 -1469182852 -1667994976 680558963 59768908 1783126328
        -1943500543 -1729351638 757268750</internalNodes>
      <leafValues>
        -3.2641735672950745e-01 1.5321004390716553e-01</leafValues></_>
    <_>
      <internalNodes>
        0 -1 495 1782864432 810847628 1490033809 -1736942889 163855793
        147920970 -305192877 1295942256</internalNodes>
      <leafValues>
        -3.4907859563827515e-01 1.4352253079414368e-01</leafValues></_>
    <_>
      <internalNodes>
        0 -1 4330 -929571084 -212025902 -921128772 612926089 -1751644748
        280647889 295462987 425407957</internalNodes>
      <leafValues>
        -2.5339108705520630e-01 2.0090325176715851e-01</leafValues></_>
    <_>
      <internalNodes>
        0 -1 716 667230569 571335365 -603936634 2023125906 692715813
        1904216344 1622791428 1077978662</internalNodes>
      <leafValues>
        -4.1185998916625977e-01 1.1375946551561356e-01</leafValues></_>
    <_>
      <internalNodes>
        0 -1 6036 -629683811 2008790289 322641950 -45089645 -60906358
        204849035 1170716043 -587006995</internalNodes>
      <leafValues>
        -1.3646820187568665e-01 3.9222994446754456e-01</leafValues></_>
    <_>
      <internalNodes>
        0 -1 3849 -561378046 38281608 151049316 395192366 1077441207
        430514329 1403029990 -341209913</internalNodes>
      <leafValues>
        -2.7105164527893066e-01 1.8713955581188202e-01</leafValues></_>
    <_>
      <internalNodes>
        0 -1 5980 -1080308218 716846 1001449730 -963973103 1402019846
        1180565506 -336420758 -1001135656</internalNodes>
      <leafValues>
        -3.2969665527343750e-01 1.5738186240196228e-01</leafValues></_>
    <_>
      <internalNodes>
        0 -1 5577 1987571654 956552003 -1962638682 -1327734332 709396608
        -1785130446 -1972425832 1917460546</internalNodes>
      <leafValues>
        -2.3997043073177338e-01 2.1690128743648529e-01</leafValues></_>
    <_>
      <internalNodes>
        0 -1 5088 134889490 1091526659 -2059755053 1882505623 1749016
        -415788406 -388677339 -1184849221</internalNodes>
      <leafValues>
        -2.8538295626640320e-01 1.7845569550991058e-01</leafValues></_>
    <_>
      <internalNodes>
        0 -1 5744 -950063339 -646073007 -1521168859 -239579145 92595773
        1554630581 215554295 -1901962565</internalNodes>
      <leafValues>
        -1.8837085366249084e-01 2.7383410930633545e-01</leafValues></_></weakClassifiers></stage24>
</opencv_storage>
