<?xml version="1.0"?>
<opencv_storage>
<stage18>
  <maxWeakCount>33</maxWeakCount>
  <stageThreshold>-1.3005032539367676e+00</stageThreshold>
  <weakClassifiers>
    <_>
      <internalNodes>
        0 -1 4641 1610194716 1038058963 982838269 838201503 1536760254
        -7599954 2038472122 -4199729</internalNodes>
      <leafValues>
        -4.4493913650512695e-01 -3.0339084565639496e-02</leafValues></_>
    <_>
      <internalNodes>
        0 -1 664 -363688714 662327270 -458056457 539401678 1629505640
        -31056574 -865686888 575939011</internalNodes>
      <leafValues>
        -3.8809543848037720e-01 8.8141441345214844e-02</leafValues></_>
    <_>
      <internalNodes>
        0 -1 5636 -872423289 424935198 -1401984118 31848316 1059059592
        326563784 -286793526 -693108737</internalNodes>
      <leafValues>
        -1.7176264524459839e-01 2.4294809997081757e-01</leafValues></_>
    <_>
      <internalNodes>
        0 -1 3875 -235210829 -441475744 -902332640 -1578667198
        1694167038 -809315091 2083869770 438989943</internalNodes>
      <leafValues>
        -1.8132814764976501e-01 2.3324584960937500e-01</leafValues></_>
    <_>
      <internalNodes>
        0 -1 5431 -2070016495 -1862615518 301752181 1709850227
        -1929959310 -1497532939 -941804047 -906298629</internalNodes>
      <leafValues>
        -2.0020332932472229e-01 2.0919790863990784e-01</leafValues></_>
    <_>
      <internalNodes>
        0 -1 3378 -1702017138 1610892942 1135430 -1168483886 1466060942
        1154035874 -526993997 -221262377</internalNodes>
      <leafValues>
        -2.5417217612266541e-01 1.6272880136966705e-01</leafValues></_>
    <_>
      <internalNodes>
        0 -1 3524 -1342183678 7492032 1757271843 656001431 -1616328190
        486481923 1571376001 -406586701</internalNodes>
      <leafValues>
        -3.7662723660469055e-01 1.0721436887979507e-01</leafValues></_>
    <_>
      <internalNodes>
        0 -1 632 2141976126 2134746487 653681822 2129489581 1178572735
        1114071037 1306937012 -237667212</internalNodes>
      <leafValues>
        -1.8449594080448151e-01 2.2447457909584045e-01</leafValues></_>
    <_>
      <internalNodes>
        0 -1 5716 -8495655 1606317812 -954576815 1594188022 774434234
        -1900521590 706567323 -644758213</internalNodes>
      <leafValues>
        -1.5113484859466553e-01 2.8268033266067505e-01</leafValues></_>
    <_>
      <internalNodes>
        0 -1 3490 -24199634 1921570249 618266874 848237832 -1979087614
        1292516425 -1031286042 1032463</internalNodes>
      <leafValues>
        -3.0717611312866211e-01 1.3229304552078247e-01</leafValues></_>
    <_>
      <internalNodes>
        0 -1 1641 109724507 -436682190 -562014106 -1245130700 852257596
        -578066366 723794196 930503220</internalNodes>
      <leafValues>
        -2.7737867832183838e-01 1.6015896201133728e-01</leafValues></_>
    <_>
      <internalNodes>
        0 -1 6336 1809780000 763679882 1015697931 -393965670 1756456450
        1431892155 -1062693650 -623462295</internalNodes>
      <leafValues>
        -2.9795557260513306e-01 1.4739646017551422e-01</leafValues></_>
    <_>
      <internalNodes>
        0 -1 2531 -1605651936 1183846100 -1785885435 1191675070
        -511654844 207164442 -1576176882 -1424046070</internalNodes>
      <leafValues>
        -3.7239617109298706e-01 1.0785315185785294e-01</leafValues></_>
    <_>
      <internalNodes>
        0 -1 4225 -738266915 -47560096 1248983967 974503708 -1828855376
        -73492507 7010506 -543427921</internalNodes>
      <leafValues>
        -1.0324446856975555e-01 4.2206194996833801e-01</leafValues></_>
    <_>
      <internalNodes>
        0 -1 4021 -6581520 -676252495 455271391 1325878303 -908869390
        -181668282 -1643129141 -639938827</internalNodes>
      <leafValues>
        -1.4105576276779175e-01 3.0591821670532227e-01</leafValues></_>
    <_>
      <internalNodes>
        0 -1 4617 743927559 -1428542513 1699747461 933480541 -771706827
        444769339 168393083 1699381012</internalNodes>
      <leafValues>
        -2.6463669538497925e-01 1.5745317935943604e-01</leafValues></_>
    <_>
      <internalNodes>
        0 -1 32 675718688 -1563426288 -1374136802 1612534928 1498025900
        1002147944 1829261921 -853935981</internalNodes>
      <leafValues>
        -3.3977696299552917e-01 1.2693741917610168e-01</leafValues></_>
    <_>
      <internalNodes>
        0 -1 1066 -12583313 1873717986 1744660258 -168173408 1417373209
        955186606 1727341909 -570952490</internalNodes>
      <leafValues>
        -2.1046885848045349e-01 2.2129888832569122e-01</leafValues></_>
    <_>
      <internalNodes>
        0 -1 3913 -567638384 1668454441 1001340320 -1517444837 407524504
        414095345 683621027 1541841109</internalNodes>
      <leafValues>
        -2.9944330453872681e-01 1.4509102702140808e-01</leafValues></_>
    <_>
      <internalNodes>
        0 -1 1499 135220060 -1495758710 1427823077 546720379 101059136
        -2051519843 -1593685227 814166951</internalNodes>
      <leafValues>
        -3.6791986227035522e-01 1.1664422601461411e-01</leafValues></_>
    <_>
      <internalNodes>
        0 -1 5319 989207366 528568665 982642204 -1230899899 596332644
        1677200513 2093552829 -86183467</internalNodes>
      <leafValues>
        -2.5357875227928162e-01 1.7064133286476135e-01</leafValues></_>
    <_>
      <internalNodes>
        0 -1 4585 1174550740 406586076 2083559759 224338077 -1202584416
        1936270141 -1610904913 992118871</internalNodes>
      <leafValues>
        -2.3422616720199585e-01 1.9433462619781494e-01</leafValues></_>
    <_>
      <internalNodes>
        0 -1 2721 1299097778 833751770 -1739449954 1629514710 26188993
        1510132235 1431402014 1530952479</internalNodes>
      <leafValues>
        -2.5321266055107117e-01 1.7449256777763367e-01</leafValues></_>
    <_>
      <internalNodes>
        0 -1 3965 271988528 1095169008 576831352 -1277053272 -1125494480
        -1814396535 2066236850 907756865</internalNodes>
      <leafValues>
        -3.4619691967964172e-01 1.3195069134235382e-01</leafValues></_>
    <_>
      <internalNodes>
        0 -1 6074 -844648685 -705399825 -98551 -1789591725 775892781
        217014231 -1125384929 -119668742</internalNodes>
      <leafValues>
        -1.6728691756725311e-01 2.7816492319107056e-01</leafValues></_>
    <_>
      <internalNodes>
        0 -1 5825 1737717768 614268280 1629739574 5282629 914823940
        1272055227 -2096385536 880179</internalNodes>
      <leafValues>
        -5.4868972301483154e-01 8.8371925055980682e-02</leafValues></_>
    <_>
      <internalNodes>
        0 -1 5874 1934797515 1129443326 1038417761 431544946 1076659868
        -545833018 542957184 -244463651</internalNodes>
      <leafValues>
        -1.6678915917873383e-01 2.7456879615783691e-01</leafValues></_>
    <_>
      <internalNodes>
        0 -1 6562 751139636 -2030404662 -1743767151 677649336 1095459857
        -895426269 1794201120 1343288424</internalNodes>
      <leafValues>
        -4.2821681499481201e-01 9.9657461047172546e-02</leafValues></_>
    <_>
      <internalNodes>
        0 -1 5257 -1747869030 -813084361 -2054730546 1078478528
        -1040216926 1305905156 743810642 420993425</internalNodes>
      <leafValues>
        -2.6429447531700134e-01 1.6973561048507690e-01</leafValues></_>
    <_>
      <internalNodes>
        0 -1 2432 -483675269 -692795332 -1619038235 2096957492 799926783
        1039904748 358771225 -307270524</internalNodes>
      <leafValues>
        -1.5529279410839081e-01 2.8322160243988037e-01</leafValues></_>
    <_>
      <internalNodes>
        0 -1 5332 -910296064 285486224 1237641554 759780047 1594177766
        -888126766 -18566430 -1004142835</internalNodes>
      <leafValues>
        -2.3515366017818451e-01 1.8541280925273895e-01</leafValues></_>
    <_>
      <internalNodes>
        0 -1 1196 537664304 1124297712 -569987037 691065348 1498178445
        -1207558013 -1698150344 1832702660</internalNodes>
      <leafValues>
        -3.7206381559371948e-01 1.2841154634952545e-01</leafValues></_>
    <_>
      <internalNodes>
        0 -1 1133 233049258 570499732 -1068875262 2061516410 -309034888
        1047771491 -1866462814 2051154602</internalNodes>
      <leafValues>
        -3.7423685193061829e-01 1.1820660531520844e-01</leafValues></_></weakClassifiers></stage18>
</opencv_storage>
