<?xml version="1.0"?>
<opencv_storage>
<stage7>
  <maxWeakCount>19</maxWeakCount>
  <stageThreshold>-1.3296840190887451e+00</stageThreshold>
  <weakClassifiers>
    <_>
      <internalNodes>
        0 -1 476 106901311 651648991 -688918977 -1161303121 2145351287
        2138587107 -98444 -34078730</internalNodes>
      <leafValues>
        -5.7722276449203491e-01 -4.1413150727748871e-02</leafValues></_>
    <_>
      <internalNodes>
        0 -1 6144 1809788447 587169375 1790408447 847107583 2046776844
        2130606687 -128984854 -84148481</internalNodes>
      <leafValues>
        -3.3570277690887451e-01 2.4683775007724762e-01</leafValues></_>
    <_>
      <internalNodes>
        0 -1 808 -69210113 -1342190081 1553727486 -154217986 982494839
        -4199429 -911477771 -134218817</internalNodes>
      <leafValues>
        -3.2376837730407715e-01 2.5082558393478394e-01</leafValues></_>
    <_>
      <internalNodes>
        0 -1 4410 -353375041 -45074 -135266573 -1435599881 -1073741825
        -1613266953 1995405047 -83953707</internalNodes>
      <leafValues>
        -2.3187714815139771e-01 3.3802407979965210e-01</leafValues></_>
    <_>
      <internalNodes>
        0 -1 838 570597939 490398208 1704843165 1572693640 1321019374
        -7602193 62747635 1594746807</internalNodes>
      <leafValues>
        -3.2674887776374817e-01 2.4225395917892456e-01</leafValues></_>
    <_>
      <internalNodes>
        0 -1 4926 -1347744213 735137051 -196345864 549567478 524172620
        234520419 1996257140 -251724811</internalNodes>
      <leafValues>
        -4.0870064496994019e-01 1.9011640548706055e-01</leafValues></_>
    <_>
      <internalNodes>
        0 -1 1380 -823204097 2007952063 1711303711 -219223954 1294405167
        1582015695 -12759329 -9962713</internalNodes>
      <leafValues>
        -3.1301277875900269e-01 2.2793863713741302e-01</leafValues></_>
    <_>
      <internalNodes>
        0 -1 6531 804207467 684718569 -1415581840 49577425 434060147
        1341250019 -960048715 -825172291</internalNodes>
      <leafValues>
        -3.3917525410652161e-01 2.0957306027412415e-01</leafValues></_>
    <_>
      <internalNodes>
        0 -1 4918 496864688 427871792 682513776 -1120929072 -385996888
        -1197593608 1306080856 -555756811</internalNodes>
      <leafValues>
        -3.4850257635116577e-01 1.9845160841941833e-01</leafValues></_>
    <_>
      <internalNodes>
        0 -1 6003 -540926 -2102460949 -549196800 1251211231 2098951750
        191084880 -677907998 -453790257</internalNodes>
      <leafValues>
        -3.8143870234489441e-01 1.6801473498344421e-01</leafValues></_>
    <_>
      <internalNodes>
        0 -1 21 -466687234 -1089806616 -242159109 -134710121 693662583
        795830221 1439989745 -35128457</internalNodes>
      <leafValues>
        -2.8817307949066162e-01 2.1694411337375641e-01</leafValues></_>
    <_>
      <internalNodes>
        0 -1 3759 -794636160 -1139782655 -700676739 1893794833
        -956785464 -287176784 1084424075 -1253578758</internalNodes>
      <leafValues>
        -2.8749158978462219e-01 2.2689308226108551e-01</leafValues></_>
    <_>
      <internalNodes>
        0 -1 6599 1666126591 190035451 -1254402369 81459935 265118561
        2121001818 1858197780 1414577812</internalNodes>
      <leafValues>
        -4.2259460687637329e-01 1.5971322357654572e-01</leafValues></_>
    <_>
      <internalNodes>
        0 -1 2058 -347607249 -892935217 1275392186 -756209954 1525609991
        1266088794 -153097100 -439091457</internalNodes>
      <leafValues>
        -3.1289801001548767e-01 2.0813608169555664e-01</leafValues></_>
    <_>
      <internalNodes>
        0 -1 914 -1172290538 1644304170 1314658935 993968537 -2137060352
        -73735294 1078577405 -109126931</internalNodes>
      <leafValues>
        -3.6865955591201782e-01 1.5782181918621063e-01</leafValues></_>
    <_>
      <internalNodes>
        0 -1 5289 218333210 285972469 51587088 169865072 1037556402
        784034256 39536020 233962545</internalNodes>
      <leafValues>
        -4.1239148378372192e-01 1.8150195479393005e-01</leafValues></_>
    <_>
      <internalNodes>
        0 -1 5466 -1433923568 672855147 857668725 552628572 -1972449956
        -112481651 -1930396728 -1372563911</internalNodes>
      <leafValues>
        -4.3105173110961914e-01 1.4378175139427185e-01</leafValues></_>
    <_>
      <internalNodes>
        0 -1 6025 -290506330 1177477070 -1795952046 2023619050
        1628170758 1095745943 -1322851388 -1060650017</internalNodes>
      <leafValues>
        -3.5891249775886536e-01 1.7909900844097137e-01</leafValues></_>
    <_>
      <internalNodes>
        0 -1 4433 -661777284 -1717758946 -276243241 162787792 412896936
        -2054410875 375093209 -1407617181</internalNodes>
      <leafValues>
        -3.0222186446189880e-01 2.1862104535102844e-01</leafValues></_></weakClassifiers></stage7>
</opencv_storage>
