<?xml version="1.0"?>
<opencv_storage>
<stage22>
  <maxWeakCount>33</maxWeakCount>
  <stageThreshold>-1.2784659862518311e+00</stageThreshold>
  <weakClassifiers>
    <_>
      <internalNodes>
        0 -1 294 -274207297 -1367160406 -2070836078 -537631804
        2132541113 1222345176 -7605012 -70276197</internalNodes>
      <leafValues>
        -4.6100658178329468e-01 -6.0036074370145798e-02</leafValues></_>
    <_>
      <internalNodes>
        0 -1 5816 242352216 174203260 -671040737 308498768 -1562469912
        -379113375 -1844946292 939545379</internalNodes>
      <leafValues>
        -4.0244442224502563e-01 9.6807971596717834e-02</leafValues></_>
    <_>
      <internalNodes>
        0 -1 3654 -507166208 1868328452 -217522726 199416397 -470798174
        1352404649 -1071428370 -906900532</internalNodes>
      <leafValues>
        -3.0716332793235779e-01 1.2837064266204834e-01</leafValues></_>
    <_>
      <internalNodes>
        0 -1 3671 1795870936 -1178639948 402440151 -765983680 -354367300
        -268509731 -903304084 -48560492</internalNodes>
      <leafValues>
        -1.2615032494068146e-01 3.0533611774444580e-01</leafValues></_>
    <_>
      <internalNodes>
        0 -1 5393 -17834799 -46425118 -1229705167 -11537297 -1353460230
        -1416691916 -681914929 -538983265</internalNodes>
      <leafValues>
        -9.1737449169158936e-02 4.8048064112663269e-01</leafValues></_>
    <_>
      <internalNodes>
        0 -1 6213 1867384334 717431117 1216469386 15368874 1654328128
        38928452 194761667 1969550331</internalNodes>
      <leafValues>
        -4.4978013634681702e-01 1.2171534448862076e-01</leafValues></_>
    <_>
      <internalNodes>
        0 -1 3324 -772495545 -235752274 -805479866 2108154368 -30557283
        -1057598987 753095630 -102370541</internalNodes>
      <leafValues>
        -1.6943281888961792e-01 2.7965608239173889e-01</leafValues></_>
    <_>
      <internalNodes>
        0 -1 5887 -812930821 1462138558 -860340591 300644196 855464183
        1341707759 -1667644331 -101068843</internalNodes>
      <leafValues>
        -1.5001676976680756e-01 2.6986104249954224e-01</leafValues></_>
    <_>
      <internalNodes>
        0 -1 3497 1311181473 -9240463 235362350 1517093026 181077019
        -1159578406 184498383 -630721861</internalNodes>
      <leafValues>
        -2.2828096151351929e-01 1.8832635879516602e-01</leafValues></_>
    <_>
      <internalNodes>
        0 -1 4449 881461249 49234338 -1059995192 169216372 318779749
        1746514120 1352413984 -1163502668</internalNodes>
      <leafValues>
        -3.9554676413536072e-01 1.0985445231199265e-01</leafValues></_>
    <_>
      <internalNodes>
        0 -1 5263 -353073660 -2100240383 -1979395002 -2066791030
        2046848208 -668561188 -2008489858 680138676</internalNodes>
      <leafValues>
        -3.4702104330062866e-01 1.1676418781280518e-01</leafValues></_>
    <_>
      <internalNodes>
        0 -1 1 1170342515 -880156518 -916209209 -1042148665 1641230901
        -329538263 1238317174 1462100368</internalNodes>
      <leafValues>
        -2.7075958251953125e-01 1.6179521381855011e-01</leafValues></_>
    <_>
      <internalNodes>
        0 -1 5444 1285614381 642810197 -2147366551 538329990 715816561
        217299463 -401855874 1079243602</internalNodes>
      <leafValues>
        -3.7159132957458496e-01 1.0921221226453781e-01</leafValues></_>
    <_>
      <internalNodes>
        0 -1 2267 -1567350112 775168042 -1606121441 774437724 1128409284
        1852179271 -768837596 590829168</internalNodes>
      <leafValues>
        -3.9134103059768677e-01 1.2100160121917725e-01</leafValues></_>
    <_>
      <internalNodes>
        0 -1 2350 -1375684524 -624652264 -1882642763 -573745152
        168384820 -2087985128 1804343360 268284320</internalNodes>
      <leafValues>
        -2.9235294461250305e-01 1.5012331306934357e-01</leafValues></_>
    <_>
      <internalNodes>
        0 -1 4839 -321352144 404758546 1997576569 958271524 -1523557875
        773351507 932299176 -67184722</internalNodes>
      <leafValues>
        -2.3349265754222870e-01 1.9767345488071442e-01</leafValues></_>
    <_>
      <internalNodes>
        0 -1 5025 -12587821 -650380000 648784124 -1690339543 -298265166
        -1632682600 -1872866113 -913596929</internalNodes>
      <leafValues>
        -1.1142533272504807e-01 4.1376438736915588e-01</leafValues></_>
    <_>
      <internalNodes>
        0 -1 3747 -333216833 -337629644 -1459760841 2100774096
        1862248157 -386979969 -453462614 -357636300</internalNodes>
      <leafValues>
        -1.5066766738891602e-01 2.9827204346656799e-01</leafValues></_>
    <_>
      <internalNodes>
        0 -1 4005 1083174504 335696006 -1062145440 1886542065 1417674822
        1125687331 -486492580 -184250064</internalNodes>
      <leafValues>
        -3.1551602482795715e-01 1.3780483603477478e-01</leafValues></_>
    <_>
      <internalNodes>
        0 -1 6561 268244831 240551192 -911756848 1040537954 1071737925
        172589585 -905329054 1209019318</internalNodes>
      <leafValues>
        -3.3203342556953430e-01 1.3965466618537903e-01</leafValues></_>
    <_>
      <internalNodes>
        0 -1 3050 -550527655 -15409104 -939721363 -789168 -1216507489
        -67109186 1862073262 -336005514</internalNodes>
      <leafValues>
        -1.2087923288345337e-01 4.0363332629203796e-01</leafValues></_>
    <_>
      <internalNodes>
        0 -1 653 1883992031 820717809 -1384403040 -317725025 -956834113
        -730009614 1299567988 -575282099</internalNodes>
      <leafValues>
        -1.5878580510616302e-01 2.9756337404251099e-01</leafValues></_>
    <_>
      <internalNodes>
        0 -1 1675 -1872641586 1627548004 -716898218 1077440664
        2117847610 2142884131 1160213572 -623619657</internalNodes>
      <leafValues>
        -2.6562806963920593e-01 1.8081800639629364e-01</leafValues></_>
    <_>
      <internalNodes>
        0 -1 2115 -897141125 -1912652049 -833057559 -1188476117
        429330356 770141759 477166655 -1183586577</internalNodes>
      <leafValues>
        -1.8775784969329834e-01 2.4398122727870941e-01</leafValues></_>
    <_>
      <internalNodes>
        0 -1 5907 1475850203 1936382271 -235471001 -1284772123
        -436739431 1148581713 -1852915837 -491783434</internalNodes>
      <leafValues>
        -1.2290235608816147e-01 3.6957687139511108e-01</leafValues></_>
    <_>
      <internalNodes>
        0 -1 1530 1284177932 -1463812050 -1905177822 -1967943162
        1652842780 1246144835 834677365 1684933477</internalNodes>
      <leafValues>
        -4.6499621868133545e-01 1.0635767877101898e-01</leafValues></_>
    <_>
      <internalNodes>
        0 -1 2528 -2121639852 556291032 1490864692 1999950810
        -2143233908 1922306225 -1735355972 1452904501</internalNodes>
      <leafValues>
        -3.5666143894195557e-01 1.3187777996063232e-01</leafValues></_>
    <_>
      <internalNodes>
        0 -1 5854 1784484382 689718278 -226106978 33555336 -800551422
        1002076315 -1977452360 423828573</internalNodes>
      <leafValues>
        -3.4844997525215149e-01 1.2475761771202087e-01</leafValues></_>
    <_>
      <internalNodes>
        0 -1 4593 1780944599 -70172877 214851511 -545280775 85943483
        -1330129002 1006083787 -104859653</internalNodes>
      <leafValues>
        -9.4596661627292633e-02 4.8860359191894531e-01</leafValues></_>
    <_>
      <internalNodes>
        0 -1 4006 -8653061 -110034134 1601911099 -671121807 636142296
        -331733515 -2015895845 -6359777</internalNodes>
      <leafValues>
        -1.0114873945713043e-01 4.6163970232009888e-01</leafValues></_>
    <_>
      <internalNodes>
        0 -1 3227 625821952 -2134388411 -2137730008 206864735 1648820488
        52479017 142108451 510582822</internalNodes>
      <leafValues>
        -5.0634622573852539e-01 9.7099974751472473e-02</leafValues></_>
    <_>
      <internalNodes>
        0 -1 750 -1990386401 673595491 -1441315836 -1408313772
        1793188662 1645853443 1627527956 1079001864</internalNodes>
      <leafValues>
        -4.7289255261421204e-01 9.8193876445293427e-02</leafValues></_>
    <_>
      <internalNodes>
        0 -1 6519 -2039530618 1019324417 478410473 1572206977 29888747
        -22413136 18013157 -167468376</internalNodes>
      <leafValues>
        -2.4156314134597778e-01 2.0102155208587646e-01</leafValues></_></weakClassifiers></stage22>
</opencv_storage>
