<?xml version="1.0"?>
<opencv_storage>
<cascade>
  <stageType>BOOST</stageType>
  <featureType>LBP</featureType>
  <height>32</height>
  <width>16</width>
  <stageParams>
    <boostType>GAB</boostType>
    <minHitRate>9.9500000476837158e-01</minHitRate>
    <maxFalseAlarm>5.0000000000000000e-01</maxFalseAlarm>
    <weightTrimRate>9.4999999999999996e-01</weightTrimRate>
    <maxDepth>1</maxDepth>
    <maxWeakCount>100</maxWeakCount></stageParams>
  <featureParams>
    <maxCatCount>256</maxCatCount>
    <featSize>1</featSize></featureParams>
  <stageNum>20</stageNum>
  <stages>
    <!-- stage 0 -->
    <_>
      <maxWeakCount>5</maxWeakCount>
      <stageThreshold>-1.0997598171234131e+00</stageThreshold>
      <weakClassifiers>
        <_>
          <internalNodes>
            0 -1 86 -758654070 -614992419 151048704 864260109 232366
            2654218 19606155 532675503</internalNodes>
          <leafValues>
            -7.6579707860946655e-01 4.3179488182067871e-01</leafValues></_>
        <_>
          <internalNodes>
            0 -1 14 -167056694 1564512326 -2013118462 -1601255402
            1073758340 411615233 -79316049 -616039473</internalNodes>
          <leafValues>
            -6.4359551668167114e-01 4.4863292574882507e-01</leafValues></_>
        <_>
          <internalNodes>
            0 -1 30 -746075646 889577474 17924160 2076525166 -322893565
            1644265481 -502736197 895970847</internalNodes>
          <leafValues>
            -6.4589583873748779e-01 4.5056444406509399e-01</leafValues></_>
        <_>
          <internalNodes>
            0 -1 32 -254025534 -1864281725 -259931776 -168097535
            1888086166 1098977295 1091134107 -742139969</internalNodes>
          <leafValues>
            -5.4724699258804321e-01 4.9465754628181458e-01</leafValues></_>
        <_>
          <internalNodes>
            0 -1 155 648481551 776261705 -433139130 -1569785109
            2073628167 1943179285 -270843198 -184558917</internalNodes>
          <leafValues>
            -6.3135737180709839e-01 4.8456513881683350e-01</leafValues></_></weakClassifiers></_>
    <!-- stage 1 -->
    <_>
      <maxWeakCount>6</maxWeakCount>
      <stageThreshold>-1.6675840616226196e+00</stageThreshold>
      <weakClassifiers>
        <_>
          <internalNodes>
            0 -1 46 -486559857 -1562661923 -792145722 -222363957
            1931961925 1112187427 -73405449 -135284785</internalNodes>
          <leafValues>
            -6.9082123041152954e-01 2.3371647298336029e-01</leafValues></_>
        <_>
          <internalNodes>
            0 -1 49 1342823562 -578334269 1342312459 371184431
            1367594667 1619366598 1249325803 1604320251</internalNodes>
          <leafValues>
            -5.7405781745910645e-01 4.1954776644706726e-01</leafValues></_>
        <_>
          <internalNodes>
            0 -1 158 -339269874 40891533 -96391990 -959454393 112086530
            662904587 -154276604 -152043541</internalNodes>
          <leafValues>
            -6.3744693994522095e-01 3.6689826846122742e-01</leafValues></_>
        <_>
          <internalNodes>
            0 -1 81 541351936 -258803967 -486507868 -512379233
            1183474349 1424394951 1684890622 -170936329</internalNodes>
          <leafValues>
            -6.7602974176406860e-01 3.3108589053153992e-01</leafValues></_>
        <_>
          <internalNodes>
            0 -1 15 585040167 -2138975913 -1475149586 -522262129
            1875604345 1443614861 -1230409945 -134349842</internalNodes>
          <leafValues>
            -5.5878484249114990e-01 4.1796031594276428e-01</leafValues></_>
        <_>
          <internalNodes>
            0 -1 148 1251474314 1922225026 1076052226 -524363304
            2058353411 1086572560 -125066457 -772016273</internalNodes>
          <leafValues>
            -5.2130997180938721e-01 4.6244096755981445e-01</leafValues></_></weakClassifiers></_>
    <!-- stage 2 -->
    <_>
      <maxWeakCount>7</maxWeakCount>
      <stageThreshold>-1.1425828933715820e+00</stageThreshold>
      <weakClassifiers>
        <_>
          <internalNodes>
            0 -1 19 -279976257 -308313533 1073774655 1656938751 477999
            -347635703 1308808187 -17</internalNodes>
          <leafValues>
            -6.6838192939758301e-01 2.8286015987396240e-01</leafValues></_>
        <_>
          <internalNodes>
            0 -1 6 1177543179 -2100359410 202629184 1527208003
            1129035403 1783253007 1258725787 -671613093</internalNodes>
          <leafValues>
            -5.1306396722793579e-01 4.0865746140480042e-01</leafValues></_>
        <_>
          <internalNodes>
            0 -1 127 -124790526 67889163 117805440 353497405 -242758873
            1595359754 1797965121 -638584833</internalNodes>
          <leafValues>
            -5.8199357986450195e-01 3.9120468497276306e-01</leafValues></_>
        <_>
          <internalNodes>
            0 -1 136 223019075 55910635 1610860621 1482289803 -401799103
            480956553 -1561069125 -729809157</internalNodes>
          <leafValues>
            -5.8051270246505737e-01 3.4589570760726929e-01</leafValues></_>
        <_>
          <internalNodes>
            0 -1 85 -756030882 -1687202526 -2147303406 842094679
            1202669763 -560295927 45704330 583000887</internalNodes>
          <leafValues>
            -5.4377102851867676e-01 3.6429861187934875e-01</leafValues></_>
        <_>
          <internalNodes>
            0 -1 35 -178851014 -636255526 289558644 -367854779
            1258481994 -1420958038 -795530413 -404758581</internalNodes>
          <leafValues>
            -4.8311004042625427e-01 4.5703071355819702e-01</leafValues></_>
        <_>
          <internalNodes>
            0 -1 5 -1063003666 654797326 570495808 -417998128 286921295
            1813186577 1437586293 -168834065</internalNodes>
          <leafValues>
            -5.4823893308639526e-01 3.9377239346504211e-01</leafValues></_></weakClassifiers></_>
    <!-- stage 3 -->
    <_>
      <maxWeakCount>7</maxWeakCount>
      <stageThreshold>-1.1847146749496460e+00</stageThreshold>
      <weakClassifiers>
        <_>
          <internalNodes>
            0 -1 27 -2094871934 1905521863 84146523 1465344295 -83713654
            -796229493 -1193804113 -7865409</internalNodes>
          <leafValues>
            -6.9164085388183594e-01 2.0000000298023224e-01</leafValues></_>
        <_>
          <internalNodes>
            0 -1 88 -83173416 320013970 -1055305411 358725149 1410991790
            151520003 1250643663 770661375</internalNodes>
          <leafValues>
            -5.9024727344512939e-01 3.1288373470306396e-01</leafValues></_>
        <_>
          <internalNodes>
            0 -1 159 -312753878 1624703404 -996372352 -219381310
            -1853239291 1128374792 -505225088 -453252362</internalNodes>
          <leafValues>
            -5.6199443340301514e-01 3.1878209114074707e-01</leafValues></_>
        <_>
          <internalNodes>
            0 -1 79 260575296 -5837826 -1073940135 -8718413 -771867152
            -4751370 -822184450 -275047</internalNodes>
          <leafValues>
            -3.7417331337928772e-01 5.2782583236694336e-01</leafValues></_>
        <_>
          <internalNodes>
            0 -1 105 -433602368 -46670123 -855806023 1433755495
            -320891910 -940081417 1819603707 -839662501</internalNodes>
          <leafValues>
            -3.8561099767684937e-01 4.8277521133422852e-01</leafValues></_>
        <_>
          <internalNodes>
            0 -1 31 235587136 2131828893 33689818 2001719573 -1692688325
            455180482 1241893847 1332967911</internalNodes>
          <leafValues>
            -6.3587474822998047e-01 3.0670329928398132e-01</leafValues></_>
        <_>
          <internalNodes>
            0 -1 73 -432592370 60506116 -1342125856 818860320 2066416195
            1149929530 -523529916 -205523549</internalNodes>
          <leafValues>
            -6.2072145938873291e-01 3.0626663565635681e-01</leafValues></_></weakClassifiers></_>
    <!-- stage 4 -->
    <_>
      <maxWeakCount>8</maxWeakCount>
      <stageThreshold>-1.0456088781356812e+00</stageThreshold>
      <weakClassifiers>
        <_>
          <internalNodes>
            0 -1 58 -802204670 1499451469 577487 -2019569153 1915422718
            -104215606 840148223 -973078529</internalNodes>
          <leafValues>
            -6.8701756000518799e-01 6.1960782855749130e-02</leafValues></_>
        <_>
          <internalNodes>
            0 -1 92 1144510640 1006768258 1560503888 -1080048654
            -930390788 -1374606976 1523021509 -8809</internalNodes>
          <leafValues>
            -5.5535972118377686e-01 2.8277346491813660e-01</leafValues></_>
        <_>
          <internalNodes>
            0 -1 20 1877986414 -548945523 174244319 646115979 1073760004
            -1375678940 1833159071 -834282521</internalNodes>
          <leafValues>
            -5.4177445173263550e-01 2.9716828465461731e-01</leafValues></_>
        <_>
          <internalNodes>
            0 -1 29 1243472459 1694729358 -1072410415 -212766120
            1160147447 255957650 -146636571 -672413745</internalNodes>
          <leafValues>
            -4.2806619405746460e-01 4.0867495536804199e-01</leafValues></_>
        <_>
          <internalNodes>
            0 -1 38 60865200 522400272 419500380 500384981 -350630773
            -41877305 1130934735 262627347</internalNodes>
          <leafValues>
            -5.3338402509689331e-01 3.1605133414268494e-01</leafValues></_>
        <_>
          <internalNodes>
            0 -1 165 1598759178 583766854 -1047176672 -1567140086
            1386438690 84541464 -1214733678 -423365681</internalNodes>
          <leafValues>
            -5.9964627027511597e-01 2.9655557870864868e-01</leafValues></_>
        <_>
          <internalNodes>
            0 -1 72 1498515602 454603033 303074226 860345627 655514
            -2012724734 413354922 -546311757</internalNodes>
          <leafValues>
            -4.7558617591857910e-01 3.6795026063919067e-01</leafValues></_>
        <_>
          <internalNodes>
            0 -1 131 -217096496 159629461 -2078902892 1498277765
            -1920866640 -1198812917 -796424496 1283062683</internalNodes>
          <leafValues>
            -5.1801091432571411e-01 3.4917119145393372e-01</leafValues></_></weakClassifiers></_>
    <!-- stage 5 -->
    <_>
      <maxWeakCount>9</maxWeakCount>
      <stageThreshold>-1.1662931442260742e+00</stageThreshold>
      <weakClassifiers>
        <_>
          <internalNodes>
            0 -1 10 -150999249 -992230877 -1442758602 2027891223
            1306517423 1108688959 1003486539 -136852609</internalNodes>
          <leafValues>
            -6.3468635082244873e-01 1.2290503084659576e-01</leafValues></_>
        <_>
          <internalNodes>
            0 -1 157 -9445398 -410525778 -1324628366 1392368078
            -135541877 1244299435 -205933598 -1056965125</internalNodes>
          <leafValues>
            -4.5377057790756226e-01 3.7581968307495117e-01</leafValues></_>
        <_>
          <internalNodes>
            0 -1 163 1998580527 643786499 -389918464 -521161746
            1944831815 1912332427 2004744326 -170921985</internalNodes>
          <leafValues>
            -4.5524400472640991e-01 3.6769524216651917e-01</leafValues></_>
        <_>
          <internalNodes>
            0 -1 122 -352861116 2039599557 -805206780 1417009043
            -1039465344 1177888384 699111903 -314577297</internalNodes>
          <leafValues>
            -4.9024143815040588e-01 3.6137905716896057e-01</leafValues></_>
        <_>
          <internalNodes>
            0 -1 13 1123020398 -98383284 1342337104 1254277660
            1359180117 135332354 -614248191 -334954521</internalNodes>
          <leafValues>
            -5.4285490512847900e-01 3.4839624166488647e-01</leafValues></_>
        <_>
          <internalNodes>
            0 -1 94 -641227214 1133024850 -1065334271 -8370240
            -130047286 985471643 674333959 -1145057525</internalNodes>
          <leafValues>
            -4.6975064277648926e-01 3.4869936108589172e-01</leafValues></_>
        <_>
          <internalNodes>
            0 -1 28 784836127 26007194 1360072819 -215747322 2060255547
            1133188267 1904441632 -556800971</internalNodes>
          <leafValues>
            -4.8189514875411987e-01 3.4472727775573730e-01</leafValues></_>
        <_>
          <internalNodes>
            0 -1 51 1516557226 -1090146170 -847230825 -989601725
            1219207418 -370130287 -465207125 1891886607</internalNodes>
          <leafValues>
            -4.2436006665229797e-01 4.0486338734626770e-01</leafValues></_>
        <_>
          <internalNodes>
            0 -1 169 -1477972149 -918518886 -1840293072 2055401614
            -779940778 -1425423602 -492716032 1701049844</internalNodes>
          <leafValues>
            -4.8911383748054504e-01 3.5884812474250793e-01</leafValues></_></weakClassifiers></_>
    <!-- stage 6 -->
    <_>
      <maxWeakCount>8</maxWeakCount>
      <stageThreshold>-1.1731715202331543e+00</stageThreshold>
      <weakClassifiers>
        <_>
          <internalNodes>
            0 -1 83 -756620560 -562195147 -242210348 -138902721
            -685541899 -1802917758 -505952770 -23608385</internalNodes>
          <leafValues>
            -6.2212556600570679e-01 9.2575617134571075e-02</leafValues></_>
        <_>
          <internalNodes>
            0 -1 67 -742268194 293841550 1145128020 1061805151
            1075401934 294521739 155930991 502220523</internalNodes>
          <leafValues>
            -5.0879192352294922e-01 2.5750872492790222e-01</leafValues></_>
        <_>
          <internalNodes>
            0 -1 4 1873537967 -1957428858 92360704 -2648006 1193293223
            990003625 1864586198 1996224323</internalNodes>
          <leafValues>
            -4.7362422943115234e-01 3.0629777908325195e-01</leafValues></_>
        <_>
          <internalNodes>
            0 -1 112 783173418 612717903 -988593829 137916695 54609479
            1848870340 1403220086 -163577965</internalNodes>
          <leafValues>
            -6.0639613866806030e-01 2.7582651376724243e-01</leafValues></_>
        <_>
          <internalNodes>
            0 -1 119 507265624 533201864 423747037 1896935452 1919124152
            -115900013 444620783 -1640107511</internalNodes>
          <leafValues>
            -4.5011454820632935e-01 3.5391455888748169e-01</leafValues></_>
        <_>
          <internalNodes>
            0 -1 41 -1878865776 931373583 -2146940861 2142588453
            982029109 -2085616066 -308569169 1785724859</internalNodes>
          <leafValues>
            -5.0953322649002075e-01 3.0725982785224915e-01</leafValues></_>
        <_>
          <internalNodes>
            0 -1 42 -15993438 1603176132 -586945164 -586824876
            1342549871 1150419020 1510458249 2011390099</internalNodes>
          <leafValues>
            -4.2503312230110168e-01 3.5664242506027222e-01</leafValues></_>
        <_>
          <internalNodes>
            0 -1 25 -436017010 -464600082 537712621 771814235 -721268452
            1058230339 -1853747327 1263599766</internalNodes>
          <leafValues>
            -6.5788060426712036e-01 2.4791012704372406e-01</leafValues></_></weakClassifiers></_>
    <!-- stage 7 -->
    <_>
      <maxWeakCount>8</maxWeakCount>
      <stageThreshold>-1.4217351675033569e+00</stageThreshold>
      <weakClassifiers>
        <_>
          <internalNodes>
            0 -1 143 -201336033 2069492407 1436659935 -205163637
            -121138550 -1176860273 -2000082294 -1564475461</internalNodes>
          <leafValues>
            -5.1750969886779785e-01 2.5465837121009827e-01</leafValues></_>
        <_>
          <internalNodes>
            0 -1 17 -890768849 1436017555 -1538355185 -1362112985
            1560364332 -5668185 -7676737 -77858261</internalNodes>
          <leafValues>
            -3.9351797103881836e-01 3.5885456204414368e-01</leafValues></_>
        <_>
          <internalNodes>
            0 -1 65 -475025501 -408370490 -167423246 -203808109
            1470191287 1224777856 1732040163 -136315165</internalNodes>
          <leafValues>
            -3.6586204171180725e-01 3.9263907074928284e-01</leafValues></_>
        <_>
          <internalNodes>
            0 -1 59 10436864 -2002787637 1871303135 801989551 1482504089
            -1374215295 1284237819 1656746195</internalNodes>
          <leafValues>
            -6.6575837135314941e-01 2.2331309318542480e-01</leafValues></_>
        <_>
          <internalNodes>
            0 -1 129 -1845897392 3330380 1301532977 -551615877
            -107758824 -670979390 -1294023579 1141751497</internalNodes>
          <leafValues>
            -5.9084063768386841e-01 2.3589353263378143e-01</leafValues></_>
        <_>
          <internalNodes>
            0 -1 60 -2010210054 1034108976 -1450108321 -1917452096
            -398382438 -1476124465 1659289512 738910481</internalNodes>
          <leafValues>
            -4.6532595157623291e-01 3.2320386171340942e-01</leafValues></_>
        <_>
          <internalNodes>
            0 -1 162 1741422351 197000834 547587086 13804947 2070942223
            1044938765 -1169561109 -77958578</internalNodes>
          <leafValues>
            -4.7507306933403015e-01 3.1005007028579712e-01</leafValues></_>
        <_>
          <internalNodes>
            0 -1 82 -733048064 -1761050414 -1006025380 2139594930
            -182935357 -2121625600 -905322294 -1159333241</internalNodes>
          <leafValues>
            -4.2215412855148315e-01 3.6755961179733276e-01</leafValues></_></weakClassifiers></_>
    <!-- stage 8 -->
    <_>
      <maxWeakCount>10</maxWeakCount>
      <stageThreshold>-1.0329124927520752e+00</stageThreshold>
      <weakClassifiers>
        <_>
          <internalNodes>
            0 -1 99 -1349905319 -105212708 1942294815 -547522435
            428591867 -1630609270 -105911297 -9777</internalNodes>
          <leafValues>
            -5.3775513172149658e-01 2.0810811221599579e-01</leafValues></_>
        <_>
          <internalNodes>
            0 -1 90 1889494535 147821521 -777923422 853209878 245068647
            1607139851 1373852244 -688392201</internalNodes>
          <leafValues>
            -5.7257914543151855e-01 2.3311746120452881e-01</leafValues></_>
        <_>
          <internalNodes>
            0 -1 18 -70261078 787367563 -1038677817 1620895815 560157006
            2000814597 1107904732 -81400881</internalNodes>
          <leafValues>
            -4.5880702137947083e-01 3.0472269654273987e-01</leafValues></_>
        <_>
          <internalNodes>
            0 -1 33 -1285589374 933373570 -589479358 969329202
            1890175231 -75235326 -201244034 1700976503</internalNodes>
          <leafValues>
            -4.8818221688270569e-01 3.1623852252960205e-01</leafValues></_>
        <_>
          <internalNodes>
            0 -1 121 1977827335 484559991 991122443 757986015
            -1021202290 -141031295 1493416858 708575083</internalNodes>
          <leafValues>
            -4.5808899402618408e-01 3.4940835833549500e-01</leafValues></_>
        <_>
          <internalNodes>
            0 -1 53 -904631286 504390034 -870692149 280480349 1118651115
            1547698306 486165951 1592422835</internalNodes>
          <leafValues>
            -6.2982189655303955e-01 2.3097300529479980e-01</leafValues></_>
        <_>
          <internalNodes>
            0 -1 149 -623116966 977519191 -2129522632 1888119310
            -770200917 -1281722965 -515769200 1434451114</internalNodes>
          <leafValues>
            -4.4161567091941833e-01 3.3368512988090515e-01</leafValues></_>
        <_>
          <internalNodes>
            0 -1 161 2094520071 10179413 -1063447141 540410255
            -1039554044 -158267254 -355040547 -1434867013</internalNodes>
          <leafValues>
            -3.9291313290596008e-01 3.8970080018043518e-01</leafValues></_>
        <_>
          <internalNodes>
            0 -1 47 1942484202 933105928 40124627 -1238662426 1120633254
            738787763 135465433 1299763151</internalNodes>
          <leafValues>
            -4.6471396088600159e-01 3.4911945462226868e-01</leafValues></_>
        <_>
          <internalNodes>
            0 -1 116 55205684 -1820555684 405831045 1230130060 193119032
            -1146388427 419968504 -831890628</internalNodes>
          <leafValues>
            -5.4142129421234131e-01 3.0239248275756836e-01</leafValues></_></weakClassifiers></_>
    <!-- stage 9 -->
    <_>
      <maxWeakCount>8</maxWeakCount>
      <stageThreshold>-1.0882558822631836e+00</stageThreshold>
      <weakClassifiers>
        <_>
          <internalNodes>
            0 -1 123 -1879054857 712996767 -396373317 -1433707783
            1049590702 781029759 1256922707 -621088271</internalNodes>
          <leafValues>
            -6.5714287757873535e-01 7.4476987123489380e-02</leafValues></_>
        <_>
          <internalNodes>
            0 -1 147 239052294 617611202 -28385906 -1400902162 961235489
            1141831016 -259018521 -184549937</internalNodes>
          <leafValues>
            -6.1610937118530273e-01 2.3272398114204407e-01</leafValues></_>
        <_>
          <internalNodes>
            0 -1 1 -2147301469 -127193053 -417069753 2003456769
            2066714555 -7624031 1400854895 -314671681</internalNodes>
          <leafValues>
            -4.3062311410903931e-01 3.4914201498031616e-01</leafValues></_>
        <_>
          <internalNodes>
            0 -1 91 -1967183005 719562715 -276717138 39096405 1793025639
            1451958525 1995640839 -184831275</internalNodes>
          <leafValues>
            -5.7583159208297729e-01 3.0402377247810364e-01</leafValues></_>
        <_>
          <internalNodes>
            0 -1 98 2018905821 -285342241 -1202141697 1019018063
            -1756489483 1575719194 -392246035 -279783080</internalNodes>
          <leafValues>
            -4.4507619738578796e-01 3.7288153171539307e-01</leafValues></_>
        <_>
          <internalNodes>
            0 -1 152 -2034302145 225368915 403264895 476463258
            1216697167 1861857925 -2033553183 1502659952</internalNodes>
          <leafValues>
            -5.8355283737182617e-01 2.9436665773391724e-01</leafValues></_>
        <_>
          <internalNodes>
            0 -1 74 -1068423294 -1503808402 -1878070546 -1295067878
            1724598874 1209743897 -247070206 -263717127</internalNodes>
          <leafValues>
            -5.8629500865936279e-01 2.7522158622741699e-01</leafValues></_>
        <_>
          <internalNodes>
            0 -1 76 1620979327 609588932 172295361 1924452696 436621071
            -616889813 -1444375304 -1093154458</internalNodes>
          <leafValues>
            -4.6378958225250244e-01 3.7694215774536133e-01</leafValues></_></weakClassifiers></_>
    <!-- stage 10 -->
    <_>
      <maxWeakCount>9</maxWeakCount>
      <stageThreshold>-1.2187689542770386e+00</stageThreshold>
      <weakClassifiers>
        <_>
          <internalNodes>
            0 -1 167 -268486909 -2057581177 -1699354256 -56692261
            -558663931 701479631 -674907228 -37748745</internalNodes>
          <leafValues>
            -6.2151652574539185e-01 5.0993949174880981e-02</leafValues></_>
        <_>
          <internalNodes>
            0 -1 128 -11669349 56086527 2045759793 290971131 -1175715956
            77269278 -661261563 1609296527</internalNodes>
          <leafValues>
            -4.5499247312545776e-01 3.0034986138343811e-01</leafValues></_>
        <_>
          <internalNodes>
            0 -1 16 1828662935 726638815 -1798126503 -1912409645
            89342187 -70623214 223429348 -816775305</internalNodes>
          <leafValues>
            -4.4499802589416504e-01 3.2318118214607239e-01</leafValues></_>
        <_>
          <internalNodes>
            0 -1 107 1279181104 -1294562488 -2121572001 1070205121
            1677808033 -907853679 850412005 -1363257899</internalNodes>
          <leafValues>
            -4.9390214681625366e-01 3.2042786478996277e-01</leafValues></_>
        <_>
          <internalNodes>
            0 -1 118 -1431169159 -1124188418 2147483515 1536986300
            -1116229825 -1073741834 -8487170 -554861121</internalNodes>
          <leafValues>
            -3.7703597545623779e-01 4.2814114689826965e-01</leafValues></_>
        <_>
          <internalNodes>
            0 -1 70 952707566 600776554 1444108422 885972170 419570766
            1229488154 -530851754 -19237137</internalNodes>
          <leafValues>
            -4.9961781501770020e-01 3.3098781108856201e-01</leafValues></_>
        <_>
          <internalNodes>
            0 -1 93 1811600617 1004920109 -4507910 458657435 -1934409512
            1231252725 -745481784 -27546114</internalNodes>
          <leafValues>
            -3.7815785408020020e-01 4.2397654056549072e-01</leafValues></_>
        <_>
          <internalNodes>
            0 -1 11 718218827 679940564 1509954614 -1869029822 71510593
            -536673310 1502070596 -154870173</internalNodes>
          <leafValues>
            -5.4545605182647705e-01 2.8915610909461975e-01</leafValues></_>
        <_>
          <internalNodes>
            0 -1 145 -233428206 323616452 20989297 163489046 1761471275
            -1700552519 -930162455 -372253419</internalNodes>
          <leafValues>
            -4.7988703846931458e-01 3.2183974981307983e-01</leafValues></_></weakClassifiers></_>
    <!-- stage 11 -->
    <_>
      <maxWeakCount>6</maxWeakCount>
      <stageThreshold>-8.9817953109741211e-01</stageThreshold>
      <weakClassifiers>
        <_>
          <internalNodes>
            0 -1 57 -348655705 -421951525 -193005578 -94446500
            2061577085 230140207 -1314987295 -201852449</internalNodes>
          <leafValues>
            -7.2720062732696533e-01 1.1813759803771973e-02</leafValues></_>
        <_>
          <internalNodes>
            0 -1 125 -1891955665 -1414598391 -600580170 583687671
            731585887 1997358410 1029666612 -218175499</internalNodes>
          <leafValues>
            -5.8633822202682495e-01 2.3140658438205719e-01</leafValues></_>
        <_>
          <internalNodes>
            0 -1 168 -288372977 -1350963441 -678984014 -960823430
            -291843840 -1607873052 -104468188 -722404363</internalNodes>
          <leafValues>
            -4.6183708310127258e-01 3.1911921501159668e-01</leafValues></_>
        <_>
          <internalNodes>
            0 -1 102 -1129839495 -1282785188 -952904323 -3341099
            -534236934 -1144307365 -1347790089 -1633018844</internalNodes>
          <leafValues>
            -4.5262095332145691e-01 3.4710606932640076e-01</leafValues></_>
        <_>
          <internalNodes>
            0 -1 21 -945301169 768299987 -1583754668 -625991722
            818608719 1975844986 -523634795 -169100641</internalNodes>
          <leafValues>
            -4.5351800322532654e-01 3.3713310956954956e-01</leafValues></_>
        <_>
          <internalNodes>
            0 -1 113 966310128 1000102297 1325402167 -181468524
            -169209923 -116792948 948702605 -1431539723</internalNodes>
          <leafValues>
            -5.2728641033172607e-01 3.0656474828720093e-01</leafValues></_></weakClassifiers></_>
    <!-- stage 12 -->
    <_>
      <maxWeakCount>8</maxWeakCount>
      <stageThreshold>-1.2039520740509033e+00</stageThreshold>
      <weakClassifiers>
        <_>
          <internalNodes>
            0 -1 108 -55640623 1067685598 -1927687214 -1165304717
            -1189367066 -1224692429 1736559607 -17541196</internalNodes>
          <leafValues>
            -6.1704915761947632e-01 3.4893617033958435e-02</leafValues></_>
        <_>
          <internalNodes>
            0 -1 36 -999305388 1645643597 1678302560 741214939
            -816038284 1326170747 101401108 -167772689</internalNodes>
          <leafValues>
            -6.5580749511718750e-01 1.6481637954711914e-01</leafValues></_>
        <_>
          <internalNodes>
            0 -1 153 -581464289 1340595159 -585251018 643619022
            -538187979 783917544 -587178384 1213725164</internalNodes>
          <leafValues>
            -5.1893764734268188e-01 2.4062526226043701e-01</leafValues></_>
        <_>
          <internalNodes>
            0 -1 12 774835823 -1906880234 -800053204 1020280898
            2122596423 1280489518 -1192314350 -90308858</internalNodes>
          <leafValues>
            -4.9590292572975159e-01 2.9513430595397949e-01</leafValues></_>
        <_>
          <internalNodes>
            0 -1 101 243407888 -1412541548 -1805543187 1533396436
            -2144986792 -290922352 187857144 -565941196</internalNodes>
          <leafValues>
            -5.5158525705337524e-01 2.5324529409408569e-01</leafValues></_>
        <_>
          <internalNodes>
            0 -1 124 -326391612 361852930 -342181603 913039657 109460155
            -317992062 -645832229 -1373738060</internalNodes>
          <leafValues>
            -4.4021016359329224e-01 3.3785402774810791e-01</leafValues></_>
        <_>
          <internalNodes>
            0 -1 64 575121960 711823570 -670960142 -509882160 151100267
            1854193665 1401058551 -143341088</internalNodes>
          <leafValues>
            -5.6937229633331299e-01 2.6819309592247009e-01</leafValues></_>
        <_>
          <internalNodes>
            0 -1 117 -1395111817 -923045478 -763176657 -1121039975
            948085754 -43005813 -2111145031 -1074333315</internalNodes>
          <leafValues>
            -4.2749011516571045e-01 3.7140163779258728e-01</leafValues></_></weakClassifiers></_>
    <!-- stage 13 -->
    <_>
      <maxWeakCount>10</maxWeakCount>
      <stageThreshold>-9.7759574651718140e-01</stageThreshold>
      <weakClassifiers>
        <_>
          <internalNodes>
            0 -1 52 1401926126 -141065746 1197984064 -1088607990
            -1300112481 -1194049133 -1952185911 454645615</internalNodes>
          <leafValues>
            -6.5502792596817017e-01 2.9968453571200371e-02</leafValues></_>
        <_>
          <internalNodes>
            0 -1 66 -190942528 -1340833259 1426690190 -577129697
            67404164 -1269677904 967487903 -1283225465</internalNodes>
          <leafValues>
            -4.5857897400856018e-01 2.4339056015014648e-01</leafValues></_>
        <_>
          <internalNodes>
            0 -1 22 -305780737 1813358022 -1067267508 -1962653041
            1170700827 -290390011 -993467505 -580651425</internalNodes>
          <leafValues>
            -3.5728514194488525e-01 3.6727431416511536e-01</leafValues></_>
        <_>
          <internalNodes>
            0 -1 114 -729090596 1925841796 -1325274156 522096927
            541641112 -2113884015 454198090 789777579</internalNodes>
          <leafValues>
            -3.6905106902122498e-01 3.6705449223518372e-01</leafValues></_>
        <_>
          <internalNodes>
            0 -1 37 -913661008 -70123265 -703267439 771940855 2000937851
            -1205759838 823001107 1682154407</internalNodes>
          <leafValues>
            -4.8400279879570007e-01 2.8150451183319092e-01</leafValues></_>
        <_>
          <internalNodes>
            0 -1 100 1554302160 1006530076 -1082913283 -1819478667
            -1636377924 -558563346 -331483329 -99770374</internalNodes>
          <leafValues>
            -3.0251386761665344e-01 4.4882717728614807e-01</leafValues></_>
        <_>
          <internalNodes>
            0 -1 48 -1397932524 -1692078105 -100363 2137391093 477058749
            -19923073 -553756710 -645669001</internalNodes>
          <leafValues>
            -3.1668084859848022e-01 4.3431207537651062e-01</leafValues></_>
        <_>
          <internalNodes>
            0 -1 156 -488383270 1622933107 1589641074 1487631995
            1602075867 1025736244 -596261765 -629409378</internalNodes>
          <leafValues>
            -2.6550063490867615e-01 5.1373374462127686e-01</leafValues></_>
        <_>
          <internalNodes>
            0 -1 104 -889231636 -600360624 587258529 1493549575
            -2146137438 -217571240 141150683 -1678799281</internalNodes>
          <leafValues>
            -3.5797610878944397e-01 4.0148490667343140e-01</leafValues></_>
        <_>
          <internalNodes>
            0 -1 62 -605294205 -1170588746 -1423309455 2012218796
            -805311608 -1208077314 650002188 -1416667338</internalNodes>
          <leafValues>
            -2.7349668741226196e-01 4.9585798382759094e-01</leafValues></_></weakClassifiers></_>
    <!-- stage 14 -->
    <_>
      <maxWeakCount>9</maxWeakCount>
      <stageThreshold>-1.1226626634597778e+00</stageThreshold>
      <weakClassifiers>
        <_>
          <internalNodes>
            0 -1 141 2138523661 324993159 -1786580769 493769093
            -1670540872 -90592935 678300795 989847099</internalNodes>
          <leafValues>
            -6.5312498807907104e-01 -4.5070420950651169e-02</leafValues></_>
        <_>
          <internalNodes>
            0 -1 43 2043142810 1450421762 1359036442 528436818
            -226657807 1184916018 -1715381311 2120973247</internalNodes>
          <leafValues>
            -4.4522970914840698e-01 2.4851989746093750e-01</leafValues></_>
        <_>
          <internalNodes>
            0 -1 77 -235231966 792240508 -183181484 137114138
            -1630465996 1854648366 1474490644 1173602295</internalNodes>
          <leafValues>
            -7.0158892869949341e-01 1.6354237496852875e-01</leafValues></_>
        <_>
          <internalNodes>
            0 -1 54 -1703693158 -1279556388 536877083 1180843137
            686228091 -1718778526 168681007 782938671</internalNodes>
          <leafValues>
            -4.6139755845069885e-01 2.7687653899192810e-01</leafValues></_>
        <_>
          <internalNodes>
            0 -1 126 1276897056 438425861 -1475011040 13195943 969480812
            1647542280 1321541878 1525397913</internalNodes>
          <leafValues>
            -6.1644494533538818e-01 1.8902400135993958e-01</leafValues></_>
        <_>
          <internalNodes>
            0 -1 146 1806773283 29372498 139831298 -493557567 659685378
            253337869 -1193199597 -828126357</internalNodes>
          <leafValues>
            -5.9859108924865723e-01 2.0947368443012238e-01</leafValues></_>
        <_>
          <internalNodes>
            0 -1 109 -906212293 -648081385 -402635954 193975489
            556177811 -75423095 1745517167 178418101</internalNodes>
          <leafValues>
            -4.8750028014183044e-01 2.6336455345153809e-01</leafValues></_>
        <_>
          <internalNodes>
            0 -1 130 -256551270 1535180800 155371897 1952022617
            -1702852439 -1179840134 135060947 -855264359</internalNodes>
          <leafValues>
            -3.5018372535705566e-01 3.7850725650787354e-01</leafValues></_>
        <_>
          <internalNodes>
            0 -1 111 -1098153816 900652047 268505104 654517252
            1260999033 1955349138 558979705 -1430159625</internalNodes>
          <leafValues>
            -4.6419385075569153e-01 2.8614035248756409e-01</leafValues></_></weakClassifiers></_>
    <!-- stage 15 -->
    <_>
      <maxWeakCount>10</maxWeakCount>
      <stageThreshold>-1.4075031280517578e+00</stageThreshold>
      <weakClassifiers>
        <_>
          <internalNodes>
            0 -1 9 -896538873 -1030673602 -367951556 -1218370755
            1190477567 1517924764 1502165279 -201884817</internalNodes>
          <leafValues>
            -6.1146050691604614e-01 -1.9700551405549049e-02</leafValues></_>
        <_>
          <internalNodes>
            0 -1 24 -1938854209 752324819 -2059131055 -1470563753
            1686243335 -121101797 1241516608 1307034960</internalNodes>
          <leafValues>
            -4.7763884067535400e-01 2.0575095713138580e-01</leafValues></_>
        <_>
          <internalNodes>
            0 -1 132 1446453627 -363659050 -787868193 2117207455
            -1120261585 -1423027670 -1416896267 -613274884</internalNodes>
          <leafValues>
            -3.7954303622245789e-01 3.0730104446411133e-01</leafValues></_>
        <_>
          <internalNodes>
            0 -1 50 -1178501038 -1923906798 -854510323 393700384
            571410436 767033906 -1433645512 171501159</internalNodes>
          <leafValues>
            -4.7640746831893921e-01 2.7186021208763123e-01</leafValues></_>
        <_>
          <internalNodes>
            0 -1 150 -180370433 1072316130 1782570352 322397379
            1878637818 -1792114761 1428141535 208651439</internalNodes>
          <leafValues>
            -2.9325300455093384e-01 4.2223715782165527e-01</leafValues></_>
        <_>
          <internalNodes>
            0 -1 154 1592466047 1531576719 -116354691 -1294843151
            810193592 -247947229 -1705501861 -1440686501</internalNodes>
          <leafValues>
            -3.5845178365707397e-01 3.3666393160820007e-01</leafValues></_>
        <_>
          <internalNodes>
            0 -1 69 -93393744 1067685170 -712731408 1971844721
            -1070970181 180898306 13620847 535282611</internalNodes>
          <leafValues>
            -4.9128773808479309e-01 2.5494968891143799e-01</leafValues></_>
        <_>
          <internalNodes>
            0 -1 110 -229483397 2139148348 1359002992 772726101
            1225065421 -547155326 650687010 -1433873487</internalNodes>
          <leafValues>
            -4.2341819405555725e-01 3.1236708164215088e-01</leafValues></_>
        <_>
          <internalNodes>
            0 -1 7 147776080 1862744628 575863036 -226645673 -82561454
            2031130702 1921714971 2087969193</internalNodes>
          <leafValues>
            -5.7822340726852417e-01 2.3738119006156921e-01</leafValues></_>
        <_>
          <internalNodes>
            0 -1 96 -1173169134 -376700709 -1987848143 654923482
            -1819114952 -1979006207 184725434 -1617308001</internalNodes>
          <leafValues>
            -3.6371412873268127e-01 3.6296671628952026e-01</leafValues></_></weakClassifiers></_>
    <!-- stage 16 -->
    <_>
      <maxWeakCount>11</maxWeakCount>
      <stageThreshold>-1.1107389926910400e+00</stageThreshold>
      <weakClassifiers>
        <_>
          <internalNodes>
            0 -1 2 -2049970201 -360517310 -883866357 -748707710
            -1388338177 -930377304 -652527674 -33555069</internalNodes>
          <leafValues>
            -5.3203040361404419e-01 9.3240089714527130e-02</leafValues></_>
        <_>
          <internalNodes>
            0 -1 171 1466921887 253675922 -1625173508 753699728
            -1467121807 1809026031 1329732964 1413534016</internalNodes>
          <leafValues>
            -6.5593475103378296e-01 1.3943354785442352e-01</leafValues></_>
        <_>
          <internalNodes>
            0 -1 133 -1438211071 252281439 417331770 847434231 147668317
            734546058 1000270824 -70587969</internalNodes>
          <leafValues>
            -4.0937998890876770e-01 2.6943659782409668e-01</leafValues></_>
        <_>
          <internalNodes>
            0 -1 166 -218287614 40087814 -1199191760 567523351 575358533
            1795768490 -23863168 -840313922</internalNodes>
          <leafValues>
            -4.3292739987373352e-01 2.8757593035697937e-01</leafValues></_>
        <_>
          <internalNodes>
            0 -1 44 -1738935498 -1331658584 1439221902 -1621262522
            18369303 276963841 1879691485 1048464255</internalNodes>
          <leafValues>
            -4.5983639359474182e-01 2.7549883723258972e-01</leafValues></_>
        <_>
          <internalNodes>
            0 -1 39 -1532901158 170017848 9440669 1228329682 1553525904
            -1162278525 -2000391929 -295582871</internalNodes>
          <leafValues>
            -4.3531060218811035e-01 2.7627888321876526e-01</leafValues></_>
        <_>
          <internalNodes>
            0 -1 56 -1945651506 -1723168530 -1878931754 847261838
            84468268 723222540 268555427 1467212031</internalNodes>
          <leafValues>
            -4.8574987053871155e-01 2.4390956759452820e-01</leafValues></_>
        <_>
          <internalNodes>
            0 -1 138 274923515 2142172479 -1170557520 -76939265
            -67121413 687865712 -276826195 -1351092879</internalNodes>
          <leafValues>
            -2.9305309057235718e-01 4.4990772008895874e-01</leafValues></_>
        <_>
          <internalNodes>
            0 -1 137 1331596043 161267999 70291540 1380122639 1610681920
            1489518603 1158280872 -745157987</internalNodes>
          <leafValues>
            -4.6576878428459167e-01 2.7104693651199341e-01</leafValues></_>
        <_>
          <internalNodes>
            0 -1 61 -299643469 -617971880 -1073813543 -139137808
            -151404812 -1368395786 1609848238 -642214415</internalNodes>
          <leafValues>
            -2.8420397639274597e-01 4.5229983329772949e-01</leafValues></_>
        <_>
          <internalNodes>
            0 -1 71 -44049615 -279184394 1627025009 1026928251
            1424002459 -1363214601 -281545413 -59572875</internalNodes>
          <leafValues>
            -2.6416102051734924e-01 4.8552310466766357e-01</leafValues></_></weakClassifiers></_>
    <!-- stage 17 -->
    <_>
      <maxWeakCount>11</maxWeakCount>
      <stageThreshold>-1.0596681833267212e+00</stageThreshold>
      <weakClassifiers>
        <_>
          <internalNodes>
            0 -1 8 1939065263 1669390742 -318380238 -147484336
            1945842655 401932441 -276586096 -537932865</internalNodes>
          <leafValues>
            -5.7420164346694946e-01 1.5412511304020882e-02</leafValues></_>
        <_>
          <internalNodes>
            0 -1 97 -1738650144 -1240317827 1029248285 151938908
            -2007277348 -612771712 319744844 -849154872</internalNodes>
          <leafValues>
            -4.8900195956230164e-01 2.0152875781059265e-01</leafValues></_>
        <_>
          <internalNodes>
            0 -1 34 -623915254 1659007817 -1869266272 1519031246
            1905649990 1644405099 1133097732 1733607586</internalNodes>
          <leafValues>
            -6.0035628080368042e-01 1.7005431652069092e-01</leafValues></_>
        <_>
          <internalNodes>
            0 -1 134 -1034574200 1561448918 -1593732084 -368753579
            -770866552 -2106417091 -1426064150 557807039</internalNodes>
          <leafValues>
            -4.0104937553405762e-01 2.9466009140014648e-01</leafValues></_>
        <_>
          <internalNodes>
            0 -1 63 -1346481408 -509895327 -989811305 588813730
            -525310055 755088316 -800878230 -477942081</internalNodes>
          <leafValues>
            -4.4967493414878845e-01 2.7118387818336487e-01</leafValues></_>
        <_>
          <internalNodes>
            0 -1 120 2123291908 408308097 -2079311555 819118367
            1344895000 1620148262 -2069876568 -119686429</internalNodes>
          <leafValues>
            -4.7422188520431519e-01 2.5300154089927673e-01</leafValues></_>
        <_>
          <internalNodes>
            0 -1 139 1565916168 1401605659 -410627568 344779343
            -1463549293 1850382466 153697329 1557521135</internalNodes>
          <leafValues>
            -4.6574732661247253e-01 2.7327448129653931e-01</leafValues></_>
        <_>
          <internalNodes>
            0 -1 78 -1588626475 215806153 -2007917121 -509176180
            -368684935 -650166244 323649137 216715644</internalNodes>
          <leafValues>
            -5.3453809022903442e-01 2.1462707221508026e-01</leafValues></_>
        <_>
          <internalNodes>
            0 -1 55 -1574245704 -586657769 3331551 441012377 253835007
            167807136 18057099 1729345059</internalNodes>
          <leafValues>
            -4.0975859761238098e-01 3.1768095493316650e-01</leafValues></_>
        <_>
          <internalNodes>
            0 -1 0 237349619 -2042404762 16898519 495128834 2094756535
            -90142150 1430973472 1542276018</internalNodes>
          <leafValues>
            -4.9877688288688660e-01 2.7251890301704407e-01</leafValues></_>
        <_>
          <internalNodes>
            0 -1 160 -472392162 -2112706157 -1852258479 -1331166942
            841914502 310894602 -258039313 -632608073</internalNodes>
          <leafValues>
            -3.4724140167236328e-01 3.8850465416908264e-01</leafValues></_></weakClassifiers></_>
    <!-- stage 18 -->
    <_>
      <maxWeakCount>11</maxWeakCount>
      <stageThreshold>-1.2551069259643555e+00</stageThreshold>
      <weakClassifiers>
        <_>
          <internalNodes>
            0 -1 80 -48507915 -81739414 -1558999595 -1076292908
            -602815490 -383926112 -837885954 -1164815907</internalNodes>
          <leafValues>
            -5.0675338506698608e-01 1.6119828820228577e-01</leafValues></_>
        <_>
          <internalNodes>
            0 -1 68 -2116886582 -1115307836 44264545 756240413 12200350
            1949305736 1220234090 58160965</internalNodes>
          <leafValues>
            -5.8413523435592651e-01 1.5438063442707062e-01</leafValues></_>
        <_>
          <internalNodes>
            0 -1 84 -2004825360 -2145741840 -1506594448 -1854546975
            210651274 184308615 431909553 464513651</internalNodes>
          <leafValues>
            -5.7245630025863647e-01 1.6789071261882782e-01</leafValues></_>
        <_>
          <internalNodes>
            0 -1 170 391339286 604711303 1510005984 174123271
            -1721245419 -853180238 -91136688 955898657</internalNodes>
          <leafValues>
            -5.9362250566482544e-01 1.9745294749736786e-01</leafValues></_>
        <_>
          <internalNodes>
            0 -1 95 -7094607 -4407811 -1432174798 -1623361798 -558185730
            2143034877 -364737896 -543433635</internalNodes>
          <leafValues>
            -2.2987380623817444e-01 5.0224936008453369e-01</leafValues></_>
        <_>
          <internalNodes>
            0 -1 75 1614445648 856015947 957876745 715868211 565128178
            -1307869029 1291010065 896991027</internalNodes>
          <leafValues>
            -5.3823775053024292e-01 2.1175925433635712e-01</leafValues></_>
        <_>
          <internalNodes>
            0 -1 140 -338227600 1215186250 -1061072688 714944843
            687968059 1225910896 1365811232 1495885979</internalNodes>
          <leafValues>
            -5.4297620058059692e-01 2.4335429072380066e-01</leafValues></_>
        <_>
          <internalNodes>
            0 -1 106 -2133978352 -1610659382 -48212576 -820303544
            726229951 -1704427358 671397075 262357523</internalNodes>
          <leafValues>
            -5.6702679395675659e-01 1.9796566665172577e-01</leafValues></_>
        <_>
          <internalNodes>
            0 -1 115 1786142896 -1019017194 7868752 1419219461 677956506
            546832944 1661523033 978965037</internalNodes>
          <leafValues>
            -4.7899547219276428e-01 2.6786708831787109e-01</leafValues></_>
        <_>
          <internalNodes>
            0 -1 23 -51519642 798463152 1287686347 1682212010 151134577
            1486006315 958097586 1462469315</internalNodes>
          <leafValues>
            -5.5295872688293457e-01 2.1627986431121826e-01</leafValues></_>
        <_>
          <internalNodes>
            0 -1 89 1157629734 370292656 -456714343 436535377 215221720
            196872715 1624398300 952449459</internalNodes>
          <leafValues>
            -6.6780877113342285e-01 1.7121429741382599e-01</leafValues></_></weakClassifiers></_>
    <!-- stage 19 -->
    <_>
      <maxWeakCount>11</maxWeakCount>
      <stageThreshold>-1.2026176452636719e+00</stageThreshold>
      <weakClassifiers>
        <_>
          <internalNodes>
            0 -1 142 -713458667 -1850567915 -1718988129 -9894000
            -176957224 -24516494 -2109150498 -307443459</internalNodes>
          <leafValues>
            -5.3037768602371216e-01 7.9037800431251526e-02</leafValues></_>
        <_>
          <internalNodes>
            0 -1 135 -1047615852 1397915880 -1067577279 -180018669
            -1934930470 -1915221592 135813467 -11828147</internalNodes>
          <leafValues>
            -3.5109350085258484e-01 2.8520074486732483e-01</leafValues></_>
        <_>
          <internalNodes>
            0 -1 151 -42353800 -1252797666 1125485036 -1669037592
            -352347140 -1449539084 -1166452615 1148186827</internalNodes>
          <leafValues>
            -3.6724948883056641e-01 2.8161457180976868e-01</leafValues></_>
        <_>
          <internalNodes>
            0 -1 144 1912571147 266141785 -2104944258 -1874159919
            1596621572 839385090 -1114576168 -255079702</internalNodes>
          <leafValues>
            -3.8376274704933167e-01 2.8216010332107544e-01</leafValues></_>
        <_>
          <internalNodes>
            0 -1 103 -1594952039 -1765127856 -1744563755 1375507732
            25807288 -81428464 -1954384916 179593717</internalNodes>
          <leafValues>
            -3.2660400867462158e-01 3.3456033468246460e-01</leafValues></_>
        <_>
          <internalNodes>
            0 -1 3 -273420657 -1481834822 -320524510 -4333966 1476334727
            -420577284 2004858449 -73414977</internalNodes>
          <leafValues>
            -2.8904607892036438e-01 4.1201627254486084e-01</leafValues></_>
        <_>
          <internalNodes>
            0 -1 164 1769932547 105046675 -1072463872 -1916215166
            1108230588 1216397536 1082239076 -1312183898</internalNodes>
          <leafValues>
            -4.8456397652626038e-01 2.4302257597446442e-01</leafValues></_>
        <_>
          <internalNodes>
            0 -1 87 -1055417615 361502998 1343295496 848023710 462137539
            -630947824 -478137738 1892190691</internalNodes>
          <leafValues>
            -4.8425799608230591e-01 2.4809746444225311e-01</leafValues></_>
        <_>
          <internalNodes>
            0 -1 40 -2106070065 -753277863 286272743 1715832897
            1390471679 -72948736 67686518 2132754441</internalNodes>
          <leafValues>
            -3.8499009609222412e-01 3.1373497843742371e-01</leafValues></_>
        <_>
          <internalNodes>
            0 -1 45 649994754 1351076568 268714522 307614086 1803573760
            1275598873 1103757570 -150246420</internalNodes>
          <leafValues>
            -5.4260075092315674e-01 2.2539950907230377e-01</leafValues></_>
        <_>
          <internalNodes>
            0 -1 26 -292410457 -959737405 138475609 -1468579834
            160581713 2023407626 1157813191 856529313</internalNodes>
          <leafValues>
            -5.2067923545837402e-01 2.4027872085571289e-01</leafValues></_></weakClassifiers></_></stages>
  <features>
    <_>
      <rect>
        0 0 2 3</rect></_>
    <_>
      <rect>
        0 0 3 5</rect></_>
    <_>
      <rect>
        0 2 1 2</rect></_>
    <_>
      <rect>
        0 4 1 2</rect></_>
    <_>
      <rect>
        0 4 2 2</rect></_>
    <_>
      <rect>
        0 5 2 2</rect></_>
    <_>
      <rect>
        0 5 2 4</rect></_>
    <_>
      <rect>
        0 5 4 9</rect></_>
    <_>
      <rect>
        0 6 2 2</rect></_>
    <_>
      <rect>
        0 6 2 4</rect></_>
    <_>
      <rect>
        0 8 2 3</rect></_>
    <_>
      <rect>
        0 9 1 2</rect></_>
    <_>
      <rect>
        0 10 1 2</rect></_>
    <_>
      <rect>
        0 11 2 4</rect></_>
    <_>
      <rect>
        0 11 4 7</rect></_>
    <_>
      <rect>
        0 13 1 1</rect></_>
    <_>
      <rect>
        0 13 2 6</rect></_>
    <_>
      <rect>
        0 13 4 5</rect></_>
    <_>
      <rect>
        0 14 2 4</rect></_>
    <_>
      <rect>
        0 14 3 5</rect></_>
    <_>
      <rect>
        0 15 3 5</rect></_>
    <_>
      <rect>
        0 16 2 1</rect></_>
    <_>
      <rect>
        0 16 2 5</rect></_>
    <_>
      <rect>
        0 16 3 3</rect></_>
    <_>
      <rect>
        0 20 1 3</rect></_>
    <_>
      <rect>
        0 20 3 4</rect></_>
    <_>
      <rect>
        0 25 1 1</rect></_>
    <_>
      <rect>
        1 0 3 6</rect></_>
    <_>
      <rect>
        1 4 1 1</rect></_>
    <_>
      <rect>
        1 5 2 2</rect></_>
    <_>
      <rect>
        1 5 3 5</rect></_>
    <_>
      <rect>
        1 5 4 8</rect></_>
    <_>
      <rect>
        1 6 5 3</rect></_>
    <_>
      <rect>
        1 8 3 3</rect></_>
    <_>
      <rect>
        1 17 1 1</rect></_>
    <_>
      <rect>
        1 17 4 5</rect></_>
    <_>
      <rect>
        1 17 5 5</rect></_>
    <_>
      <rect>
        1 19 4 4</rect></_>
    <_>
      <rect>
        2 0 2 3</rect></_>
    <_>
      <rect>
        2 0 3 2</rect></_>
    <_>
      <rect>
        2 3 3 3</rect></_>
    <_>
      <rect>
        2 4 3 7</rect></_>
    <_>
      <rect>
        2 7 2 3</rect></_>
    <_>
      <rect>
        2 8 2 5</rect></_>
    <_>
      <rect>
        2 9 2 3</rect></_>
    <_>
      <rect>
        2 11 1 2</rect></_>
    <_>
      <rect>
        2 14 1 1</rect></_>
    <_>
      <rect>
        2 16 2 2</rect></_>
    <_>
      <rect>
        3 0 2 1</rect></_>
    <_>
      <rect>
        3 0 4 10</rect></_>
    <_>
      <rect>
        3 1 3 2</rect></_>
    <_>
      <rect>
        3 3 2 4</rect></_>
    <_>
      <rect>
        3 7 2 4</rect></_>
    <_>
      <rect>
        3 10 3 5</rect></_>
    <_>
      <rect>
        3 17 2 3</rect></_>
    <_>
      <rect>
        3 18 2 2</rect></_>
    <_>
      <rect>
        3 19 1 1</rect></_>
    <_>
      <rect>
        3 27 4 1</rect></_>
    <_>
      <rect>
        4 0 4 6</rect></_>
    <_>
      <rect>
        4 0 4 8</rect></_>
    <_>
      <rect>
        4 1 2 2</rect></_>
    <_>
      <rect>
        4 2 1 1</rect></_>
    <_>
      <rect>
        4 2 2 2</rect></_>
    <_>
      <rect>
        4 3 3 4</rect></_>
    <_>
      <rect>
        4 6 1 1</rect></_>
    <_>
      <rect>
        4 7 1 1</rect></_>
    <_>
      <rect>
        4 7 3 2</rect></_>
    <_>
      <rect>
        4 8 2 5</rect></_>
    <_>
      <rect>
        4 8 3 4</rect></_>
    <_>
      <rect>
        4 10 3 5</rect></_>
    <_>
      <rect>
        4 12 1 1</rect></_>
    <_>
      <rect>
        4 12 2 6</rect></_>
    <_>
      <rect>
        4 13 2 4</rect></_>
    <_>
      <rect>
        4 14 1 1</rect></_>
    <_>
      <rect>
        4 15 1 1</rect></_>
    <_>
      <rect>
        4 18 3 4</rect></_>
    <_>
      <rect>
        4 23 1 1</rect></_>
    <_>
      <rect>
        4 23 4 3</rect></_>
    <_>
      <rect>
        4 29 1 1</rect></_>
    <_>
      <rect>
        5 0 1 1</rect></_>
    <_>
      <rect>
        5 2 1 1</rect></_>
    <_>
      <rect>
        5 5 2 3</rect></_>
    <_>
      <rect>
        5 6 1 3</rect></_>
    <_>
      <rect>
        5 7 2 2</rect></_>
    <_>
      <rect>
        5 7 3 8</rect></_>
    <_>
      <rect>
        5 8 3 3</rect></_>
    <_>
      <rect>
        5 8 3 5</rect></_>
    <_>
      <rect>
        5 10 2 1</rect></_>
    <_>
      <rect>
        5 10 2 4</rect></_>
    <_>
      <rect>
        5 10 2 6</rect></_>
    <_>
      <rect>
        5 12 1 1</rect></_>
    <_>
      <rect>
        5 13 1 1</rect></_>
    <_>
      <rect>
        5 13 3 6</rect></_>
    <_>
      <rect>
        5 16 1 2</rect></_>
    <_>
      <rect>
        5 16 3 4</rect></_>
    <_>
      <rect>
        5 17 1 2</rect></_>
    <_>
      <rect>
        5 18 1 2</rect></_>
    <_>
      <rect>
        5 23 2 3</rect></_>
    <_>
      <rect>
        5 26 1 2</rect></_>
    <_>
      <rect>
        6 0 1 1</rect></_>
    <_>
      <rect>
        6 0 2 2</rect></_>
    <_>
      <rect>
        6 1 1 1</rect></_>
    <_>
      <rect>
        6 1 1 2</rect></_>
    <_>
      <rect>
        6 2 1 1</rect></_>
    <_>
      <rect>
        6 3 2 3</rect></_>
    <_>
      <rect>
        6 3 2 4</rect></_>
    <_>
      <rect>
        6 4 1 2</rect></_>
    <_>
      <rect>
        6 7 1 3</rect></_>
    <_>
      <rect>
        6 10 1 1</rect></_>
    <_>
      <rect>
        6 10 1 2</rect></_>
    <_>
      <rect>
        6 11 1 1</rect></_>
    <_>
      <rect>
        6 11 1 3</rect></_>
    <_>
      <rect>
        6 13 1 1</rect></_>
    <_>
      <rect>
        6 17 2 5</rect></_>
    <_>
      <rect>
        6 19 1 2</rect></_>
    <_>
      <rect>
        6 19 2 2</rect></_>
    <_>
      <rect>
        6 23 2 3</rect></_>
    <_>
      <rect>
        6 25 1 2</rect></_>
    <_>
      <rect>
        7 0 1 1</rect></_>
    <_>
      <rect>
        7 0 2 2</rect></_>
    <_>
      <rect>
        7 0 3 2</rect></_>
    <_>
      <rect>
        7 0 3 5</rect></_>
    <_>
      <rect>
        7 5 2 3</rect></_>
    <_>
      <rect>
        7 11 1 1</rect></_>
    <_>
      <rect>
        7 11 1 2</rect></_>
    <_>
      <rect>
        7 12 1 1</rect></_>
    <_>
      <rect>
        7 12 2 2</rect></_>
    <_>
      <rect>
        7 13 3 5</rect></_>
    <_>
      <rect>
        7 17 3 2</rect></_>
    <_>
      <rect>
        7 17 3 5</rect></_>
    <_>
      <rect>
        7 19 2 2</rect></_>
    <_>
      <rect>
        7 20 3 4</rect></_>
    <_>
      <rect>
        7 28 1 1</rect></_>
    <_>
      <rect>
        8 7 1 1</rect></_>
    <_>
      <rect>
        8 8 2 3</rect></_>
    <_>
      <rect>
        8 18 1 2</rect></_>
    <_>
      <rect>
        9 4 2 4</rect></_>
    <_>
      <rect>
        9 5 2 1</rect></_>
    <_>
      <rect>
        9 9 2 5</rect></_>
    <_>
      <rect>
        9 14 2 4</rect></_>
    <_>
      <rect>
        9 18 2 3</rect></_>
    <_>
      <rect>
        10 0 2 4</rect></_>
    <_>
      <rect>
        10 1 1 1</rect></_>
    <_>
      <rect>
        10 1 2 2</rect></_>
    <_>
      <rect>
        10 6 1 1</rect></_>
    <_>
      <rect>
        10 7 2 8</rect></_>
    <_>
      <rect>
        10 8 2 2</rect></_>
    <_>
      <rect>
        10 13 1 1</rect></_>
    <_>
      <rect>
        10 13 2 3</rect></_>
    <_>
      <rect>
        10 13 2 5</rect></_>
    <_>
      <rect>
        10 15 1 3</rect></_>
    <_>
      <rect>
        10 20 2 4</rect></_>
    <_>
      <rect>
        10 29 1 1</rect></_>
    <_>
      <rect>
        10 29 2 1</rect></_>
    <_>
      <rect>
        11 1 1 2</rect></_>
    <_>
      <rect>
        11 10 1 1</rect></_>
    <_>
      <rect>
        11 11 1 4</rect></_>
    <_>
      <rect>
        11 17 1 1</rect></_>
    <_>
      <rect>
        12 11 1 1</rect></_>
    <_>
      <rect>
        12 15 1 1</rect></_>
    <_>
      <rect>
        13 0 1 2</rect></_>
    <_>
      <rect>
        13 2 1 2</rect></_>
    <_>
      <rect>
        13 5 1 1</rect></_>
    <_>
      <rect>
        13 7 1 1</rect></_>
    <_>
      <rect>
        13 8 1 3</rect></_>
    <_>
      <rect>
        13 11 1 1</rect></_>
    <_>
      <rect>
        13 11 1 2</rect></_>
    <_>
      <rect>
        13 13 1 2</rect></_>
    <_>
      <rect>
        13 14 1 2</rect></_>
    <_>
      <rect>
        13 17 1 2</rect></_>
    <_>
      <rect>
        13 28 1 1</rect></_>
    <_>
      <rect>
        13 29 1 1</rect></_></features></cascade>
</opencv_storage>
