<?xml version="1.0"?>
<opencv_storage>
<stage8>
  <maxWeakCount>10</maxWeakCount>
  <stageThreshold>-1.0329124927520752e+00</stageThreshold>
  <weakClassifiers>
    <_>
      <internalNodes>
        0 -1 4125 -1349905319 -105212708 1942294815 -547522435 428591867
        -1630609270 -105911297 -9777</internalNodes>
      <leafValues>
        -5.3775513172149658e-01 2.0810811221599579e-01</leafValues></_>
    <_>
      <internalNodes>
        0 -1 3936 1889494535 147821521 -777923422 853209878 245068647
        1607139851 1373852244 -688392201</internalNodes>
      <leafValues>
        -5.7257914543151855e-01 2.3311746120452881e-01</leafValues></_>
    <_>
      <internalNodes>
        0 -1 579 -70261078 787367563 -1038677817 1620895815 560157006
        2000814597 1107904732 -81400881</internalNodes>
      <leafValues>
        -4.5880702137947083e-01 3.0472269654273987e-01</leafValues></_>
    <_>
      <internalNodes>
        0 -1 1208 -1285589374 933373570 -589479358 969329202 1890175231
        -75235326 -201244034 1700976503</internalNodes>
      <leafValues>
        -4.8818221688270569e-01 3.1623852252960205e-01</leafValues></_>
    <_>
      <internalNodes>
        0 -1 4644 1977827335 484559991 991122443 757986015 -1021202290
        -141031295 1493416858 708575083</internalNodes>
      <leafValues>
        -4.5808899402618408e-01 3.4940835833549500e-01</leafValues></_>
    <_>
      <internalNodes>
        0 -1 2680 -904631286 504390034 -870692149 280480349 1118651115
        1547698306 486165951 1592422835</internalNodes>
      <leafValues>
        -6.2982189655303955e-01 2.3097300529479980e-01</leafValues></_>
    <_>
      <internalNodes>
        0 -1 6001 -623116966 977519191 -2129522632 1888119310 -770200917
        -1281722965 -515769200 1434451114</internalNodes>
      <leafValues>
        -4.4161567091941833e-01 3.3368512988090515e-01</leafValues></_>
    <_>
      <internalNodes>
        0 -1 6456 2094520071 10179413 -1063447141 540410255 -1039554044
        -158267254 -355040547 -1434867013</internalNodes>
      <leafValues>
        -3.9291313290596008e-01 3.8970080018043518e-01</leafValues></_>
    <_>
      <internalNodes>
        0 -1 2156 1942484202 933105928 40124627 -1238662426 1120633254
        738787763 135465433 1299763151</internalNodes>
      <leafValues>
        -4.6471396088600159e-01 3.4911945462226868e-01</leafValues></_>
    <_>
      <internalNodes>
        0 -1 4589 55205684 -1820555684 405831045 1230130060 193119032
        -1146388427 419968504 -831890628</internalNodes>
      <leafValues>
        -5.4142129421234131e-01 3.0239248275756836e-01</leafValues></_></weakClassifiers></stage8>
</opencv_storage>
