<?xml version="1.0"?>
<opencv_storage>
<stage4>
  <maxWeakCount>8</maxWeakCount>
  <stageThreshold>-1.0456088781356812e+00</stageThreshold>
  <weakClassifiers>
    <_>
      <internalNodes>
        0 -1 3005 -802204670 1499451469 577487 -2019569153 1915422718
        -104215606 840148223 -973078529</internalNodes>
      <leafValues>
        -6.8701756000518799e-01 6.1960782855749130e-02</leafValues></_>
    <_>
      <internalNodes>
        0 -1 3971 1144510640 1006768258 1560503888 -1080048654
        -930390788 -1374606976 1523021509 -8809</internalNodes>
      <leafValues>
        -5.5535972118377686e-01 2.8277346491813660e-01</leafValues></_>
    <_>
      <internalNodes>
        0 -1 614 1877986414 -548945523 174244319 646115979 1073760004
        -1375678940 1833159071 -834282521</internalNodes>
      <leafValues>
        -5.4177445173263550e-01 2.9716828465461731e-01</leafValues></_>
    <_>
      <internalNodes>
        0 -1 1075 1243472459 1694729358 -1072410415 -212766120
        1160147447 255957650 -146636571 -672413745</internalNodes>
      <leafValues>
        -4.2806619405746460e-01 4.0867495536804199e-01</leafValues></_>
    <_>
      <internalNodes>
        0 -1 1662 60865200 522400272 419500380 500384981 -350630773
        -41877305 1130934735 262627347</internalNodes>
      <leafValues>
        -5.3338402509689331e-01 3.1605133414268494e-01</leafValues></_>
    <_>
      <internalNodes>
        0 -1 6530 1598759178 583766854 -1047176672 -1567140086
        1386438690 84541464 -1214733678 -423365681</internalNodes>
      <leafValues>
        -5.9964627027511597e-01 2.9655557870864868e-01</leafValues></_>
    <_>
      <internalNodes>
        0 -1 3411 1498515602 454603033 303074226 860345627 655514
        -2012724734 413354922 -546311757</internalNodes>
      <leafValues>
        -4.7558617591857910e-01 3.6795026063919067e-01</leafValues></_>
    <_>
      <internalNodes>
        0 -1 5060 -217096496 159629461 -2078902892 1498277765
        -1920866640 -1198812917 -796424496 1283062683</internalNodes>
      <leafValues>
        -5.1801091432571411e-01 3.4917119145393372e-01</leafValues></_></weakClassifiers></stage4>
</opencv_storage>
