<?xml version="1.0"?>
<opencv_storage>
<stage5>
  <maxWeakCount>9</maxWeakCount>
  <stageThreshold>-1.1662931442260742e+00</stageThreshold>
  <weakClassifiers>
    <_>
      <internalNodes>
        0 -1 375 -150999249 -992230877 -1442758602 2027891223 1306517423
        1108688959 1003486539 -136852609</internalNodes>
      <leafValues>
        -6.3468635082244873e-01 1.2290503084659576e-01</leafValues></_>
    <_>
      <internalNodes>
        0 -1 6235 -9445398 -410525778 -1324628366 1392368078 -135541877
        1244299435 -205933598 -1056965125</internalNodes>
      <leafValues>
        -4.5377057790756226e-01 3.7581968307495117e-01</leafValues></_>
    <_>
      <internalNodes>
        0 -1 6500 1998580527 643786499 -389918464 -521161746 1944831815
        1912332427 2004744326 -170921985</internalNodes>
      <leafValues>
        -4.5524400472640991e-01 3.6769524216651917e-01</leafValues></_>
    <_>
      <internalNodes>
        0 -1 4775 -352861116 2039599557 -805206780 1417009043
        -1039465344 1177888384 699111903 -314577297</internalNodes>
      <leafValues>
        -4.9024143815040588e-01 3.6137905716896057e-01</leafValues></_>
    <_>
      <internalNodes>
        0 -1 485 1123020398 -98383284 1342337104 1254277660 1359180117
        135332354 -614248191 -334954521</internalNodes>
      <leafValues>
        -5.4285490512847900e-01 3.4839624166488647e-01</leafValues></_>
    <_>
      <internalNodes>
        0 -1 4018 -641227214 1133024850 -1065334271 -8370240 -130047286
        985471643 674333959 -1145057525</internalNodes>
      <leafValues>
        -4.6975064277648926e-01 3.4869936108589172e-01</leafValues></_>
    <_>
      <internalNodes>
        0 -1 1020 784836127 26007194 1360072819 -215747322 2060255547
        1133188267 1904441632 -556800971</internalNodes>
      <leafValues>
        -4.8189514875411987e-01 3.4472727775573730e-01</leafValues></_>
    <_>
      <internalNodes>
        0 -1 2442 1516557226 -1090146170 -847230825 -989601725
        1219207418 -370130287 -465207125 1891886607</internalNodes>
      <leafValues>
        -4.2436006665229797e-01 4.0486338734626770e-01</leafValues></_>
    <_>
      <internalNodes>
        0 -1 6566 -1477972149 -918518886 -1840293072 2055401614
        -779940778 -1425423602 -492716032 1701049844</internalNodes>
      <leafValues>
        -4.8911383748054504e-01 3.5884812474250793e-01</leafValues></_></weakClassifiers></stage5>
</opencv_storage>
