<?xml version="1.0"?>
<opencv_storage>
<stage2>
  <maxWeakCount>7</maxWeakCount>
  <stageThreshold>-1.1425828933715820e+00</stageThreshold>
  <weakClassifiers>
    <_>
      <internalNodes>
        0 -1 586 -279976257 -308313533 1073774655 1656938751 477999
        -347635703 1308808187 -17</internalNodes>
      <leafValues>
        -6.6838192939758301e-01 2.8286015987396240e-01</leafValues></_>
    <_>
      <internalNodes>
        0 -1 252 1177543179 -2100359410 202629184 1527208003 1129035403
        1783253007 1258725787 -671613093</internalNodes>
      <leafValues>
        -5.1306396722793579e-01 4.0865746140480042e-01</leafValues></_>
    <_>
      <internalNodes>
        0 -1 4960 -124790526 67889163 117805440 353497405 -242758873
        1595359754 1797965121 -638584833</internalNodes>
      <leafValues>
        -5.8199357986450195e-01 3.9120468497276306e-01</leafValues></_>
    <_>
      <internalNodes>
        0 -1 5535 223019075 55910635 1610860621 1482289803 -401799103
        480956553 -1561069125 -729809157</internalNodes>
      <leafValues>
        -5.8051270246505737e-01 3.4589570760726929e-01</leafValues></_>
    <_>
      <internalNodes>
        0 -1 3867 -756030882 -1687202526 -2147303406 842094679
        1202669763 -560295927 45704330 583000887</internalNodes>
      <leafValues>
        -5.4377102851867676e-01 3.6429861187934875e-01</leafValues></_>
    <_>
      <internalNodes>
        0 -1 1494 -178851014 -636255526 289558644 -367854779 1258481994
        -1420958038 -795530413 -404758581</internalNodes>
      <leafValues>
        -4.8311004042625427e-01 4.5703071355819702e-01</leafValues></_>
    <_>
      <internalNodes>
        0 -1 250 -1063003666 654797326 570495808 -417998128 286921295
        1813186577 1437586293 -168834065</internalNodes>
      <leafValues>
        -5.4823893308639526e-01 3.9377239346504211e-01</leafValues></_></weakClassifiers></stage2>
</opencv_storage>
