<?xml version="1.0"?>
<opencv_storage>
<stage16>
  <maxWeakCount>11</maxWeakCount>
  <stageThreshold>-1.1107389926910400e+00</stageThreshold>
  <weakClassifiers>
    <_>
      <internalNodes>
        0 -1 101 -2049970201 -360517310 -883866357 -748707710
        -1388338177 -930377304 -652527674 -33555069</internalNodes>
      <leafValues>
        -5.3203040361404419e-01 9.3240089714527130e-02</leafValues></_>
    <_>
      <internalNodes>
        0 -1 6599 1466921887 253675922 -1625173508 753699728 -1467121807
        1809026031 1329732964 1413534016</internalNodes>
      <leafValues>
        -6.5593475103378296e-01 1.3943354785442352e-01</leafValues></_>
    <_>
      <internalNodes>
        0 -1 5245 -1438211071 252281439 417331770 847434231 147668317
        734546058 1000270824 -70587969</internalNodes>
      <leafValues>
        -4.0937998890876770e-01 2.6943659782409668e-01</leafValues></_>
    <_>
      <internalNodes>
        0 -1 6531 -218287614 40087814 -1199191760 567523351 575358533
        1795768490 -23863168 -840313922</internalNodes>
      <leafValues>
        -4.3292739987373352e-01 2.8757593035697937e-01</leafValues></_>
    <_>
      <internalNodes>
        0 -1 1983 -1738935498 -1331658584 1439221902 -1621262522
        18369303 276963841 1879691485 1048464255</internalNodes>
      <leafValues>
        -4.5983639359474182e-01 2.7549883723258972e-01</leafValues></_>
    <_>
      <internalNodes>
        0 -1 1671 -1532901158 170017848 9440669 1228329682 1553525904
        -1162278525 -2000391929 -295582871</internalNodes>
      <leafValues>
        -4.3531060218811035e-01 2.7627888321876526e-01</leafValues></_>
    <_>
      <internalNodes>
        0 -1 2866 -1945651506 -1723168530 -1878931754 847261838 84468268
        723222540 268555427 1467212031</internalNodes>
      <leafValues>
        -4.8574987053871155e-01 2.4390956759452820e-01</leafValues></_>
    <_>
      <internalNodes>
        0 -1 5618 274923515 2142172479 -1170557520 -76939265 -67121413
        687865712 -276826195 -1351092879</internalNodes>
      <leafValues>
        -2.9305309057235718e-01 4.4990772008895874e-01</leafValues></_>
    <_>
      <internalNodes>
        0 -1 5550 1331596043 161267999 70291540 1380122639 1610681920
        1489518603 1158280872 -745157987</internalNodes>
      <leafValues>
        -4.6576878428459167e-01 2.7104693651199341e-01</leafValues></_>
    <_>
      <internalNodes>
        0 -1 3050 -299643469 -617971880 -1073813543 -139137808
        -151404812 -1368395786 1609848238 -642214415</internalNodes>
      <leafValues>
        -2.8420397639274597e-01 4.5229983329772949e-01</leafValues></_>
    <_>
      <internalNodes>
        0 -1 3389 -44049615 -279184394 1627025009 1026928251 1424002459
        -1363214601 -281545413 -59572875</internalNodes>
      <leafValues>
        -2.6416102051734924e-01 4.8552310466766357e-01</leafValues></_></weakClassifiers></stage16>
</opencv_storage>
