<?xml version="1.0"?>
<opencv_storage>
<stage13>
  <maxWeakCount>10</maxWeakCount>
  <stageThreshold>-9.7759574651718140e-01</stageThreshold>
  <weakClassifiers>
    <_>
      <internalNodes>
        0 -1 2581 1401926126 -141065746 1197984064 -1088607990
        -1300112481 -1194049133 -1952185911 454645615</internalNodes>
      <leafValues>
        -6.5502792596817017e-01 2.9968453571200371e-02</leafValues></_>
    <_>
      <internalNodes>
        0 -1 3247 -190942528 -1340833259 1426690190 -577129697 67404164
        -1269677904 967487903 -1283225465</internalNodes>
      <leafValues>
        -4.5857897400856018e-01 2.4339056015014648e-01</leafValues></_>
    <_>
      <internalNodes>
        0 -1 634 -305780737 1813358022 -1067267508 -1962653041
        1170700827 -290390011 -993467505 -580651425</internalNodes>
      <leafValues>
        -3.5728514194488525e-01 3.6727431416511536e-01</leafValues></_>
    <_>
      <internalNodes>
        0 -1 4543 -729090596 1925841796 -1325274156 522096927 541641112
        -2113884015 454198090 789777579</internalNodes>
      <leafValues>
        -3.6905106902122498e-01 3.6705449223518372e-01</leafValues></_>
    <_>
      <internalNodes>
        0 -1 1535 -913661008 -70123265 -703267439 771940855 2000937851
        -1205759838 823001107 1682154407</internalNodes>
      <leafValues>
        -4.8400279879570007e-01 2.8150451183319092e-01</leafValues></_>
    <_>
      <internalNodes>
        0 -1 4136 1554302160 1006530076 -1082913283 -1819478667
        -1636377924 -558563346 -331483329 -99770374</internalNodes>
      <leafValues>
        -3.0251386761665344e-01 4.4882717728614807e-01</leafValues></_>
    <_>
      <internalNodes>
        0 -1 2320 -1397932524 -1692078105 -100363 2137391093 477058749
        -19923073 -553756710 -645669001</internalNodes>
      <leafValues>
        -3.1668084859848022e-01 4.3431207537651062e-01</leafValues></_>
    <_>
      <internalNodes>
        0 -1 6203 -488383270 1622933107 1589641074 1487631995 1602075867
        1025736244 -596261765 -629409378</internalNodes>
      <leafValues>
        -2.6550063490867615e-01 5.1373374462127686e-01</leafValues></_>
    <_>
      <internalNodes>
        0 -1 4226 -889231636 -600360624 587258529 1493549575 -2146137438
        -217571240 141150683 -1678799281</internalNodes>
      <leafValues>
        -3.5797610878944397e-01 4.0148490667343140e-01</leafValues></_>
    <_>
      <internalNodes>
        0 -1 3061 -605294205 -1170588746 -1423309455 2012218796
        -805311608 -1208077314 650002188 -1416667338</internalNodes>
      <leafValues>
        -2.7349668741226196e-01 4.9585798382759094e-01</leafValues></_></weakClassifiers></stage13>
</opencv_storage>
