<?xml version="1.0"?>
<opencv_storage>
<stage15>
  <maxWeakCount>10</maxWeakCount>
  <stageThreshold>-1.4075031280517578e+00</stageThreshold>
  <weakClassifiers>
    <_>
      <internalNodes>
        0 -1 296 -896538873 -1030673602 -367951556 -1218370755
        1190477567 1517924764 1502165279 -201884817</internalNodes>
      <leafValues>
        -6.1146050691604614e-01 -1.9700551405549049e-02</leafValues></_>
    <_>
      <internalNodes>
        0 -1 717 -1938854209 752324819 -2059131055 -1470563753
        1686243335 -121101797 1241516608 1307034960</internalNodes>
      <leafValues>
        -4.7763884067535400e-01 2.0575095713138580e-01</leafValues></_>
    <_>
      <internalNodes>
        0 -1 5109 1446453627 -363659050 -787868193 2117207455
        -1120261585 -1423027670 -1416896267 -613274884</internalNodes>
      <leafValues>
        -3.7954303622245789e-01 3.0730104446411133e-01</leafValues></_>
    <_>
      <internalNodes>
        0 -1 2371 -1178501038 -1923906798 -854510323 393700384 571410436
        767033906 -1433645512 171501159</internalNodes>
      <leafValues>
        -4.7640746831893921e-01 2.7186021208763123e-01</leafValues></_>
    <_>
      <internalNodes>
        0 -1 6017 -180370433 1072316130 1782570352 322397379 1878637818
        -1792114761 1428141535 208651439</internalNodes>
      <leafValues>
        -2.9325300455093384e-01 4.2223715782165527e-01</leafValues></_>
    <_>
      <internalNodes>
        0 -1 6116 1592466047 1531576719 -116354691 -1294843151 810193592
        -247947229 -1705501861 -1440686501</internalNodes>
      <leafValues>
        -3.5845178365707397e-01 3.3666393160820007e-01</leafValues></_>
    <_>
      <internalNodes>
        0 -1 3340 -93393744 1067685170 -712731408 1971844721 -1070970181
        180898306 13620847 535282611</internalNodes>
      <leafValues>
        -4.9128773808479309e-01 2.5494968891143799e-01</leafValues></_>
    <_>
      <internalNodes>
        0 -1 4410 -229483397 2139148348 1359002992 772726101 1225065421
        -547155326 650687010 -1433873487</internalNodes>
      <leafValues>
        -4.2341819405555725e-01 3.1236708164215088e-01</leafValues></_>
    <_>
      <internalNodes>
        0 -1 275 147776080 1862744628 575863036 -226645673 -82561454
        2031130702 1921714971 2087969193</internalNodes>
      <leafValues>
        -5.7822340726852417e-01 2.3738119006156921e-01</leafValues></_>
    <_>
      <internalNodes>
        0 -1 4036 -1173169134 -376700709 -1987848143 654923482
        -1819114952 -1979006207 184725434 -1617308001</internalNodes>
      <leafValues>
        -3.6371412873268127e-01 3.6296671628952026e-01</leafValues></_></weakClassifiers></stage15>
</opencv_storage>
