<?xml version="1.0"?>
<opencv_storage>
<stage12>
  <maxWeakCount>8</maxWeakCount>
  <stageThreshold>-1.2039520740509033e+00</stageThreshold>
  <weakClassifiers>
    <_>
      <internalNodes>
        0 -1 4389 -55640623 1067685598 -1927687214 -1165304717
        -1189367066 -1224692429 1736559607 -17541196</internalNodes>
      <leafValues>
        -6.1704915761947632e-01 3.4893617033958435e-02</leafValues></_>
    <_>
      <internalNodes>
        0 -1 1499 -999305388 1645643597 1678302560 741214939 -816038284
        1326170747 101401108 -167772689</internalNodes>
      <leafValues>
        -6.5580749511718750e-01 1.6481637954711914e-01</leafValues></_>
    <_>
      <internalNodes>
        0 -1 6104 -581464289 1340595159 -585251018 643619022 -538187979
        783917544 -587178384 1213725164</internalNodes>
      <leafValues>
        -5.1893764734268188e-01 2.4062526226043701e-01</leafValues></_>
    <_>
      <internalNodes>
        0 -1 441 774835823 -1906880234 -800053204 1020280898 2122596423
        1280489518 -1192314350 -90308858</internalNodes>
      <leafValues>
        -4.9590292572975159e-01 2.9513430595397949e-01</leafValues></_>
    <_>
      <internalNodes>
        0 -1 4155 243407888 -1412541548 -1805543187 1533396436
        -2144986792 -290922352 187857144 -565941196</internalNodes>
      <leafValues>
        -5.5158525705337524e-01 2.5324529409408569e-01</leafValues></_>
    <_>
      <internalNodes>
        0 -1 4906 -326391612 361852930 -342181603 913039657 109460155
        -317992062 -645832229 -1373738060</internalNodes>
      <leafValues>
        -4.4021016359329224e-01 3.3785402774810791e-01</leafValues></_>
    <_>
      <internalNodes>
        0 -1 3198 575121960 711823570 -670960142 -509882160 151100267
        1854193665 1401058551 -143341088</internalNodes>
      <leafValues>
        -5.6937229633331299e-01 2.6819309592247009e-01</leafValues></_>
    <_>
      <internalNodes>
        0 -1 4600 -1395111817 -923045478 -763176657 -1121039975
        948085754 -43005813 -2111145031 -1074333315</internalNodes>
      <leafValues>
        -4.2749011516571045e-01 3.7140163779258728e-01</leafValues></_></weakClassifiers></stage12>
</opencv_storage>
