<?xml version="1.0"?>
<opencv_storage>
<stage7>
  <maxWeakCount>8</maxWeakCount>
  <stageThreshold>-1.4217351675033569e+00</stageThreshold>
  <weakClassifiers>
    <_>
      <internalNodes>
        0 -1 5806 -201336033 2069492407 1436659935 -205163637 -121138550
        -1176860273 -2000082294 -1564475461</internalNodes>
      <leafValues>
        -5.1750969886779785e-01 2.5465837121009827e-01</leafValues></_>
    <_>
      <internalNodes>
        0 -1 562 -890768849 1436017555 -1538355185 -1362112985
        1560364332 -5668185 -7676737 -77858261</internalNodes>
      <leafValues>
        -3.9351797103881836e-01 3.5885456204414368e-01</leafValues></_>
    <_>
      <internalNodes>
        0 -1 3230 -475025501 -408370490 -167423246 -203808109 1470191287
        1224777856 1732040163 -136315165</internalNodes>
      <leafValues>
        -3.6586204171180725e-01 3.9263907074928284e-01</leafValues></_>
    <_>
      <internalNodes>
        0 -1 3007 10436864 -2002787637 1871303135 801989551 1482504089
        -1374215295 1284237819 1656746195</internalNodes>
      <leafValues>
        -6.6575837135314941e-01 2.2331309318542480e-01</leafValues></_>
    <_>
      <internalNodes>
        0 -1 5024 -1845897392 3330380 1301532977 -551615877 -107758824
        -670979390 -1294023579 1141751497</internalNodes>
      <leafValues>
        -5.9084063768386841e-01 2.3589353263378143e-01</leafValues></_>
    <_>
      <internalNodes>
        0 -1 3021 -2010210054 1034108976 -1450108321 -1917452096
        -398382438 -1476124465 1659289512 738910481</internalNodes>
      <leafValues>
        -4.6532595157623291e-01 3.2320386171340942e-01</leafValues></_>
    <_>
      <internalNodes>
        0 -1 6483 1741422351 197000834 547587086 13804947 2070942223
        1044938765 -1169561109 -77958578</internalNodes>
      <leafValues>
        -4.7507306933403015e-01 3.1005007028579712e-01</leafValues></_>
    <_>
      <internalNodes>
        0 -1 3803 -733048064 -1761050414 -1006025380 2139594930
        -182935357 -2121625600 -905322294 -1159333241</internalNodes>
      <leafValues>
        -4.2215412855148315e-01 3.6755961179733276e-01</leafValues></_></weakClassifiers></stage7>
</opencv_storage>
