<?xml version="1.0"?>
<opencv_storage>
<stage7>
  <maxWeakCount>13</maxWeakCount>
  <stageThreshold>-1.3462665081024170e+00</stageThreshold>
  <weakClassifiers>
    <_>
      <internalNodes>
        0 -1 6492 -135271157 637271549 -263458678 -385910787 -1075098877
        2107887871 -371275269 -143425</internalNodes>
      <leafValues>
        -5.7746475934982300e-01 -1.2345679104328156e-02</leafValues></_>
    <_>
      <internalNodes>
        0 -1 662 -28581313 -10237269 -392548609 1617546427 1074016894
        33700115 1423399583 1673001675</internalNodes>
      <leafValues>
        -4.0680468082427979e-01 2.1556323766708374e-01</leafValues></_>
    <_>
      <internalNodes>
        0 -1 1830 1026441226 1057177119 75762717 520834577 2055983668
        -1150103392 -615785538 2065686519</internalNodes>
      <leafValues>
        -4.4740727543830872e-01 2.0998844504356384e-01</leafValues></_>
    <_>
      <internalNodes>
        0 -1 4816 -591876876 339001252 -1235910659 -1645187787
        1825850872 -16875751 -990527556 -303264277</internalNodes>
      <leafValues>
        -3.0217632651329041e-01 3.2636746764183044e-01</leafValues></_>
    <_>
      <internalNodes>
        0 -1 3971 1427889328 67147440 -931118384 -1111898176 1152012521
        1478662561 1485549793 -856691403</internalNodes>
      <leafValues>
        -4.3725216388702393e-01 2.4210494756698608e-01</leafValues></_>
    <_>
      <internalNodes>
        0 -1 3426 -1370528242 574328970 549103648 1647234911 1590638158
        477692530 -490323387 -221269769</internalNodes>
      <leafValues>
        -5.6527072191238403e-01 1.6288073360919952e-01</leafValues></_>
    <_>
      <internalNodes>
        0 -1 770 -436328138 1542874666 2014740703 1834936290 1722035263
        1936001028 142486148 1870000999</internalNodes>
      <leafValues>
        -3.8106197118759155e-01 2.4136103689670563e-01</leafValues></_>
    <_>
      <internalNodes>
        0 -1 5883 1796719887 55801661 470698074 1398987006 -993427455
        1536393469 159225576 -1346507317</internalNodes>
      <leafValues>
        -3.5300377011299133e-01 2.6805761456489563e-01</leafValues></_>
    <_>
      <internalNodes>
        0 -1 3869 -1164989800 -69897605 -1382262488 -1266000471
        118292762 628924507 32204930 596572281</internalNodes>
      <leafValues>
        -4.4940581917762756e-01 2.2193595767021179e-01</leafValues></_>
    <_>
      <internalNodes>
        0 -1 29 738592778 439236510 1653654657 108286354 1584417344
        1311244294 1534378371 1522035353</internalNodes>
      <leafValues>
        -7.0702946186065674e-01 1.3530106842517853e-01</leafValues></_>
    <_>
      <internalNodes>
        0 -1 6025 -951116922 1286339855 1380463106 -1301090292
        1149280518 592117827 4441316 14152630</internalNodes>
      <leafValues>
        -5.5874389410018921e-01 1.5621145069599152e-01</leafValues></_>
    <_>
      <internalNodes>
        0 -1 2370 -281058915 1000516478 -486834183 -72188238 -438856632
        1862237951 -50858296 -337380554</internalNodes>
      <leafValues>
        -2.6921799778938293e-01 3.7679496407508850e-01</leafValues></_>
    <_>
      <internalNodes>
        0 -1 6024 259915327 108519177 -1086767331 1213512787 -1921007877
        -1367580704 1303870733 -585106034</internalNodes>
      <leafValues>
        -2.7537828683853149e-01 3.5412549972534180e-01</leafValues></_></weakClassifiers></stage7>
</opencv_storage>
