<?xml version="1.0"?>
<opencv_storage>
<stage2>
  <maxWeakCount>9</maxWeakCount>
  <stageThreshold>-1.7280044555664062e+00</stageThreshold>
  <weakClassifiers>
    <_>
      <internalNodes>
        0 -1 1836 -267521854 -791682751 -1035906811 -171708873
        -1325428490 -661929749 -997985281 -1049665</internalNodes>
      <leafValues>
        -6.3741004467010498e-01 1.5813954174518585e-01</leafValues></_>
    <_>
      <internalNodes>
        0 -1 3009 1108329104 68113408 1561317779 118750478 467388347
        1199737037 1513085403 1608506367</internalNodes>
      <leafValues>
        -5.9440159797668457e-01 2.7327579259872437e-01</leafValues></_>
    <_>
      <internalNodes>
        0 -1 585 -825241873 -69508409 -1576796017 1109114967 1143029819
        1398268610 1348356863 -143667201</internalNodes>
      <leafValues>
        -4.1556885838508606e-01 3.9750280976295471e-01</leafValues></_>
    <_>
      <internalNodes>
        0 -1 1087 -678442358 457681408 1234387072 2139308102 193379339
        871492061 -83435525 2137513727</internalNodes>
      <leafValues>
        -3.9302667975425720e-01 3.7974122166633606e-01</leafValues></_>
    <_>
      <internalNodes>
        0 -1 6483 -271581425 -1006672089 1056394986 1784997885 -8945917
        1467940383 -1083836533 -335544321</internalNodes>
      <leafValues>
        -3.2643291354179382e-01 4.5851251482963562e-01</leafValues></_>
    <_>
      <internalNodes>
        0 -1 674 -354683342 -1038181944 49470896 -386607266 -770519952
        -475856694 -133694348 -143670273</internalNodes>
      <leafValues>
        -5.7325387001037598e-01 2.3560489714145660e-01</leafValues></_>
    <_>
      <internalNodes>
        0 -1 195 -469792121 -1519124690 -272715792 -545816 2002773349
        -271067138 903206663 -109052041</internalNodes>
      <leafValues>
        -3.6166733503341675e-01 4.0712097287178040e-01</leafValues></_>
    <_>
      <internalNodes>
        0 -1 3945 -131170136 922842689 -250940541 1025360083 17434810
        461520898 -1630381885 1064685799</internalNodes>
      <leafValues>
        -4.4846174120903015e-01 3.3152550458908081e-01</leafValues></_>
    <_>
      <internalNodes>
        0 -1 5607 -429932030 1924501530 1921272899 1956108485 -243068928
        1006706722 -251936676 -193991941</internalNodes>
      <leafValues>
        -4.2310586571693420e-01 3.3242535591125488e-01</leafValues></_></weakClassifiers></stage2>
</opencv_storage>
