<?xml version="1.0"?>
<opencv_storage>
<stage8>
  <maxWeakCount>10</maxWeakCount>
  <stageThreshold>-1.3313724994659424e+00</stageThreshold>
  <weakClassifiers>
    <_>
      <internalNodes>
        0 -1 4905 -18899169 1059020159 -568402947 -1157703809 1056587631
        1794501159 -622105739 -386211947</internalNodes>
      <leafValues>
        -6.0582822561264038e-01 4.2283296585083008e-02</leafValues></_>
    <_>
      <internalNodes>
        0 -1 850 35806346 867431927 631322111 1439716611 2123049899
        -1107977000 2035775047 -20448093</internalNodes>
      <leafValues>
        -5.0462889671325684e-01 2.1544991433620453e-01</leafValues></_>
    <_>
      <internalNodes>
        0 -1 5319 -1367396561 216363827 -960508674 -1596042466
        2069847888 2077489644 2096987301 -50397232</internalNodes>
      <leafValues>
        -4.5916110277175903e-01 2.4355234205722809e-01</leafValues></_>
    <_>
      <internalNodes>
        0 -1 4967 573572592 -67861636 -1552563747 -1076252460
        -1682126664 -105217892 920132092 -1091033084</internalNodes>
      <leafValues>
        -6.8554377555847168e-01 1.8925049901008606e-01</leafValues></_>
    <_>
      <internalNodes>
        0 -1 6335 1862214959 772657263 1758981098 5360357 1943426823
        442226788 -1350890 -220726354</internalNodes>
      <leafValues>
        -5.0949686765670776e-01 2.0478564500808716e-01</leafValues></_>
    <_>
      <internalNodes>
        0 -1 587 -152120130 -1210496485 -524806116 983571935 1212564488
        -48217148 -286417959 -381455997</internalNodes>
      <leafValues>
        -3.5987398028373718e-01 2.9444918036460876e-01</leafValues></_>
    <_>
      <internalNodes>
        0 -1 151 -1590696321 -1379161150 1427252239 -136479616
        1969847619 -108729286 2069586673 -269093818</internalNodes>
      <leafValues>
        -3.2332265377044678e-01 3.3734306693077087e-01</leafValues></_>
    <_>
      <internalNodes>
        0 -1 2897 -696077056 1082692436 -299565820 143018377 471012221
        -896105815 1562850561 935329727</internalNodes>
      <leafValues>
        -5.7966321706771851e-01 1.8425516784191132e-01</leafValues></_>
    <_>
      <internalNodes>
        0 -1 5540 135958232 209020276 -1851506611 -1249614124 143371512
        -1630955136 714000536 -840341432</internalNodes>
      <leafValues>
        -5.1079744100570679e-01 2.1682994067668915e-01</leafValues></_>
    <_>
      <internalNodes>
        0 -1 2560 -540779374 -66854107 -13038512 990724311 -1787586381
        -937410048 425414699 1279738843</internalNodes>
      <leafValues>
        -4.4325965642929077e-01 2.4163424968719482e-01</leafValues></_></weakClassifiers></stage8>
</opencv_storage>
