<?xml version="1.0"?>
<opencv_storage>
<stage1>
  <maxWeakCount>7</maxWeakCount>
  <stageThreshold>-1.3857467174530029e+00</stageThreshold>
  <weakClassifiers>
    <_>
      <internalNodes>
        0 -1 36 574866058 823386831 1363669187 2009580431 1914161411
        1461437355 2001719243 -134217729</internalNodes>
      <leafValues>
        -7.1675169467926025e-01 1.6760635375976562e-01</leafValues></_>
    <_>
      <internalNodes>
        0 -1 3006 1670336514 1121935371 1087437766 1113058687 1104094158
        1352649071 820242111 1710226927</internalNodes>
      <leafValues>
        -6.7545717954635620e-01 2.9102590680122375e-01</leafValues></_>
    <_>
      <internalNodes>
        0 -1 563 -1040003410 2063657354 578995422 -85802553 1147421984
        1883625093 1482406651 -3109</internalNodes>
      <leafValues>
        -5.6372404098510742e-01 3.5802748799324036e-01</leafValues></_>
    <_>
      <internalNodes>
        0 -1 6207 -422074069 574850118 -1073462112 -1360674485 -61906105
        1157747275 -223632809 -134218769</internalNodes>
      <leafValues>
        -5.0038695335388184e-01 4.1794091463088989e-01</leafValues></_>
    <_>
      <internalNodes>
        0 -1 1335 -354997717 586139917 -694959512 -254024321 2125428300
        1161922567 -243023102 -147331273</internalNodes>
      <leafValues>
        -5.3690928220748901e-01 3.1275853514671326e-01</leafValues></_>
    <_>
      <internalNodes>
        0 -1 6003 568176394 -2080509045 -129247742 -1595555489
        1359705160 1181675554 -140789678 -218106373</internalNodes>
      <leafValues>
        -5.4311984777450562e-01 3.1817206740379333e-01</leafValues></_>
    <_>
      <internalNodes>
        0 -1 4227 -431570880 -585673835 -1065224087 358630161 -455303096
        -489732953 -935279714 -181932317</internalNodes>
      <leafValues>
        -4.7868531942367554e-01 3.9367914199829102e-01</leafValues></_></weakClassifiers></stage1>
</opencv_storage>
