<?xml version="1.0"?>
<opencv_storage>
<stage3>
  <maxWeakCount>11</maxWeakCount>
  <stageThreshold>-1.2629381418228149e+00</stageThreshold>
  <weakClassifiers>
    <_>
      <internalNodes>
        0 -1 4959 -109061357 421262107 -2128908000 1528775055 -137893925
        -1920282487 -173813289 -34603265</internalNodes>
      <leafValues>
        -5.7147383689880371e-01 2.2527880966663361e-01</leafValues></_>
    <_>
      <internalNodes>
        0 -1 4253 -531685376 1566009623 -466893807 1360487185 -861707614
        -1322668351 1082515115 -617873489</internalNodes>
      <leafValues>
        -5.0824600458145142e-01 2.9461294412612915e-01</leafValues></_>
    <_>
      <internalNodes>
        0 -1 2082 -404754898 1245947782 -660244960 -252448370 -429629433
        1110096425 -105126954 -135797765</internalNodes>
      <leafValues>
        -4.3655002117156982e-01 3.2078230381011963e-01</leafValues></_>
    <_>
      <internalNodes>
        0 -1 5024 -858526832 -2129618412 1348041040 -715797410
        -557794424 279546249 -791695292 -574754081</internalNodes>
      <leafValues>
        -4.2837721109390259e-01 2.9943740367889404e-01</leafValues></_>
    <_>
      <internalNodes>
        0 -1 1230 -305420401 782455051 -2078442378 -1093738210
        1394113283 1181421611 -338582718 -136839209</internalNodes>
      <leafValues>
        -4.2391833662986755e-01 3.1953203678131104e-01</leafValues></_>
    <_>
      <internalNodes>
        0 -1 3837 -299284776 991396506 -955649516 721633558 881728220
        -1696989174 187717935 774461303</internalNodes>
      <leafValues>
        -5.4067379236221313e-01 2.4623276293277740e-01</leafValues></_>
    <_>
      <internalNodes>
        0 -1 6230 -11538521 1854014340 -74145694 -1031019314 1358952000
        1141614855 -1777404030 -151781893</internalNodes>
      <leafValues>
        -4.3292140960693359e-01 2.9758515954017639e-01</leafValues></_>
    <_>
      <internalNodes>
        0 -1 2324 205320 1950430353 555471197 -706377330 319306174
        -557279032 692488331 -640995057</internalNodes>
      <leafValues>
        -4.7495308518409729e-01 2.9450491070747375e-01</leafValues></_>
    <_>
      <internalNodes>
        0 -1 2790 -472980986 715116875 -794973472 -761540202 1349346894
        101882112 -792936106 -993136646</internalNodes>
      <leafValues>
        -5.0589549541473389e-01 2.5767731666564941e-01</leafValues></_>
    <_>
      <internalNodes>
        0 -1 2389 -778839085 -551624994 253697305 -1372063814
        -1663050242 1575976959 207593459 -1648623721</internalNodes>
      <leafValues>
        -2.4562492966651917e-01 5.6114137172698975e-01</leafValues></_>
    <_>
      <internalNodes>
        0 -1 3294 -1346187349 789504392 -951662438 -75196104 2034889973
        1235976323 -535633161 -235641098</internalNodes>
      <leafValues>
        -3.8081553578376770e-01 3.4659206867218018e-01</leafValues></_></weakClassifiers></stage3>
</opencv_storage>
