<?xml version="1.0"?>
<opencv_storage>
<stage13>
  <maxWeakCount>17</maxWeakCount>
  <stageThreshold>-1.3932521343231201e+00</stageThreshold>
  <weakClassifiers>
    <_>
      <internalNodes>
        0 -1 3785 -590678816 -805303007 -242165331 623118621 -789266011
        -389773310 -846155858 -552093297</internalNodes>
      <leafValues>
        -6.1085128784179688e-01 -8.2133784890174866e-02</leafValues></_>
    <_>
      <internalNodes>
        0 -1 3088 -606085157 -673387026 -274726989 -4718850 351243707
        -536875009 1340079547 -541073478</internalNodes>
      <leafValues>
        -2.0241338014602661e-01 4.2696091532707214e-01</leafValues></_>
    <_>
      <internalNodes>
        0 -1 4962 703729156 740497319 -249802958 15769018 1894467438
        72800666 1464559476 -1090846748</internalNodes>
      <leafValues>
        -5.1777088642120361e-01 1.5027786791324615e-01</leafValues></_>
    <_>
      <internalNodes>
        0 -1 325 -271593846 75662798 1146732650 -1265761972 1674526327
        589500552 312157031 -941772237</internalNodes>
      <leafValues>
        -4.0815910696983337e-01 2.0263193547725677e-01</leafValues></_>
    <_>
      <internalNodes>
        0 -1 5060 -1621891232 -1000697004 84939190 -583044707 -612260356
        -1866843475 -446729771 -935463956</internalNodes>
      <leafValues>
        -3.1784978508949280e-01 2.4348811805248260e-01</leafValues></_>
    <_>
      <internalNodes>
        0 -1 5277 73302816 922501137 1184208920 -1730293680 1253681220
        1547276352 -91572020 -50411503</internalNodes>
      <leafValues>
        -3.8747164607048035e-01 1.9711342453956604e-01</leafValues></_>
    <_>
      <internalNodes>
        0 -1 2130 -631263510 1079747166 1476556326 848640155 1896549636
        1461887245 -879758364 1439030194</internalNodes>
      <leafValues>
        -4.4232639670372009e-01 1.7874467372894287e-01</leafValues></_>
    <_>
      <internalNodes>
        0 -1 5650 -1167070432 576050461 71753642 -1446096937 1936695440
        -666523542 -1496846109 -290072073</internalNodes>
      <leafValues>
        -3.3329969644546509e-01 2.3276348412036896e-01</leafValues></_>
    <_>
      <internalNodes>
        0 -1 4555 -1086720770 -1768948700 -646129607 1600472279
        -1902637429 -1166057508 381312475 -1082436437</internalNodes>
      <leafValues>
        -1.9583344459533691e-01 4.1099721193313599e-01</leafValues></_>
    <_>
      <internalNodes>
        0 -1 5943 1220554170 110303544 92945008 1141015020 285891212
        721674377 153392556 2080218436</internalNodes>
      <leafValues>
        -4.1634279489517212e-01 2.0929083228111267e-01</leafValues></_>
    <_>
      <internalNodes>
        0 -1 3198 -288445692 646781088 -486435400 -2848440 253407995
        189876361 327700658 -180899346</internalNodes>
      <leafValues>
        -3.7006315588951111e-01 2.1870422363281250e-01</leafValues></_>
    <_>
      <internalNodes>
        0 -1 6117 687604860 576197046 -218054535 136215001 1463295
        -131456373 -1450009878 170424850</internalNodes>
      <leafValues>
        -6.1333483457565308e-01 1.5304988622665405e-01</leafValues></_>
    <_>
      <internalNodes>
        0 -1 5575 -285479378 1606996311 -1877419346 818141210 -200409018
        1736441864 -2003699576 -447249015</internalNodes>
      <leafValues>
        -3.3975708484649658e-01 2.3560917377471924e-01</leafValues></_>
    <_>
      <internalNodes>
        0 -1 2189 -1035037072 -532417238 1429265844 -1471638685
        1119049829 1219168407 1866339093 -1152128521</internalNodes>
      <leafValues>
        -5.1145315170288086e-01 1.6101640462875366e-01</leafValues></_>
    <_>
      <internalNodes>
        0 -1 3894 -1396267534 -164319311 -708278894 2066679224 420082364
        -1741127533 -227900715 -323951627</internalNodes>
      <leafValues>
        -2.8391426801681519e-01 3.1262060999870300e-01</leafValues></_>
    <_>
      <internalNodes>
        0 -1 3021 1319825625 -1158945814 1535059763 -1393405836
        1061087368 2129592319 1722695464 -1415153739</internalNodes>
      <leafValues>
        -2.7342981100082397e-01 3.2865887880325317e-01</leafValues></_>
    <_>
      <internalNodes>
        0 -1 3927 -572721217 1530129780 -285294958 1034419937 -378367814
        -310448266 1442717271 -1347997993</internalNodes>
      <leafValues>
        -2.0679439604282379e-01 4.4585609436035156e-01</leafValues></_></weakClassifiers></stage13>
</opencv_storage>
