<?xml version="1.0"?>
<opencv_storage>
<stage14>
  <maxWeakCount>31</maxWeakCount>
  <stageThreshold>-1.3840050697326660e+00</stageThreshold>
  <weakClassifiers>
    <_>
      <internalNodes>
        0 -1 1679 1493228766 2134376433 1433884635 1067144183 -72096857
        -768883788 -615147367 -9970945</internalNodes>
      <leafValues>
        -4.9206349253654480e-01 -8.7248325347900391e-02</leafValues></_>
    <_>
      <internalNodes>
        0 -1 4825 -759700274 -677460674 -335353732 -1847602185
        -1099986812 1419312468 -2136381430 570032063</internalNodes>
      <leafValues>
        -2.6994505524635315e-01 1.7415583133697510e-01</leafValues></_>
    <_>
      <internalNodes>
        0 -1 4048 -122430760 -573046690 1793119 392240885 171678136
        -126725510 172202891 -553181265</internalNodes>
      <leafValues>
        -1.6090264916419983e-01 2.8173711895942688e-01</leafValues></_>
    <_>
      <internalNodes>
        0 -1 2351 765508056 -7244912 -921815597 -33729088 956986980
        -20719053 717047185 -1920528139</internalNodes>
      <leafValues>
        -2.6646775007247925e-01 1.6480942070484161e-01</leafValues></_>
    <_>
      <internalNodes>
        0 -1 685 -1500599185 796364014 647234279 619383407 1108105997
        2104697148 1185148494 1899474455</internalNodes>
      <leafValues>
        -3.0782437324523926e-01 1.6225175559520721e-01</leafValues></_>
    <_>
      <internalNodes>
        0 -1 5343 -271339742 734217569 -669657278 -1597509411 1338922967
        18385688 -1112841776 -587730953</internalNodes>
      <leafValues>
        -2.7632042765617371e-01 1.7373241484165192e-01</leafValues></_>
    <_>
      <internalNodes>
        0 -1 3004 1087795202 257290110 -523210813 140819532 580030518
        2046794679 1220610691 -889532779</internalNodes>
      <leafValues>
        -3.6613848805427551e-01 1.2933509051799774e-01</leafValues></_>
    <_>
      <internalNodes>
        0 -1 4215 -30476815 -580248076 -302524617 -135662556 -37843828
        -83943697 -890699798 -1158654028</internalNodes>
      <leafValues>
        -1.3500298559665680e-01 3.7870860099792480e-01</leafValues></_>
    <_>
      <internalNodes>
        0 -1 1159 -940704193 -445661470 -5852624 -67900237 2135946687
        2138374070 2134218200 -149569</internalNodes>
      <leafValues>
        -1.6422532498836517e-01 2.8796213865280151e-01</leafValues></_>
    <_>
      <internalNodes>
        0 -1 4944 -2021192160 249255539 -19916030 537555164 934116708
        1580273620 294416976 -359783659</internalNodes>
      <leafValues>
        -4.2808780074119568e-01 1.0054948180913925e-01</leafValues></_>
    <_>
      <internalNodes>
        0 -1 5624 -729813230 369794342 -2059211854 713176406 872784016
        -1385155406 2015594186 151386623</internalNodes>
      <leafValues>
        -2.4056346714496613e-01 1.9437901675701141e-01</leafValues></_>
    <_>
      <internalNodes>
        0 -1 809 -2079596124 182092754 521794971 583832010 -2095449755
        -453919981 1935372309 1685154401</internalNodes>
      <leafValues>
        -4.1865980625152588e-01 1.0624888539314270e-01</leafValues></_>
    <_>
      <internalNodes>
        0 -1 4764 -827610593 -13729996 -1566124193 807944880 -1359149492
        -1657372841 -1128499526 -608455340</internalNodes>
      <leafValues>
        -1.9935710728168488e-01 2.2727251052856445e-01</leafValues></_>
    <_>
      <internalNodes>
        0 -1 6052 -472701183 69585508 514139413 541347744 1621036585
        14204894 1961843969 -2047829105</internalNodes>
      <leafValues>
        -3.1681472063064575e-01 1.3882745802402496e-01</leafValues></_>
    <_>
      <internalNodes>
        0 -1 5992 -1686639482 2138959795 -829758880 2079117803
        1734341519 224260933 1391961754 -720896770</internalNodes>
      <leafValues>
        -1.6036264598369598e-01 2.9115650057792664e-01</leafValues></_>
    <_>
      <internalNodes>
        0 -1 4840 -1024014704 -72733575 -139116683 -1657413726
        -1365644548 1039593212 -1107496964 -1347783115</internalNodes>
      <leafValues>
        -2.0731882750988007e-01 2.2139008343219757e-01</leafValues></_>
    <_>
      <internalNodes>
        0 -1 3162 -1520026704 -1366612698 -1382984560 -7502624
        1145250101 1269362834 2012226516 -1038298175</internalNodes>
      <leafValues>
        -3.0172559618949890e-01 1.4373449981212616e-01</leafValues></_>
    <_>
      <internalNodes>
        0 -1 2915 -752170276 -1810743433 2122063101 1063403119
        1544891772 2145900146 1148681677 2137220191</internalNodes>
      <leafValues>
        -2.0719906687736511e-01 2.2607456147670746e-01</leafValues></_>
    <_>
      <internalNodes>
        0 -1 6343 -2038977495 1669710731 111743950 1275813369 1923836741
        1696086063 -493889834 1640822735</internalNodes>
      <leafValues>
        -3.4986376762390137e-01 1.2982320785522461e-01</leafValues></_>
    <_>
      <internalNodes>
        0 -1 4113 -939665121 -1233928897 1065353117 -138514620 494669481
        1859608575 1700739257 -613679329</internalNodes>
      <leafValues>
        -1.4882674813270569e-01 3.1094047427177429e-01</leafValues></_>
    <_>
      <internalNodes>
        0 -1 2159 2121318316 -1774550996 -1168737531 2104648033
        1136756984 -611161981 -1090737346 -15434994</internalNodes>
      <leafValues>
        -2.1209958195686340e-01 2.1175284683704376e-01</leafValues></_>
    <_>
      <internalNodes>
        0 -1 737 -1369490821 -1412040808 198727201 619299334 1162310773
        428560570 1430992688 1548074480</internalNodes>
      <leafValues>
        -3.0992844700813293e-01 1.4155699312686920e-01</leafValues></_>
    <_>
      <internalNodes>
        0 -1 6595 534387459 249409970 -1551215844 77260261 187640672
        -1447610103 -1061931 15315830</internalNodes>
      <leafValues>
        -3.4844663739204407e-01 1.2787452340126038e-01</leafValues></_>
    <_>
      <internalNodes>
        0 -1 2513 -68785238 2019578539 -2064325390 1840602850 1150611391
        1801891682 560995579 -305433201</internalNodes>
      <leafValues>
        -2.0701268315315247e-01 2.1599788963794708e-01</leafValues></_>
    <_>
      <internalNodes>
        0 -1 5037 -1771381558 -1087935166 1323558288 2037108849
        -658086438 -1357938778 -931732001 -283195601</internalNodes>
      <leafValues>
        -1.6574390232563019e-01 2.8322637081146240e-01</leafValues></_>
    <_>
      <internalNodes>
        0 -1 5948 752331266 38534402 -2129936279 822665074 1489206145
        508215345 174400789 1238170051</internalNodes>
      <leafValues>
        -3.5405659675598145e-01 1.2824383378028870e-01</leafValues></_>
    <_>
      <internalNodes>
        0 -1 2855 -810833232 -630276070 235989915 1455823400 41722901
        238224031 34338187 899644198</internalNodes>
      <leafValues>
        -2.9127490520477295e-01 1.5895764529705048e-01</leafValues></_>
    <_>
      <internalNodes>
        0 -1 5307 -943965168 973149814 -1480600624 537622073 743363012
        115383738 146166888 -1474210811</internalNodes>
      <leafValues>
        -3.3958053588867188e-01 1.2806566059589386e-01</leafValues></_>
    <_>
      <internalNodes>
        0 -1 2082 -418419188 46764498 -1203660724 -1335641786 2008246020
        68229157 1972101974 1365874835</internalNodes>
      <leafValues>
        -4.4822576642036438e-01 1.0279090702533722e-01</leafValues></_>
    <_>
      <internalNodes>
        0 -1 3851 1107356178 844653346 -1809631150 -1663482208 868387057
        1017371015 -1736087626 -1427943049</internalNodes>
      <leafValues>
        -2.5710031390190125e-01 1.7459148168563843e-01</leafValues></_>
    <_>
      <internalNodes>
        0 -1 5383 2010065691 1091927829 -293663935 -1242006030 737119914
        737900543 1308597753 -1914836627</internalNodes>
      <leafValues>
        -1.8649113178253174e-01 2.4071028828620911e-01</leafValues></_></weakClassifiers></stage14>
</opencv_storage>
