<?xml version="1.0"?>
<opencv_storage>
<stage17>
  <maxWeakCount>18</maxWeakCount>
  <stageThreshold>-1.3093693256378174e+00</stageThreshold>
  <weakClassifiers>
    <_>
      <internalNodes>
        0 -1 3173 -256720144 -790872033 1900980559 -444265979 -431690757
        -1313849711 1347754475 -542123089</internalNodes>
      <leafValues>
        -5.5220127105712891e-01 -8.6524821817874908e-02</leafValues></_>
    <_>
      <internalNodes>
        0 -1 340 -882440969 2069609791 -1870468055 1729132831 1222483420
        1067590057 1514506241 -1149972481</internalNodes>
      <leafValues>
        -2.8205353021621704e-01 2.3545978963375092e-01</leafValues></_>
    <_>
      <internalNodes>
        0 -1 5935 672885546 305326496 304743291 1908934530 130534672
        176732920 -1880672059 1172265892</internalNodes>
      <leafValues>
        -4.2689940333366394e-01 1.5670296549797058e-01</leafValues></_>
    <_>
      <internalNodes>
        0 -1 4585 1678802608 -1156314156 475059294 190546760 -1878912588
        -301455190 1064346267 523389021</internalNodes>
      <leafValues>
        -3.2755035161972046e-01 2.1910467743873596e-01</leafValues></_>
    <_>
      <internalNodes>
        0 -1 1432 -427379098 376262805 1786776166 234595 92999184
        1282548602 1973754202 2001069054</internalNodes>
      <leafValues>
        -4.4666272401809692e-01 1.5826521813869476e-01</leafValues></_>
    <_>
      <internalNodes>
        0 -1 3281 -1598792064 1721516368 -1920088256 763843206 439104433
        -181204816 1220350854 22697221</internalNodes>
      <leafValues>
        -4.7063928842544556e-01 1.5057131648063660e-01</leafValues></_>
    <_>
      <internalNodes>
        0 -1 3690 -15737487 -1297600668 -1359046915 -209882379 788377686
        -33591305 -151062020 -1164282379</internalNodes>
      <leafValues>
        -2.1245799958705902e-01 3.3847689628601074e-01</leafValues></_>
    <_>
      <internalNodes>
        0 -1 6597 669976194 11770131 9324289 46109012 1665856081
        1065650669 -38715600 676196966</internalNodes>
      <leafValues>
        -5.3804934024810791e-01 1.2469109892845154e-01</leafValues></_>
    <_>
      <internalNodes>
        0 -1 5445 -1667754736 215353302 -38667863 412111219 554448612
        -393698839 2079338237 1875639291</internalNodes>
      <leafValues>
        -3.2955190539360046e-01 2.1990823745727539e-01</leafValues></_>
    <_>
      <internalNodes>
        0 -1 4225 -605036835 -8499352 186384031 322815868 -1140873088
        -5244963 1357574877 -342104674</internalNodes>
      <leafValues>
        -1.6241595149040222e-01 4.8629328608512878e-01</leafValues></_>
    <_>
      <internalNodes>
        0 -1 34 -1544991798 449881201 -1853760404 34164881 1065298234
        864692735 503859737 -160579431</internalNodes>
      <leafValues>
        -3.6879190802574158e-01 2.0291918516159058e-01</leafValues></_>
    <_>
      <internalNodes>
        0 -1 3884 1657842712 807483148 -1565658717 17385060 15469744
        -1462107343 1581449998 153309863</internalNodes>
      <leafValues>
        -5.1767361164093018e-01 1.3791261613368988e-01</leafValues></_>
    <_>
      <internalNodes>
        0 -1 6365 -618756565 40850701 672749138 1724258511 1480910862
        1359060993 -1865619006 -693506173</internalNodes>
      <leafValues>
        -3.9378747344017029e-01 1.8868768215179443e-01</leafValues></_>
    <_>
      <internalNodes>
        0 -1 4531 -647504904 -13643560 1581123743 2098404825 -1478771558
        -67567880 -1633362241 -45903953</internalNodes>
      <leafValues>
        -1.7864474654197693e-01 4.5951694250106812e-01</leafValues></_>
    <_>
      <internalNodes>
        0 -1 2 61022752 1957845705 25280735 -1747598458 1604871985
        2072647715 1779367951 2122658452</internalNodes>
      <leafValues>
        -4.4862237572669983e-01 1.6845947504043579e-01</leafValues></_>
    <_>
      <internalNodes>
        0 -1 14 -878452047 -1732947987 -134775302 1556733624 1577020859
        -151523329 2004856649 -16826434</internalNodes>
      <leafValues>
        -2.2616527974605560e-01 3.4457194805145264e-01</leafValues></_>
    <_>
      <internalNodes>
        0 -1 722 -1395785222 397425222 -1911765731 1272959191 -318760751
        -63831790 1359342261 -566383248</internalNodes>
      <leafValues>
        -3.1856465339660645e-01 2.6958745718002319e-01</leafValues></_>
    <_>
      <internalNodes>
        0 -1 1451 -229748050 608288918 -2146441088 -560152498 1260114547
        17288192 1645463046 1432183214</internalNodes>
      <leafValues>
        -3.9526194334030151e-01 2.0564469695091248e-01</leafValues></_></weakClassifiers></stage17>
</opencv_storage>
