<?xml version="1.0"?>
<opencv_storage>
<stage0>
  <maxWeakCount>6</maxWeakCount>
  <stageThreshold>-1.4384906291961670e+00</stageThreshold>
  <weakClassifiers>
    <_>
      <internalNodes>
        0 -1 2428 -620506358 -585658349 1342242834 1459867799 84660363
        268664842 36410283 1595928271</internalNodes>
      <leafValues>
        -7.1200001239776611e-01 4.2399999499320984e-01</leafValues></_>
    <_>
      <internalNodes>
        0 -1 493 -84947730 1443087359 -837664182 -789601881 1074479114
        1678205091 1695763195 -212337681</internalNodes>
      <leafValues>
        -5.4792982339859009e-01 4.6782228350639343e-01</leafValues></_>
    <_>
      <internalNodes>
        0 -1 2522 -1058867712 -234851327 -801052561 -203058529
        -1072447001 1354437258 -991448577 -150994945</internalNodes>
      <leafValues>
        -5.2075606584548950e-01 4.7027167677879333e-01</leafValues></_>
    <_>
      <internalNodes>
        0 -1 6193 1728040747 711910479 -293612798 -495981833 2058964807
        603445789 -151034236 -252182785</internalNodes>
      <leafValues>
        -5.5462574958801270e-01 4.2934200167655945e-01</leafValues></_>
    <_>
      <internalNodes>
        0 -1 3509 -33620144 -196281482 1860588608 -51511393 -587202600
        1090514815 -193497712 -989856009</internalNodes>
      <leafValues>
        -4.6434450149536133e-01 4.9591103196144104e-01</leafValues></_>
    <_>
      <internalNodes>
        0 -1 5685 -286267610 782554895 -31598974 -527796974 323452511
        1936953353 -208952878 -428344397</internalNodes>
      <leafValues>
        -5.6610071659088135e-01 3.7719777226448059e-01</leafValues></_></weakClassifiers></stage0>
</opencv_storage>
