<?xml version="1.0"?>
<opencv_storage>
<stage11>
  <maxWeakCount>16</maxWeakCount>
  <stageThreshold>-1.2336058616638184e+00</stageThreshold>
  <weakClassifiers>
    <_>
      <internalNodes>
        0 -1 3776 -1004473568 -682311146 1717557528 -2024431483 17086905
        -1957670903 -1065039413 -844268801</internalNodes>
      <leafValues>
        -6.1895823478698730e-01 -7.6403543353080750e-02</leafValues></_>
    <_>
      <internalNodes>
        0 -1 520 -421540290 1448574455 -2017458956 -432866737 1129389172
        960971065 1809925724 -549064977</internalNodes>
      <leafValues>
        -3.7284159660339355e-01 2.2510015964508057e-01</leafValues></_>
    <_>
      <internalNodes>
        0 -1 5921 -30937 1372583299 -1735346232 1879216314 1942973700
        1519634517 -393613076 -234891521</internalNodes>
      <leafValues>
        -3.0862787365913391e-01 2.7632772922515869e-01</leafValues></_>
    <_>
      <internalNodes>
        0 -1 2331 235667480 758302912 554777525 998904272 1254643920
        1048109266 1621129932 -106443837</internalNodes>
      <leafValues>
        -3.6863061785697937e-01 2.6246166229248047e-01</leafValues></_>
    <_>
      <internalNodes>
        0 -1 3718 -1818539048 1097122245 488190321 -442642301 1241333979
        1252180102 227477563 495972531</internalNodes>
      <leafValues>
        -4.1499486565589905e-01 2.0619232952594757e-01</leafValues></_>
    <_>
      <internalNodes>
        0 -1 717 -454037505 1862237951 -1343239571 -437916779 1278635271
        -1879212163 1316443234 1207946263</internalNodes>
      <leafValues>
        -2.6313531398773193e-01 3.4739148616790771e-01</leafValues></_>
    <_>
      <internalNodes>
        0 -1 3410 -1625111930 856224995 252103915 328928258 1379354755
        159402231 -875344049 986184209</internalNodes>
      <leafValues>
        -4.1493678092956543e-01 1.9656570255756378e-01</leafValues></_>
    <_>
      <internalNodes>
        0 -1 1424 -193028234 -1063742340 -938013092 1759301961
        -517424812 -874747129 -825724043 -1528127001</internalNodes>
      <leafValues>
        -4.2235055565834045e-01 2.2435227036476135e-01</leafValues></_>
    <_>
      <internalNodes>
        0 -1 5187 2004864204 432495405 144552781 38402907 -1056405299
        1133157332 -626857031 2035804939</internalNodes>
      <leafValues>
        -3.3436343073844910e-01 2.7639767527580261e-01</leafValues></_>
    <_>
      <internalNodes>
        0 -1 6465 -842030273 -1459777453 553744522 179703953 1773845002
        -1652422528 -1459436914 677370842</internalNodes>
      <leafValues>
        -3.8132211565971375e-01 2.4113488197326660e-01</leafValues></_>
    <_>
      <internalNodes>
        0 -1 61 1856425127 235154440 1595196796 492372624 571368818
        2060058810 1455583280 1738953474</internalNodes>
      <leafValues>
        -5.2526950836181641e-01 1.4753657579421997e-01</leafValues></_>
    <_>
      <internalNodes>
        0 -1 4925 207466368 -1877165095 -353720063 -1947408146
        1753947024 487239096 971103557 -1070145107</internalNodes>
      <leafValues>
        -4.4991084933280945e-01 2.0057801902294159e-01</leafValues></_>
    <_>
      <internalNodes>
        0 -1 3613 -246659 468749653 -20483 1562570492 -1627490692
        -1619035339 -960800884 -847514083</internalNodes>
      <leafValues>
        -2.5327008962631226e-01 3.5808402299880981e-01</leafValues></_>
    <_>
      <internalNodes>
        0 -1 2811 -212103501 2046553727 170423382 1650065151 751817798
        356781662 2128302044 1561188127</internalNodes>
      <leafValues>
        -2.8762075304985046e-01 3.2555431127548218e-01</leafValues></_>
    <_>
      <internalNodes>
        0 -1 5420 -372213264 105370548 -736080829 -53143026 859582873
        1481805956 136396117 148068031</internalNodes>
      <leafValues>
        -4.1850346326828003e-01 2.2018697857856750e-01</leafValues></_>
    <_>
      <internalNodes>
        0 -1 5193 -1043725993 -581827820 -128913187 436781148
        -1470603748 1599668760 -2133216856 -932034779</internalNodes>
      <leafValues>
        -3.2663214206695557e-01 2.8333818912506104e-01</leafValues></_></weakClassifiers></stage11>
</opencv_storage>
