<?xml version="1.0"?>
<opencv_storage>
<stage3>
  <maxWeakCount>14</maxWeakCount>
  <stageThreshold>-1.4768764972686768e+00</stageThreshold>
  <weakClassifiers>
    <_>
      <internalNodes>
        0 -1 3718 -644097126 -543173747 453243667 -46402885 1302315195
        1319879599 227013611 -538968065</internalNodes>
      <leafValues>
        -5.2721703052520752e-01 2.3551593720912933e-01</leafValues></_>
    <_>
      <internalNodes>
        0 -1 2002 -268439761 177143598 -633352670 -219156574 2080341831
        1197791599 -202378633 -134217865</internalNodes>
      <leafValues>
        -4.4780498743057251e-01 2.5140264630317688e-01</leafValues></_>
    <_>
      <internalNodes>
        0 -1 3509 -771753136 71887446 -439888432 -37751841 -553648644
        1826483901 -779106863 -704643073</internalNodes>
      <leafValues>
        -3.9548799395561218e-01 2.9467311501502991e-01</leafValues></_>
    <_>
      <internalNodes>
        0 -1 24 -2111575061 -228416558 -1354268861 -10241109 1195859947
        -269616139 2139084383 -2105477</internalNodes>
      <leafValues>
        -2.8618389368057251e-01 3.9316254854202271e-01</leafValues></_>
    <_>
      <internalNodes>
        0 -1 5979 -295702782 711191996 -1024207392 -520359465 2004875343
        1110702427 -403705370 -420481081</internalNodes>
      <leafValues>
        -4.0461623668670654e-01 2.8424429893493652e-01</leafValues></_>
    <_>
      <internalNodes>
        0 -1 613 -286273793 1470611150 421615 -20455737 1343583359
        1545056921 1147362815 -144183297</internalNodes>
      <leafValues>
        -3.1762260198593140e-01 3.2063573598861694e-01</leafValues></_>
    <_>
      <internalNodes>
        0 -1 4280 -765475840 1427196933 -2135554384 1091931411
        -462585712 -585923804 -509220949 -177741841</internalNodes>
      <leafValues>
        -3.1681945919990540e-01 3.1305813789367676e-01</leafValues></_>
    <_>
      <internalNodes>
        0 -1 2766 -285220310 574973707 -620761056 -256383538 1103524383
        4454426 -1013058874 -152567809</internalNodes>
      <leafValues>
        -4.0581676363945007e-01 2.3044703900814056e-01</leafValues></_>
    <_>
      <internalNodes>
        0 -1 4149 -629293056 368835741 -1477972009 31444951 819654831
        1073741790 1481490170 -1427838001</internalNodes>
      <leafValues>
        -2.9222106933593750e-01 3.1628489494323730e-01</leafValues></_>
    <_>
      <internalNodes>
        0 -1 5661 -1444443134 578812766 -432016702 -1393331357 935257350
        372748617 -1259343162 -251660545</internalNodes>
      <leafValues>
        -4.6081310510635376e-01 1.7556281387805939e-01</leafValues></_>
    <_>
      <internalNodes>
        0 -1 285 -370162097 584039838 -272034198 -1110460108 1610310439
        1915468501 -985672172 -3409921</internalNodes>
      <leafValues>
        -3.1626498699188232e-01 2.8380548954010010e-01</leafValues></_>
    <_>
      <internalNodes>
        0 -1 3208 -1565883742 -221714558 -2102386512 -540712016
        1142221462 1757593810 1883493261 -303566161</internalNodes>
      <leafValues>
        -3.4576731920242310e-01 2.4926447868347168e-01</leafValues></_>
    <_>
      <internalNodes>
        0 -1 5931 1591717635 61588799 -1525553040 305683139 -830627578
        152267187 1608179952 -1344364817</internalNodes>
      <leafValues>
        -3.6310553550720215e-01 2.3042169213294983e-01</leafValues></_>
    <_>
      <internalNodes>
        0 -1 952 2141389534 522404435 -590820321 1511981602 1986970370
        1789896775 2108684538 -277349762</internalNodes>
      <leafValues>
        -2.9671785235404968e-01 2.9298013448715210e-01</leafValues></_></weakClassifiers></stage3>
</opencv_storage>
