<?xml version="1.0"?>
<opencv_storage>
<cascade>
  <stageType>BOOST</stageType>
  <featureType>LBP</featureType>
  <height>32</height>
  <width>16</width>
  <stageParams>
    <boostType>GAB</boostType>
    <minHitRate>9.9500000476837158e-01</minHitRate>
    <maxFalseAlarm>5.0000000000000000e-01</maxFalseAlarm>
    <weightTrimRate>9.4999999999999996e-01</weightTrimRate>
    <maxDepth>1</maxDepth>
    <maxWeakCount>100</maxWeakCount></stageParams>
  <featureParams>
    <maxCatCount>256</maxCatCount>
    <featSize>1</featSize></featureParams>
  <stageNum>25</stageNum>
  <stages>
    <!-- stage 0 -->
    <_>
      <maxWeakCount>5</maxWeakCount>
      <stageThreshold>-1.3270214796066284e+00</stageThreshold>
      <weakClassifiers>
        <_>
          <internalNodes>
            0 -1 59 -653537142 -548958193 268505105 1426313351
            1158398091 302219274 760747 1598025451</internalNodes>
          <leafValues>
            -8.7337225675582886e-01 1.8758085370063782e-01</leafValues></_>
        <_>
          <internalNodes>
            0 -1 48 -220412928 -206311142 -1039056887 -242760813
            1082435737 -150880081 -1878791797 -169870149</internalNodes>
          <leafValues>
            -7.1033406257629395e-01 4.1321799159049988e-01</leafValues></_>
        <_>
          <internalNodes>
            0 -1 19 -18419986 -20791222 -939490018 -1300184325
            1073742728 -379174910 1176543995 -28054545</internalNodes>
          <leafValues>
            -6.2503325939178467e-01 5.0481015443801880e-01</leafValues></_>
        <_>
          <internalNodes>
            0 -1 107 801062699 784277349 -807407810 -1604388033
            866874751 2094766803 1604579429 -16842793</internalNodes>
          <leafValues>
            -7.3680901527404785e-01 4.1236984729766846e-01</leafValues></_>
        <_>
          <internalNodes>
            0 -1 173 -270672081 603968315 -257700758 -523045477
            -125734139 -552302181 -1163211801 -335550725</internalNodes>
          <leafValues>
            -5.6597810983657837e-01 5.5067276954650879e-01</leafValues></_></weakClassifiers></_>
    <!-- stage 1 -->
    <_>
      <maxWeakCount>5</maxWeakCount>
      <stageThreshold>-1.2643526792526245e+00</stageThreshold>
      <weakClassifiers>
        <_>
          <internalNodes>
            0 -1 121 -2165 453237311 -796184319 -1075052609 -914362929
            2101719439 -203441213 -1</internalNodes>
          <leafValues>
            -7.7168577909469604e-01 1.5467625856399536e-01</leafValues></_>
        <_>
          <internalNodes>
            0 -1 70 -1566579678 -780949149 1619112839 1911935079
            -525466982 -87923973 -716971777 -137368581</internalNodes>
          <leafValues>
            -6.7971205711364746e-01 3.3690822124481201e-01</leafValues></_>
        <_>
          <internalNodes>
            0 -1 12 1947005986 1313469010 1712120550 -151127918
            408971350 863193346 -758252657 -41943041</internalNodes>
          <leafValues>
            -6.9882524013519287e-01 3.6396342515945435e-01</leafValues></_>
        <_>
          <internalNodes>
            0 -1 4 -1351621937 -1347690174 152773130 -67118063 871062371
            -1635523199 1798267747 -8121</internalNodes>
          <leafValues>
            -5.3925836086273193e-01 4.9474933743476868e-01</leafValues></_>
        <_>
          <internalNodes>
            0 -1 161 -272110545 651085235 -964038282 1658440157
            -176457125 1124713027 -1430548742 -159383558</internalNodes>
          <leafValues>
            -5.1785349845886230e-01 5.1676118373870850e-01</leafValues></_></weakClassifiers></_>
    <!-- stage 2 -->
    <_>
      <maxWeakCount>5</maxWeakCount>
      <stageThreshold>-1.4863166809082031e+00</stageThreshold>
      <weakClassifiers>
        <_>
          <internalNodes>
            0 -1 32 -544747894 -1323841494 -661600680 2141667426
            -875844177 1071227545 -175711745 2138566655</internalNodes>
          <leafValues>
            -8.3440750837326050e-01 -1.1902339756488800e-01</leafValues></_>
        <_>
          <internalNodes>
            0 -1 124 -2367664 -982130659 1493545332 -584072233
            -1177289832 -712408407 -1329609227 -705695521</internalNodes>
          <leafValues>
            -6.3735002279281616e-01 2.9023522138595581e-01</leafValues></_>
        <_>
          <internalNodes>
            0 -1 22 -805572949 -78659428 1644384477 1626325703 357643
            -82046951 1124747967 1307571071</internalNodes>
          <leafValues>
            -5.5232644081115723e-01 3.8465911149978638e-01</leafValues></_>
        <_>
          <internalNodes>
            0 -1 71 -525863232 2132002343 1344655767 1465364774
            -905525553 1571784873 -390862949 -5252197</internalNodes>
          <leafValues>
            -5.2317571640014648e-01 4.3839621543884277e-01</leafValues></_>
        <_>
          <internalNodes>
            0 -1 67 168542736 277833162 361681299 370266587 332599738
            1229619401 1477430163 127921143</internalNodes>
          <leafValues>
            -8.0362778902053833e-01 3.0335706472396851e-01</leafValues></_></weakClassifiers></_>
    <!-- stage 3 -->
    <_>
      <maxWeakCount>7</maxWeakCount>
      <stageThreshold>-1.5999180078506470e+00</stageThreshold>
      <weakClassifiers>
        <_>
          <internalNodes>
            0 -1 113 -1348053701 -116897 -405286401 -201331915 -34998033
            -41685521 -607126529 -1089</internalNodes>
          <leafValues>
            -7.5647246837615967e-01 1.3257575035095215e-01</leafValues></_>
        <_>
          <internalNodes>
            0 -1 16 -419961049 -896600594 1745743946 -251661379
            -341870229 -1065450817 -151307673 -33561857</internalNodes>
          <leafValues>
            -6.0541534423828125e-01 3.2111567258834839e-01</leafValues></_>
        <_>
          <internalNodes>
            0 -1 82 -145310928 -954470178 -733953036 -587278637
            2039476656 -779140375 1642525008 1442840567</internalNodes>
          <leafValues>
            -7.4634194374084473e-01 2.7239412069320679e-01</leafValues></_>
        <_>
          <internalNodes>
            0 -1 32 -544748022 923266066 1501741656 2143634246
            -1043470417 -6705989 -238624789 2004352959</internalNodes>
          <leafValues>
            -5.2066439390182495e-01 4.0968704223632812e-01</leafValues></_>
        <_>
          <internalNodes>
            0 -1 75 -835768680 520604947 196744273 755350416 1531447529
            159924361 270733707 515636191</internalNodes>
          <leafValues>
            -6.6620647907257080e-01 3.3029216527938843e-01</leafValues></_>
        <_>
          <internalNodes>
            0 -1 176 -207618265 -443961013 1583733536 -151022434
            -81006235 -1960083314 -754715664 -706875421</internalNodes>
          <leafValues>
            -4.8464891314506531e-01 4.5136746764183044e-01</leafValues></_>
        <_>
          <internalNodes>
            0 -1 84 -1344372769 937083023 -2080168037 -75312825
            -1415570563 -1995497464 1518465401 208715860</internalNodes>
          <leafValues>
            -6.5448385477066040e-01 3.2688176631927490e-01</leafValues></_></weakClassifiers></_>
    <!-- stage 4 -->
    <_>
      <maxWeakCount>6</maxWeakCount>
      <stageThreshold>-1.3847148418426514e+00</stageThreshold>
      <weakClassifiers>
        <_>
          <internalNodes>
            0 -1 101 -1893574307 1599811935 463309279 -33583939
            -1174414372 -75591541 -53873665 -4097</internalNodes>
          <leafValues>
            -7.7319586277008057e-01 5.3242071561113602e-18</leafValues></_>
        <_>
          <internalNodes>
            0 -1 17 -290456858 -764482354 -257374670 -227872017
            -245894028 1745027355 -1849397001 -204080161</internalNodes>
          <leafValues>
            -6.4731287956237793e-01 2.4037249386310577e-01</leafValues></_>
        <_>
          <internalNodes>
            0 -1 162 -287330774 40859535 -329310046 1250871630
            1590646272 1724289043 -156636778 -188744721</internalNodes>
          <leafValues>
            -6.7350953817367554e-01 2.8000390529632568e-01</leafValues></_>
        <_>
          <internalNodes>
            0 -1 40 -855646504 -806468521 -601949384 -1930371685
            -632107140 -328351071 1744167877 -993920513</internalNodes>
          <leafValues>
            -6.6573202610015869e-01 2.9565677046775818e-01</leafValues></_>
        <_>
          <internalNodes>
            0 -1 150 -647234000 136311042 991762448 429642250
            -1131695583 1117825154 1150021920 1420553212</internalNodes>
          <leafValues>
            -7.0976728200912476e-01 3.1931859254837036e-01</leafValues></_>
        <_>
          <internalNodes>
            0 -1 104 -1094302140 2137032473 -1875729673 -208548585
            975258072 -661602302 1619383294 -176816265</internalNodes>
          <leafValues>
            -6.0516434907913208e-01 3.2099285721778870e-01</leafValues></_></weakClassifiers></_>
    <!-- stage 5 -->
    <_>
      <maxWeakCount>7</maxWeakCount>
      <stageThreshold>-1.3257544040679932e+00</stageThreshold>
      <weakClassifiers>
        <_>
          <internalNodes>
            0 -1 141 -8417 1540740927 1150667263 1941389787 -70278518
            -24148823 -91768182 -1161830401</internalNodes>
          <leafValues>
            -7.4246126413345337e-01 4.0293041616678238e-02</leafValues></_>
        <_>
          <internalNodes>
            0 -1 63 -1627012478 923390227 -192363920 1059309145
            1145769115 1560363315 245582015 1589075407</internalNodes>
          <leafValues>
            -7.3281741142272949e-01 1.6097871959209442e-01</leafValues></_>
        <_>
          <internalNodes>
            0 -1 101 218123536 -4838568 2131606171 2142622681 268157660
            -1094794803 -661684225 -5243393</internalNodes>
          <leafValues>
            -4.6446153521537781e-01 4.0464872121810913e-01</leafValues></_>
        <_>
          <internalNodes>
            0 -1 62 1758392106 919197830 1830803951 2006439329
            -507842145 1100251151 -240818961 -705167439</internalNodes>
          <leafValues>
            -5.0884342193603516e-01 3.6934027075767517e-01</leafValues></_>
        <_>
          <internalNodes>
            0 -1 129 2061759394 815781309 1820444296 596611471
            1772018638 157401923 2067366634 -252708876</internalNodes>
          <leafValues>
            -4.3833842873573303e-01 4.3223962187767029e-01</leafValues></_>
        <_>
          <internalNodes>
            0 -1 6 -1510088082 -948707002 -600761070 -3874087 -208965561
            -1689693510 1896514375 -537136239</internalNodes>
          <leafValues>
            -5.1157784461975098e-01 3.9536330103874207e-01</leafValues></_>
        <_>
          <internalNodes>
            0 -1 157 -77727745 -356051625 295246463 2110438255
            -340058922 -488472167 -611586561 1237514680</internalNodes>
          <leafValues>
            -4.5877054333686829e-01 4.4026866555213928e-01</leafValues></_></weakClassifiers></_>
    <!-- stage 6 -->
    <_>
      <maxWeakCount>7</maxWeakCount>
      <stageThreshold>-1.5604802370071411e+00</stageThreshold>
      <weakClassifiers>
        <_>
          <internalNodes>
            0 -1 57 -40372769 -7703674 -720241923 -667242 -1080296756
            -72634197 -87163138 -257</internalNodes>
          <leafValues>
            -6.9867062568664551e-01 3.1506848335266113e-01</leafValues></_>
        <_>
          <internalNodes>
            0 -1 10 -956322297 1090248706 -1399650276 -251714021
            1253643711 1644851231 1372432651 -2668241</internalNodes>
          <leafValues>
            -5.9127169847488403e-01 2.4361288547515869e-01</leafValues></_>
        <_>
          <internalNodes>
            0 -1 172 2061705995 175780255 -2071756717 672720311
            -880329202 -879902008 -10486034 -361758721</internalNodes>
          <leafValues>
            -5.2310365438461304e-01 3.3395490050315857e-01</leafValues></_>
        <_>
          <internalNodes>
            0 -1 80 -67680734 868690438 -313802143 1926228399 -492060190
            -1075197045 1791677058 -14155793</internalNodes>
          <leafValues>
            -5.6349235773086548e-01 3.2339727878570557e-01</leafValues></_>
        <_>
          <internalNodes>
            0 -1 78 1858023182 107894206 -1170544030 850318157
            2039956806 1226416652 -152476859 -201862411</internalNodes>
          <leafValues>
            -7.2270846366882324e-01 2.5248104333877563e-01</leafValues></_>
        <_>
          <internalNodes>
            0 -1 28 595866035 2135954312 -668976679 1565344135
            1250114187 -1096539518 25910111 65008515</internalNodes>
          <leafValues>
            -5.5210632085800171e-01 3.2829171419143677e-01</leafValues></_>
        <_>
          <internalNodes>
            0 -1 152 -1979852993 143059259 420467167 1045488107
            1166214125 -389447097 -1764822280 1572515280</internalNodes>
          <leafValues>
            -5.5469638109207153e-01 3.2358515262603760e-01</leafValues></_></weakClassifiers></_>
    <!-- stage 7 -->
    <_>
      <maxWeakCount>7</maxWeakCount>
      <stageThreshold>-1.5520182847976685e+00</stageThreshold>
      <weakClassifiers>
        <_>
          <internalNodes>
            0 -1 169 -73400801 -69502177 2065423615 -20973219
            -1158943202 -27467333 -84084482 -352321557</internalNodes>
          <leafValues>
            -7.4548441171646118e-01 2.8368793427944183e-02</leafValues></_>
        <_>
          <internalNodes>
            0 -1 15 -824220065 -131273 -1371254921 -383588249 100749215
            -113880678 241684143 -80674997</internalNodes>
          <leafValues>
            -5.2695018053054810e-01 3.3790874481201172e-01</leafValues></_>
        <_>
          <internalNodes>
            0 -1 115 548869136 796677620 2123626937 -1079649200
            -335773884 1000521176 -825435138 -4399499</internalNodes>
          <leafValues>
            -6.2277972698211670e-01 2.9860538244247437e-01</leafValues></_>
        <_>
          <internalNodes>
            0 -1 120 -1359013341 720823167 -6693633 720567262 665804111
            1509907903 -1246006475 -21039247</internalNodes>
          <leafValues>
            -6.4583444595336914e-01 2.7670139074325562e-01</leafValues></_>
        <_>
          <internalNodes>
            0 -1 98 -1076481028 1071528180 -653105251 -1089642081
            -977385476 -5889963 -1177763639 -273523015</internalNodes>
          <leafValues>
            -5.5066871643066406e-01 3.4591549634933472e-01</leafValues></_>
        <_>
          <internalNodes>
            0 -1 53 1255859346 -704980198 -736601570 -157887007
            1273453802 1189831355 -241089841 -395847001</internalNodes>
          <leafValues>
            -5.2712017297744751e-01 3.4367963671684265e-01</leafValues></_>
        <_>
          <internalNodes>
            0 -1 131 1994607120 138958115 152400117 1455256988
            1424723592 -352636279 2018044351 -1392646149</internalNodes>
          <leafValues>
            -5.2500325441360474e-01 3.6691516637802124e-01</leafValues></_></weakClassifiers></_>
    <!-- stage 8 -->
    <_>
      <maxWeakCount>7</maxWeakCount>
      <stageThreshold>-1.4118040800094604e+00</stageThreshold>
      <weakClassifiers>
        <_>
          <internalNodes>
            0 -1 55 -67117569 -44040737 -1856908193 -76323 -70664197
            -67137105 -84935681 -83460</internalNodes>
          <leafValues>
            -7.1417534351348877e-01 1.1922141164541245e-01</leafValues></_>
        <_>
          <internalNodes>
            0 -1 41 -480249958 -1931840585 -317521980 -1030695426
            2060888438 -675292485 520279925 -1258882089</internalNodes>
          <leafValues>
            -7.7804571390151978e-01 1.1966963112354279e-01</leafValues></_>
        <_>
          <internalNodes>
            0 -1 8 -390598993 776393167 -333856768 -11014191 589251398
            1107609607 1911713652 -33555469</internalNodes>
          <leafValues>
            -5.8910804986953735e-01 2.8806686401367188e-01</leafValues></_>
        <_>
          <internalNodes>
            0 -1 170 2054624823 847216509 -1140854853 1014968302
            -805359990 -16793601 -1430286609 -1438648513</internalNodes>
          <leafValues>
            -4.0087312459945679e-01 4.2911559343338013e-01</leafValues></_>
        <_>
          <internalNodes>
            0 -1 156 -546316638 -828935186 -792985614 1391480971
            -205662516 72065088 -482084922 -230703109</internalNodes>
          <leafValues>
            -4.7437670826911926e-01 4.0046781301498413e-01</leafValues></_>
        <_>
          <internalNodes>
            0 -1 9 1323561483 -800912586 -828649165 2117100139
            1179382003 173011171 1495705405 -45485</internalNodes>
          <leafValues>
            -4.6628654003143311e-01 4.1101005673408508e-01</leafValues></_>
        <_>
          <internalNodes>
            0 -1 111 1541859839 1862676797 -1876174667 306364625
            -1469322977 -820299715 -778051227 1546888572</internalNodes>
          <leafValues>
            -5.9148710966110229e-01 2.9719588160514832e-01</leafValues></_></weakClassifiers></_>
    <!-- stage 9 -->
    <_>
      <maxWeakCount>7</maxWeakCount>
      <stageThreshold>-1.5202970504760742e+00</stageThreshold>
      <weakClassifiers>
        <_>
          <internalNodes>
            0 -1 125 -1439671207 1073479295 -946472995 -4653097
            -68826113 -342916353 -68354065 -2307</internalNodes>
          <leafValues>
            -7.7272725105285645e-01 -8.7301589548587799e-02</leafValues></_>
        <_>
          <internalNodes>
            0 -1 106 -1427165509 796909023 -45353601 775880669
            1979151215 -2201985 1940813412 -352398479</internalNodes>
          <leafValues>
            -6.8849635124206543e-01 2.2052404284477234e-01</leafValues></_>
        <_>
          <internalNodes>
            0 -1 130 -1610986055 -79961096 -38828225 -38117391
            -1144852498 -1352076563 -1879377603 -71648783</internalNodes>
          <leafValues>
            -4.5906531810760498e-01 4.0591713786125183e-01</leafValues></_>
        <_>
          <internalNodes>
            0 -1 148 -1879101617 753918457 -227147802 -427956246
            335181575 1873006611 -5507849 -318767113</internalNodes>
          <leafValues>
            -5.1258486509323120e-01 3.7436136603355408e-01</leafValues></_>
        <_>
          <internalNodes>
            0 -1 43 -648951825 -1387162359 496097786 -356229814
            -1962176177 758756200 -508848700 -797454377</internalNodes>
          <leafValues>
            -6.1325466632843018e-01 3.3889216184616089e-01</leafValues></_>
        <_>
          <internalNodes>
            0 -1 58 -134754081 667550178 -48532651 1569801922 -289724406
            -1349521354 -1463287128 2058482599</internalNodes>
          <leafValues>
            -4.6300643682479858e-01 4.3427565693855286e-01</leafValues></_>
        <_>
          <internalNodes>
            0 -1 86 1017660656 -708660303 -251931683 -1062436 1060239592
            -74279665 -842629530 -1176051779</internalNodes>
          <leafValues>
            -5.3568089008331299e-01 3.6893793940544128e-01</leafValues></_></weakClassifiers></_>
    <!-- stage 10 -->
    <_>
      <maxWeakCount>8</maxWeakCount>
      <stageThreshold>-1.2325271368026733e+00</stageThreshold>
      <weakClassifiers>
        <_>
          <internalNodes>
            0 -1 87 -745931301 -578645316 -721110561 -44072752
            -1148650788 -75464013 -1969488962 -1180993</internalNodes>
          <leafValues>
            -7.0279586315155029e-01 8.9974291622638702e-02</leafValues></_>
        <_>
          <internalNodes>
            0 -1 91 -45744423 923907004 -1216290721 16994915 751436670
            945101609 434392895 716787695</internalNodes>
          <leafValues>
            -5.8733928203582764e-01 1.9505576789379120e-01</leafValues></_>
        <_>
          <internalNodes>
            0 -1 24 -1024471041 1725360287 -1474232233 -1407451625
            1276340551 -2052242805 1315335394 1205326611</internalNodes>
          <leafValues>
            -4.1805323958396912e-01 3.7339824438095093e-01</leafValues></_>
        <_>
          <internalNodes>
            0 -1 30 1128423050 332657095 1061504971 1475604879
            2123016619 -104820729 -1118602613 -141050947</internalNodes>
          <leafValues>
            -4.6140727400779724e-01 3.4756892919540405e-01</leafValues></_>
        <_>
          <internalNodes>
            0 -1 143 -377018878 37472553 -1530900397 1498288543
            1221230597 1606747022 -1476671242 -1419908661</internalNodes>
          <leafValues>
            -5.6380301713943481e-01 3.1554874777793884e-01</leafValues></_>
        <_>
          <internalNodes>
            0 -1 66 -425020288 1956065329 -1132293596 682076176
            1116217006 -670350927 1309266627 2129081202</internalNodes>
          <leafValues>
            -6.8776458501815796e-01 2.4005420506000519e-01</leafValues></_>
        <_>
          <internalNodes>
            0 -1 164 -362807533 788961585 295145973 295389854 -46152790
            -2104275770 1905769904 211545707</internalNodes>
          <leafValues>
            -4.7416678071022034e-01 3.3668854832649231e-01</leafValues></_>
        <_>
          <internalNodes>
            0 -1 23 1335961277 -337325760 1245858422 1792730355
            1233863520 973281424 1150972532 1279482647</internalNodes>
          <leafValues>
            -6.2783181667327881e-01 2.6480987668037415e-01</leafValues></_></weakClassifiers></_>
    <!-- stage 11 -->
    <_>
      <maxWeakCount>6</maxWeakCount>
      <stageThreshold>-1.3059573173522949e+00</stageThreshold>
      <weakClassifiers>
        <_>
          <internalNodes>
            0 -1 42 -11045377 -237518377 -250504225 -4796194 -244647781
            -1156411381 -70128641 2146584822</internalNodes>
          <leafValues>
            -7.5882089138031006e-01 -1.3272009789943695e-01</leafValues></_>
        <_>
          <internalNodes>
            0 -1 85 -1347789744 -6373007 323802455 -40375679 -792136196
            -255317598 -1347486275 -1614877012</internalNodes>
          <leafValues>
            -4.9296092987060547e-01 2.5894457101821899e-01</leafValues></_>
        <_>
          <internalNodes>
            0 -1 103 -1535431164 1595225365 688168953 1343744770
            -2089218400 -1107599316 167889833 187866159</internalNodes>
          <leafValues>
            -7.0004045963287354e-01 2.0388348400592804e-01</leafValues></_>
        <_>
          <internalNodes>
            0 -1 180 -1612731596 -1936080697 -653396971 -409513258
            -370168844 -141990901 2041282452 2113923533</internalNodes>
          <leafValues>
            -4.5541921257972717e-01 3.4516835212707520e-01</leafValues></_>
        <_>
          <internalNodes>
            0 -1 11 651053818 251774770 -1495768321 1686599157
            -124024173 2067341395 1766352895 1533499931</internalNodes>
          <leafValues>
            -6.5672397613525391e-01 2.4148628115653992e-01</leafValues></_>
        <_>
          <internalNodes>
            0 -1 127 -187175104 836617938 1900319892 -1324150643
            2072619344 1879935766 -1540447078 1617144443</internalNodes>
          <leafValues>
            -5.7260411977767944e-01 2.7861613035202026e-01</leafValues></_></weakClassifiers></_>
    <!-- stage 12 -->
    <_>
      <maxWeakCount>9</maxWeakCount>
      <stageThreshold>-1.5372227430343628e+00</stageThreshold>
      <weakClassifiers>
        <_>
          <internalNodes>
            0 -1 69 -6947361 -3226136 522053629 -10662572 -583157574
            -71575657 -1164248069 -1293</internalNodes>
          <leafValues>
            -6.9069856405258179e-01 1.5170279145240784e-01</leafValues></_>
        <_>
          <internalNodes>
            0 -1 135 398453711 1527335189 499652497 -577987903
            -1431889633 -103076936 339605753 -849352307</internalNodes>
          <leafValues>
            -4.6124628186225891e-01 3.0236750841140747e-01</leafValues></_>
        <_>
          <internalNodes>
            0 -1 93 -834738362 -582085941 -242910209 -1711651256
            -874840233 -309097585 535559015 980579700</internalNodes>
          <leafValues>
            -5.5075395107269287e-01 2.6492643356323242e-01</leafValues></_>
        <_>
          <internalNodes>
            0 -1 145 725294858 509048217 354225013 949956485 -1453856420
            1318293124 1321462013 -586196491</internalNodes>
          <leafValues>
            -6.1989188194274902e-01 2.3325814306735992e-01</leafValues></_>
        <_>
          <internalNodes>
            0 -1 35 1868773902 600278570 1925402970 -1085115338
            1533757278 420119503 1354989624 -67765449</internalNodes>
          <leafValues>
            -4.5060330629348755e-01 3.4979584813117981e-01</leafValues></_>
        <_>
          <internalNodes>
            0 -1 140 -1423148272 768259536 1384436703 -329575972
            -267526916 -18052965 -926351382 -356715587</internalNodes>
          <leafValues>
            -4.6688103675842285e-01 3.2485184073448181e-01</leafValues></_>
        <_>
          <internalNodes>
            0 -1 137 71239615 194163523 26465149 -1033735780 -1177687880
            47298751 -343725867 535852792</internalNodes>
          <leafValues>
            -5.8782339096069336e-01 2.8513640165328979e-01</leafValues></_>
        <_>
          <internalNodes>
            0 -1 50 1940537314 -1622495106 2006079772 -137501696 8467451
            -2131705713 1898050491 401695299</internalNodes>
          <leafValues>
            -5.1469385623931885e-01 3.2290381193161011e-01</leafValues></_>
        <_>
          <internalNodes>
            0 -1 73 -633349454 -550415663 486691024 -116137455
            -640169793 406053394 1348964603 -601931281</internalNodes>
          <leafValues>
            -4.4236463308334351e-01 3.9687281847000122e-01</leafValues></_></weakClassifiers></_>
    <!-- stage 13 -->
    <_>
      <maxWeakCount>8</maxWeakCount>
      <stageThreshold>-1.4110419750213623e+00</stageThreshold>
      <weakClassifiers>
        <_>
          <internalNodes>
            0 -1 102 -170920229 -79372110 -721059243 -34598224
            -292060468 -2520904 -1198139137 -37110817</internalNodes>
          <leafValues>
            -7.0900511741638184e-01 6.5645514987409115e-03</leafValues></_>
        <_>
          <internalNodes>
            0 -1 94 -997744313 -137420072 -754597663 769374593
            -405995827 -645857063 1976267611 -1145408393</internalNodes>
          <leafValues>
            -4.9486243724822998e-01 2.4517302215099335e-01</leafValues></_>
        <_>
          <internalNodes>
            0 -1 110 1484275517 -1982103470 -247087060 -1079590755
            1481538239 -636255867 192056125 -1678595024</internalNodes>
          <leafValues>
            -5.1070797443389893e-01 2.7166819572448730e-01</leafValues></_>
        <_>
          <internalNodes>
            0 -1 174 1709177642 148324611 -593168118 -525429777
            -355838400 1261048081 1670183179 671002555</internalNodes>
          <leafValues>
            -6.6578388214111328e-01 2.2111472487449646e-01</leafValues></_>
        <_>
          <internalNodes>
            0 -1 122 10981390 643823095 -1836213289 719771576 1510566247
            1117374622 -1881148043 -186975255</internalNodes>
          <leafValues>
            -6.0595363378524780e-01 2.5953456759452820e-01</leafValues></_>
        <_>
          <internalNodes>
            0 -1 154 2139082146 1716269450 -729725504 -196983398
            507158727 46303241 1946790295 -793599029</internalNodes>
          <leafValues>
            -4.8134198784828186e-01 3.2522982358932495e-01</leafValues></_>
        <_>
          <internalNodes>
            0 -1 38 1753214430 -1221438398 1074266302 2095019663
            320594238 423805184 1271485824 1268114092</internalNodes>
          <leafValues>
            -5.2025836706161499e-01 3.2485207915306091e-01</leafValues></_>
        <_>
          <internalNodes>
            0 -1 25 1659776894 -556001066 1074811803 -951189100
            1503795265 -1666509 -796599775 523618860</internalNodes>
          <leafValues>
            -6.1760020256042480e-01 2.7003309130668640e-01</leafValues></_></weakClassifiers></_>
    <!-- stage 14 -->
    <_>
      <maxWeakCount>10</maxWeakCount>
      <stageThreshold>-1.3745330572128296e+00</stageThreshold>
      <weakClassifiers>
        <_>
          <internalNodes>
            0 -1 166 -2108577 -120334373 -678702209 2075890511 -95421494
            -120886359 -23336193 -90444865</internalNodes>
          <leafValues>
            -6.9901442527770996e-01 1.2154696136713028e-01</leafValues></_>
        <_>
          <internalNodes>
            0 -1 52 388975626 1038049978 524303696 1607646091 306588140
            -33414272 -478762290 -1075659898</internalNodes>
          <leafValues>
            -6.0783702135086060e-01 1.5860834717750549e-01</leafValues></_>
        <_>
          <internalNodes>
            0 -1 118 650600597 1003821523 -1229929121 -1168624821
            851976075 1049527343 2060083285 -90506283</internalNodes>
          <leafValues>
            -4.8319217562675476e-01 2.9329651594161987e-01</leafValues></_>
        <_>
          <internalNodes>
            0 -1 61 1386405306 -810174842 -2058499809 -1050291775
            -870341889 -248544608 -724440407 -909280905</internalNodes>
          <leafValues>
            -4.1185274720191956e-01 3.6731803417205811e-01</leafValues></_>
        <_>
          <internalNodes>
            0 -1 39 1340514982 -1126955848 1648789763 751534223 9227131
            -1051962247 269150746 62362955</internalNodes>
          <leafValues>
            -6.6166752576828003e-01 2.4966478347778320e-01</leafValues></_>
        <_>
          <internalNodes>
            0 -1 14 41889375 -1907922617 340966432 1924698436 984303682
            1678336522 1509673083 -556926157</internalNodes>
          <leafValues>
            -5.3118503093719482e-01 2.8704327344894409e-01</leafValues></_>
        <_>
          <internalNodes>
            0 -1 88 1402140380 -675591164 219236189 665847568 -209639400
            -207105386 807447722 147150375</internalNodes>
          <leafValues>
            -4.5536494255065918e-01 3.6732685565948486e-01</leafValues></_>
        <_>
          <internalNodes>
            0 -1 27 780332544 -645163367 -1173858961 -619085421
            110145814 -1886748408 247812337 801619787</internalNodes>
          <leafValues>
            -5.3138029575347900e-01 3.1794750690460205e-01</leafValues></_>
        <_>
          <internalNodes>
            0 -1 144 -295719490 1397041621 1812132100 -296819757
            742379136 2021757220 -2002141147 -1165770463</internalNodes>
          <leafValues>
            -4.3272730708122253e-01 3.8784825801849365e-01</leafValues></_>
        <_>
          <internalNodes>
            0 -1 33 1074554480 1686557549 -554970762 -1665297517
            1075518388 -1640783463 1573862163 1982831035</internalNodes>
          <leafValues>
            -6.6472858190536499e-01 2.5528255105018616e-01</leafValues></_></weakClassifiers></_>
    <!-- stage 15 -->
    <_>
      <maxWeakCount>8</maxWeakCount>
      <stageThreshold>-1.3727837800979614e+00</stageThreshold>
      <weakClassifiers>
        <_>
          <internalNodes>
            0 -1 46 -2228225 -536881424 957925843 -583830764 -104544066
            -4685581 1044089547 -16777249</internalNodes>
          <leafValues>
            -6.8615841865539551e-01 1.8120805919170380e-01</leafValues></_>
        <_>
          <internalNodes>
            0 -1 142 77008387 664659487 -124103074 181313783 826480204
            997395023 -92126258 -1167922194</internalNodes>
          <leafValues>
            -6.8687003850936890e-01 1.1425764858722687e-01</leafValues></_>
        <_>
          <internalNodes>
            0 -1 37 -320886750 1189400865 -158927314 -83969957
            -153358773 1229576498 -4867398 -203423892</internalNodes>
          <leafValues>
            -4.9163198471069336e-01 2.5974014401435852e-01</leafValues></_>
        <_>
          <internalNodes>
            0 -1 134 689522744 489423314 80485316 2064129033 302996985
            730497028 276933025 1761468576</internalNodes>
          <leafValues>
            -6.9656157493591309e-01 2.3009139299392700e-01</leafValues></_>
        <_>
          <internalNodes>
            0 -1 125 -1540350960 -1241916067 -670543746 -1144222759
            -561476694 -134617975 -407968769 -1079137749</internalNodes>
          <leafValues>
            -4.2618146538734436e-01 3.5065770149230957e-01</leafValues></_>
        <_>
          <internalNodes>
            0 -1 81 -829230024 1570197620 282083350 294998105 143364826
            -1450424320 766937145 -1895620521</internalNodes>
          <leafValues>
            -4.0762683749198914e-01 3.9206621050834656e-01</leafValues></_>
        <_>
          <internalNodes>
            0 -1 175 -1881985498 1147180535 1169654146 551407754
            1788469575 1613447707 2024864215 1457501182</internalNodes>
          <leafValues>
            -7.3795175552368164e-01 2.2448375821113586e-01</leafValues></_>
        <_>
          <internalNodes>
            0 -1 26 -1999200336 -344828741 453253520 -45936299
            -2134314899 -655253446 1889134192 1269242065</internalNodes>
          <leafValues>
            -5.3157621622085571e-01 2.7193966507911682e-01</leafValues></_></weakClassifiers></_>
    <!-- stage 16 -->
    <_>
      <maxWeakCount>8</maxWeakCount>
      <stageThreshold>-1.1857922077178955e+00</stageThreshold>
      <weakClassifiers>
        <_>
          <internalNodes>
            0 -1 167 -144965793 -108398185 -1291783969 -78253745
            -161764722 -209149406 -58740069 -290460737</internalNodes>
          <leafValues>
            -7.0425283908843994e-01 1.1441648006439209e-02</leafValues></_>
        <_>
          <internalNodes>
            0 -1 136 -131252080 -15420016 1678264133 1603998226
            -1451201798 -1195138686 202049930 -1584702262</internalNodes>
          <leafValues>
            -4.9216839671134949e-01 2.3097208142280579e-01</leafValues></_>
        <_>
          <internalNodes>
            0 -1 96 -965548342 466953551 1100597713 676331457 1134777535
            512985372 -387296458 -92638361</internalNodes>
          <leafValues>
            -4.8984879255294800e-01 2.7385669946670532e-01</leafValues></_>
        <_>
          <internalNodes>
            0 -1 21 -1947238913 1765658054 -854406642 777184975
            -977181986 -276092381 -2132613665 -982388100</internalNodes>
          <leafValues>
            -4.0685942769050598e-01 3.4353473782539368e-01</leafValues></_>
        <_>
          <internalNodes>
            0 -1 31 270000283 605758089 1291913690 969999571 1623335207
            993562640 252128198 1256146749</internalNodes>
          <leafValues>
            -5.6148284673690796e-01 2.8389489650726318e-01</leafValues></_>
        <_>
          <internalNodes>
            0 -1 147 -1644446184 453156948 319343052 1325988612
            -1489167781 -652541808 837724289 224217545</internalNodes>
          <leafValues>
            -5.9815192222595215e-01 2.4666316807270050e-01</leafValues></_>
        <_>
          <internalNodes>
            0 -1 0 -953764259 1574986342 -1072674593 2144197339
            1370169507 -1702723378 1505805401 655338230</internalNodes>
          <leafValues>
            -3.9762812852859497e-01 3.7655106186866760e-01</leafValues></_>
        <_>
          <internalNodes>
            0 -1 1 1089131462 848801923 -1795139251 355144088 1569603330
            1377929275 1560832546 -428953245</internalNodes>
          <leafValues>
            -5.4681915044784546e-01 2.7942287921905518e-01</leafValues></_></weakClassifiers></_>
    <!-- stage 17 -->
    <_>
      <maxWeakCount>9</maxWeakCount>
      <stageThreshold>-1.5742948055267334e+00</stageThreshold>
      <weakClassifiers>
        <_>
          <internalNodes>
            0 -1 158 -69602305 -744647809 -641349537 -1177218729
            -70788466 -1148485335 -1160926546 -83887133</internalNodes>
          <leafValues>
            -6.9098389148712158e-01 1.4373089373111725e-01</leafValues></_>
        <_>
          <internalNodes>
            0 -1 79 -1893991758 -611155021 -514812644 -687467920
            45613311 -1029588863 168512139 -632208995</internalNodes>
          <leafValues>
            -4.9533319473266602e-01 2.5143811106681824e-01</leafValues></_>
        <_>
          <internalNodes>
            0 -1 181 1869050489 -1885879297 498849246 686559699
            -930534531 -410843713 1267417396 1549324776</internalNodes>
          <leafValues>
            -6.6221237182617188e-01 2.1438512206077576e-01</leafValues></_>
        <_>
          <internalNodes>
            0 -1 3 -1974008849 -292904594 1300464096 -134880838
            -360111509 -495951687 791183734 -134613209</internalNodes>
          <leafValues>
            -4.8912781476974487e-01 2.9587537050247192e-01</leafValues></_>
        <_>
          <internalNodes>
            0 -1 49 -1160847822 838914541 336168550 1537317615
            -988278791 -191299439 1153663999 314737423</internalNodes>
          <leafValues>
            -5.0190734863281250e-01 3.2401913404464722e-01</leafValues></_>
        <_>
          <internalNodes>
            0 -1 123 -67227897 1287213607 -238682351 1742063965
            553697831 -1727880678 565232385 -2072249345</internalNodes>
          <leafValues>
            -4.9489882588386536e-01 3.0376487970352173e-01</leafValues></_>
        <_>
          <internalNodes>
            0 -1 160 -498103221 550225455 -2109632358 18473931
            1359022508 847396865 -263911412 1956440519</internalNodes>
          <leafValues>
            -4.9018067121505737e-01 3.2302767038345337e-01</leafValues></_>
        <_>
          <internalNodes>
            0 -1 139 2027899392 9992538 1090554207 987415494 1881877128
            1541073937 -2067956996 246914858</internalNodes>
          <leafValues>
            -6.5837788581848145e-01 2.3872168362140656e-01</leafValues></_>
        <_>
          <internalNodes>
            0 -1 89 -1073743649 -26804232 1593768628 2046158176
            2147471052 -1073741827 -1358956866 -1696595978</internalNodes>
          <leafValues>
            -3.2557123899459839e-01 5.2440226078033447e-01</leafValues></_></weakClassifiers></_>
    <!-- stage 18 -->
    <_>
      <maxWeakCount>9</maxWeakCount>
      <stageThreshold>-1.4565037488937378e+00</stageThreshold>
      <weakClassifiers>
        <_>
          <internalNodes>
            0 -1 83 -255753763 1373094215 -2095019683 1571341215
            -912851587 -66123759 767133 -8394819</internalNodes>
          <leafValues>
            -7.5213289260864258e-01 -1.6170763969421387e-01</leafValues></_>
        <_>
          <internalNodes>
            0 -1 133 961793759 460694671 1889028269 -919866646
            1615333514 2066423457 1252368818 -168558693</internalNodes>
          <leafValues>
            -4.3378517031669617e-01 3.0680996179580688e-01</leafValues></_>
        <_>
          <internalNodes>
            0 -1 114 2114999000 1852459160 293701917 -587386036
            -291073472 -108225149 784362235 -549913655</internalNodes>
          <leafValues>
            -4.5023700594902039e-01 3.2021540403366089e-01</leafValues></_>
        <_>
          <internalNodes>
            0 -1 5 772320802 -1102446359 -1871952768 -106704384
            2026645115 2021761036 2098679902 -87237802</internalNodes>
          <leafValues>
            -5.5570626258850098e-01 2.6549682021141052e-01</leafValues></_>
        <_>
          <internalNodes>
            0 -1 109 -28785952 2130937859 1174552837 923144257 847500216
            -1357364975 1209285243 206033159</internalNodes>
          <leafValues>
            -4.0749222040176392e-01 3.5835546255111694e-01</leafValues></_>
        <_>
          <internalNodes>
            0 -1 126 1607691852 947332538 576150774 -260464640
            -670555764 1527816744 -1711101781 -385042605</internalNodes>
          <leafValues>
            -4.7858816385269165e-01 3.2731088995933533e-01</leafValues></_>
        <_>
          <internalNodes>
            0 -1 149 -1468031936 -1462644468 -1593615990 1352391170
            1489632064 1246333489 -543495711 1304535743</internalNodes>
          <leafValues>
            -6.3539451360702515e-01 2.4364997446537018e-01</leafValues></_>
        <_>
          <internalNodes>
            0 -1 92 -65544961 -2063876109 -2026635280 -1250033679
            -866313189 -1367351297 1073708215 -21500559</internalNodes>
          <leafValues>
            -3.3419188857078552e-01 4.9682337045669556e-01</leafValues></_>
        <_>
          <internalNodes>
            0 -1 42 -1153401122 -346390174 -1996350177 -1075644002
            -819885306 -1149042621 655011629 1427134688</internalNodes>
          <leafValues>
            -6.1566603183746338e-01 2.9126465320587158e-01</leafValues></_></weakClassifiers></_>
    <!-- stage 19 -->
    <_>
      <maxWeakCount>8</maxWeakCount>
      <stageThreshold>-1.2407888174057007e+00</stageThreshold>
      <weakClassifiers>
        <_>
          <internalNodes>
            0 -1 68 -787484165 -579345706 -1656483009 -102805068
            1947923102 -240473947 -394207558 -1414794313</internalNodes>
          <leafValues>
            -7.1598100662231445e-01 2.1186441183090210e-02</leafValues></_>
        <_>
          <internalNodes>
            0 -1 20 -360191013 -1412595369 1133012038 1308796571
            164846558 417237043 149066222 1800791835</internalNodes>
          <leafValues>
            -5.5377256870269775e-01 1.7763069272041321e-01</leafValues></_>
        <_>
          <internalNodes>
            0 -1 99 286710228 1513521165 -1693690498 184951704
            -964034247 -1289060342 1557023325 -1647408771</internalNodes>
          <leafValues>
            -5.1165574789047241e-01 2.7898323535919189e-01</leafValues></_>
        <_>
          <internalNodes>
            0 -1 64 -519901224 206667973 -830424804 223553681 1478122298
            2048594176 1117917067 1659552754</internalNodes>
          <leafValues>
            -6.1578571796417236e-01 2.4020546674728394e-01</leafValues></_>
        <_>
          <internalNodes>
            0 -1 105 -1721778972 961860618 -2143265396 459364801
            1594389258 -1475327685 179639442 1699435592</internalNodes>
          <leafValues>
            -5.3507453203201294e-01 3.1687134504318237e-01</leafValues></_>
        <_>
          <internalNodes>
            0 -1 13 -1026069489 -1997029183 -782122658 -745691309
            142857471 1213906951 830655747 -9444797</internalNodes>
          <leafValues>
            -4.1761702299118042e-01 3.5604512691497803e-01</leafValues></_>
        <_>
          <internalNodes>
            0 -1 178 -871040678 -1009678057 520212864 681080911
            -1865801342 -385806194 -259202398 1955302307</internalNodes>
          <leafValues>
            -4.9860480427742004e-01 3.1741812825202942e-01</leafValues></_>
        <_>
          <internalNodes>
            0 -1 128 -1869904104 307800081 1459852350 -61270915
            -622188540 848400385 -225002904 -1165309231</internalNodes>
          <leafValues>
            -4.7201627492904663e-01 3.4849286079406738e-01</leafValues></_></weakClassifiers></_>
    <!-- stage 20 -->
    <_>
      <maxWeakCount>9</maxWeakCount>
      <stageThreshold>-1.5651060342788696e+00</stageThreshold>
      <weakClassifiers>
        <_>
          <internalNodes>
            0 -1 151 -169870849 -106969009 -2146704676 -103054881
            -220603909 -125828984 948556283 -607143169</internalNodes>
          <leafValues>
            -6.6643160581588745e-01 5.4878050088882446e-01</leafValues></_>
        <_>
          <internalNodes>
            0 -1 97 -1206196523 1461387664 654368881 261177544
            -2145723992 708354569 187751291 1257086144</internalNodes>
          <leafValues>
            -4.6863165497779846e-01 2.5336191058158875e-01</leafValues></_>
        <_>
          <internalNodes>
            0 -1 132 1834635853 522162646 766578975 156652817
            -1516625780 -118017655 545819262 135775612</internalNodes>
          <leafValues>
            -5.1678836345672607e-01 2.6817461848258972e-01</leafValues></_>
        <_>
          <internalNodes>
            0 -1 159 -1005148441 142426271 2220104 546802115 2014079040
            277348424 866294446 -406806646</internalNodes>
          <leafValues>
            -5.5838841199874878e-01 2.6542282104492188e-01</leafValues></_>
        <_>
          <internalNodes>
            0 -1 18 -20468106 1696160138 1182990541 1761141262 537608570
            1225466120 117658940 1296362251</internalNodes>
          <leafValues>
            -5.9670400619506836e-01 2.8584244847297668e-01</leafValues></_>
        <_>
          <internalNodes>
            0 -1 138 -909029041 -942569198 1359038779 -1017727080
            -1322602095 1536378926 1100090008 2088417388</internalNodes>
          <leafValues>
            -4.7998589277267456e-01 3.2137283682823181e-01</leafValues></_>
        <_>
          <internalNodes>
            0 -1 153 -1035688120 -581832574 285249536 1325636266
            655557762 1476395137 -1437617989 -835718627</internalNodes>
          <leafValues>
            -4.3714797496795654e-01 4.2789191007614136e-01</leafValues></_>
        <_>
          <internalNodes>
            0 -1 65 46791224 -795768559 1409351955 608665605 1748201649
            -252018616 1111703683 -164896717</internalNodes>
          <leafValues>
            -5.5856394767761230e-01 3.0822062492370605e-01</leafValues></_>
        <_>
          <internalNodes>
            0 -1 72 -1798648928 1452323628 889367054 1473069123
            -1727915295 -1735393117 -1709762554 -652629149</internalNodes>
          <leafValues>
            -5.5514752864837646e-01 3.0123698711395264e-01</leafValues></_></weakClassifiers></_>
    <!-- stage 21 -->
    <_>
      <maxWeakCount>8</maxWeakCount>
      <stageThreshold>-1.6693799495697021e+00</stageThreshold>
      <weakClassifiers>
        <_>
          <internalNodes>
            0 -1 44 -1454708712 2005443989 -1723285029 -816477901
            1830882236 -56065637 -74927683 -605168049</internalNodes>
          <leafValues>
            -7.7033489942550659e-01 -2.0879121124744415e-01</leafValues></_>
        <_>
          <internalNodes>
            0 -1 168 -540604264 348136287 -250511084 -1186938748
            -1878732036 -444366717 1342800072 -1153704802</internalNodes>
          <leafValues>
            -5.2424073219299316e-01 2.0217017829418182e-01</leafValues></_>
        <_>
          <internalNodes>
            0 -1 57 -116657188 747245824 -1936371591 -1041104718
            -949587958 1806245944 -256701264 -466114292</internalNodes>
          <leafValues>
            -5.6020706892013550e-01 2.5899383425712585e-01</leafValues></_>
        <_>
          <internalNodes>
            0 -1 77 1020339470 46203078 -2113856092 -791310336
            -721285109 455147597 -628567293 -1424066133</internalNodes>
          <leafValues>
            -5.0560075044631958e-01 3.2217690348625183e-01</leafValues></_>
        <_>
          <internalNodes>
            0 -1 34 -173941353 -1240104831 -1847260350 1170697940
            -1182741910 -1439629153 -2104784293 51239055</internalNodes>
          <leafValues>
            -3.9479589462280273e-01 3.9371752738952637e-01</leafValues></_>
        <_>
          <internalNodes>
            0 -1 76 621798926 -1972006910 352509286 776327252 1074678201
            -1323153368 1351373635 -1837439349</internalNodes>
          <leafValues>
            -5.3820663690567017e-01 3.0205455422401428e-01</leafValues></_>
        <_>
          <internalNodes>
            0 -1 112 -2078731805 689476801 419434525 1511567636
            335548728 -1052671999 237115480 1528004982</internalNodes>
          <leafValues>
            -4.7380700707435608e-01 3.1739181280136108e-01</leafValues></_>
        <_>
          <internalNodes>
            0 -1 29 -1875796637 -738604553 1069477879 1642688822
            -404263287 -8620034 2110258982 -38865489</internalNodes>
          <leafValues>
            -3.5873925685882568e-01 4.5725166797637939e-01</leafValues></_></weakClassifiers></_>
    <!-- stage 22 -->
    <_>
      <maxWeakCount>9</maxWeakCount>
      <stageThreshold>-1.4255658388137817e+00</stageThreshold>
      <weakClassifiers>
        <_>
          <internalNodes>
            0 -1 116 -77336353 -204008993 348707837 -984759201
            -1608388918 -1431723870 -1580758785 -89399298</internalNodes>
          <leafValues>
            -6.7858433723449707e-01 3.4199133515357971e-01</leafValues></_>
        <_>
          <internalNodes>
            0 -1 100 -1726307625 -550299641 553715935 -677226266
            814886952 -75333592 93003929 -547168008</internalNodes>
          <leafValues>
            -4.5727494359016418e-01 3.0589237809181213e-01</leafValues></_>
        <_>
          <internalNodes>
            0 -1 179 188967683 39035421 -1023053801 1682477907 212807682
            -2113910781 -342945790 1012195747</internalNodes>
          <leafValues>
            -5.8345752954483032e-01 2.5893715023994446e-01</leafValues></_>
        <_>
          <internalNodes>
            0 -1 51 1523969982 814254214 427886602 -1659387902
            1629628501 -1869733814 -1316816877 645547895</internalNodes>
          <leafValues>
            -5.8798712491989136e-01 2.5678414106369019e-01</leafValues></_>
        <_>
          <internalNodes>
            0 -1 171 -162015190 -2137931437 -2147371006 686256409
            -2106130432 2032140938 -225985394 1891471119</internalNodes>
          <leafValues>
            -5.4555976390838623e-01 3.2002231478691101e-01</leafValues></_>
        <_>
          <internalNodes>
            0 -1 54 -1090022245 -1144946544 268837488 -422538239
            48599962 -1593311216 1641269994 1582870797</internalNodes>
          <leafValues>
            -4.9653917551040649e-01 3.5844081640243530e-01</leafValues></_>
        <_>
          <internalNodes>
            0 -1 56 1866375899 -1112022094 2146369533 2147480053
            2080364520 -16457 -1366523990 -863209673</internalNodes>
          <leafValues>
            -3.6071580648422241e-01 5.0401902198791504e-01</leafValues></_>
        <_>
          <internalNodes>
            0 -1 60 -1056804784 1188103856 806432769 -200293879 8463598
            -1308589948 268657088 1412880587</internalNodes>
          <leafValues>
            -6.2875354290008545e-01 2.9486355185508728e-01</leafValues></_>
        <_>
          <internalNodes>
            0 -1 117 1685439503 1409212357 -1074135043 159247980
            -210462290 -1677824169 2046716027 -1007079605</internalNodes>
          <leafValues>
            -3.9200690388679504e-01 4.7057339549064636e-01</leafValues></_></weakClassifiers></_>
    <!-- stage 23 -->
    <_>
      <maxWeakCount>10</maxWeakCount>
      <stageThreshold>-1.4862824678421021e+00</stageThreshold>
      <weakClassifiers>
        <_>
          <internalNodes>
            0 -1 45 -586286593 -245441583 1501870363 2107576513
            -1934558214 -371548007 -48394257 -270537746</internalNodes>
          <leafValues>
            -6.7130124568939209e-01 4.2564103007316589e-01</leafValues></_>
        <_>
          <internalNodes>
            0 -1 163 -515264086 700678602 -1056802622 -135802814
            -1340040789 285806616 -494691916 1975757306</internalNodes>
          <leafValues>
            -5.3095591068267822e-01 2.2534514963626862e-01</leafValues></_>
        <_>
          <internalNodes>
            0 -1 74 -1027090624 -1606418249 -2063050034 -318619173
            1721099105 805908113 -1819690499 -1281129835</internalNodes>
          <leafValues>
            -5.5425792932510376e-01 2.5273814797401428e-01</leafValues></_>
        <_>
          <internalNodes>
            0 -1 155 -84414606 2141581026 2080341656 -509477698
            1166014448 57671499 -1789143046 -766839650</internalNodes>
          <leafValues>
            -3.6012628674507141e-01 4.3487727642059326e-01</leafValues></_>
        <_>
          <internalNodes>
            0 -1 2 120580023 1869606506 771686397 703210288 2134802430
            -268435458 -537401349 -570984586</internalNodes>
          <leafValues>
            -3.6787644028663635e-01 4.6336275339126587e-01</leafValues></_>
        <_>
          <internalNodes>
            0 -1 102 1627510547 -1981802294 951197717 -8386540 537807172
            587335826 -2008343894 146869765</internalNodes>
          <leafValues>
            -5.5102640390396118e-01 3.1806132197380066e-01</leafValues></_>
        <_>
          <internalNodes>
            0 -1 83 1878932757 -839065611 -65544 1530588923 -536937123
            -1073741961 1291550621 1568269757</internalNodes>
          <leafValues>
            -4.1315329074859619e-01 4.2154702544212341e-01</leafValues></_>
        <_>
          <internalNodes>
            0 -1 146 1884522314 2029671042 1367429456 -1274986492
            591909637 -1424916480 -402322630 -872029307</internalNodes>
          <leafValues>
            -4.2861500382423401e-01 4.4361713528633118e-01</leafValues></_>
        <_>
          <internalNodes>
            0 -1 90 -246687521 -1795129024 -1475307886 547329479
            -2126439624 -526811008 357601954 -1301044893</internalNodes>
          <leafValues>
            -3.9364671707153320e-01 4.6486011147499084e-01</leafValues></_>
        <_>
          <internalNodes>
            0 -1 36 -769674865 1133036526 117510168 914899026 546833165
            1342218272 1644332416 -103288671</internalNodes>
          <leafValues>
            -5.3682702779769897e-01 3.4914752840995789e-01</leafValues></_></weakClassifiers></_>
    <!-- stage 24 -->
    <_>
      <maxWeakCount>7</maxWeakCount>
      <stageThreshold>-1.4849439859390259e+00</stageThreshold>
      <weakClassifiers>
        <_>
          <internalNodes>
            0 -1 7 -573587521 -101735657 -1970765741 -1118344445
            1103756205 -125777268 -215428357 -3409425</internalNodes>
          <leafValues>
            -6.9523102045059204e-01 2.0886075496673584e-01</leafValues></_>
        <_>
          <internalNodes>
            0 -1 108 1793697921 1951617595 -1124004543 2030912366
            -1151366477 -1163644531 -123690749 -812414897</internalNodes>
          <leafValues>
            -5.1024347543716431e-01 2.4777910113334656e-01</leafValues></_>
        <_>
          <internalNodes>
            0 -1 47 488597939 701334400 50450437 -168651186 327288890
            -460521336 1531084710 -872861499</internalNodes>
          <leafValues>
            -4.3613559007644653e-01 3.3282947540283203e-01</leafValues></_>
        <_>
          <internalNodes>
            0 -1 95 1653918224 426862529 -1925127261 855955680 33949900
            -1404910840 2037586668 1006978531</internalNodes>
          <leafValues>
            -6.9379800558090210e-01 2.1456050872802734e-01</leafValues></_>
        <_>
          <internalNodes>
            0 -1 119 554952192 561369228 -1974892536 553980339 866204636
            976242953 1669819018 1815729272</internalNodes>
          <leafValues>
            -6.6978549957275391e-01 2.7490830421447754e-01</leafValues></_>
        <_>
          <internalNodes>
            0 -1 165 1363759459 1212792914 553718420 248647882
            -780029165 320995338 1243699960 1770681096</internalNodes>
          <leafValues>
            -5.9885191917419434e-01 2.6186734437942505e-01</leafValues></_>
        <_>
          <internalNodes>
            0 -1 177 1901442771 -1222176101 1359614257 70551618
            -1635154367 -377427831 85198912 1484911498</internalNodes>
          <leafValues>
            -4.4433411955833435e-01 4.1025310754776001e-01</leafValues></_></weakClassifiers></_></stages>
  <features>
    <_>
      <rect>
        0 0 1 1</rect></_>
    <_>
      <rect>
        0 0 4 5</rect></_>
    <_>
      <rect>
        0 1 2 2</rect></_>
    <_>
      <rect>
        0 3 1 1</rect></_>
    <_>
      <rect>
        0 3 1 2</rect></_>
    <_>
      <rect>
        0 3 1 4</rect></_>
    <_>
      <rect>
        0 4 1 1</rect></_>
    <_>
      <rect>
        0 4 2 5</rect></_>
    <_>
      <rect>
        0 5 1 1</rect></_>
    <_>
      <rect>
        0 5 2 4</rect></_>
    <_>
      <rect>
        0 8 2 3</rect></_>
    <_>
      <rect>
        0 8 4 6</rect></_>
    <_>
      <rect>
        0 8 5 8</rect></_>
    <_>
      <rect>
        0 9 2 2</rect></_>
    <_>
      <rect>
        0 10 1 2</rect></_>
    <_>
      <rect>
        0 12 2 6</rect></_>
    <_>
      <rect>
        0 13 1 1</rect></_>
    <_>
      <rect>
        0 13 2 3</rect></_>
    <_>
      <rect>
        0 14 2 4</rect></_>
    <_>
      <rect>
        0 14 3 6</rect></_>
    <_>
      <rect>
        0 15 2 5</rect></_>
    <_>
      <rect>
        0 16 2 5</rect></_>
    <_>
      <rect>
        0 16 3 4</rect></_>
    <_>
      <rect>
        0 20 1 2</rect></_>
    <_>
      <rect>
        0 20 1 3</rect></_>
    <_>
      <rect>
        0 20 2 4</rect></_>
    <_>
      <rect>
        1 0 1 1</rect></_>
    <_>
      <rect>
        1 0 2 1</rect></_>
    <_>
      <rect>
        1 0 2 3</rect></_>
    <_>
      <rect>
        1 0 3 5</rect></_>
    <_>
      <rect>
        1 0 3 6</rect></_>
    <_>
      <rect>
        1 1 3 3</rect></_>
    <_>
      <rect>
        1 5 3 5</rect></_>
    <_>
      <rect>
        1 5 5 9</rect></_>
    <_>
      <rect>
        1 6 4 5</rect></_>
    <_>
      <rect>
        1 8 1 2</rect></_>
    <_>
      <rect>
        1 9 1 1</rect></_>
    <_>
      <rect>
        1 14 1 1</rect></_>
    <_>
      <rect>
        1 16 2 3</rect></_>
    <_>
      <rect>
        1 18 3 3</rect></_>
    <_>
      <rect>
        1 20 4 4</rect></_>
    <_>
      <rect>
        1 23 5 3</rect></_>
    <_>
      <rect>
        1 29 1 1</rect></_>
    <_>
      <rect>
        1 29 4 1</rect></_>
    <_>
      <rect>
        2 0 2 1</rect></_>
    <_>
      <rect>
        2 1 2 2</rect></_>
    <_>
      <rect>
        2 1 4 2</rect></_>
    <_>
      <rect>
        2 3 1 1</rect></_>
    <_>
      <rect>
        2 3 3 4</rect></_>
    <_>
      <rect>
        2 6 3 3</rect></_>
    <_>
      <rect>
        2 7 2 3</rect></_>
    <_>
      <rect>
        2 9 2 3</rect></_>
    <_>
      <rect>
        2 10 2 7</rect></_>
    <_>
      <rect>
        2 13 2 3</rect></_>
    <_>
      <rect>
        2 15 2 4</rect></_>
    <_>
      <rect>
        2 29 1 1</rect></_>
    <_>
      <rect>
        3 1 2 2</rect></_>
    <_>
      <rect>
        3 1 3 1</rect></_>
    <_>
      <rect>
        3 1 3 2</rect></_>
    <_>
      <rect>
        3 2 4 9</rect></_>
    <_>
      <rect>
        3 2 4 10</rect></_>
    <_>
      <rect>
        3 3 2 4</rect></_>
    <_>
      <rect>
        3 6 2 2</rect></_>
    <_>
      <rect>
        3 9 3 6</rect></_>
    <_>
      <rect>
        3 10 3 4</rect></_>
    <_>
      <rect>
        3 17 3 4</rect></_>
    <_>
      <rect>
        3 18 3 4</rect></_>
    <_>
      <rect>
        4 0 4 10</rect></_>
    <_>
      <rect>
        4 1 2 2</rect></_>
    <_>
      <rect>
        4 1 3 2</rect></_>
    <_>
      <rect>
        4 3 3 4</rect></_>
    <_>
      <rect>
        4 4 3 3</rect></_>
    <_>
      <rect>
        4 5 2 3</rect></_>
    <_>
      <rect>
        4 6 3 8</rect></_>
    <_>
      <rect>
        4 7 3 2</rect></_>
    <_>
      <rect>
        4 9 3 5</rect></_>
    <_>
      <rect>
        4 11 2 3</rect></_>
    <_>
      <rect>
        4 12 1 1</rect></_>
    <_>
      <rect>
        4 14 1 1</rect></_>
    <_>
      <rect>
        4 17 2 2</rect></_>
    <_>
      <rect>
        4 17 4 4</rect></_>
    <_>
      <rect>
        4 19 1 2</rect></_>
    <_>
      <rect>
        4 20 4 4</rect></_>
    <_>
      <rect>
        4 26 2 2</rect></_>
    <_>
      <rect>
        4 29 1 1</rect></_>
    <_>
      <rect>
        5 0 1 1</rect></_>
    <_>
      <rect>
        5 0 1 2</rect></_>
    <_>
      <rect>
        5 1 2 1</rect></_>
    <_>
      <rect>
        5 1 3 2</rect></_>
    <_>
      <rect>
        5 2 2 1</rect></_>
    <_>
      <rect>
        5 3 2 1</rect></_>
    <_>
      <rect>
        5 7 2 5</rect></_>
    <_>
      <rect>
        5 7 3 8</rect></_>
    <_>
      <rect>
        5 8 1 3</rect></_>
    <_>
      <rect>
        5 9 1 3</rect></_>
    <_>
      <rect>
        5 9 2 5</rect></_>
    <_>
      <rect>
        5 11 2 2</rect></_>
    <_>
      <rect>
        5 19 2 2</rect></_>
    <_>
      <rect>
        5 20 1 4</rect></_>
    <_>
      <rect>
        5 23 2 3</rect></_>
    <_>
      <rect>
        5 28 1 1</rect></_>
    <_>
      <rect>
        6 0 1 1</rect></_>
    <_>
      <rect>
        6 1 2 1</rect></_>
    <_>
      <rect>
        6 3 2 3</rect></_>
    <_>
      <rect>
        6 5 2 3</rect></_>
    <_>
      <rect>
        6 6 3 4</rect></_>
    <_>
      <rect>
        6 11 1 1</rect></_>
    <_>
      <rect>
        6 13 1 1</rect></_>
    <_>
      <rect>
        6 16 3 4</rect></_>
    <_>
      <rect>
        6 19 2 2</rect></_>
    <_>
      <rect>
        6 25 1 2</rect></_>
    <_>
      <rect>
        6 28 2 1</rect></_>
    <_>
      <rect>
        6 29 2 1</rect></_>
    <_>
      <rect>
        7 0 1 1</rect></_>
    <_>
      <rect>
        7 0 2 2</rect></_>
    <_>
      <rect>
        7 1 1 1</rect></_>
    <_>
      <rect>
        7 2 2 2</rect></_>
    <_>
      <rect>
        7 2 2 4</rect></_>
    <_>
      <rect>
        7 11 1 1</rect></_>
    <_>
      <rect>
        7 11 2 3</rect></_>
    <_>
      <rect>
        7 12 1 1</rect></_>
    <_>
      <rect>
        7 12 3 5</rect></_>
    <_>
      <rect>
        7 14 1 1</rect></_>
    <_>
      <rect>
        7 14 3 5</rect></_>
    <_>
      <rect>
        7 17 3 5</rect></_>
    <_>
      <rect>
        8 0 1 1</rect></_>
    <_>
      <rect>
        8 5 2 3</rect></_>
    <_>
      <rect>
        8 7 2 2</rect></_>
    <_>
      <rect>
        8 9 1 1</rect></_>
    <_>
      <rect>
        8 12 2 2</rect></_>
    <_>
      <rect>
        8 25 1 2</rect></_>
    <_>
      <rect>
        9 0 2 2</rect></_>
    <_>
      <rect>
        9 1 2 2</rect></_>
    <_>
      <rect>
        9 4 2 4</rect></_>
    <_>
      <rect>
        9 12 2 6</rect></_>
    <_>
      <rect>
        9 13 2 6</rect></_>
    <_>
      <rect>
        9 19 1 2</rect></_>
    <_>
      <rect>
        9 28 1 1</rect></_>
    <_>
      <rect>
        9 29 1 1</rect></_>
    <_>
      <rect>
        10 0 2 2</rect></_>
    <_>
      <rect>
        10 1 1 1</rect></_>
    <_>
      <rect>
        10 1 2 2</rect></_>
    <_>
      <rect>
        10 4 1 1</rect></_>
    <_>
      <rect>
        10 5 2 4</rect></_>
    <_>
      <rect>
        10 6 2 5</rect></_>
    <_>
      <rect>
        10 6 2 8</rect></_>
    <_>
      <rect>
        10 10 1 3</rect></_>
    <_>
      <rect>
        10 11 2 7</rect></_>
    <_>
      <rect>
        10 13 1 1</rect></_>
    <_>
      <rect>
        10 13 2 3</rect></_>
    <_>
      <rect>
        10 13 2 4</rect></_>
    <_>
      <rect>
        10 16 1 2</rect></_>
    <_>
      <rect>
        10 29 1 1</rect></_>
    <_>
      <rect>
        11 11 1 3</rect></_>
    <_>
      <rect>
        11 15 1 1</rect></_>
    <_>
      <rect>
        11 15 1 2</rect></_>
    <_>
      <rect>
        11 17 1 1</rect></_>
    <_>
      <rect>
        11 29 1 1</rect></_>
    <_>
      <rect>
        12 2 1 1</rect></_>
    <_>
      <rect>
        12 6 1 1</rect></_>
    <_>
      <rect>
        12 6 1 2</rect></_>
    <_>
      <rect>
        12 8 1 1</rect></_>
    <_>
      <rect>
        12 11 1 1</rect></_>
    <_>
      <rect>
        12 15 1 1</rect></_>
    <_>
      <rect>
        12 18 1 2</rect></_>
    <_>
      <rect>
        12 29 1 1</rect></_>
    <_>
      <rect>
        13 0 1 2</rect></_>
    <_>
      <rect>
        13 1 1 2</rect></_>
    <_>
      <rect>
        13 1 1 7</rect></_>
    <_>
      <rect>
        13 2 1 1</rect></_>
    <_>
      <rect>
        13 2 1 2</rect></_>
    <_>
      <rect>
        13 3 1 1</rect></_>
    <_>
      <rect>
        13 3 1 2</rect></_>
    <_>
      <rect>
        13 5 1 1</rect></_>
    <_>
      <rect>
        13 7 1 1</rect></_>
    <_>
      <rect>
        13 12 1 1</rect></_>
    <_>
      <rect>
        13 14 1 1</rect></_>
    <_>
      <rect>
        13 14 1 3</rect></_>
    <_>
      <rect>
        13 20 1 1</rect></_>
    <_>
      <rect>
        13 22 1 2</rect></_>
    <_>
      <rect>
        13 26 1 2</rect></_>
    <_>
      <rect>
        13 29 1 1</rect></_></features></cascade>
</opencv_storage>
