<?xml version="1.0"?>
<opencv_storage>
<stage17>
  <maxWeakCount>9</maxWeakCount>
  <stageThreshold>-1.5742948055267334e+00</stageThreshold>
  <weakClassifiers>
    <_>
      <internalNodes>
        0 -1 6290 -69602305 -744647809 -641349537 -1177218729 -70788466
        -1148485335 -1160926546 -83887133</internalNodes>
      <leafValues>
        -6.9098389148712158e-01 1.4373089373111725e-01</leafValues></_>
    <_>
      <internalNodes>
        0 -1 3496 -1893991758 -611155021 -514812644 -687467920 45613311
        -1029588863 168512139 -632208995</internalNodes>
      <leafValues>
        -4.9533319473266602e-01 2.5143811106681824e-01</leafValues></_>
    <_>
      <internalNodes>
        0 -1 6599 1869050489 -1885879297 498849246 686559699 -930534531
        -410843713 1267417396 1549324776</internalNodes>
      <leafValues>
        -6.6221237182617188e-01 2.1438512206077576e-01</leafValues></_>
    <_>
      <internalNodes>
        0 -1 150 -1974008849 -292904594 1300464096 -134880838 -360111509
        -495951687 791183734 -134613209</internalNodes>
      <leafValues>
        -4.8912781476974487e-01 2.9587537050247192e-01</leafValues></_>
    <_>
      <internalNodes>
        0 -1 1896 -1160847822 838914541 336168550 1537317615 -988278791
        -191299439 1153663999 314737423</internalNodes>
      <leafValues>
        -5.0190734863281250e-01 3.2401913404464722e-01</leafValues></_>
    <_>
      <internalNodes>
        0 -1 4978 -67227897 1287213607 -238682351 1742063965 553697831
        -1727880678 565232385 -2072249345</internalNodes>
      <leafValues>
        -4.9489882588386536e-01 3.0376487970352173e-01</leafValues></_>
    <_>
      <internalNodes>
        0 -1 6328 -498103221 550225455 -2109632358 18473931 1359022508
        847396865 -263911412 1956440519</internalNodes>
      <leafValues>
        -4.9018067121505737e-01 3.2302767038345337e-01</leafValues></_>
    <_>
      <internalNodes>
        0 -1 5786 2027899392 9992538 1090554207 987415494 1881877128
        1541073937 -2067956996 246914858</internalNodes>
      <leafValues>
        -6.5837788581848145e-01 2.3872168362140656e-01</leafValues></_>
    <_>
      <internalNodes>
        0 -1 3700 -1073743649 -26804232 1593768628 2046158176 2147471052
        -1073741827 -1358956866 -1696595978</internalNodes>
      <leafValues>
        -3.2557123899459839e-01 5.2440226078033447e-01</leafValues></_></weakClassifiers></stage17>
</opencv_storage>
