<?xml version="1.0"?>
<opencv_storage>
<stage7>
  <maxWeakCount>7</maxWeakCount>
  <stageThreshold>-1.5520182847976685e+00</stageThreshold>
  <weakClassifiers>
    <_>
      <internalNodes>
        0 -1 6455 -73400801 -69502177 2065423615 -20973219 -1158943202
        -27467333 -84084482 -352321557</internalNodes>
      <leafValues>
        -7.4548441171646118e-01 2.8368793427944183e-02</leafValues></_>
    <_>
      <internalNodes>
        0 -1 521 -824220065 -131273 -1371254921 -383588249 100749215
        -113880678 241684143 -80674997</internalNodes>
      <leafValues>
        -5.2695018053054810e-01 3.3790874481201172e-01</leafValues></_>
    <_>
      <internalNodes>
        0 -1 4650 548869136 796677620 2123626937 -1079649200 -335773884
        1000521176 -825435138 -4399499</internalNodes>
      <leafValues>
        -6.2277972698211670e-01 2.9860538244247437e-01</leafValues></_>
    <_>
      <internalNodes>
        0 -1 4926 -1359013341 720823167 -6693633 720567262 665804111
        1509907903 -1246006475 -21039247</internalNodes>
      <leafValues>
        -6.4583444595336914e-01 2.7670139074325562e-01</leafValues></_>
    <_>
      <internalNodes>
        0 -1 4062 -1076481028 1071528180 -653105251 -1089642081
        -977385476 -5889963 -1177763639 -273523015</internalNodes>
      <leafValues>
        -5.5066871643066406e-01 3.4591549634933472e-01</leafValues></_>
    <_>
      <internalNodes>
        0 -1 2090 1255859346 -704980198 -736601570 -157887007 1273453802
        1189831355 -241089841 -395847001</internalNodes>
      <leafValues>
        -5.2712017297744751e-01 3.4367963671684265e-01</leafValues></_>
    <_>
      <internalNodes>
        0 -1 5456 1994607120 138958115 152400117 1455256988 1424723592
        -352636279 2018044351 -1392646149</internalNodes>
      <leafValues>
        -5.2500325441360474e-01 3.6691516637802124e-01</leafValues></_></weakClassifiers></stage7>
</opencv_storage>
