<?xml version="1.0"?>
<opencv_storage>
<stage10>
  <maxWeakCount>8</maxWeakCount>
  <stageThreshold>-1.2325271368026733e+00</stageThreshold>
  <weakClassifiers>
    <_>
      <internalNodes>
        0 -1 3670 -745931301 -578645316 -721110561 -44072752 -1148650788
        -75464013 -1969488962 -1180993</internalNodes>
      <leafValues>
        -7.0279586315155029e-01 8.9974291622638702e-02</leafValues></_>
    <_>
      <internalNodes>
        0 -1 3837 -45744423 923907004 -1216290721 16994915 751436670
        945101609 434392895 716787695</internalNodes>
      <leafValues>
        -5.8733928203582764e-01 1.9505576789379120e-01</leafValues></_>
    <_>
      <internalNodes>
        0 -1 717 -1024471041 1725360287 -1474232233 -1407451625
        1276340551 -2052242805 1315335394 1205326611</internalNodes>
      <leafValues>
        -4.1805323958396912e-01 3.7339824438095093e-01</leafValues></_>
    <_>
      <internalNodes>
        0 -1 850 1128423050 332657095 1061504971 1475604879 2123016619
        -104820729 -1118602613 -141050947</internalNodes>
      <leafValues>
        -4.6140727400779724e-01 3.4756892919540405e-01</leafValues></_>
    <_>
      <internalNodes>
        0 -1 5883 -377018878 37472553 -1530900397 1498288543 1221230597
        1606747022 -1476671242 -1419908661</internalNodes>
      <leafValues>
        -5.6380301713943481e-01 3.1554874777793884e-01</leafValues></_>
    <_>
      <internalNodes>
        0 -1 2861 -425020288 1956065329 -1132293596 682076176 1116217006
        -670350927 1309266627 2129081202</internalNodes>
      <leafValues>
        -6.8776458501815796e-01 2.4005420506000519e-01</leafValues></_>
    <_>
      <internalNodes>
        0 -1 6406 -362807533 788961585 295145973 295389854 -46152790
        -2104275770 1905769904 211545707</internalNodes>
      <leafValues>
        -4.7416678071022034e-01 3.3668854832649231e-01</leafValues></_>
    <_>
      <internalNodes>
        0 -1 716 1335961277 -337325760 1245858422 1792730355 1233863520
        973281424 1150972532 1279482647</internalNodes>
      <leafValues>
        -6.2783181667327881e-01 2.6480987668037415e-01</leafValues></_></weakClassifiers></stage10>
</opencv_storage>
