<?xml version="1.0"?>
<opencv_storage>
<stage22>
  <maxWeakCount>9</maxWeakCount>
  <stageThreshold>-1.4255658388137817e+00</stageThreshold>
  <weakClassifiers>
    <_>
      <internalNodes>
        0 -1 4691 -77336353 -204008993 348707837 -984759201 -1608388918
        -1431723870 -1580758785 -89399298</internalNodes>
      <leafValues>
        -6.7858433723449707e-01 3.4199133515357971e-01</leafValues></_>
    <_>
      <internalNodes>
        0 -1 4119 -1726307625 -550299641 553715935 -677226266 814886952
        -75333592 93003929 -547168008</internalNodes>
      <leafValues>
        -4.5727494359016418e-01 3.0589237809181213e-01</leafValues></_>
    <_>
      <internalNodes>
        0 -1 6586 188967683 39035421 -1023053801 1682477907 212807682
        -2113910781 -342945790 1012195747</internalNodes>
      <leafValues>
        -5.8345752954483032e-01 2.5893715023994446e-01</leafValues></_>
    <_>
      <internalNodes>
        0 -1 1983 1523969982 814254214 427886602 -1659387902 1629628501
        -1869733814 -1316816877 645547895</internalNodes>
      <leafValues>
        -5.8798712491989136e-01 2.5678414106369019e-01</leafValues></_>
    <_>
      <internalNodes>
        0 -1 6465 -162015190 -2137931437 -2147371006 686256409
        -2106130432 2032140938 -225985394 1891471119</internalNodes>
      <leafValues>
        -5.4555976390838623e-01 3.2002231478691101e-01</leafValues></_>
    <_>
      <internalNodes>
        0 -1 2138 -1090022245 -1144946544 268837488 -422538239 48599962
        -1593311216 1641269994 1582870797</internalNodes>
      <leafValues>
        -4.9653917551040649e-01 3.5844081640243530e-01</leafValues></_>
    <_>
      <internalNodes>
        0 -1 2361 1866375899 -1112022094 2146369533 2147480053
        2080364520 -16457 -1366523990 -863209673</internalNodes>
      <leafValues>
        -3.6071580648422241e-01 5.0401902198791504e-01</leafValues></_>
    <_>
      <internalNodes>
        0 -1 2429 -1056804784 1188103856 806432769 -200293879 8463598
        -1308589948 268657088 1412880587</internalNodes>
      <leafValues>
        -6.2875354290008545e-01 2.9486355185508728e-01</leafValues></_>
    <_>
      <internalNodes>
        0 -1 4693 1685439503 1409212357 -1074135043 159247980 -210462290
        -1677824169 2046716027 -1007079605</internalNodes>
      <leafValues>
        -3.9200690388679504e-01 4.7057339549064636e-01</leafValues></_></weakClassifiers></stage22>
</opencv_storage>
