<?xml version="1.0"?>
<opencv_storage>
<stage24>
  <maxWeakCount>7</maxWeakCount>
  <stageThreshold>-1.4849439859390259e+00</stageThreshold>
  <weakClassifiers>
    <_>
      <internalNodes>
        0 -1 208 -573587521 -101735657 -1970765741 -1118344445
        1103756205 -125777268 -215428357 -3409425</internalNodes>
      <leafValues>
        -6.9523102045059204e-01 2.0886075496673584e-01</leafValues></_>
    <_>
      <internalNodes>
        0 -1 4513 1793697921 1951617595 -1124004543 2030912366
        -1151366477 -1163644531 -123690749 -812414897</internalNodes>
      <leafValues>
        -5.1024347543716431e-01 2.4777910113334656e-01</leafValues></_>
    <_>
      <internalNodes>
        0 -1 1770 488597939 701334400 50450437 -168651186 327288890
        -460521336 1531084710 -872861499</internalNodes>
      <leafValues>
        -4.3613559007644653e-01 3.3282947540283203e-01</leafValues></_>
    <_>
      <internalNodes>
        0 -1 3884 1653918224 426862529 -1925127261 855955680 33949900
        -1404910840 2037586668 1006978531</internalNodes>
      <leafValues>
        -6.9379800558090210e-01 2.1456050872802734e-01</leafValues></_>
    <_>
      <internalNodes>
        0 -1 4914 554952192 561369228 -1974892536 553980339 866204636
        976242953 1669819018 1815729272</internalNodes>
      <leafValues>
        -6.6978549957275391e-01 2.7490830421447754e-01</leafValues></_>
    <_>
      <internalNodes>
        0 -1 6434 1363759459 1212792914 553718420 248647882 -780029165
        320995338 1243699960 1770681096</internalNodes>
      <leafValues>
        -5.9885191917419434e-01 2.6186734437942505e-01</leafValues></_>
    <_>
      <internalNodes>
        0 -1 6551 1901442771 -1222176101 1359614257 70551618 -1635154367
        -377427831 85198912 1484911498</internalNodes>
      <leafValues>
        -4.4433411955833435e-01 4.1025310754776001e-01</leafValues></_></weakClassifiers></stage24>
</opencv_storage>
