<?xml version="1.0"?>
<opencv_storage>
<stage15>
  <maxWeakCount>8</maxWeakCount>
  <stageThreshold>-1.3727837800979614e+00</stageThreshold>
  <weakClassifiers>
    <_>
      <internalNodes>
        0 -1 1721 -2228225 -536881424 957925843 -583830764 -104544066
        -4685581 1044089547 -16777249</internalNodes>
      <leafValues>
        -6.8615841865539551e-01 1.8120805919170380e-01</leafValues></_>
    <_>
      <internalNodes>
        0 -1 5853 77008387 664659487 -124103074 181313783 826480204
        997395023 -92126258 -1167922194</internalNodes>
      <leafValues>
        -6.8687003850936890e-01 1.1425764858722687e-01</leafValues></_>
    <_>
      <internalNodes>
        0 -1 1395 -320886750 1189400865 -158927314 -83969957 -153358773
        1229576498 -4867398 -203423892</internalNodes>
      <leafValues>
        -4.9163198471069336e-01 2.5974014401435852e-01</leafValues></_>
    <_>
      <internalNodes>
        0 -1 5660 689522744 489423314 80485316 2064129033 302996985
        730497028 276933025 1761468576</internalNodes>
      <leafValues>
        -6.9656157493591309e-01 2.3009139299392700e-01</leafValues></_>
    <_>
      <internalNodes>
        0 -1 5115 -1540350960 -1241916067 -670543746 -1144222759
        -561476694 -134617975 -407968769 -1079137749</internalNodes>
      <leafValues>
        -4.2618146538734436e-01 3.5065770149230957e-01</leafValues></_>
    <_>
      <internalNodes>
        0 -1 3527 -829230024 1570197620 282083350 294998105 143364826
        -1450424320 766937145 -1895620521</internalNodes>
      <leafValues>
        -4.0762683749198914e-01 3.9206621050834656e-01</leafValues></_>
    <_>
      <internalNodes>
        0 -1 6537 -1881985498 1147180535 1169654146 551407754 1788469575
        1613447707 2024864215 1457501182</internalNodes>
      <leafValues>
        -7.3795175552368164e-01 2.2448375821113586e-01</leafValues></_>
    <_>
      <internalNodes>
        0 -1 825 -1999200336 -344828741 453253520 -45936299 -2134314899
        -655253446 1889134192 1269242065</internalNodes>
      <leafValues>
        -5.3157621622085571e-01 2.7193966507911682e-01</leafValues></_></weakClassifiers></stage15>
</opencv_storage>
