<?xml version="1.0"?>
<opencv_storage>
<stage12>
  <maxWeakCount>9</maxWeakCount>
  <stageThreshold>-1.5372227430343628e+00</stageThreshold>
  <weakClassifiers>
    <_>
      <internalNodes>
        0 -1 3031 -6947361 -3226136 522053629 -10662572 -583157574
        -71575657 -1164248069 -1293</internalNodes>
      <leafValues>
        -6.9069856405258179e-01 1.5170279145240784e-01</leafValues></_>
    <_>
      <internalNodes>
        0 -1 5672 398453711 1527335189 499652497 -577987903 -1431889633
        -103076936 339605753 -849352307</internalNodes>
      <leafValues>
        -4.6124628186225891e-01 3.0236750841140747e-01</leafValues></_>
    <_>
      <internalNodes>
        0 -1 3851 -834738362 -582085941 -242910209 -1711651256
        -874840233 -309097585 535559015 980579700</internalNodes>
      <leafValues>
        -5.5075395107269287e-01 2.6492643356323242e-01</leafValues></_>
    <_>
      <internalNodes>
        0 -1 5904 725294858 509048217 354225013 949956485 -1453856420
        1318293124 1321462013 -586196491</internalNodes>
      <leafValues>
        -6.1989188194274902e-01 2.3325814306735992e-01</leafValues></_>
    <_>
      <internalNodes>
        0 -1 1191 1868773902 600278570 1925402970 -1085115338 1533757278
        420119503 1354989624 -67765449</internalNodes>
      <leafValues>
        -4.5060330629348755e-01 3.4979584813117981e-01</leafValues></_>
    <_>
      <internalNodes>
        0 -1 5795 -1423148272 768259536 1384436703 -329575972 -267526916
        -18052965 -926351382 -356715587</internalNodes>
      <leafValues>
        -4.6688103675842285e-01 3.2485184073448181e-01</leafValues></_>
    <_>
      <internalNodes>
        0 -1 5771 71239615 194163523 26465149 -1033735780 -1177687880
        47298751 -343725867 535852792</internalNodes>
      <leafValues>
        -5.8782339096069336e-01 2.8513640165328979e-01</leafValues></_>
    <_>
      <internalNodes>
        0 -1 1920 1940537314 -1622495106 2006079772 -137501696 8467451
        -2131705713 1898050491 401695299</internalNodes>
      <leafValues>
        -5.1469385623931885e-01 3.2290381193161011e-01</leafValues></_>
    <_>
      <internalNodes>
        0 -1 3221 -633349454 -550415663 486691024 -116137455 -640169793
        406053394 1348964603 -601931281</internalNodes>
      <leafValues>
        -4.4236463308334351e-01 3.9687281847000122e-01</leafValues></_></weakClassifiers></stage12>
</opencv_storage>
