<?xml version="1.0"?>
<opencv_storage>
<stage5>
  <maxWeakCount>7</maxWeakCount>
  <stageThreshold>-1.3257544040679932e+00</stageThreshold>
  <weakClassifiers>
    <_>
      <internalNodes>
        0 -1 5806 -8417 1540740927 1150667263 1941389787 -70278518
        -24148823 -91768182 -1161830401</internalNodes>
      <leafValues>
        -7.4246126413345337e-01 4.0293041616678238e-02</leafValues></_>
    <_>
      <internalNodes>
        0 -1 2653 -1627012478 923390227 -192363920 1059309145 1145769115
        1560363315 245582015 1589075407</internalNodes>
      <leafValues>
        -7.3281741142272949e-01 1.6097871959209442e-01</leafValues></_>
    <_>
      <internalNodes>
        0 -1 4125 218123536 -4838568 2131606171 2142622681 268157660
        -1094794803 -661684225 -5243393</internalNodes>
      <leafValues>
        -4.6446153521537781e-01 4.0464872121810913e-01</leafValues></_>
    <_>
      <internalNodes>
        0 -1 2547 1758392106 919197830 1830803951 2006439329 -507842145
        1100251151 -240818961 -705167439</internalNodes>
      <leafValues>
        -5.0884342193603516e-01 3.6934027075767517e-01</leafValues></_>
    <_>
      <internalNodes>
        0 -1 5326 2061759394 815781309 1820444296 596611471 1772018638
        157401923 2067366634 -252708876</internalNodes>
      <leafValues>
        -4.3833842873573303e-01 4.3223962187767029e-01</leafValues></_>
    <_>
      <internalNodes>
        0 -1 195 -1510088082 -948707002 -600761070 -3874087 -208965561
        -1689693510 1896514375 -537136239</internalNodes>
      <leafValues>
        -5.1157784461975098e-01 3.9536330103874207e-01</leafValues></_>
    <_>
      <internalNodes>
        0 -1 6269 -77727745 -356051625 295246463 2110438255 -340058922
        -488472167 -611586561 1237514680</internalNodes>
      <leafValues>
        -4.5877054333686829e-01 4.4026866555213928e-01</leafValues></_></weakClassifiers></stage5>
</opencv_storage>
