<?xml version="1.0"?>
<opencv_storage>
<stage13>
  <maxWeakCount>29</maxWeakCount>
  <stageThreshold>-1.2640565633773804e+00</stageThreshold>
  <weakClassifiers>
    <_>
      <internalNodes>
        0 -1 15 143649459 2050073099 -10898049 -575816809 247428607
        -93334706 1492614414 -33952914</internalNodes>
      <leafValues>
        -5.1862013339996338e-01 -9.0836331248283386e-02</leafValues></_>
    <_>
      <internalNodes>
        0 -1 4345 -903172944 -557545808 -1719876619 -4425472 -1196622607
        -50794059 -461574179 -1574414895</internalNodes>
      <leafValues>
        -3.0927130579948425e-01 1.4943394064903259e-01</leafValues></_>
    <_>
      <internalNodes>
        0 -1 4594 -96969360 503910108 -1760316423 -719179841 -1093533551
        -84925923 -1413833219 -1891970819</internalNodes>
      <leafValues>
        -2.4036253988742828e-01 1.9001497328281403e-01</leafValues></_>
    <_>
      <internalNodes>
        0 -1 5559 -1023687121 2062532402 587085560 846526455 2147445764
        2071953262 -688206100 -765595699</internalNodes>
      <leafValues>
        -2.0826125144958496e-01 2.3552799224853516e-01</leafValues></_>
    <_>
      <internalNodes>
        0 -1 5319 -1906614526 17299759 -1064177944 542602615 798889728
        1115005217 1759449319 -186909707</internalNodes>
      <leafValues>
        -3.5291567444801331e-01 1.2875925004482269e-01</leafValues></_>
    <_>
      <internalNodes>
        0 -1 6011 -201335382 1792924291 -1602465776 268488847 1341762450
        199875022 -103029837 -772931681</internalNodes>
      <leafValues>
        -2.4230194091796875e-01 1.9373880326747894e-01</leafValues></_>
    <_>
      <internalNodes>
        0 -1 5155 -1366419119 -33423206 1028396447 521214300 971681528
        -1399727933 -1966556436 -1911537047</internalNodes>
      <leafValues>
        -2.0862022042274475e-01 2.3029984533786774e-01</leafValues></_>
    <_>
      <internalNodes>
        0 -1 4410 -355581406 235801568 826276851 2027911664 847458560
        109322675 1451495605 -18939915</internalNodes>
      <leafValues>
        -2.9742509126663208e-01 1.5278804302215576e-01</leafValues></_>
    <_>
      <internalNodes>
        0 -1 3991 1989071036 1035689726 -804203882 17031610 1078214856
        176879624 -838175218 -816582565</internalNodes>
      <leafValues>
        -2.2956754267215729e-01 1.9483493268489838e-01</leafValues></_>
    <_>
      <internalNodes>
        0 -1 867 -557904352 177312172 411631999 39796032 244410404
        957078000 1523218944 1842270327</internalNodes>
      <leafValues>
        -4.6883022785186768e-01 1.0286651551723480e-01</leafValues></_>
    <_>
      <internalNodes>
        0 -1 2099 -1287592414 -1489363240 1044527375 442549633 832866460
        -77299471 -409192309 -113794837</internalNodes>
      <leafValues>
        -2.6222714781761169e-01 1.7406810820102692e-01</leafValues></_>
    <_>
      <internalNodes>
        0 -1 5305 -57209270 967947734 -326901666 1354821954 1000382980
        1461965635 1069235446 -251734531</internalNodes>
      <leafValues>
        -2.8533321619033813e-01 1.4356654882431030e-01</leafValues></_>
    <_>
      <internalNodes>
        0 -1 1806 1807720183 -341380694 -242522558 -675385326 885781287
        61571258 1124708692 -438077961</internalNodes>
      <leafValues>
        -2.3189368844032288e-01 1.9026103615760803e-01</leafValues></_>
    <_>
      <internalNodes>
        0 -1 4928 1445991504 732434965 -540968296 161608541 1276317099
        -1466795055 168374430 -2000194047</internalNodes>
      <leafValues>
        -2.9085898399353027e-01 1.6228818893432617e-01</leafValues></_>
    <_>
      <internalNodes>
        0 -1 5705 -102774590 -2138843890 1372115248 -203694952
        -2017762354 227608706 -236232220 -1066025169</internalNodes>
      <leafValues>
        -2.3547856509685516e-01 1.9076883792877197e-01</leafValues></_>
    <_>
      <internalNodes>
        0 -1 3954 -956479480 443837518 1477508164 822012022 331046980
        1253158346 1711698738 -688462347</internalNodes>
      <leafValues>
        -3.6847811937332153e-01 1.1806151270866394e-01</leafValues></_>
    <_>
      <internalNodes>
        0 -1 5386 -181495118 2077701360 -1117164363 1562319019
        -1415263830 -1382394383 672710591 -1952756501</internalNodes>
      <leafValues>
        -1.5253181755542755e-01 3.0139610171318054e-01</leafValues></_>
    <_>
      <internalNodes>
        0 -1 5456 1508903185 39418744 957630717 169660440 2009432252
        721621241 2030430328 -97194401</internalNodes>
      <leafValues>
        -2.9811227321624756e-01 1.5645147860050201e-01</leafValues></_>
    <_>
      <internalNodes>
        0 -1 3378 1054049515 839708078 -1043505402 -103483942 1562792649
        1835762299 -135614094 -185141309</internalNodes>
      <leafValues>
        -2.1794569492340088e-01 2.0527139306068420e-01</leafValues></_>
    <_>
      <internalNodes>
        0 -1 6401 -337690823 -1597179926 -1903970511 539494508 155592456
        92918384 2125460002 745859017</internalNodes>
      <leafValues>
        -3.2031148672103882e-01 1.4403659105300903e-01</leafValues></_>
    <_>
      <internalNodes>
        0 -1 950 851926210 326124711 -1811091676 911695466 1632483880
        2066189569 -96638165 -418998229</internalNodes>
      <leafValues>
        -2.7476066350936890e-01 1.6844396293163300e-01</leafValues></_>
    <_>
      <internalNodes>
        0 -1 4185 -1203839919 -541573766 -1091073 -777570868 -822260644
        -3707649 -823211270 -90171948</internalNodes>
      <leafValues>
        -1.9274157285690308e-01 2.4676135182380676e-01</leafValues></_>
    <_>
      <internalNodes>
        0 -1 825 -368790981 -733738120 694245305 1577697698 -1891024304
        1479123651 1089037905 2031251696</internalNodes>
      <leafValues>
        -2.8173521161079407e-01 1.7183557152748108e-01</leafValues></_>
    <_>
      <internalNodes>
        0 -1 4790 -1499943196 -1676098287 -1515667935 -619142174
        888501146 1088353673 501034445 -1074433711</internalNodes>
      <leafValues>
        -2.8439727425575256e-01 1.6147972643375397e-01</leafValues></_>
    <_>
      <internalNodes>
        0 -1 4542 -660088630 -50313950 452515061 -579628867 -1090791276
        -1208004671 -1821226498 -19409511</internalNodes>
      <leafValues>
        -1.3540227711200714e-01 3.5116779804229736e-01</leafValues></_>
    <_>
      <internalNodes>
        0 -1 2189 -1072184748 -2136435419 1195396068 248035130
        -1970840796 1537292475 90395473 876507563</internalNodes>
      <leafValues>
        -4.2065036296844482e-01 1.2264831364154816e-01</leafValues></_>
    <_>
      <internalNodes>
        0 -1 551 -697021642 2070032871 1121338958 677946903 366218470
        908067607 1075052740 1027734041</internalNodes>
      <leafValues>
        -3.2687059044837952e-01 1.3472613692283630e-01</leafValues></_>
    <_>
      <internalNodes>
        0 -1 4371 -486998876 -92119005 -1399171044 -1075232333 259733978
        -527848445 428298599 -1431174541</internalNodes>
      <leafValues>
        -2.5962787866592407e-01 1.7863702774047852e-01</leafValues></_>
    <_>
      <internalNodes>
        0 -1 2692 -529866034 1447718575 -1073755494 355843230 151509750
        172384250 -1594718822 -77605025</internalNodes>
      <leafValues>
        -1.6112324595451355e-01 2.8855717182159424e-01</leafValues></_></weakClassifiers></stage13>
</opencv_storage>
