<?xml version="1.0"?>
<opencv_storage>
<stage1>
  <maxWeakCount>10</maxWeakCount>
  <stageThreshold>-1.6606342792510986e+00</stageThreshold>
  <weakClassifiers>
    <_>
      <internalNodes>
        0 -1 850 33743490 1934877599 1350826315 1407440803 1728308123
        1998832739 860348239 -1048641</internalNodes>
      <leafValues>
        -6.9820880889892578e-01 1.6597419977188110e-01</leafValues></_>
    <_>
      <internalNodes>
        0 -1 3424 -806368766 33734666 59758336 2140920819 1266665422
        38781451 -741617277 -536870913</internalNodes>
      <leafValues>
        -5.6349939107894897e-01 3.1658595800399780e-01</leafValues></_>
    <_>
      <internalNodes>
        0 -1 2742 -287315450 1622140811 -263323072 -754981137 1709925698
        39011077 -153094634 -202376193</internalNodes>
      <leafValues>
        -4.8478141427040100e-01 3.0753943324089050e-01</leafValues></_>
    <_>
      <internalNodes>
        0 -1 3655 1343176706 1365229578 1115155155 54772123 -1533550440
        1953228412 -1339824385 -705433889</internalNodes>
      <leafValues>
        -3.8954490423202515e-01 3.7312430143356323e-01</leafValues></_>
    <_>
      <internalNodes>
        0 -1 493 -353382705 2135684863 1110065407 -159390089 1162563903
        1999906599 -940356357 -8392705</internalNodes>
      <leafValues>
        -2.9657858610153198e-01 4.5297825336456299e-01</leafValues></_>
    <_>
      <internalNodes>
        0 -1 6225 -156242014 650298255 -1027703808 -488119893 1806876998
        84007686 -229144620 -754976789</internalNodes>
      <leafValues>
        -4.6674025058746338e-01 2.9774093627929688e-01</leafValues></_>
    <_>
      <internalNodes>
        0 -1 5575 -812667130 826788694 1658372640 316396146 -168884928
        1674560076 -1587480920 -167772745</internalNodes>
      <leafValues>
        -3.6826017498970032e-01 3.1738111376762390e-01</leafValues></_>
    <_>
      <internalNodes>
        0 -1 1150 -67132882 -1471823705 1750188706 -551562926
        -1279042283 11247775 -1166576876 -134219809</internalNodes>
      <leafValues>
        -3.7670373916625977e-01 3.1822544336318970e-01</leafValues></_>
    <_>
      <internalNodes>
        0 -1 3305 -70597926 319006862 -1073059774 2030783208 454166731
        1043013793 1512524362 511659879</internalNodes>
      <leafValues>
        -3.7519133090972900e-01 3.0066692829132080e-01</leafValues></_>
    <_>
      <internalNodes>
        0 -1 2897 -691609904 -1998924486 -984292080 -2001546856
        -929051840 1620764857 -1310426080 -706224137</internalNodes>
      <leafValues>
        -5.6173741817474365e-01 1.8935590982437134e-01</leafValues></_></weakClassifiers></stage1>
</opencv_storage>
