<?xml version="1.0"?>
<opencv_storage>
<stage16>
  <maxWeakCount>31</maxWeakCount>
  <stageThreshold>-1.2778451442718506e+00</stageThreshold>
  <weakClassifiers>
    <_>
      <internalNodes>
        0 -1 4575 -703871853 1060700948 710563257 494883567 707464905
        -1198896613 413746426 -68420453</internalNodes>
      <leafValues>
        -4.1944110393524170e-01 1.4116749167442322e-02</leafValues></_>
    <_>
      <internalNodes>
        0 -1 2129 -580717616 -1834811426 1062358492 641261585 -22612452
        -104924481 2141657521 -39392349</internalNodes>
      <leafValues>
        -3.0430448055267334e-01 1.3503569364547729e-01</leafValues></_>
    <_>
      <internalNodes>
        0 -1 987 1269822898 -736040958 32574839 -869459406 1802354623
        -1369204348 2068922969 -582771671</internalNodes>
      <leafValues>
        -1.9352200627326965e-01 2.0775981247425079e-01</leafValues></_>
    <_>
      <internalNodes>
        0 -1 2131 -26214906 1247898660 -2079958302 1350552110 1346990660
        1141051456 -712645424 1363540947</internalNodes>
      <leafValues>
        -3.0184474587440491e-01 1.3895972073078156e-01</leafValues></_>
    <_>
      <internalNodes>
        0 -1 4864 -226566947 -792840975 1735175805 -1812833099
        -1889751307 -1145819180 -864371745 -1506118283</internalNodes>
      <leafValues>
        -1.4473997056484222e-01 2.6835981011390686e-01</leafValues></_>
    <_>
      <internalNodes>
        0 -1 6193 935833135 729454075 -936062038 -1029092390 2068529678
        69188535 -1014074674 -706218005</internalNodes>
      <leafValues>
        -2.6565209031105042e-01 1.4747823774814606e-01</leafValues></_>
    <_>
      <internalNodes>
        0 -1 5793 1946136280 459859871 -1363268099 770371243 251588580
        -131139 -1884973619 -309469217</internalNodes>
      <leafValues>
        -1.9085237383842468e-01 2.2725045680999756e-01</leafValues></_>
    <_>
      <internalNodes>
        0 -1 2604 -615515210 -1878807670 213855214 -639124946 1146985977
        1358807037 -731785798 -100669877</internalNodes>
      <leafValues>
        -1.2158747017383575e-01 3.2262635231018066e-01</leafValues></_>
    <_>
      <internalNodes>
        0 -1 2981 136843344 448791140 -1085178505 1015699060 706351452
        1041323191 1758753616 235204291</internalNodes>
      <leafValues>
        -3.9731463789939880e-01 1.0921192169189453e-01</leafValues></_>
    <_>
      <internalNodes>
        0 -1 4528 -339759806 1221821215 -640768651 1607437247 1101695626
        177161135 1665056835 666238664</internalNodes>
      <leafValues>
        -2.7627331018447876e-01 1.4866133034229279e-01</leafValues></_>
    <_>
      <internalNodes>
        0 -1 690 -832109012 257379630 2081347212 -1371142869 124635940
        -75575393 -778324045 611664646</internalNodes>
      <leafValues>
        -3.4886536002159119e-01 1.2233511358499527e-01</leafValues></_>
    <_>
      <internalNodes>
        0 -1 3730 -393249 -629220 361392973 1940144182 -1157766486
        -5328977 -1011555656 -84158595</internalNodes>
      <leafValues>
        -9.0725481510162354e-02 4.6976438164710999e-01</leafValues></_>
    <_>
      <internalNodes>
        0 -1 240 -1436711889 711081937 -46207654 2139088632 1401319542
        665966976 1366188112 1602700011</internalNodes>
      <leafValues>
        -3.1821879744529724e-01 1.3504582643508911e-01</leafValues></_>
    <_>
      <internalNodes>
        0 -1 4344 -2078768128 67381520 690123058 -1553890616 943740024
        238616963 1162392569 -70259761</internalNodes>
      <leafValues>
        -2.8948420286178589e-01 1.4665666222572327e-01</leafValues></_>
    <_>
      <internalNodes>
        0 -1 5609 -757733496 2088288086 -1430853858 1344599022 -77747574
        2001500016 214290570 -1619918909</internalNodes>
      <leafValues>
        -1.6703139245510101e-01 2.5526949763298035e-01</leafValues></_>
    <_>
      <internalNodes>
        0 -1 5714 626727832 74823472 -659550408 -997104592 367540684
        -1933836870 266430584 -2004814372</internalNodes>
      <leafValues>
        -3.3123353123664856e-01 1.1790954321622849e-01</leafValues></_>
    <_>
      <internalNodes>
        0 -1 4608 1241467673 934378991 -1147139 -1458000196 1912228975
        208830138 753383197 -868581766</internalNodes>
      <leafValues>
        -2.0106485486030579e-01 2.0869781076908112e-01</leafValues></_>
    <_>
      <internalNodes>
        0 -1 2744 1904146420 2009800814 1909386258 433208030 1501019622
        1145443430 -1626553992 -547506593</internalNodes>
      <leafValues>
        -1.7745848000049591e-01 2.4788103997707367e-01</leafValues></_>
    <_>
      <internalNodes>
        0 -1 2298 -1537980685 1283380940 -1245139857 2129943743
        1394139408 1476651624 1468033381 1599513382</internalNodes>
      <leafValues>
        -2.7679654955863953e-01 1.6458201408386230e-01</leafValues></_>
    <_>
      <internalNodes>
        0 -1 3758 -2133331004 -738090427 -1518298034 -516926429
        -1060950574 -220815212 83943115 -1914732533</internalNodes>
      <leafValues>
        -2.1702492237091064e-01 2.0312480628490448e-01</leafValues></_>
    <_>
      <internalNodes>
        0 -1 5193 -734477741 2138976113 2050490359 1526527044
        -1438806518 -419467275 2053950718 -554371203</internalNodes>
      <leafValues>
        -1.7116682231426239e-01 2.5529307126998901e-01</leafValues></_>
    <_>
      <internalNodes>
        0 -1 6240 1472163658 781902729 -1593212608 12682222 -762454714
        109199874 4895458 374725614</internalNodes>
      <leafValues>
        -3.8869595527648926e-01 1.2294642627239227e-01</leafValues></_>
    <_>
      <internalNodes>
        0 -1 1503 796420339 1053844278 -1525537059 697902151 1677838071
        -1953930619 145762888 1858437232</internalNodes>
      <leafValues>
        -2.5333616137504578e-01 1.6823557019233704e-01</leafValues></_>
    <_>
      <internalNodes>
        0 -1 3089 -799550216 -807082617 1065302901 -70584891 494260689
        -1258626418 1582954472 -1204884757</internalNodes>
      <leafValues>
        -2.1826794743537903e-01 1.9751602411270142e-01</leafValues></_>
    <_>
      <internalNodes>
        0 -1 3511 -629932880 -1716954500 1797729 961750613 271627824
        -298433428 524381402 525822515</internalNodes>
      <leafValues>
        -1.8772400915622711e-01 2.4075226485729218e-01</leafValues></_>
    <_>
      <internalNodes>
        0 -1 3451 -358442438 2097904781 272765074 -1810877542 519700679
        1335411818 -164987921 1564961111</internalNodes>
      <leafValues>
        -2.4685716629028320e-01 1.7754991352558136e-01</leafValues></_>
    <_>
      <internalNodes>
        0 -1 6446 1258011401 542815679 -251126447 676790125 2056827804
        -1189043901 -46962034 1786112870</internalNodes>
      <leafValues>
        -2.5917595624923706e-01 1.6742001473903656e-01</leafValues></_>
    <_>
      <internalNodes>
        0 -1 661 -426889716 -345357144 -533952500 -490552281 271279204
        1169526981 472208252 1946415290</internalNodes>
      <leafValues>
        -5.0356143712997437e-01 8.9094161987304688e-02</leafValues></_>
    <_>
      <internalNodes>
        0 -1 5939 1601029710 465592280 1744777766 1533148097 1617082002
        377159623 584053486 -2023926027</internalNodes>
      <leafValues>
        -1.9653099775314331e-01 2.1952719986438751e-01</leafValues></_>
    <_>
      <internalNodes>
        0 -1 6526 217460272 391232839 -440321708 1045475780 1269658028
        197393028 -1216154440 -1661163097</internalNodes>
      <leafValues>
        -2.9508861899375916e-01 1.4776751399040222e-01</leafValues></_>
    <_>
      <internalNodes>
        0 -1 5695 -680573054 -402006714 1493553392 -103831085
        -1485192978 1164446258 -425119276 -235406193</internalNodes>
      <leafValues>
        -2.1790589392185211e-01 2.1861489117145538e-01</leafValues></_></weakClassifiers></stage16>
</opencv_storage>
