<?xml version="1.0"?>
<opencv_storage>
<stage3>
  <maxWeakCount>5</maxWeakCount>
  <stageThreshold>-5.8482617139816284e-01</stageThreshold>
  <weakClassifiers>
    <_>
      <internalNodes>
        0 -1 6280 788410231 788496380 -4097 -1359052802 788430718
        -1073774593 -822200971 -1430487692</internalNodes>
      <leafValues>
        -4.6308726072311401e-01 7.2965115308761597e-01</leafValues></_>
    <_>
      <internalNodes>
        0 -1 404 1289381982 1594838446 788415230 -18087937 -59814178
        1601140567 -939634729 2146924191</internalNodes>
      <leafValues>
        -5.8453029394149780e-01 6.3802021741867065e-01</leafValues></_>
    <_>
      <internalNodes>
        0 -1 5244 554702236 1389527681 293673245 -175627504 549628042
        -1070038872 -2113352037 -1172730995</internalNodes>
      <leafValues>
        -5.7983636856079102e-01 6.3889217376708984e-01</leafValues></_>
    <_>
      <internalNodes>
        0 -1 1470 419971322 287506689 4230 1400963586 -1471610743
        1342193858 -477424694 2031816719</internalNodes>
      <leafValues>
        -6.9454902410507202e-01 5.1232516765594482e-01</leafValues></_>
    <_>
      <internalNodes>
        0 -1 6698 -921450840 823132801 33701888 352964674 558473369
        805896192 142873344 2041285251</internalNodes>
      <leafValues>
        -6.5365546941757202e-01 5.3030258417129517e-01</leafValues></_></weakClassifiers></stage3>
</opencv_storage>
