<?xml version="1.0"?>
<opencv_storage>
<stage12>
  <maxWeakCount>5</maxWeakCount>
  <stageThreshold>-2.3508955538272858e-01</stageThreshold>
  <weakClassifiers>
    <_>
      <internalNodes>
        0 -1 5704 -1398780848 -39420420 -65537 1874690044 -738198276
        -131201 2130507519 -810690564</internalNodes>
      <leafValues>
        -2.1690140664577484e-01 6.9889062643051147e-01</leafValues></_>
    <_>
      <internalNodes>
        0 -1 7957 -18026527 -1364545570 -1090668588 1807281964
        -1688216272 788725622 1476105618 -602144909</internalNodes>
      <leafValues>
        -3.9244714379310608e-01 6.2572240829467773e-01</leafValues></_>
    <_>
      <internalNodes>
        0 -1 246 -926171129 -938860413 1073823761 -686800893 1107298497
        67141760 1493204994 2058068255</internalNodes>
      <leafValues>
        -5.0584667921066284e-01 5.3480947017669678e-01</leafValues></_>
    <_>
      <internalNodes>
        0 -1 7016 -1022541583 387190786 4277696 1227505729 -788168542
        -2146959192 8602149 1242155141</internalNodes>
      <leafValues>
        -6.0950356721878052e-01 4.4810944795608521e-01</leafValues></_>
    <_>
      <internalNodes>
        0 -1 2738 -22093961 -1275649438 1861100223 -134245261 1610548920
        -1477548113 -72441978 -1975581433</internalNodes>
      <leafValues>
        -4.4435235857963562e-01 7.0863062143325806e-01</leafValues></_></weakClassifiers></stage12>
</opencv_storage>
