<?xml version="1.0"?>
<opencv_storage>
<stage17>
  <maxWeakCount>6</maxWeakCount>
  <stageThreshold>-8.3276301622390747e-01</stageThreshold>
  <weakClassifiers>
    <_>
      <internalNodes>
        0 -1 7818 -1898099143 803929598 2147450750 -553975873 -269500555
        -268501505 -830703755 1283517940</internalNodes>
      <leafValues>
        -3.8521400094032288e-01 6.3511657714843750e-01</leafValues></_>
    <_>
      <internalNodes>
        0 -1 4482 1312991280 -233816063 -1040185981 -988640823
        -2142633343 -2117597056 -1073184347 -798457397</internalNodes>
      <leafValues>
        -5.7731646299362183e-01 4.7391039133071899e-01</leafValues></_>
    <_>
      <internalNodes>
        0 -1 3289 -286286118 590082034 1073442487 1941857632 2130661020
        -597164162 2097077422 -93323402</internalNodes>
      <leafValues>
        -4.4976770877838135e-01 5.7793211936950684e-01</leafValues></_>
    <_>
      <internalNodes>
        0 -1 7965 -788343096 1234063459 360775956 404684810 -1065319021
        262152 1107542160 57927691</internalNodes>
      <leafValues>
        -5.4803341627120972e-01 5.1055359840393066e-01</leafValues></_>
    <_>
      <internalNodes>
        0 -1 4230 -362083829 1407414002 788393472 -1259081929 1862158011
        -1744830473 653749939 1734735778</internalNodes>
      <leafValues>
        -4.8944124579429626e-01 6.2971693277359009e-01</leafValues></_>
    <_>
      <internalNodes>
        0 -1 341 -129808561 1111842848 -2143256556 -754384639 1141381750
        453115913 293636106 -875593423</internalNodes>
      <leafValues>
        -5.2247899770736694e-01 5.7191354036331177e-01</leafValues></_></weakClassifiers></stage17>
</opencv_storage>
