<?xml version="1.0"?>
<opencv_storage>
<stage31>
  <maxWeakCount>6</maxWeakCount>
  <stageThreshold>-1.0331057310104370e+00</stageThreshold>
  <weakClassifiers>
    <_>
      <internalNodes>
        0 -1 257 1349446146 -1561657445 2130377147 1920989183 1142290289
        -465141858 1979078527 -403186313</internalNodes>
      <leafValues>
        -3.6842104792594910e-01 6.0000002384185791e-01</leafValues></_>
    <_>
      <internalNodes>
        0 -1 6816 2249300 2116698102 -1078132929 -1221656579 2147418065
        -1077936132 1056751099 -1619460129</internalNodes>
      <leafValues>
        -4.5912259817123413e-01 5.3372818231582642e-01</leafValues></_>
    <_>
      <internalNodes>
        0 -1 6805 -2137959151 -1593827136 16810269 1611663364 -939425637
        692125826 -2010988471 1241667624</internalNodes>
      <leafValues>
        -5.8788859844207764e-01 4.2770543694496155e-01</leafValues></_>
    <_>
      <internalNodes>
        0 -1 4774 1246519453 -2011344887 340791297 1951597073
        -2097086328 -1879015318 -1496771944 1608417292</internalNodes>
      <leafValues>
        -5.6199425458908081e-01 4.6826046705245972e-01</leafValues></_>
    <_>
      <internalNodes>
        0 -1 6725 275022488 269091456 34111514 -2130099704 -528482104
        1108092938 8589512 1701233738</internalNodes>
      <leafValues>
        -6.1612570285797119e-01 4.1984289884567261e-01</leafValues></_>
    <_>
      <internalNodes>
        0 -1 3489 2050180082 1831518000 -268505572 -8683522 -973800208
        -1101004929 -50929668 -20992581</internalNodes>
      <leafValues>
        -4.9111616611480713e-01 6.0097807645797729e-01</leafValues></_></weakClassifiers></stage31>
</opencv_storage>
