<?xml version="1.0"?>
<opencv_storage>
<stage44>
  <maxWeakCount>6</maxWeakCount>
  <stageThreshold>-4.6441125869750977e-01</stageThreshold>
  <weakClassifiers>
    <_>
      <internalNodes>
        0 -1 430 1080779958 1862139639 -1360048515 -1166479498
        1341594836 2113830910 259376333 -898621575</internalNodes>
      <leafValues>
        -3.3333334326744080e-01 5.7809984683990479e-01</leafValues></_>
    <_>
      <internalNodes>
        0 -1 4801 -75896616 -1342825444 1878683645 1540822373 -88439045
        -1359577195 -1170478146 -631906849</internalNodes>
      <leafValues>
        -2.6214241981506348e-01 7.4569541215896606e-01</leafValues></_>
    <_>
      <internalNodes>
        0 -1 6782 1644092369 2133225011 -302024185 -268997721 2134283963
        1331097407 2011987382 -809504997</internalNodes>
      <leafValues>
        -3.1274798512458801e-01 6.9141542911529541e-01</leafValues></_>
    <_>
      <internalNodes>
        0 -1 192 1238364675 -2013118462 -2147417900 -947896256
        1108415115 1652588544 521 -493647302</internalNodes>
      <leafValues>
        -5.1500701904296875e-01 4.7124642133712769e-01</leafValues></_>
    <_>
      <internalNodes>
        0 -1 7746 -1723530942 1381056673 -2147483640 -1337622528
        536906176 1376256000 -1065349397 -484996599</internalNodes>
      <leafValues>
        -4.9871554970741272e-01 5.0562494993209839e-01</leafValues></_>
    <_>
      <internalNodes>
        0 -1 6599 -805310984 1115684859 1769995379 -704905217 -302054235
        1333616607 -814237357 -1937772545</internalNodes>
      <leafValues>
        -4.4015157222747803e-01 5.8394140005111694e-01</leafValues></_></weakClassifiers></stage44>
</opencv_storage>
