<?xml version="1.0"?>
<opencv_storage>
<stage41>
  <maxWeakCount>7</maxWeakCount>
  <stageThreshold>-3.9321896433830261e-01</stageThreshold>
  <weakClassifiers>
    <_>
      <internalNodes>
        0 -1 1508 1143094792 -1851064797 1962405887 -525211161
        -1884422219 -1920074769 1139932389 -206226027</internalNodes>
      <leafValues>
        -2.9452055692672729e-01 6.0581582784652710e-01</leafValues></_>
    <_>
      <internalNodes>
        0 -1 8288 -822388155 -260315393 1862262638 -245890 -277889282
        -16875547 854785695 -293339274</internalNodes>
      <leafValues>
        -3.0897656083106995e-01 6.6706669330596924e-01</leafValues></_>
    <_>
      <internalNodes>
        0 -1 6839 1975517521 1426194950 1073758336 1325432896
        -1979133880 -1689714301 33726635 408184853</internalNodes>
      <leafValues>
        -5.4770112037658691e-01 4.5863378047943115e-01</leafValues></_>
    <_>
      <internalNodes>
        0 -1 542 -215502144 -854580991 1078235400 1723925121 617008
        1610612768 1615403143 1595097123</internalNodes>
      <leafValues>
        -5.9056657552719116e-01 4.1977554559707642e-01</leafValues></_>
    <_>
      <internalNodes>
        0 -1 5928 -79797559 -93454977 -1347427800 934281215 1979709356
        938999798 1073608447 -134217923</internalNodes>
      <leafValues>
        -4.0079545974731445e-01 6.8457609415054321e-01</leafValues></_>
    <_>
      <internalNodes>
        0 -1 5644 -2138016745 270356929 286294161 1895907906 -2144173928
        -2146430968 -2120993120 -1610399215</internalNodes>
      <leafValues>
        -4.8192882537841797e-01 5.4931765794754028e-01</leafValues></_>
    <_>
      <internalNodes>
        0 -1 8181 292266544 106564 8486934 151160833 -1994700796
        -1325362493 -2130056660 231305229</internalNodes>
      <leafValues>
        -6.8574327230453491e-01 4.0521442890167236e-01</leafValues></_></weakClassifiers></stage41>
</opencv_storage>
