<?xml version="1.0"?>
<opencv_storage>
<stage14>
  <maxWeakCount>5</maxWeakCount>
  <stageThreshold>-3.7349301576614380e-01</stageThreshold>
  <weakClassifiers>
    <_>
      <internalNodes>
        0 -1 5509 1862200495 788475642 -36869 788430766 805252693
        2147188719 1727952503 -352420363</internalNodes>
      <leafValues>
        -2.8571429848670959e-01 6.8674701452255249e-01</leafValues></_>
    <_>
      <internalNodes>
        0 -1 3144 -1599187376 -613486880 648982017 -222888575
        -2039001391 2105245567 2122127335 -557129</internalNodes>
      <leafValues>
        -5.0448995828628540e-01 5.4743045568466187e-01</leafValues></_>
    <_>
      <internalNodes>
        0 -1 8141 -950602814 -1996390191 92422672 1376129090 1346484400
        671383553 -2104813436 -1073495402</internalNodes>
      <leafValues>
        -5.8229655027389526e-01 5.3314906358718872e-01</leafValues></_>
    <_>
      <internalNodes>
        0 -1 7145 1454886995 410996604 1845476799 312440319 1971290321
        1862244209 1702362365 -553648769</internalNodes>
      <leafValues>
        -4.5142257213592529e-01 6.9121849536895752e-01</leafValues></_>
    <_>
      <internalNodes>
        0 -1 1235 -771370530 -242106046 1376404 -1064435686 1744994318
        58736648 272775554 1238089801</internalNodes>
      <leafValues>
        -5.7395130395889282e-01 5.2114909887313843e-01</leafValues></_></weakClassifiers></stage14>
</opencv_storage>
