<?xml version="1.0"?>
<opencv_storage>
<stage21>
  <maxWeakCount>7</maxWeakCount>
  <stageThreshold>-6.2797391414642334e-01</stageThreshold>
  <weakClassifiers>
    <_>
      <internalNodes>
        0 -1 4102 -569390544 1059258291 -1363193977 263978865 1319046902
        536837751 536768255 510935031</internalNodes>
      <leafValues>
        -3.3779263496398926e-01 6.3725489377975464e-01</leafValues></_>
    <_>
      <internalNodes>
        0 -1 8337 -267057405 12582915 33570834 4346362 -1870659564
        1092255746 -930414415 -936673245</internalNodes>
      <leafValues>
        -5.1275581121444702e-01 4.9132272601127625e-01</leafValues></_>
    <_>
      <internalNodes>
        0 -1 7634 -2130675869 -2126364528 -1878977259 1210060930
        320962750 -2012510198 -905442631 1268299848</internalNodes>
      <leafValues>
        -5.4673367738723755e-01 4.7598466277122498e-01</leafValues></_>
    <_>
      <internalNodes>
        0 -1 7600 -1853341680 907116548 1073827861 -1815518676
        -2097020527 -2147397504 -2097149552 -896574326</internalNodes>
      <leafValues>
        -5.7766836881637573e-01 5.1464605331420898e-01</leafValues></_>
    <_>
      <internalNodes>
        0 -1 4319 -289514259 -1174422161 -16842761 1299545853
        -1409286148 -536904326 -1526834083 -754477316</internalNodes>
      <leafValues>
        -4.5189595222473145e-01 6.3214313983917236e-01</leafValues></_>
    <_>
      <internalNodes>
        0 -1 4792 168317956 -585345024 537395335 -653457912 1207961608
        -2013265917 -1199527410 -1173452470</internalNodes>
      <leafValues>
        -6.2929856777191162e-01 4.6809536218643188e-01</leafValues></_>
    <_>
      <internalNodes>
        0 -1 947 -2137914586 1459789960 342 -184090624 8458782 557096
        213339 -674659483</internalNodes>
      <leafValues>
        -6.6698867082595825e-01 4.3573915958404541e-01</leafValues></_></weakClassifiers></stage21>
</opencv_storage>
