<?xml version="1.0"?>
<opencv_storage>
<stage30>
  <maxWeakCount>7</maxWeakCount>
  <stageThreshold>-5.5159676074981689e-01</stageThreshold>
  <weakClassifiers>
    <_>
      <internalNodes>
        0 -1 5932 775046709 787381967 -335548673 549388215 2113896307
        -524289 1056866165 -1430880395</internalNodes>
      <leafValues>
        -4.7222220897674561e-01 5.6258994340896606e-01</leafValues></_>
    <_>
      <internalNodes>
        0 -1 4847 -768350170 1442295661 -411574914 1105718787
        -1443536389 -1225298129 1777770494 -1724479641</internalNodes>
      <leafValues>
        -3.9508733153343201e-01 6.1749583482742310e-01</leafValues></_>
    <_>
      <internalNodes>
        0 -1 5224 -2128473832 352321537 762 218398981 1966622 168104072
        -2062942183 -754800471</internalNodes>
      <leafValues>
        -5.4164850711822510e-01 4.5376032590866089e-01</leafValues></_>
    <_>
      <internalNodes>
        0 -1 1216 -489602557 -602849231 -1068432317 -728653560 337916680
        -1986975583 2030110723 -938700799</internalNodes>
      <leafValues>
        -5.5442231893539429e-01 4.8100355267524719e-01</leafValues></_>
    <_>
      <internalNodes>
        0 -1 7725 -813715766 846168063 -1140851046 724286200 134196956
        1919909877 -897600003 -436342877</internalNodes>
      <leafValues>
        -5.2503573894500732e-01 5.7529872655868530e-01</leafValues></_>
    <_>
      <internalNodes>
        0 -1 7644 -1324858872 354420811 203 -82755302 2039513160
        -1467965440 -787955249 411560147</internalNodes>
      <leafValues>
        -5.2002954483032227e-01 5.4430145025253296e-01</leafValues></_>
    <_>
      <internalNodes>
        0 -1 2246 1514586498 947920896 138449157 -1778187126 549980720
        -243005440 -2113928829 -1291417462</internalNodes>
      <leafValues>
        -6.3770306110382080e-01 4.6773368120193481e-01</leafValues></_></weakClassifiers></stage30>
</opencv_storage>
