<?xml version="1.0"?>
<opencv_storage>
<stage23>
  <maxWeakCount>6</maxWeakCount>
  <stageThreshold>-1.4372786879539490e-01</stageThreshold>
  <weakClassifiers>
    <_>
      <internalNodes>
        0 -1 2324 -1095811286 902738094 2013002610 -134551488 1593825239
        -2022249219 -134973545 1987082103</internalNodes>
      <leafValues>
        -3.4035086631774902e-01 6.1661344766616821e-01</leafValues></_>
    <_>
      <internalNodes>
        0 -1 506 -96378754 555221137 33567755 538218771 1084833896
        2013446145 1217069205 1577626430</internalNodes>
      <leafValues>
        -6.2732863426208496e-01 4.2870855331420898e-01</leafValues></_>
    <_>
      <internalNodes>
        0 -1 5694 -2046406571 1002651653 1082462471 2030060035
        -1878974331 -2130509816 -1047919574 -551419571</internalNodes>
      <leafValues>
        -4.8038277029991150e-01 5.3086471557617188e-01</leafValues></_>
    <_>
      <internalNodes>
        0 -1 7680 10158117 50876424 -1070464767 1111524107 1342276012
        -1602191360 -1610063656 -1568620401</internalNodes>
      <leafValues>
        -5.8328253030776978e-01 4.4369548559188843e-01</leafValues></_>
    <_>
      <internalNodes>
        0 -1 7945 -332731206 842129400 2147311605 987813684 1601951220
        1060044791 1601394168 -416199173</internalNodes>
      <leafValues>
        -4.6753570437431335e-01 5.7939165830612183e-01</leafValues></_>
    <_>
      <internalNodes>
        0 -1 728 1447122843 1476919424 1426133249 355602433 1220755629
        570949760 -368180160 1919206179</internalNodes>
      <leafValues>
        -6.4003711938858032e-01 4.4407615065574646e-01</leafValues></_></weakClassifiers></stage23>
</opencv_storage>
