<?xml version="1.0"?>
<opencv_storage>
<stage27>
  <maxWeakCount>6</maxWeakCount>
  <stageThreshold>-1.0423939228057861e+00</stageThreshold>
  <weakClassifiers>
    <_>
      <internalNodes>
        0 -1 6735 1065082652 6684016 -33556652 1304419423 -1610625200
        -182452353 -33596139 358381789</internalNodes>
      <leafValues>
        -4.2857143282890320e-01 5.7058823108673096e-01</leafValues></_>
    <_>
      <internalNodes>
        0 -1 7124 -525249326 612191607 1879048191 931069631 1677702838
        1879009087 821878575 1662775771</internalNodes>
      <leafValues>
        -4.3169805407524109e-01 5.1280641555786133e-01</leafValues></_>
    <_>
      <internalNodes>
        0 -1 4654 1645494278 638418953 -771227640 33866261 1098926336
        1073791360 1360039946 -516698102</internalNodes>
      <leafValues>
        -5.6391489505767822e-01 4.3493515253067017e-01</leafValues></_>
    <_>
      <internalNodes>
        0 -1 5438 1644287040 -787409647 822214690 890274049 1887542938
        438304768 -2012661479 1119998667</internalNodes>
      <leafValues>
        -5.5121451616287231e-01 4.3797740340232849e-01</leafValues></_>
    <_>
      <internalNodes>
        0 -1 7680 -402644418 68617603 273223839 1216456075 -494895005
        -1463812095 -1064549734 -377307061</internalNodes>
      <leafValues>
        -4.9260282516479492e-01 5.4710984230041504e-01</leafValues></_>
    <_>
      <internalNodes>
        0 -1 2661 35668893 -775679983 524289 -74925303 -2139076604
        -786202616 1778503810 837329420</internalNodes>
      <leafValues>
        -6.3567084074020386e-01 4.2644813656806946e-01</leafValues></_></weakClassifiers></stage27>
</opencv_storage>
