<?xml version="1.0"?>
<opencv_storage>
<stage29>
  <maxWeakCount>6</maxWeakCount>
  <stageThreshold>-1.9473154842853546e-01</stageThreshold>
  <weakClassifiers>
    <_>
      <internalNodes>
        0 -1 7748 520085280 457143282 -1073758312 700448242 502423004
        2143289268 1610567480 -578814860</internalNodes>
      <leafValues>
        -2.7741935849189758e-01 6.2396007776260376e-01</leafValues></_>
    <_>
      <internalNodes>
        0 -1 8321 1120339210 67142797 -2146922496 -2147303160
        -1073657552 1367605384 -1316292384 -536244213</internalNodes>
      <leafValues>
        -6.0358321666717529e-01 3.9906570315361023e-01</leafValues></_>
    <_>
      <internalNodes>
        0 -1 2102 494973175 -2058280752 1140856086 889520640 595632156
        1770078209 -352278520 145826689</internalNodes>
      <leafValues>
        -5.3845125436782837e-01 4.5567935705184937e-01</leafValues></_>
    <_>
      <internalNodes>
        0 -1 5608 1364395682 1934640132 1610621189 -1983315839
        -1862253881 -2138961884 -2143254013 -1592557477</internalNodes>
      <leafValues>
        -5.7462430000305176e-01 4.3135750293731689e-01</leafValues></_>
    <_>
      <internalNodes>
        0 -1 3228 -1960419372 -1078398984 -1157646593 -393371
        -1917355780 -33554561 2080276197 -1954979845</internalNodes>
      <leafValues>
        -4.6269482374191284e-01 5.6774342060089111e-01</leafValues></_>
    <_>
      <internalNodes>
        0 -1 1208 1993463139 286736392 1385169418 -1979543295 705200203
        1396736000 1208554120 1649525891</internalNodes>
      <leafValues>
        -6.3611757755279541e-01 4.4720885157585144e-01</leafValues></_></weakClassifiers></stage29>
</opencv_storage>
