<?xml version="1.0"?>
<opencv_storage>
<stage38>
  <maxWeakCount>5</maxWeakCount>
  <stageThreshold>-1.7434467375278473e-01</stageThreshold>
  <weakClassifiers>
    <_>
      <internalNodes>
        0 -1 5712 193465456 531392504 2132869118 201031664 1073503982
        -536936577 -8470561 1070907263</internalNodes>
      <leafValues>
        -3.3090910315513611e-01 5.9748429059982300e-01</leafValues></_>
    <_>
      <internalNodes>
        0 -1 8407 50955306 -2034237310 302022728 4194695 1375768834
        -1610545024 -939417408 -1581008726</internalNodes>
      <leafValues>
        -4.9749276041984558e-01 4.5445093512535095e-01</leafValues></_>
    <_>
      <internalNodes>
        0 -1 2737 -202506279 -1847139342 -1224773901 -353406862
        -276830768 -377552902 16613118 -1124239365</internalNodes>
      <leafValues>
        -3.5609781742095947e-01 7.2989356517791748e-01</leafValues></_>
    <_>
      <internalNodes>
        0 -1 2823 1481198082 -971931517 84246540 1304971273 -2105503399
        -2146885632 1082458637 -792292732</internalNodes>
      <leafValues>
        -5.6496578454971313e-01 4.7193631529808044e-01</leafValues></_>
    <_>
      <internalNodes>
        0 -1 4712 -1280870671 -1153761948 -17670605 -1082163203
        -1997371157 -1900060713 -1883326489 -609224929</internalNodes>
      <leafValues>
        -3.0521628260612488e-01 8.7870913743972778e-01</leafValues></_></weakClassifiers></stage38>
</opencv_storage>
