<?xml version="1.0"?>
<opencv_storage>
<stage22>
  <maxWeakCount>7</maxWeakCount>
  <stageThreshold>-4.2303425073623657e-01</stageThreshold>
  <weakClassifiers>
    <_>
      <internalNodes>
        0 -1 4348 -987573672 1835982688 2147286975 -1646133392
        1694452821 1199374334 -537002274 1590165341</internalNodes>
      <leafValues>
        -2.7710843086242676e-01 6.5803110599517822e-01</leafValues></_>
    <_>
      <internalNodes>
        0 -1 505 -803865886 1074840320 21518 -1207957488 1879318820
        544901128 -804847477 1485416906</internalNodes>
      <leafValues>
        -5.5740827322006226e-01 4.7879150509834290e-01</leafValues></_>
    <_>
      <internalNodes>
        0 -1 8004 -1728426988 -553648715 -16810020 -1189249025
        -1094943233 -1073758225 -1082335489 -1548722305</internalNodes>
      <leafValues>
        -4.8860338330268860e-01 5.2026736736297607e-01</leafValues></_>
    <_>
      <internalNodes>
        0 -1 6801 1585445943 703201274 -134283393 -852301 -1124151894
        1878261247 74954224 -1006993473</internalNodes>
      <leafValues>
        -3.6771264672279358e-01 6.8101358413696289e-01</leafValues></_>
    <_>
      <internalNodes>
        0 -1 4073 -165949774 419438641 -1046933312 1615953934 1346716299
        -2145288064 -1061158710 1309512131</internalNodes>
      <leafValues>
        -5.1931560039520264e-01 5.5063599348068237e-01</leafValues></_>
    <_>
      <internalNodes>
        0 -1 5937 1116962887 482427143 -989835112 738738317 33637021
        1879048320 33708032 -298871920</internalNodes>
      <leafValues>
        -6.5491521358489990e-01 4.5556670427322388e-01</leafValues></_>
    <_>
      <internalNodes>
        0 -1 792 -1408526124 -783151104 243351629 -716823279 16814486
        -2139086717 193218565 726335541</internalNodes>
      <leafValues>
        -5.7193255424499512e-01 5.0305873155593872e-01</leafValues></_></weakClassifiers></stage22>
</opencv_storage>
