<?xml version="1.0"?>
<opencv_storage>
<stage9>
  <maxWeakCount>5</maxWeakCount>
  <stageThreshold>-2.3083026707172394e-01</stageThreshold>
  <weakClassifiers>
    <_>
      <internalNodes>
        0 -1 2601 242936948 -830538138 -503136012 -756092933 -143139468
        -153157897 1614774197 -463470597</internalNodes>
      <leafValues>
        -4.4827586412429810e-01 6.6344827413558960e-01</leafValues></_>
    <_>
      <internalNodes>
        0 -1 6703 -553682149 259357697 -1124123195 1163516827 -655462
        -851480741 1425524213 -537264641</internalNodes>
      <leafValues>
        -3.5876694321632385e-01 7.4552398920059204e-01</leafValues></_>
    <_>
      <internalNodes>
        0 -1 473 -879843636 277381131 16392 -1005567917 151207953
        673185856 1359020680 -82845517</internalNodes>
      <leafValues>
        -6.0430544614791870e-01 5.2140927314758301e-01</leafValues></_>
    <_>
      <internalNodes>
        0 -1 2246 -788898198 -256594006 771218159 1434386415 -722149398
        1424293879 1912044983 -470286337</internalNodes>
      <leafValues>
        -5.1329880952835083e-01 5.8546060323715210e-01</leafValues></_>
    <_>
      <internalNodes>
        0 -1 3116 -407964425 1069424171 775864058 1593834558 1069472860
        268408702 536759774 1799257087</internalNodes>
      <leafValues>
        -5.1666676998138428e-01 6.3059777021408081e-01</leafValues></_></weakClassifiers></stage9>
</opencv_storage>
