<?xml version="1.0"?>
<opencv_storage>
<stage1>
  <maxWeakCount>4</maxWeakCount>
  <stageThreshold>3.6192778497934341e-02</stageThreshold>
  <weakClassifiers>
    <_>
      <internalNodes>
        0 -1 4429 -1006452672 1373949926 1400828561 930577877
        -2064177012 2013253597 2012431855 -789054513</internalNodes>
      <leafValues>
        -3.5149863362312317e-01 7.9644590616226196e-01</leafValues></_>
    <_>
      <internalNodes>
        0 -1 6731 -796868400 1363951632 536936460 -652132096 -2146907768
        -1073413888 32777 180322465</internalNodes>
      <leafValues>
        -5.4115468263626099e-01 6.9402551651000977e-01</leafValues></_>
    <_>
      <internalNodes>
        0 -1 2053 110117002 1493237773 82 1360330883 134250624 134218889
        1677918607 187370411</internalNodes>
      <leafValues>
        -7.5857871770858765e-01 5.1701986789703369e-01</leafValues></_>
    <_>
      <internalNodes>
        0 -1 7633 -1697500683 -816768943 -1878916983 913326123
        -1442610424 -2010086528 -1582715232 766010272</internalNodes>
      <leafValues>
        -6.9325101375579834e-01 5.3948032855987549e-01</leafValues></_></weakClassifiers></stage1>
</opencv_storage>
