<?xml version="1.0"?>
<opencv_storage>
<stage26>
  <maxWeakCount>7</maxWeakCount>
  <stageThreshold>-4.9402320384979248e-01</stageThreshold>
  <weakClassifiers>
    <_>
      <internalNodes>
        0 -1 8414 796857890 195719038 -18247264 686734820 536817456
        -33636354 -1719732876 1845157757</internalNodes>
      <leafValues>
        -4.3231439590454102e-01 5.6891494989395142e-01</leafValues></_>
    <_>
      <internalNodes>
        0 -1 5787 1728302276 55282187 -1879015401 276922458 1610760896
        -1602189168 1880131639 -1191065053</internalNodes>
      <leafValues>
        -4.3615630269050598e-01 5.3896480798721313e-01</leafValues></_>
    <_>
      <internalNodes>
        0 -1 475 -922692818 1896874250 270413 -1958739712 1107607699
        -1051820030 1628479489 -664633309</internalNodes>
      <leafValues>
        -5.1405602693557739e-01 4.9817457795143127e-01</leafValues></_>
    <_>
      <internalNodes>
        0 -1 7314 -1650284275 1151599003 1048651 1494163474 -1058469878
        1216479488 -2139012863 1166794773</internalNodes>
      <leafValues>
        -5.8196586370468140e-01 4.6744522452354431e-01</leafValues></_>
    <_>
      <internalNodes>
        0 -1 1715 -1912607902 1349418666 -67192093 1166012338
        -2049048867 1154383485 1467969784 -761563781</internalNodes>
      <leafValues>
        -4.8856920003890991e-01 5.2699053287506104e-01</leafValues></_>
    <_>
      <internalNodes>
        0 -1 4595 -755642417 469593982 -589898 310345599 385847295
        2147418111 1977579359 -621609513</internalNodes>
      <leafValues>
        -4.1842100024223328e-01 6.5870386362075806e-01</leafValues></_>
    <_>
      <internalNodes>
        0 -1 3678 -1316863326 1236879745 1376337931 594435 8751134
        -1006632952 1073889539 -217464637</internalNodes>
      <leafValues>
        -6.4830201864242554e-01 4.2807871103286743e-01</leafValues></_></weakClassifiers></stage26>
</opencv_storage>
