<?xml version="1.0"?>
<opencv_storage>
<stage15>
  <maxWeakCount>5</maxWeakCount>
  <stageThreshold>-2.8715869784355164e-01</stageThreshold>
  <weakClassifiers>
    <_>
      <internalNodes>
        0 -1 83129 176184336 1002208764 -268468993 738131197 788311516
        -536903685 1995735038 1035067380</internalNodes>
      <leafValues>
        -4.8979592323303223e-01 6.7192429304122925e-01</leafValues></_>
    <_>
      <internalNodes>
        0 -1 127826 -13 -432341209 2130706320 578551779 -33559646
        218103639 1971289875 -231866417</internalNodes>
      <leafValues>
        -4.2765715718269348e-01 6.8845951557159424e-01</leafValues></_>
    <_>
      <internalNodes>
        0 -1 39515 537330570 -670558655 806109777 1955399763 1224747256
        -1853849599 8947934 1605437579</internalNodes>
      <leafValues>
        -6.0797172784805298e-01 5.5306190252304077e-01</leafValues></_>
    <_>
      <internalNodes>
        0 -1 1719 -293605845 -788779457 -289528835 2138581822 1148181933
        1180696447 402120126 -537143449</internalNodes>
      <leafValues>
        -4.6611398458480835e-01 7.9693627357482910e-01</leafValues></_>
    <_>
      <internalNodes>
        0 -1 71031 -268996619 -1207959553 -33554433 2146484215 -131203
        -536870913 -1350631431 2071772624</internalNodes>
      <leafValues>
        -5.7345676422119141e-01 6.2280517816543579e-01</leafValues></_></weakClassifiers></stage15>
</opencv_storage>
