<?xml version="1.0"?>
<opencv_storage>
<stage10>
  <maxWeakCount>4</maxWeakCount>
  <stageThreshold>8.7403260171413422e-02</stageThreshold>
  <weakClassifiers>
    <_>
      <internalNodes>
        0 -1 105704 784281205 721190527 -4513 68190207 2113892181
        2147483647 2147434357 -1359184012</internalNodes>
      <leafValues>
        -6.1748635768890381e-01 6.8469858169555664e-01</leafValues></_>
    <_>
      <internalNodes>
        0 -1 109808 -1363661519 -1208061954 -16814218 469532158
        -1073840131 2097151991 -1141375233 -1392517633</internalNodes>
      <leafValues>
        -4.7805204987525940e-01 7.8480654954910278e-01</leafValues></_>
    <_>
      <internalNodes>
        0 -1 117626 -1251865611 -1339949055 1082359875 -787464192
        -937260823 -2012577792 -1476374390 1033947729</internalNodes>
      <leafValues>
        -6.8759721517562866e-01 5.9237372875213623e-01</leafValues></_>
    <_>
      <internalNodes>
        0 -1 89276 -1656154273 452985667 17842185 65797 939805186
        -2004123520 1082264576 -1147486207</internalNodes>
      <leafValues>
        -6.4514315128326416e-01 6.0768020153045654e-01</leafValues></_></weakClassifiers></stage10>
</opencv_storage>
