<?xml version="1.0"?>
<opencv_storage>
<stage5>
  <maxWeakCount>5</maxWeakCount>
  <stageThreshold>-3.8385936617851257e-01</stageThreshold>
  <weakClassifiers>
    <_>
      <internalNodes>
        0 -1 89356 -1476964489 788135933 -98305 683597815 1610569589 -1
        -1153164 -16851099</internalNodes>
      <leafValues>
        -4.2424243688583374e-01 7.8091871738433838e-01</leafValues></_>
    <_>
      <internalNodes>
        0 -1 91030 -1405584335 -277676038 -1073741825 -360452
        -1073848452 -1073741825 536801277 -1427055236</internalNodes>
      <leafValues>
        -5.3167551755905151e-01 7.0433586835861206e-01</leafValues></_>
    <_>
      <internalNodes>
        0 -1 61651 -84665712 1903263681 1023320625 -319816981 -536950861
        -1619001345 -419441101 -134777113</internalNodes>
      <leafValues>
        -5.9002429246902466e-01 7.4365979433059692e-01</leafValues></_>
    <_>
      <internalNodes>
        0 -1 41001 -756397420 523368367 -836236771 1061149823 -813707458
        528437247 1590661111 2147448575</internalNodes>
      <leafValues>
        -6.0648274421691895e-01 6.7112964391708374e-01</leafValues></_>
    <_>
      <internalNodes>
        0 -1 140778 -1587273631 -520027647 806166858 -1832746992
        1501893143 419435202 -693993471 -360021661</internalNodes>
      <leafValues>
        -7.1420794725418091e-01 6.0450005531311035e-01</leafValues></_></weakClassifiers></stage5>
</opencv_storage>
