<?xml version="1.0"?>
<opencv_storage>
<stage23>
  <maxWeakCount>5</maxWeakCount>
  <stageThreshold>-4.8022466897964478e-01</stageThreshold>
  <weakClassifiers>
    <_>
      <internalNodes>
        0 -1 2990 -1945714688 16793728 16926 1610744073 1073823747
        539049985 593494169 1644374473</internalNodes>
      <leafValues>
        -6.7164176702499390e-01 6.0344827175140381e-01</leafValues></_>
    <_>
      <internalNodes>
        0 -1 60010 -1004482092 1568735376 82112 251707521 134283267
        134217857 134218411 329236611</internalNodes>
      <leafValues>
        -6.1225843429565430e-01 5.3690856695175171e-01</leafValues></_>
    <_>
      <internalNodes>
        0 -1 83516 -365958906 368525095 -680010145 -453513370 1928360731
        -1207996569 561290109 -67926201</internalNodes>
      <leafValues>
        -4.7599795460700989e-01 7.0783686637878418e-01</leafValues></_>
    <_>
      <internalNodes>
        0 -1 67300 -1363682255 -140363920 -98313 -67109124 1031733206
        -1879048195 -1090717825 -1365764843</internalNodes>
      <leafValues>
        -4.9515163898468018e-01 6.8657183647155762e-01</leafValues></_>
    <_>
      <internalNodes>
        0 -1 53380 -1274949155 408354821 -2130706411 -247398256 12617890
        1216348163 174312 240910480</internalNodes>
      <leafValues>
        -5.8752906322479248e-01 6.2565815448760986e-01</leafValues></_></weakClassifiers></stage23>
</opencv_storage>
