<?xml version="1.0"?>
<opencv_storage>
<stage14>
  <maxWeakCount>5</maxWeakCount>
  <stageThreshold>-2.6680985093116760e-01</stageThreshold>
  <weakClassifiers>
    <_>
      <internalNodes>
        0 -1 22475 1605042128 -805900306 -17113608 -1359286726 -10551436
        -537002113 -579019276 -455477249</internalNodes>
      <leafValues>
        -4.6268656849861145e-01 6.7249602079391479e-01</leafValues></_>
    <_>
      <internalNodes>
        0 -1 49554 -693974870 1581102758 -1476591627 -1254785025
        -991068162 -2818049 1886482426 -110364682</internalNodes>
      <leafValues>
        -3.8246637582778931e-01 7.5123381614685059e-01</leafValues></_>
    <_>
      <internalNodes>
        0 -1 69007 -1890099193 -2011824125 131153 -1995423744 589953
        -1567621112 -1941928896 -41877503</internalNodes>
      <leafValues>
        -5.5253922939300537e-01 6.1929076910018921e-01</leafValues></_>
    <_>
      <internalNodes>
        0 -1 66918 -1358954633 1069400038 -67180587 1004535802
        -1610744082 -343932953 1876907444 1282567184</internalNodes>
      <leafValues>
        -5.0701659917831421e-01 6.8149840831756592e-01</leafValues></_>
    <_>
      <internalNodes>
        0 -1 6412 1342354306 1893269632 33027 352334017 1476919296
        -1199538160 197148682 -670842877</internalNodes>
      <leafValues>
        -6.3098382949829102e-01 6.0466432571411133e-01</leafValues></_></weakClassifiers></stage14>
</opencv_storage>
