<?xml version="1.0"?>
<opencv_storage>
<stage7>
  <maxWeakCount>4</maxWeakCount>
  <stageThreshold>7.5395606458187103e-02</stageThreshold>
  <weakClassifiers>
    <_>
      <internalNodes>
        0 -1 28374 469778442 1060236863 1593810687 524262911 -12620649
        -8486921 1568606079 2088140479</internalNodes>
      <leafValues>
        -6.1325967311859131e-01 6.7950695753097534e-01</leafValues></_>
    <_>
      <internalNodes>
        0 -1 92695 -1400480997 -2000601080 1344290901 541999251
        -2146875327 -1342111711 -2070773215 -324122623</internalNodes>
      <leafValues>
        -6.1218988895416260e-01 6.0688722133636475e-01</leafValues></_>
    <_>
      <internalNodes>
        0 -1 29576 -2104307150 -1828650734 -2147479535 -778989303
        -2147477303 1409286280 537020555 -14319441</internalNodes>
      <leafValues>
        -6.0761171579360962e-01 6.9575160741806030e-01</leafValues></_>
    <_>
      <internalNodes>
        0 -1 97933 -1393533123 -1350664204 -1090535425 -1107722307
        -1094713859 -1073741825 1073626614 -324773899</internalNodes>
      <leafValues>
        -6.0035222768783569e-01 6.8937975168228149e-01</leafValues></_></weakClassifiers></stage7>
</opencv_storage>
