<?xml version="1.0"?>
<opencv_storage>
<stage11>
  <maxWeakCount>5</maxWeakCount>
  <stageThreshold>-3.3730646967887878e-01</stageThreshold>
  <weakClassifiers>
    <_>
      <internalNodes>
        0 -1 98988 -459211 -1090740225 17817599 805076991 -1073807492
        -1073741833 -1073840129 -1909957004</internalNodes>
      <leafValues>
        -3.3858266472816467e-01 7.2222220897674561e-01</leafValues></_>
    <_>
      <internalNodes>
        0 -1 74803 -1069430574 1347518467 98513 -1543503357 67223680
        -2105016320 25403826 -699759957</internalNodes>
      <leafValues>
        -4.8601078987121582e-01 6.3736146688461304e-01</leafValues></_>
    <_>
      <internalNodes>
        0 -1 7411 1110953626 2142207539 1056790129 -1222396192 131553111
        1207859198 2146793257 -814221785</internalNodes>
      <leafValues>
        -5.0062555074691772e-01 6.7275685071945190e-01</leafValues></_>
    <_>
      <internalNodes>
        0 -1 132348 1488954942 40300390 -352637216 2075328438
        -1893259318 2004352871 -151355421 -1888034818</internalNodes>
      <leafValues>
        -5.2288335561752319e-01 6.5290379524230957e-01</leafValues></_>
    <_>
      <internalNodes>
        0 -1 4613 -1048326097 -792510464 8458513 1078263825 8962090
        -2113929088 84740225 1770098955</internalNodes>
      <leafValues>
        -6.7338126897811890e-01 5.7135069370269775e-01</leafValues></_></weakClassifiers></stage11>
</opencv_storage>
