<?xml version="1.0"?>
<opencv_storage>
<stage24>
  <maxWeakCount>5</maxWeakCount>
  <stageThreshold>-3.3146798610687256e-01</stageThreshold>
  <weakClassifiers>
    <_>
      <internalNodes>
        0 -1 57792 -33558663 -269549569 -16842780 -558694402 1434439509
        1333264383 2113369425 -713687101</internalNodes>
      <leafValues>
        -3.3064517378807068e-01 7.0790380239486694e-01</leafValues></_>
    <_>
      <internalNodes>
        0 -1 128434 2079280143 1929318382 1879031734 186498869 -8441940
        2063597567 175874623 540925178</internalNodes>
      <leafValues>
        -5.0513559579849243e-01 6.3183861970901489e-01</leafValues></_>
    <_>
      <internalNodes>
        0 -1 116731 -1348515809 792480051 517742540 1606204745
        -1627431589 -537206924 2104880625 -121709127</internalNodes>
      <leafValues>
        -5.1449143886566162e-01 6.7864632606506348e-01</leafValues></_>
    <_>
      <internalNodes>
        0 -1 73548 -2088660244 571015427 -1073672179 546443265 419957000
        268435464 545261577 -28063549</internalNodes>
      <leafValues>
        -6.5086477994918823e-01 5.3434520959854126e-01</leafValues></_>
    <_>
      <internalNodes>
        0 -1 115937 -377755945 998242013 1769700790 1107291883
        2130543762 662519677 -411058949 -1518473353</internalNodes>
      <leafValues>
        -5.0585412979125977e-01 7.3764032125473022e-01</leafValues></_></weakClassifiers></stage24>
</opencv_storage>
