<?xml version="1.0"?>
<opencv_storage>
<stage3>
  <maxWeakCount>5</maxWeakCount>
  <stageThreshold>-3.5797068476676941e-01</stageThreshold>
  <weakClassifiers>
    <_>
      <internalNodes>
        0 -1 55188 171837020 524195827 -1620571939 501689599 1551855103
        1048575999 536545019 516900607</internalNodes>
      <leafValues>
        -5.5555558204650879e-01 7.3289901018142700e-01</leafValues></_>
    <_>
      <internalNodes>
        0 -1 58935 537969154 1343258625 -1879047919 1428226048
        -2139094902 -125730688 293609611 -475280953</internalNodes>
      <leafValues>
        -6.4288669824600220e-01 6.5980672836303711e-01</leafValues></_>
    <_>
      <internalNodes>
        0 -1 109736 -1343258627 1073545204 2147483643 -1073807363
        1593130486 -3 2130468861 -1081043503</internalNodes>
      <leafValues>
        -5.2268487215042114e-01 7.8353148698806763e-01</leafValues></_>
    <_>
      <internalNodes>
        0 -1 110114 -1632354467 2134048759 -1078001665 1073729533
        -1073949195 -1 -82052 -1410048139</internalNodes>
      <leafValues>
        -6.1369699239730835e-01 6.7901080846786499e-01</leafValues></_>
    <_>
      <internalNodes>
        0 -1 32235 335594206 -1858007040 17411 248102913 8344 285343936
        2097547 -1996271478</internalNodes>
      <leafValues>
        -6.1127787828445435e-01 6.8839883804321289e-01</leafValues></_></weakClassifiers></stage3>
</opencv_storage>
