<?xml version="1.0"?>
<opencv_storage>
<stage26>
  <maxWeakCount>6</maxWeakCount>
  <stageThreshold>-5.4931819438934326e-01</stageThreshold>
  <weakClassifiers>
    <_>
      <internalNodes>
        0 -1 112489 816343120 2075197216 -268599297 1068548028 -8520452
        -32771 -151221605 -1040416837</internalNodes>
      <leafValues>
        -1.6129031777381897e-01 7.8732109069824219e-01</leafValues></_>
    <_>
      <internalNodes>
        0 -1 28249 719622192 2146418558 2147254265 -1107493002
        -1350699835 -704643074 1878878207 694025717</internalNodes>
      <leafValues>
        -4.0508052706718445e-01 6.5137976408004761e-01</leafValues></_>
    <_>
      <internalNodes>
        0 -1 110070 -121814185 -835797326 -114947 1066723126 -687866676
        -553779363 -1166347537 141588340</internalNodes>
      <leafValues>
        -4.6361830830574036e-01 6.1628162860870361e-01</leafValues></_>
    <_>
      <internalNodes>
        0 -1 86258 -365371180 -684643787 780037689 1338916609
        -1904302358 -1091666436 1044527275 255833835</internalNodes>
      <leafValues>
        -4.3854585289955139e-01 7.0526587963104248e-01</leafValues></_>
    <_>
      <internalNodes>
        0 -1 98599 1325378630 -1087082633 -10755 1677066100 2105014200
        494337877 -1074340965 -42733697</internalNodes>
      <leafValues>
        -5.2371025085449219e-01 6.6386133432388306e-01</leafValues></_>
    <_>
      <internalNodes>
        0 -1 137987 268538273 -1019211487 16800 85000258 -2147385284
        285278337 33572880 1573429376</internalNodes>
      <leafValues>
        -7.1558183431625366e-01 4.9431568384170532e-01</leafValues></_></weakClassifiers></stage26>
</opencv_storage>
