<?xml version="1.0"?>
<opencv_storage>
<stage28>
  <maxWeakCount>5</maxWeakCount>
  <stageThreshold>-4.8585113883018494e-01</stageThreshold>
  <weakClassifiers>
    <_>
      <internalNodes>
        0 -1 33436 1064738773 2147254269 -65 1055719414 2147449983
        -813826049 2147440431 758181716</internalNodes>
      <leafValues>
        -3.5111111402511597e-01 6.7603307962417603e-01</leafValues></_>
    <_>
      <internalNodes>
        0 -1 73547 269540235 286326797 1879085326 8994825 268501163
        1628475393 1350565969 -368394237</internalNodes>
      <leafValues>
        -4.7524401545524597e-01 5.9804755449295044e-01</leafValues></_>
    <_>
      <internalNodes>
        0 -1 100198 -922517464 1296769552 1619003429 1459683712
        -1576531421 1242038400 -502740189 -911637844</internalNodes>
      <leafValues>
        -5.8584219217300415e-01 5.3610634803771973e-01</leafValues></_>
    <_>
      <internalNodes>
        0 -1 120117 306381660 268779584 -1811152865 269566081 100488
        -771719167 536903770 149932227</internalNodes>
      <leafValues>
        -6.1098188161849976e-01 5.0519126653671265e-01</leafValues></_>
    <_>
      <internalNodes>
        0 -1 19366 -1852675554 353914121 -1526710264 67834752 1476559038
        268455945 -2146696029 822773896</internalNodes>
      <leafValues>
        -6.1176466941833496e-01 5.5806857347488403e-01</leafValues></_></weakClassifiers></stage28>
</opencv_storage>
