<?xml version="1.0"?>
<opencv_storage>
<stage17>
  <maxWeakCount>6</maxWeakCount>
  <stageThreshold>-8.1491507589817047e-02</stageThreshold>
  <weakClassifiers>
    <_>
      <internalNodes>
        0 -1 99293 -285299530 784334718 -16842753 787939198 2146270551
        2105409535 1728017524 -956498332</internalNodes>
      <leafValues>
        -4.9238577485084534e-01 6.7456555366516113e-01</leafValues></_>
    <_>
      <internalNodes>
        0 -1 68259 -2011763408 -1572190127 33636433 -2129641214
        -1035206493 -781680495 -2147352406 -661928881</internalNodes>
      <leafValues>
        -6.0297876596450806e-01 5.9222280979156494e-01</leafValues></_>
    <_>
      <internalNodes>
        0 -1 71566 429873464 92799173 8392929 832307259 2244744
        -1269301248 1779073161 1692860611</internalNodes>
      <leafValues>
        -6.6127330064773560e-01 5.3572690486907959e-01</leafValues></_>
    <_>
      <internalNodes>
        0 -1 137062 804194911 -117490306 -285278209 -1430831877
        -41956774 -8914049 -352424836 -352926353</internalNodes>
      <leafValues>
        -5.4702442884445190e-01 6.4839434623718262e-01</leafValues></_>
    <_>
      <internalNodes>
        0 -1 112405 16905059 1133596689 49171 -636485475 11 -1912078328
        -1601646079 1209174032</internalNodes>
      <leafValues>
        -7.5719147920608521e-01 4.8338791728019714e-01</leafValues></_>
    <_>
      <internalNodes>
        0 -1 129743 -1359216789 -285282305 1061158709 1731198747
        -1375826346 -1887502473 1308620405 -918560901</internalNodes>
      <leafValues>
        -5.7979089021682739e-01 6.8911141157150269e-01</leafValues></_></weakClassifiers></stage17>
</opencv_storage>
