<?xml version="1.0"?>
<opencv_storage>
<stage8>
  <maxWeakCount>16</maxWeakCount>
  <stageThreshold>-1.1875214576721191e+00</stageThreshold>
  <weakClassifiers>
    <_>
      <internalNodes>
        0 -1 5972 -476066033 798716983 -369911838 -218629509 1406107463
        1320938106 -5779295 -525329</internalNodes>
      <leafValues>
        -3.6445891857147217e-01 2.9898440837860107e-01</leafValues></_>
    <_>
      <internalNodes>
        0 -1 4449 750202159 784299759 -994448912 717151772 1073153119
        1260886590 1855219572 -17367824</internalNodes>
      <leafValues>
        -4.4920834898948669e-01 2.1821007132530212e-01</leafValues></_>
    <_>
      <internalNodes>
        0 -1 3631 -1448600323 -1073744387 -1185 -138822163 796532189
        -536903713 -34308611 -24583</internalNodes>
      <leafValues>
        -2.6311093568801880e-01 3.5247910022735596e-01</leafValues></_>
    <_>
      <internalNodes>
        0 -1 4866 -1318947 -845833 -1078206593 656654133 -21099041
        -1073776715 -1392894408 -1433438217</internalNodes>
      <leafValues>
        -1.7896151542663574e-01 4.2869985103607178e-01</leafValues></_>
    <_>
      <internalNodes>
        0 -1 4112 -26255595 192146419 -92358512 -129057686 -70692281
        1302067439 -957369900 -176685313</internalNodes>
      <leafValues>
        -3.9277154207229614e-01 1.8216849863529205e-01</leafValues></_>
    <_>
      <internalNodes>
        0 -1 2002 -446747889 617543303 -769800602 -156242528 2109429591
        1201850641 -491522457 -1778921</internalNodes>
      <leafValues>
        -3.3937743306159973e-01 2.5672003626823425e-01</leafValues></_>
    <_>
      <internalNodes>
        0 -1 24 539738859 -13978942 -280592873 -546850166 656875439
        -303169547 1858033626 -14680102</internalNodes>
      <leafValues>
        -2.6563337445259094e-01 3.0233979225158691e-01</leafValues></_>
    <_>
      <internalNodes>
        0 -1 585 -1573633 -68198205 -1597174569 2129385567 1280119935
        1221052891 349783789 -27790453</internalNodes>
      <leafValues>
        -2.9260987043380737e-01 2.9849267005920410e-01</leafValues></_>
    <_>
      <internalNodes>
        0 -1 4369 -499401167 367822112 -557977645 -1611377312
        -1402536281 -1626412681 687618015 -1434299163</internalNodes>
      <leafValues>
        -2.5980043411254883e-01 3.0788397789001465e-01</leafValues></_>
    <_>
      <internalNodes>
        0 -1 5965 -1219367165 636432791 941989026 1855847885 1307434506
        1127737622 -112199705 -420021763</internalNodes>
      <leafValues>
        -3.5067194700241089e-01 2.3430779576301575e-01</leafValues></_>
    <_>
      <internalNodes>
        0 -1 6531 227488555 571339144 -878073886 -1437428269 1807164738
        268159429 -553658443 -561734996</internalNodes>
      <leafValues>
        -4.2089706659317017e-01 1.6501416265964508e-01</leafValues></_>
    <_>
      <internalNodes>
        0 -1 3261 1352000912 -1786067559 1386795440 -1897076319
        1088176368 1310483227 32135617 1492081527</internalNodes>
      <leafValues>
        -3.7865227460861206e-01 2.1222269535064697e-01</leafValues></_>
    <_>
      <internalNodes>
        0 -1 4034 -648384716 -1932208071 -75357863 93269643 -1922426122
        -39893000 149510549 -188897143</internalNodes>
      <leafValues>
        -3.1744140386581421e-01 2.3836928606033325e-01</leafValues></_>
    <_>
      <internalNodes>
        0 -1 541 83832351 139358331 -934126153 1458723166 2141522481
        -344986699 1805695205 1836438784</internalNodes>
      <leafValues>
        -3.9028078317642212e-01 1.8960006535053253e-01</leafValues></_>
    <_>
      <internalNodes>
        0 -1 2390 -1381492930 -1956323128 -1619753487 -539536832
        1676998000 -1179538469 -1678884490 -1015270543</internalNodes>
      <leafValues>
        -3.4497535228729248e-01 2.1183696389198303e-01</leafValues></_>
    <_>
      <internalNodes>
        0 -1 5213 -927841196 959533145 -585450251 269843329 -271666659
        -1970233154 13514362 -331500869</internalNodes>
      <leafValues>
        -3.2767477631568909e-01 2.3774237930774689e-01</leafValues></_></weakClassifiers></stage8>
</opencv_storage>
