<?xml version="1.0"?>
<opencv_storage>
<stage21>
  <maxWeakCount>33</maxWeakCount>
  <stageThreshold>-1.1365832090377808e+00</stageThreshold>
  <weakClassifiers>
    <_>
      <internalNodes>
        0 -1 21 -861475074 -576312344 -402866181 1442086390 1532064767
        -16777474 671068159 -7357449</internalNodes>
      <leafValues>
        -1.3631157577037811e-01 3.2648870348930359e-01</leafValues></_>
    <_>
      <internalNodes>
        0 -1 5386 -46232848 1536905328 761486743 -585163611 -1442408006
        -1613072936 690302399 -810612997</internalNodes>
      <leafValues>
        -1.6452200710773468e-01 2.9479384422302246e-01</leafValues></_>
    <_>
      <internalNodes>
        0 -1 3659 429611418 -1039314063 352365435 654696624 216728494
        183091339 2107095206 -1683307838</internalNodes>
      <leafValues>
        -2.6710683107376099e-01 1.6772329807281494e-01</leafValues></_>
    <_>
      <internalNodes>
        0 -1 657 -272371849 1399292967 739574286 -498763169 1246207615
        1146321199 1476739980 1970139558</internalNodes>
      <leafValues>
        -2.7605369687080383e-01 1.4305806159973145e-01</leafValues></_>
    <_>
      <internalNodes>
        0 -1 4905 378004372 1071534410 -1874848065 982110541 288251702
        1785785359 1788465397 -85789051</internalNodes>
      <leafValues>
        -2.2606319189071655e-01 2.0161065459251404e-01</leafValues></_>
    <_>
      <internalNodes>
        0 -1 5900 1946136130 200528175 -989516222 1213362378 -192110074
        357808837 -1873820816 -1914246717</internalNodes>
      <leafValues>
        -3.0537036061286926e-01 1.5136995911598206e-01</leafValues></_>
    <_>
      <internalNodes>
        0 -1 2602 -1544557154 1134980638 -1502599414 -148131854
        1459418855 117374902 838165702 -136186694</internalNodes>
      <leafValues>
        -1.7389228940010071e-01 2.6346838474273682e-01</leafValues></_>
    <_>
      <internalNodes>
        0 -1 5080 -654799440 -1810186256 263593021 1235698811 -185164296
        -1094820226 2117158335 -1733829153</internalNodes>
      <leafValues>
        -2.0273593068122864e-01 2.3123712837696075e-01</leafValues></_>
    <_>
      <internalNodes>
        0 -1 5229 -1493188091 2077787137 1348253873 579039832 1780211724
        2053638203 -1735408696 -194262975</internalNodes>
      <leafValues>
        -2.4476745724678040e-01 1.8172611296176910e-01</leafValues></_>
    <_>
      <internalNodes>
        0 -1 803 1852712998 607962476 62965702 2044608702 806310709
        1819476034 1085739077 1733510518</internalNodes>
      <leafValues>
        -3.4344550967216492e-01 1.4749874174594879e-01</leafValues></_>
    <_>
      <internalNodes>
        0 -1 4792 -797300408 1045482036 1303418293 569461074 -2013136408
        -1702461167 680063338 -310310773</internalNodes>
      <leafValues>
        -2.5569808483123779e-01 1.6914892196655273e-01</leafValues></_>
    <_>
      <internalNodes>
        0 -1 6425 -748834915 655077629 939178033 -904593858 1038532207
        -571404884 -1631590481 1287974794</internalNodes>
      <leafValues>
        -1.6893629729747772e-01 2.6080849766731262e-01</leafValues></_>
    <_>
      <internalNodes>
        0 -1 2441 -748030465 -134339330 187792791 1302815854 -571671378
        -1092930113 523763084 -303323377</internalNodes>
      <leafValues>
        -1.1700349301099777e-01 4.6350535750389099e-01</leafValues></_>
    <_>
      <internalNodes>
        0 -1 3825 -521723872 767821318 1992918236 961023720 721635415
        -2031091566 -761314508 -1422171201</internalNodes>
      <leafValues>
        -2.7930852770805359e-01 1.7907172441482544e-01</leafValues></_>
    <_>
      <internalNodes>
        0 -1 4486 -1322139400 454072554 -1620429337 596836770 1831405699
        1503421554 -1829120273 -1973162749</internalNodes>
      <leafValues>
        -2.1799010038375854e-01 2.3257522284984589e-01</leafValues></_>
    <_>
      <internalNodes>
        0 -1 5457 2004721238 990341091 1736441723 2070215430 -1395189333
        2113372151 183823358 -1168142626</internalNodes>
      <leafValues>
        -2.0168024301528931e-01 2.4867798388004303e-01</leafValues></_>
    <_>
      <internalNodes>
        0 -1 1230 1811557541 -1937680048 167835918 -1193127598
        1524177491 1385201665 855825216 -184030029</internalNodes>
      <leafValues>
        -3.3880928158760071e-01 1.4943656325340271e-01</leafValues></_>
    <_>
      <internalNodes>
        0 -1 4225 -537209889 -75862234 -1413939297 855971606 -1946717752
        2023706428 1148170890 -812400609</internalNodes>
      <leafValues>
        -1.5300337970256805e-01 3.5999828577041626e-01</leafValues></_>
    <_>
      <internalNodes>
        0 -1 5918 1395272578 1931276151 967797727 -213729751 452301795
        267222646 1518181812 -1683456004</internalNodes>
      <leafValues>
        -2.1114635467529297e-01 2.3367841541767120e-01</leafValues></_>
    <_>
      <internalNodes>
        0 -1 6280 -1646310569 618014158 -241795773 137417152 46557336
        -1171703638 2034548856 439152129</internalNodes>
      <leafValues>
        -3.1132265925407410e-01 1.6311107575893402e-01</leafValues></_>
    <_>
      <internalNodes>
        0 -1 1213 -1385955312 437261786 1987721820 1046887054 1809190913
        892340313 -46605456 1046894272</internalNodes>
      <leafValues>
        -4.6203052997589111e-01 1.0661885142326355e-01</leafValues></_>
    <_>
      <internalNodes>
        0 -1 3452 -254428293 -1757704529 -598061413 497273919 365936819
        712977972 1429863289 -2752621</internalNodes>
      <leafValues>
        -1.4933091402053833e-01 3.5445559024810791e-01</leafValues></_>
    <_>
      <internalNodes>
        0 -1 3574 2046968320 -501333361 1757414409 246546571 1548343396
        1025134642 891488332 388985415</internalNodes>
      <leafValues>
        -3.6125931143760681e-01 1.4052927494049072e-01</leafValues></_>
    <_>
      <internalNodes>
        0 -1 4105 479203449 -1517420028 -1929180273 -1988673116
        1221793929 -1161164800 28339944 422994532</internalNodes>
      <leafValues>
        -3.1834751367568970e-01 1.5722921490669250e-01</leafValues></_>
    <_>
      <internalNodes>
        0 -1 3351 -268715825 -76799066 -1343341266 -12583002 476288511
        1525562621 -1862928646 -1543768621</internalNodes>
      <leafValues>
        -1.3498122990131378e-01 3.7042742967605591e-01</leafValues></_>
    <_>
      <internalNodes>
        0 -1 5892 1917822686 1913650200 1954537273 810505450 1618408376
        -1915224705 1827595691 -178391063</internalNodes>
      <leafValues>
        -1.7013218998908997e-01 3.0509939789772034e-01</leafValues></_>
    <_>
      <internalNodes>
        0 -1 5638 -1191454670 1752136572 1773709368 2041179946
        -579483181 -1797865611 1833827938 -537398023</internalNodes>
      <leafValues>
        -1.9877734780311584e-01 2.5380364060401917e-01</leafValues></_>
    <_>
      <internalNodes>
        0 -1 975 1804441939 602360226 1263753394 1493209570 1612321333
        1716741275 365514866 1837327299</internalNodes>
      <leafValues>
        -3.1612616777420044e-01 1.6778695583343506e-01</leafValues></_>
    <_>
      <internalNodes>
        0 -1 338 -287863786 2070874726 -1373556589 989903382 1129230269
        -771747583 -1339174776 2088560770</internalNodes>
      <leafValues>
        -2.2805362939834595e-01 2.3005059361457825e-01</leafValues></_>
    <_>
      <internalNodes>
        0 -1 4365 192881048 -1961963471 -2029396976 906363154 318442246
        32624533 1634025698 144304253</internalNodes>
      <leafValues>
        -4.0610411763191223e-01 1.2936893105506897e-01</leafValues></_>
    <_>
      <internalNodes>
        0 -1 5048 -2111326432 1165514760 1409438984 303431954 1062773524
        15325889 419780868 75036859</internalNodes>
      <leafValues>
        -4.5829489827156067e-01 1.1286845058202744e-01</leafValues></_>
    <_>
      <internalNodes>
        0 -1 840 1210505010 110413008 -490644072 511731219 1753204699
        -1878687607 646005257 -271938674</internalNodes>
      <leafValues>
        -2.7229306101799011e-01 1.8639053404331207e-01</leafValues></_>
    <_>
      <internalNodes>
        0 -1 4764 -1367240189 -1895774712 -1643719809 405952928
        -1966472698 -1459310592 698906257 -661486779</internalNodes>
      <leafValues>
        -3.0431333184242249e-01 1.7331925034523010e-01</leafValues></_></weakClassifiers></stage21>
</opencv_storage>
