<?xml version="1.0"?>
<opencv_storage>
<stage23>
  <maxWeakCount>29</maxWeakCount>
  <stageThreshold>-1.0660880804061890e+00</stageThreshold>
  <weakClassifiers>
    <_>
      <internalNodes>
        0 -1 5863 -1417811185 939485165 586784006 1928323069 1256589832
        2109734911 -25171922 -1174536322</internalNodes>
      <leafValues>
        -2.0581726729869843e-01 2.3398405313491821e-01</leafValues></_>
    <_>
      <internalNodes>
        0 -1 4864 -467868583 -214269915 -1476231811 -1220231153
        -308496220 -382685888 -524520600 1050301685</internalNodes>
      <leafValues>
        -2.4581456184387207e-01 1.9322821497917175e-01</leafValues></_>
    <_>
      <internalNodes>
        0 -1 5651 1726344712 321096378 352747664 27852190 -935992924
        677038308 1213182082 1232550911</internalNodes>
      <leafValues>
        -2.6809424161911011e-01 1.7519742250442505e-01</leafValues></_>
    <_>
      <internalNodes>
        0 -1 809 -1055715449 -1944674043 -1223349313 -1974861790 170091
        -99905390 -1022860512 1688718099</internalNodes>
      <leafValues>
        -3.3424562215805054e-01 1.7326325178146362e-01</leafValues></_>
    <_>
      <internalNodes>
        0 -1 5992 1534321614 1400503398 -40127896 1940904298 -177363314
        1309537088 1928710106 -14680321</internalNodes>
      <leafValues>
        -1.6750891506671906e-01 3.1847330927848816e-01</leafValues></_>
    <_>
      <internalNodes>
        0 -1 6024 1609559839 1365729172 -1531962604 1073937922 805125674
        1489788910 1295458269 -927334433</internalNodes>
      <leafValues>
        -1.9080743193626404e-01 2.4598349630832672e-01</leafValues></_>
    <_>
      <internalNodes>
        0 -1 2130 -430575954 1181073601 1879573582 -99957621 1372742423
        83927104 -2096581836 1369509975</internalNodes>
      <leafValues>
        -3.7052720785140991e-01 1.4702488481998444e-01</leafValues></_>
    <_>
      <internalNodes>
        0 -1 3348 -892383166 696967812 1895921937 -1390310911 124196828
        1084197137 298629345 1186566821</internalNodes>
      <leafValues>
        -4.1417530179023743e-01 8.2509681582450867e-02</leafValues></_>
    <_>
      <internalNodes>
        0 -1 726 -890222970 -2101179937 -1402168180 640816854
        -1005567748 -13532625 -1147488211 1125606448</internalNodes>
      <leafValues>
        -3.1729117035865784e-01 1.5470919013023376e-01</leafValues></_>
    <_>
      <internalNodes>
        0 -1 6525 771698435 403696015 671683059 315932740 1271260089
        -1162936165 -1930934048 -588454673</internalNodes>
      <leafValues>
        -2.2769114375114441e-01 2.3278185725212097e-01</leafValues></_>
    <_>
      <internalNodes>
        0 -1 5732 -617155151 1471966000 1071480639 -2056284249 951100858
        -671088739 -1760911957 -885287781</internalNodes>
      <leafValues>
        -1.3628144562244415e-01 3.8940683007240295e-01</leafValues></_>
    <_>
      <internalNodes>
        0 -1 939 -1918116463 -468993504 703839553 -1919604877 1919905969
        -1352663041 -25226056 -689984628</internalNodes>
      <leafValues>
        -1.8722540140151978e-01 2.5332593917846680e-01</leafValues></_>
    <_>
      <internalNodes>
        0 -1 3701 -71249443 -85056910 498945917 2141259077 -857494744
        -604050509 -1330460515 -612580194</internalNodes>
      <leafValues>
        -1.4011777937412262e-01 3.9589425921440125e-01</leafValues></_>
    <_>
      <internalNodes>
        0 -1 3626 645690533 667283525 -129891997 1744025587 1619163199
        -912316404 1511554337 1193951520</internalNodes>
      <leafValues>
        -2.8936791419982910e-01 1.8295834958553314e-01</leafValues></_>
    <_>
      <internalNodes>
        0 -1 5262 -267909624 -263159332 -66047652 336272156 1074080468
        -629032168 -502612454 808664941</internalNodes>
      <leafValues>
        -3.4603658318519592e-01 1.2754514813423157e-01</leafValues></_>
    <_>
      <internalNodes>
        0 -1 3034 -1011494590 1229575238 -484337270 756575782
        -1593643854 310583437 -1425741312 -809777150</internalNodes>
      <leafValues>
        -2.2197651863098145e-01 2.2974623739719391e-01</leafValues></_>
    <_>
      <internalNodes>
        0 -1 6582 100228647 -1437118379 -1692884478 536932042 416043783
        142717208 -669290186 71356366</internalNodes>
      <leafValues>
        -4.6682685613632202e-01 1.0873677581548691e-01</leafValues></_>
    <_>
      <internalNodes>
        0 -1 4041 -856706141 1880794871 523439761 1595506586 -1973989447
        -352342019 -1901081315 -126358357</internalNodes>
      <leafValues>
        -1.7583970725536346e-01 3.2777523994445801e-01</leafValues></_>
    <_>
      <internalNodes>
        0 -1 4530 -869017352 -105687208 -1226168485 2012255987
        -1078654753 1261330247 -771790341 -932459219</internalNodes>
      <leafValues>
        -1.6164800524711609e-01 3.2501333951950073e-01</leafValues></_>
    <_>
      <internalNodes>
        0 -1 6165 1650444234 583384445 771747769 1931668158 2012409486
        -537427979 -360855783 -305728276</internalNodes>
      <leafValues>
        -1.6750711202621460e-01 3.0424982309341431e-01</leafValues></_>
    <_>
      <internalNodes>
        0 -1 0 -920094177 1610561443 -371685713 2035670521 -868515519
        -2091984425 1782284235 2143283675</internalNodes>
      <leafValues>
        -1.9849503040313721e-01 2.7767193317413330e-01</leafValues></_>
    <_>
      <internalNodes>
        0 -1 3527 -836069776 -697151990 473396459 85137981 754050271
        754732406 1433054431 -1793637808</internalNodes>
      <leafValues>
        -2.1946752071380615e-01 2.4922177195549011e-01</leafValues></_>
    <_>
      <internalNodes>
        0 -1 6300 771625043 541933694 -1207794950 -1308077618 -343576576
        559135544 1513341342 1410642156</internalNodes>
      <leafValues>
        -3.6691412329673767e-01 1.5146413445472717e-01</leafValues></_>
    <_>
      <internalNodes>
        0 -1 4829 -608923319 1181511057 -1959613936 -726019151
        -974262848 -1898117129 1043915946 463339381</internalNodes>
      <leafValues>
        -2.2027134895324707e-01 2.4335564672946930e-01</leafValues></_>
    <_>
      <internalNodes>
        0 -1 661 -351787476 1868928199 -2079995812 -524173312 923029630
        219714617 1518933323 1955551371</internalNodes>
      <leafValues>
        -4.5081672072410583e-01 1.1270105093717575e-01</leafValues></_>
    <_>
      <internalNodes>
        0 -1 1690 -445723119 -75202490 1224770691 -318745151 2017734757
        -1870001934 1166068177 1317869360</internalNodes>
      <leafValues>
        -2.8185555338859558e-01 1.8436254560947418e-01</leafValues></_>
    <_>
      <internalNodes>
        0 -1 5465 -1698950567 179088922 834631612 971173641 -563085675
        -1671598113 -520741086 -13058921</internalNodes>
      <leafValues>
        -2.1517251431941986e-01 2.4803286790847778e-01</leafValues></_>
    <_>
      <internalNodes>
        0 -1 944 1666404496 1510214079 -1329458915 482607622 1246191748
        -121337654 -1701805532 -1444615284</internalNodes>
      <leafValues>
        -2.9755309224128723e-01 1.7736053466796875e-01</leafValues></_>
    <_>
      <internalNodes>
        0 -1 2431 -72697168 -85791616 -738232875 1960592516 225419247
        -990175251 377284767 82778048</internalNodes>
      <leafValues>
        -1.9983507692813873e-01 2.7679827809333801e-01</leafValues></_></weakClassifiers></stage23>
</opencv_storage>
