<?xml version="1.0"?>
<opencv_storage>
<stage17>
  <maxWeakCount>27</maxWeakCount>
  <stageThreshold>-9.6849185228347778e-01</stageThreshold>
  <weakClassifiers>
    <_>
      <internalNodes>
        0 -1 3089 -623127336 -897523760 1014709169 -1467269126 75028857
        -922820641 1610313143 -37749761</internalNodes>
      <leafValues>
        -2.2394677996635437e-01 2.4897062778472900e-01</leafValues></_>
    <_>
      <internalNodes>
        0 -1 5047 -6400 1093893952 160009905 1938899351 1375423240
        136429463 -1337851646 -2051339601</internalNodes>
      <leafValues>
        -3.2552403211593628e-01 1.5813702344894409e-01</leafValues></_>
    <_>
      <internalNodes>
        0 -1 3894 1573060542 -689160408 -101980464 -1806736 1953810149
        -1193443849 -822422537 -17766667</internalNodes>
      <leafValues>
        -2.0160521566867828e-01 2.4984079599380493e-01</leafValues></_>
    <_>
      <internalNodes>
        0 -1 5951 -284759154 591867999 -804081534 -98322750 1935771396
        1359088160 -208669474 -254028894</internalNodes>
      <leafValues>
        -2.2923879325389862e-01 2.3619209229946136e-01</leafValues></_>
    <_>
      <internalNodes>
        0 -1 4926 -1489809369 298208272 -837986058 821703011 226573644
        1006109307 -1498451084 -88935691</internalNodes>
      <leafValues>
        -3.1602013111114502e-01 1.4527888596057892e-01</leafValues></_>
    <_>
      <internalNodes>
        0 -1 2775 -215504201 2133044992 1856268344 -171704401 1245088287
        -1129398860 -25825397 -70283425</internalNodes>
      <leafValues>
        -1.8630124628543854e-01 2.9689195752143860e-01</leafValues></_>
    <_>
      <internalNodes>
        0 -1 3010 -1499326063 -740367036 -921420347 1330936261
        1410019860 1535690944 2043171412 240693472</internalNodes>
      <leafValues>
        -3.0161240696907043e-01 1.8063288927078247e-01</leafValues></_>
    <_>
      <internalNodes>
        0 -1 1963 1648650296 604032650 -496743926 2014299738 -1721741767
        506020797 -895761154 1451118039</internalNodes>
      <leafValues>
        -4.2252275347709656e-01 9.8965086042881012e-02</leafValues></_>
    <_>
      <internalNodes>
        0 -1 3936 -17118985 908214122 -5243182 1585446839 1752780779
        283803502 854980327 -16793609</internalNodes>
      <leafValues>
        -1.8008355796337128e-01 2.8676173090934753e-01</leafValues></_>
    <_>
      <internalNodes>
        0 -1 5291 1457088000 -1800025205 816234228 -253619602 1510725124
        373299017 -1191642952 -223547075</internalNodes>
      <leafValues>
        -2.8209230303764343e-01 1.8239817023277283e-01</leafValues></_>
    <_>
      <internalNodes>
        0 -1 485 1080271398 376711791 -1940018153 -804462038 1146843413
        977928194 1089446293 -95037533</internalNodes>
      <leafValues>
        -3.1249135732650757e-01 1.7258439958095551e-01</leafValues></_>
    <_>
      <internalNodes>
        0 -1 2502 1696328995 195710344 1360110881 -545000520 575234495
        321082577 -957671561 -212954206</internalNodes>
      <leafValues>
        -2.8884962201118469e-01 1.6777631640434265e-01</leafValues></_>
    <_>
      <internalNodes>
        0 -1 2742 -1527913553 1919938543 -118602166 1392371455
        -722645875 427155285 -19098132 -472129569</internalNodes>
      <leafValues>
        -1.7026139795780182e-01 2.9627329111099243e-01</leafValues></_>
    <_>
      <internalNodes>
        0 -1 1628 1327009086 -1256394947 1743674173 -42013714
        -2030137860 -8363 2147145692 -545827562</internalNodes>
      <leafValues>
        -1.9020037353038788e-01 2.9406431317329407e-01</leafValues></_>
    <_>
      <internalNodes>
        0 -1 3021 -670117796 -71376128 1566503671 2078295290 2143183500
        -587268106 1779088622 -1637425994</internalNodes>
      <leafValues>
        -1.5057876706123352e-01 3.4388411045074463e-01</leafValues></_>
    <_>
      <internalNodes>
        0 -1 838 554411537 1054531828 -180224740 1502507528 1506550381
        -1985977201 966672315 516887350</internalNodes>
      <leafValues>
        -3.6143320798873901e-01 1.4007067680358887e-01</leafValues></_>
    <_>
      <internalNodes>
        0 -1 6597 -1213262689 -1769794073 314637107 110209222 -229705601
        -1395934191 -576614512 678249198</internalNodes>
      <leafValues>
        -2.5361809134483337e-01 2.1883721649646759e-01</leafValues></_>
    <_>
      <internalNodes>
        0 -1 6220 -479215846 -483924314 2104157586 -222527570 1432688587
        1158346179 -1218726702 -814891541</internalNodes>
      <leafValues>
        -2.0738366246223450e-01 2.6057562232017517e-01</leafValues></_>
    <_>
      <internalNodes>
        0 -1 5561 -134501665 1397616588 1991281635 -240025985 -239298925
        -658506157 -163659574 -3162626</internalNodes>
      <leafValues>
        -1.3419580459594727e-01 4.5893478393554688e-01</leafValues></_>
    <_>
      <internalNodes>
        0 -1 664 -1401025290 239240350 -395968495 1713819807 6343772
        -1739655087 -39407458 459632693</internalNodes>
      <leafValues>
        -3.4546694159507751e-01 1.5101215243339539e-01</leafValues></_>
    <_>
      <internalNodes>
        0 -1 6014 -1737887939 68219663 -1669264588 -1121912288
        -1581170283 228360576 1285499932 1503453095</internalNodes>
      <leafValues>
        -2.6181411743164062e-01 2.0640186965465546e-01</leafValues></_>
    <_>
      <internalNodes>
        0 -1 867 -856438238 182227880 26280286 744043970 303211041
        2029764753 1670020691 2078032326</internalNodes>
      <leafValues>
        -4.2980265617370605e-01 1.2598387897014618e-01</leafValues></_>
    <_>
      <internalNodes>
        0 -1 5025 -558906222 -1179388256 -1212239689 -612763654
        -1398684482 -1074119277 -235092785 -1009590793</internalNodes>
      <leafValues>
        -1.6261216998100281e-01 3.6798802018165588e-01</leafValues></_>
    <_>
      <internalNodes>
        0 -1 791 652092973 677120422 41488 -557692662 1250238774
        1252599942 1226133781 1278499700</internalNodes>
      <leafValues>
        -4.9357628822326660e-01 1.1620035022497177e-01</leafValues></_>
    <_>
      <internalNodes>
        0 -1 4863 -1673755616 566629063 265946416 -745532972 -904893952
        713161737 -1265979160 -190526571</internalNodes>
      <leafValues>
        -3.3746424317359924e-01 1.7173126339912415e-01</leafValues></_>
    <_>
      <internalNodes>
        0 -1 4021 -21244364 997265632 1260560991 195480979 -1475166008
        -1108747188 1868204971 1532749823</internalNodes>
      <leafValues>
        -1.8862797319889069e-01 2.9501199722290039e-01</leafValues></_>
    <_>
      <internalNodes>
        0 -1 1601 -989059596 609910941 1409731709 1279576447 -116717567
        -1324412747 27992097 544603790</internalNodes>
      <leafValues>
        -3.8963097333908081e-01 1.3684102892875671e-01</leafValues></_></weakClassifiers></stage17>
</opencv_storage>
