<?xml version="1.0"?>
<opencv_storage>
<stage6>
  <maxWeakCount>19</maxWeakCount>
  <stageThreshold>-1.0751903057098389e+00</stageThreshold>
  <weakClassifiers>
    <_>
      <internalNodes>
        0 -1 847 170828426 2147475620 257619711 2138911727 1333743341
        2147479551 1866794939 -538576897</internalNodes>
      <leafValues>
        -3.1017056107521057e-01 3.2526141405105591e-01</leafValues></_>
    <_>
      <internalNodes>
        0 -1 3208 -89196894 -790560861 -525949647 -537595401 -587792683
        -187244560 -464003089 -303044625</internalNodes>
      <leafValues>
        -2.6925671100616455e-01 3.2927742600440979e-01</leafValues></_>
    <_>
      <internalNodes>
        0 -1 5991 -268464382 550426603 -534540766 -487068946 1701794564
        1125622274 -202001949 -167781377</internalNodes>
      <leafValues>
        -4.5026972889900208e-01 2.0473180711269379e-01</leafValues></_>
    <_>
      <internalNodes>
        0 -1 4942 2103435035 420076331 -1214284271 1607597851 -184834097
        147578842 1438631379 -571998209</internalNodes>
      <leafValues>
        -2.3102578520774841e-01 4.0837034583091736e-01</leafValues></_>
    <_>
      <internalNodes>
        0 -1 415 1660929582 1927258114 1782597895 -87630118 1089107718
        1687036997 983623767 -42602625</internalNodes>
      <leafValues>
        -3.9839318394660950e-01 1.6895602643489838e-01</leafValues></_>
    <_>
      <internalNodes>
        0 -1 5457 1316815888 450518739 912201019 808365317 574781578
        1037136057 146893466 2052578942</internalNodes>
      <leafValues>
        -3.8522833585739136e-01 2.2188368439674377e-01</leafValues></_>
    <_>
      <internalNodes>
        0 -1 3838 -569256808 521384193 -1624942313 992052825 79692258
        528695547 178475199 464476395</internalNodes>
      <leafValues>
        -3.5715040564537048e-01 2.2243304550647736e-01</leafValues></_>
    <_>
      <internalNodes>
        0 -1 5331 803186946 571979531 1358361228 -1562453037 1996384516
        323723446 -175151388 -184986634</internalNodes>
      <leafValues>
        -4.8728176951408386e-01 1.3430383801460266e-01</leafValues></_>
    <_>
      <internalNodes>
        0 -1 734 -222893082 -2133792264 2084889340 713052439 -240133515
        -338902805 -300856043 1345584231</internalNodes>
      <leafValues>
        -4.7966805100440979e-01 1.6807219386100769e-01</leafValues></_>
    <_>
      <internalNodes>
        0 -1 3378 -420494838 747131086 -524029056 -1192570430 1177164462
        1296429115 -508120460 -18175033</internalNodes>
      <leafValues>
        -3.6462622880935669e-01 1.9408895075321198e-01</leafValues></_>
    <_>
      <internalNodes>
        0 -1 5621 -343935290 813694771 -1434620736 1937768167 2004634628
        1115619063 -1091049780 -227541034</internalNodes>
      <leafValues>
        -2.4675558507442474e-01 3.0069395899772644e-01</leafValues></_>
    <_>
      <internalNodes>
        0 -1 2735 1478678066 -1861094096 1217399479 630412997 1311934
        -98856479 1414228600 2146423507</internalNodes>
      <leafValues>
        -2.8682196140289307e-01 2.6608568429946899e-01</leafValues></_>
    <_>
      <internalNodes>
        0 -1 5568 -363870970 102363519 1117890336 1081640595 1633888256
        1216021064 -225797493 -208866342</internalNodes>
      <leafValues>
        -4.3465003371238708e-01 1.6896536946296692e-01</leafValues></_>
    <_>
      <internalNodes>
        0 -1 25 -488386821 -625765471 -312094981 -169610372 1228828555
        -277348365 1594840667 -311957673</internalNodes>
      <leafValues>
        -2.2503663599491119e-01 3.2907956838607788e-01</leafValues></_>
    <_>
      <internalNodes>
        0 -1 3654 -235945600 536739343 1996281009 63393376 -2014175070
        -151076897 -1431840552 -877443335</internalNodes>
      <leafValues>
        -2.4961523711681366e-01 3.0249494314193726e-01</leafValues></_>
    <_>
      <internalNodes>
        0 -1 609 -362287553 1974154787 1653910700 2132971231 1278964062
        376848341 1154675934 -3805969</internalNodes>
      <leafValues>
        -2.2777858376502991e-01 3.4048330783843994e-01</leafValues></_>
    <_>
      <internalNodes>
        0 -1 2634 -321413982 638506762 -52439272 -213365454 1865507943
        1153933322 -206052638 -204999995</internalNodes>
      <leafValues>
        -3.3437648415565491e-01 2.4878942966461182e-01</leafValues></_>
    <_>
      <internalNodes>
        0 -1 3651 1288113680 485677448 1636093941 4365160 -625995568
        1352218768 982006968 -99181982</internalNodes>
      <leafValues>
        -3.6318683624267578e-01 2.0208247005939484e-01</leafValues></_>
    <_>
      <internalNodes>
        0 -1 4006 -645166422 1067668027 -567083782 294063223 540633224
        1007818597 1679263451 -879231713</internalNodes>
      <leafValues>
        -2.2147245705127716e-01 3.3498609066009521e-01</leafValues></_></weakClassifiers></stage6>
</opencv_storage>
