<?xml version="1.0"?>
<opencv_storage>
<stage3>
  <maxWeakCount>15</maxWeakCount>
  <stageThreshold>-1.0319427251815796e+00</stageThreshold>
  <weakClassifiers>
    <_>
      <internalNodes>
        0 -1 3009 1344000144 102613842 1167316249 253358483 432774075
        468355274 487037435 -536871169</internalNodes>
      <leafValues>
        -4.1434946656227112e-01 3.6197581887245178e-01</leafValues></_>
    <_>
      <internalNodes>
        0 -1 618 -466623762 1854925962 1116242671 1917807267 926724
        202332417 1971182479 -1052705</internalNodes>
      <leafValues>
        -4.6285220980644226e-01 2.6829561591148376e-01</leafValues></_>
    <_>
      <internalNodes>
        0 -1 4643 1372537361 288619319 -1216619649 1935761395 -604259138
        2080366463 -1363170325 -76546053</internalNodes>
      <leafValues>
        -2.9303616285324097e-01 4.2635902762413025e-01</leafValues></_>
    <_>
      <internalNodes>
        0 -1 5661 -379599326 591124306 -2033857888 -1534864992
        1741411138 124879873 -223677722 -150998273</internalNodes>
      <leafValues>
        -4.0674597024917603e-01 3.2871574163436890e-01</leafValues></_>
    <_>
      <internalNodes>
        0 -1 1886 -346060113 1806141832 -129161994 -2639458 1904935902
        195222067 -761580825 -205800705</internalNodes>
      <leafValues>
        -3.6422801017761230e-01 3.1402122974395752e-01</leafValues></_>
    <_>
      <internalNodes>
        0 -1 5031 -247002608 84095538 19882769 2099074053 -913366856
        195086491 3313808 -705692718</internalNodes>
      <leafValues>
        -4.1322353482246399e-01 2.5842884182929993e-01</leafValues></_>
    <_>
      <internalNodes>
        0 -1 2058 -108008657 1732693127 -666529758 -799557398 1253012231
        1241578535 -756039118 -134219841</internalNodes>
      <leafValues>
        -3.5661965608596802e-01 3.1141537427902222e-01</leafValues></_>
    <_>
      <internalNodes>
        0 -1 3882 -671358302 -140523322 -1995651492 -1590833129
        -1975577730 -646859005 1113210991 302739811</internalNodes>
      <leafValues>
        -4.0726482868194580e-01 2.5103041529655457e-01</leafValues></_>
    <_>
      <internalNodes>
        0 -1 110 -338691777 1137614314 -1323936261 -140586528 1241543039
        1278053902 1479226310 -19406473</internalNodes>
      <leafValues>
        -3.1767779588699341e-01 3.2434269785881042e-01</leafValues></_>
    <_>
      <internalNodes>
        0 -1 6358 -345003513 -2111573322 8515840 617141014 169856275
        61332539 -241435961 -419430661</internalNodes>
      <leafValues>
        -3.8870966434478760e-01 2.8445652127265930e-01</leafValues></_>
    <_>
      <internalNodes>
        0 -1 3741 -422584256 2110850634 1073927217 1090780169
        -1584832376 1504399562 -805088053 -856821873</internalNodes>
      <leafValues>
        -3.7617480754852295e-01 2.8278747200965881e-01</leafValues></_>
    <_>
      <internalNodes>
        0 -1 3549 -2056890380 936526640 -872378339 1225317425
        -1475735367 -280330239 -650059044 -828313241</internalNodes>
      <leafValues>
        -3.4530800580978394e-01 3.0448919534683228e-01</leafValues></_>
    <_>
      <internalNodes>
        0 -1 3230 -486562014 130867238 -1982482202 -1154043210
        1252617119 1097485459 -1794805262 -956312627</internalNodes>
      <leafValues>
        -3.5372287034988403e-01 2.8362894058227539e-01</leafValues></_>
    <_>
      <internalNodes>
        0 -1 3434 -91832262 328233482 -1799037917 910431369 169607450
        184847146 1738691498 928701115</internalNodes>
      <leafValues>
        -3.9052265882492065e-01 2.5129476189613342e-01</leafValues></_>
    <_>
      <internalNodes>
        0 -1 5245 -1034211837 727309144 -225185132 811684342 1839934478
        1799578427 -489948180 -555746871</internalNodes>
      <leafValues>
        -3.7874314188957214e-01 2.6133677363395691e-01</leafValues></_></weakClassifiers></stage3>
</opencv_storage>
