<?xml version="1.0"?>
<opencv_storage>
<stage14>
  <maxWeakCount>25</maxWeakCount>
  <stageThreshold>-1.1365107297897339e+00</stageThreshold>
  <weakClassifiers>
    <_>
      <internalNodes>
        0 -1 3928 1437922712 388277220 90387573 996250204 -995341864
        -528293581 1512072142 -271002129</internalNodes>
      <leafValues>
        -2.7700617909431458e-01 2.1815589070320129e-01</leafValues></_>
    <_>
      <internalNodes>
        0 -1 2170 -302515730 1695467628 -361308990 -218635698 1802233383
        252921929 -408127820 -179045449</internalNodes>
      <leafValues>
        -2.8957635164260864e-01 1.9835615158081055e-01</leafValues></_>
    <_>
      <internalNodes>
        0 -1 5460 1281608791 1539293807 1876730829 2134374259 1282926263
        -1074798593 -125838597 -57412609</internalNodes>
      <leafValues>
        -2.0023402571678162e-01 2.8163948655128479e-01</leafValues></_>
    <_>
      <internalNodes>
        0 -1 6446 -822476965 33185662 2147299191 -86844609 -16978806
        -30082217 -391035665 -285868429</internalNodes>
      <leafValues>
        -1.2995795905590057e-01 3.7659713625907898e-01</leafValues></_>
    <_>
      <internalNodes>
        0 -1 3294 -827142229 1324261992 1748993344 -70349486 2107762133
        892278973 -1031679866 -21901705</internalNodes>
      <leafValues>
        -2.9122382402420044e-01 1.8723528087139130e-01</leafValues></_>
    <_>
      <internalNodes>
        0 -1 6269 1608154933 6192623 227922391 1120164278 1535007531
        545783167 -107249876 149470620</internalNodes>
      <leafValues>
        -3.6079433560371399e-01 1.4907574653625488e-01</leafValues></_>
    <_>
      <internalNodes>
        0 -1 4068 1322208000 1090687296 184667393 1334117324 -1369771519
        381401271 1409844993 -503587853</internalNodes>
      <leafValues>
        -3.5904830694198608e-01 1.9065448641777039e-01</leafValues></_>
    <_>
      <internalNodes>
        0 -1 3883 -888611118 -876639455 -1390100470 565036278 -108133734
        441057322 -2106296806 48649599</internalNodes>
      <leafValues>
        -3.8350364565849304e-01 1.1949739605188370e-01</leafValues></_>
    <_>
      <internalNodes>
        0 -1 6591 2103338799 551543061 -1290676162 805215 -893724415
        714836515 -1301373114 1154794380</internalNodes>
      <leafValues>
        -3.8811480998992920e-01 1.6041620075702667e-01</leafValues></_>
    <_>
      <internalNodes>
        0 -1 4631 2122842392 1023059227 1594392541 -1859104491
        1017695484 -257916534 1649412937 -30868535</internalNodes>
      <leafValues>
        -2.6657852530479431e-01 2.2249895334243774e-01</leafValues></_>
    <_>
      <internalNodes>
        0 -1 6193 -6315473 760856779 -964642974 1657475204 2043370062
        103596723 -977289561 -674300193</internalNodes>
      <leafValues>
        -2.9437491297721863e-01 1.9549749791622162e-01</leafValues></_>
    <_>
      <internalNodes>
        0 -1 4467 748882092 705632616 -1533879136 678092114 536963663
        1805842592 13639974 -118187836</internalNodes>
      <leafValues>
        -4.7404113411903381e-01 9.4689995050430298e-02</leafValues></_>
    <_>
      <internalNodes>
        0 -1 766 -864212165 216837335 -49101427 -271002346 1347618613
        735298985 1986539824 1431638960</internalNodes>
      <leafValues>
        -3.2253253459930420e-01 1.7948575317859650e-01</leafValues></_>
    <_>
      <internalNodes>
        0 -1 1888 1535638222 -131749022 1194551266 -430627853 2034564607
        2017818611 -713885761 -34492997</internalNodes>
      <leafValues>
        -1.9344355165958405e-01 2.9367521405220032e-01</leafValues></_>
    <_>
      <internalNodes>
        0 -1 5675 -152059206 -1682396768 523337330 1360525050 -567091479
        806575552 1298613290 1498143483</internalNodes>
      <leafValues>
        -1.9785797595977783e-01 2.8961467742919922e-01</leafValues></_>
    <_>
      <internalNodes>
        0 -1 2351 262183256 -572075120 -1853084325 -548114016 424588646
        -670594493 1318732464 -1913379675</internalNodes>
      <leafValues>
        -3.2480907440185547e-01 1.8616932630538940e-01</leafValues></_>
    <_>
      <internalNodes>
        0 -1 5793 1946136209 431544215 -272749059 -101583061 788246452
        -1090650179 757464940 -61546598</internalNodes>
      <leafValues>
        -1.9719645380973816e-01 2.9228746891021729e-01</leafValues></_>
    <_>
      <internalNodes>
        0 -1 3991 -71765764 -708913443 -794120041 319538149 292946122
        -10985731 -274547682 -283927457</internalNodes>
      <leafValues>
        -1.9613714516162872e-01 3.1888571381568909e-01</leafValues></_>
    <_>
      <internalNodes>
        0 -1 952 1862402799 927073334 2013416474 805330058 2072048198
        2074851371 -125197687 2070389722</internalNodes>
      <leafValues>
        -2.7951449155807495e-01 2.2912788391113281e-01</leafValues></_>
    <_>
      <internalNodes>
        0 -1 5441 1801451467 591092085 -955244227 643883460 1918062934
        686688955 -1685477139 420102300</internalNodes>
      <leafValues>
        -3.1815844774246216e-01 1.8623355031013489e-01</leafValues></_>
    <_>
      <internalNodes>
        0 -1 3313 1922823856 -1172453855 874646858 -1691881133
        -555476783 1245413483 1113674775 1543495586</internalNodes>
      <leafValues>
        -3.1149739027023315e-01 2.0099213719367981e-01</leafValues></_>
    <_>
      <internalNodes>
        0 -1 6502 122042890 105769234 -1609310144 674430867 535900433
        1996662670 1877066372 212102138</internalNodes>
      <leafValues>
        -4.8934587836265564e-01 1.2563562393188477e-01</leafValues></_>
    <_>
      <internalNodes>
        0 -1 815 970700783 1618723030 -1385992644 -1515402929 2030139891
        -557585382 -103933903 1338308375</internalNodes>
      <leafValues>
        -2.6382407546043396e-01 2.2441115975379944e-01</leafValues></_>
    <_>
      <internalNodes>
        0 -1 4606 -2008596876 -1848487153 1158160671 1307836825
        1396847679 -819893654 126246091 -1980869624</internalNodes>
      <leafValues>
        -3.0133938789367676e-01 1.8755106627941132e-01</leafValues></_>
    <_>
      <internalNodes>
        0 -1 4814 -609634654 -2120551056 -792646808 1078781146
        1506765555 164207285 227491060 -448434129</internalNodes>
      <leafValues>
        -2.6035588979721069e-01 2.3232142627239227e-01</leafValues></_></weakClassifiers></stage14>
</opencv_storage>
