<?xml version="1.0"?>
<opencv_storage>
<stage2>
  <maxWeakCount>12</maxWeakCount>
  <stageThreshold>-1.3155243396759033e+00</stageThreshold>
  <weakClassifiers>
    <_>
      <internalNodes>
        0 -1 850 180866 1897120135 16898383 1407406755 587457179
        1426293953 1912986127 -70258769</internalNodes>
      <leafValues>
        -4.7731888294219971e-01 4.1861674189567566e-01</leafValues></_>
    <_>
      <internalNodes>
        0 -1 2733 1183040162 319254570 1647594506 2100259547 1108295819
        252923971 1311464367 1598028287</internalNodes>
      <leafValues>
        -4.7059807181358337e-01 3.4257233142852783e-01</leafValues></_>
    <_>
      <internalNodes>
        0 -1 6219 -305926514 1255140807 -1036517342 -420822623
        1674295042 1158718003 -140253561 -136317441</internalNodes>
      <leafValues>
        -4.4894397258758545e-01 3.0770960450172424e-01</leafValues></_>
    <_>
      <internalNodes>
        0 -1 3004 -773865470 1432331359 -1040921633 30931055 1123807411
        1928830431 1258007247 -872689697</internalNodes>
      <leafValues>
        -3.1102383136749268e-01 4.1703754663467407e-01</leafValues></_>
    <_>
      <internalNodes>
        0 -1 3426 -835770354 1112531404 -2008022912 -219233818
        1945322310 1737130036 1355043171 -134217793</internalNodes>
      <leafValues>
        -4.8056900501251221e-01 2.6637876033782959e-01</leafValues></_>
    <_>
      <internalNodes>
        0 -1 346 -229653793 2019241183 -716934505 1444360778 1984577919
        1884686594 185298283 2137514863</internalNodes>
      <leafValues>
        -3.7796279788017273e-01 3.2420894503593445e-01</leafValues></_>
    <_>
      <internalNodes>
        0 -1 5575 -53758 842788838 -1291918672 317770942 -33618624
        645922653 -1478166808 -33554690</internalNodes>
      <leafValues>
        -3.4063926339149475e-01 3.5984510183334351e-01</leafValues></_>
    <_>
      <internalNodes>
        0 -1 1539 -1024526734 -2146119466 -1035940720 -1563238524
        -2103784336 -727754611 -144272027 -738375209</internalNodes>
      <leafValues>
        -5.4812252521514893e-01 1.9576838612556458e-01</leafValues></_>
    <_>
      <internalNodes>
        0 -1 4873 1930682496 1365102999 -2138988407 965726341 38259889
        71338115 675795114 67108091</internalNodes>
      <leafValues>
        -3.6250194907188416e-01 3.2513421773910522e-01</leafValues></_>
    <_>
      <internalNodes>
        0 -1 1942 -447756509 704872906 -1811848702 -77613270 1905219623
        1168286095 -1515986604 -738201645</internalNodes>
      <leafValues>
        -4.0233513712882996e-01 2.8934994339942932e-01</leafValues></_>
    <_>
      <internalNodes>
        0 -1 64 -962344309 1931718266 2146430206 1596708515 1199525029
        654245875 92095535 1979694759</internalNodes>
      <leafValues>
        -2.6248657703399658e-01 4.0045109391212463e-01</leafValues></_>
    <_>
      <internalNodes>
        0 -1 4513 -23599102 171985928 1428070483 225436122 967041962
        1342835073 -725523773 1305730783</internalNodes>
      <leafValues>
        -4.5364150404930115e-01 2.3184920847415924e-01</leafValues></_></weakClassifiers></stage2>
</opencv_storage>
