<?xml version="1.0"?>
<opencv_storage>
<stage5>
  <maxWeakCount>17</maxWeakCount>
  <stageThreshold>-1.1810619831085205e+00</stageThreshold>
  <weakClassifiers>
    <_>
      <internalNodes>
        0 -1 840 1074000515 -635181263 2004041717 1598545467 624936891
        -153370639 1341609531 -1051649</internalNodes>
      <leafValues>
        -2.7003574371337891e-01 4.3650242686271667e-01</leafValues></_>
    <_>
      <internalNodes>
        0 -1 4973 1568464016 357583888 889524564 -35665732 -590498404
        -660019032 1887203549 -571477515</internalNodes>
      <leafValues>
        -3.8516533374786377e-01 3.0074939131736755e-01</leafValues></_>
    <_>
      <internalNodes>
        0 -1 2613 -577789238 1938449418 -997259262 1000693794 -261039367
        1591739159 -318942261 23556983</internalNodes>
      <leafValues>
        -3.4425607323646545e-01 2.6840445399284363e-01</leafValues></_>
    <_>
      <internalNodes>
        0 -1 5669 1121446410 15447311 751423488 809621419 -723261744
        74623509 1141367041 -761398287</internalNodes>
      <leafValues>
        -4.7649669647216797e-01 2.0558723807334900e-01</leafValues></_>
    <_>
      <internalNodes>
        0 -1 3785 -1896970720 -794614687 -464481915 355664743 -494603135
        -532211132 1679932331 -682100241</internalNodes>
      <leafValues>
        -3.5641923546791077e-01 2.4028399586677551e-01</leafValues></_>
    <_>
      <internalNodes>
        0 -1 293 -506469457 1861080415 1912983406 -149388454 550198135
        1963668106 -478702735 -137245941</internalNodes>
      <leafValues>
        -4.1402262449264526e-01 1.7575280368328094e-01</leafValues></_>
    <_>
      <internalNodes>
        0 -1 638 -1027413362 2106559658 1687560395 14926319 1107595901
        2048079936 1467027183 1969331023</internalNodes>
      <leafValues>
        -3.5257950425148010e-01 2.3960585892200470e-01</leafValues></_>
    <_>
      <internalNodes>
        0 -1 4673 -33830909 813682615 -1477722513 332128047 -1426128200
        2063593430 -1863172549 -1142031669</internalNodes>
      <leafValues>
        -2.5088015198707581e-01 3.2277491688728333e-01</leafValues></_>
    <_>
      <internalNodes>
        0 -1 3933 -1625309040 252612787 941559808 -1391472325 -934393639
        176900147 2056842139 1806682767</internalNodes>
      <leafValues>
        -3.8013681769371033e-01 2.0830994844436646e-01</leafValues></_>
    <_>
      <internalNodes>
        0 -1 4126 -1937763244 465262500 -632832623 1002846623 580518312
        979291368 46058864 -308703763</internalNodes>
      <leafValues>
        -3.6283242702484131e-01 2.2841736674308777e-01</leafValues></_>
    <_>
      <internalNodes>
        0 -1 2766 -323492177 -1622981978 -904167390 1920858478
        1116140611 241281082 -739646509 -153623817</internalNodes>
      <leafValues>
        -2.7998882532119751e-01 2.9213038086891174e-01</leafValues></_>
    <_>
      <internalNodes>
        0 -1 5607 -419443200 839225374 -1509885226 812874445 397488900
        86597191 -521144128 -734660105</internalNodes>
      <leafValues>
        -4.0960836410522461e-01 1.7507073283195496e-01</leafValues></_>
    <_>
      <internalNodes>
        0 -1 4392 -655860484 1026001864 -915910575 931911253 136381370
        -1769338720 307058714 -1372106153</internalNodes>
      <leafValues>
        -3.1494846940040588e-01 2.5608170032501221e-01</leafValues></_>
    <_>
      <internalNodes>
        0 -1 5999 1492640202 177861629 1345924651 -225908788 1353104018
        190700778 -574269487 1367997112</internalNodes>
      <leafValues>
        -3.5294020175933838e-01 2.2691179811954498e-01</leafValues></_>
    <_>
      <internalNodes>
        0 -1 726 -1504662858 1058194070 1275387743 869193206 1350586001
        -415938239 -306043932 2018985367</internalNodes>
      <leafValues>
        -3.2346418499946594e-01 2.5783365964889526e-01</leafValues></_>
    <_>
      <internalNodes>
        0 -1 4571 -728071280 -1636381641 1727702229 1606089964
        -1539439147 -1913061935 1568640173 -102897701</internalNodes>
      <leafValues>
        -2.6238515973091125e-01 3.0634835362434387e-01</leafValues></_>
    <_>
      <internalNodes>
        0 -1 1334 8576624 81325174 239228400 604150083 -2068350684
        1991873177 -1702158319 1036118327</internalNodes>
      <leafValues>
        -5.4390048980712891e-01 1.7114126682281494e-01</leafValues></_></weakClassifiers></stage5>
</opencv_storage>
