<?xml version="1.0"?>
<opencv_storage>
<stage12>
  <maxWeakCount>22</maxWeakCount>
  <stageThreshold>-1.0710322856903076e+00</stageThreshold>
  <weakClassifiers>
    <_>
      <internalNodes>
        0 -1 4849 -791941426 -577727152 -511179254 -778726841 -94402420
        1342177608 543957002 280967439</internalNodes>
      <leafValues>
        -3.0956348776817322e-01 2.9718348383903503e-01</leafValues></_>
    <_>
      <internalNodes>
        0 -1 3296 -1043357014 1111687170 -745339390 -1996160734
        1073906110 215512 1627656274 832794903</internalNodes>
      <leafValues>
        -3.3648002147674561e-01 2.1500253677368164e-01</leafValues></_>
    <_>
      <internalNodes>
        0 -1 4048 -223094648 -642645504 270143004 522786804 -1364686594
        -1166326246 173186699 -553177921</internalNodes>
      <leafValues>
        -2.0044790208339691e-01 3.5186836123466492e-01</leafValues></_>
    <_>
      <internalNodes>
        0 -1 5980 -771764446 1370091439 -1011877598 -605165941
        1936156418 1145402721 -405802021 1164441599</internalNodes>
      <leafValues>
        -2.2396323084831238e-01 3.0568271875381470e-01</leafValues></_>
    <_>
      <internalNodes>
        0 -1 5884 -813715577 1113518063 -880803859 -77320533 1740498598
        259390934 1534586536 -546817</internalNodes>
      <leafValues>
        -2.2625666856765747e-01 3.0057471990585327e-01</leafValues></_>
    <_>
      <internalNodes>
        0 -1 165 1988534834 1614292501 -1295905511 2098654281 1615537376
        1983168929 1688727853 -9572369</internalNodes>
      <leafValues>
        -2.6939138770103455e-01 2.4650748074054718e-01</leafValues></_>
    <_>
      <internalNodes>
        0 -1 5026 -585571390 2138703148 1784336643 1503220830
        -1279607656 -1956821122 472144859 227253499</internalNodes>
      <leafValues>
        -2.2847734391689301e-01 3.0553597211837769e-01</leafValues></_>
    <_>
      <internalNodes>
        0 -1 2311 -1585408656 -138055299 -1517547063 -544883007
        1893814380 2046292153 -1047374969 535677395</internalNodes>
      <leafValues>
        -2.4859759211540222e-01 2.6072365045547485e-01</leafValues></_>
    <_>
      <internalNodes>
        0 -1 2189 -464524428 -1505585884 87195620 -1396684947 -920429449
        -919488261 1402951973 -162535033</internalNodes>
      <leafValues>
        -3.9892211556434631e-01 1.4907537400722504e-01</leafValues></_>
    <_>
      <internalNodes>
        0 -1 4370 -589116272 2110112453 -2076721148 1033072821 847843759
        113624108 -1833934006 176447751</internalNodes>
      <leafValues>
        -3.0244922637939453e-01 2.0114772021770477e-01</leafValues></_>
    <_>
      <internalNodes>
        0 -1 1162 1121165482 1620435022 538291712 475293250 418530677
        811060013 1359712396 2068020110</internalNodes>
      <leafValues>
        -3.8832974433898926e-01 1.6390985250473022e-01</leafValues></_>
    <_>
      <internalNodes>
        0 -1 5664 -219164197 993793234 1375800880 763754698 1607488434
        944840564 397746096 -1612715283</internalNodes>
      <leafValues>
        -2.0141971111297607e-01 3.0278271436691284e-01</leafValues></_>
    <_>
      <internalNodes>
        0 -1 5156 -291453864 2050820936 -242093731 -565742376
        -1663374116 990486657 -1442313298 680659721</internalNodes>
      <leafValues>
        -2.6941993832588196e-01 2.3910287022590637e-01</leafValues></_>
    <_>
      <internalNodes>
        0 -1 2768 -721232357 391448275 472305680 1404174006 -705834539
        1148454508 1410819948 -552474658</internalNodes>
      <leafValues>
        -1.6150827705860138e-01 3.7114974856376648e-01</leafValues></_>
    <_>
      <internalNodes>
        0 -1 4344 -1608594936 153387306 -535814117 318862031 505439608
        -435154463 1757941977 -1360043745</internalNodes>
      <leafValues>
        -2.9865247011184692e-01 2.2858330607414246e-01</leafValues></_>
    <_>
      <internalNodes>
        0 -1 5024 -539251920 16299000 -121434804 498405262 294326008
        -1400137432 -1181765344 209511066</internalNodes>
      <leafValues>
        -3.7148293852806091e-01 1.6745366156101227e-01</leafValues></_>
    <_>
      <internalNodes>
        0 -1 2514 -1687816190 310380417 1622886217 21435856 1246156417
        1092683810 922978555 1710977707</internalNodes>
      <leafValues>
        -2.9763725399971008e-01 2.1700829267501831e-01</leafValues></_>
    <_>
      <internalNodes>
        0 -1 6434 304966461 -1601203913 -468626625 1318041947 -745031046
        785254539 1874344505 405581544</internalNodes>
      <leafValues>
        -3.7758111953735352e-01 1.5624639391899109e-01</leafValues></_>
    <_>
      <internalNodes>
        0 -1 1645 -1453919507 1806668287 -1459056317 -1110252593
        430836531 -1658582901 1674148613 2003961654</internalNodes>
      <leafValues>
        -2.8782793879508972e-01 2.2411189973354340e-01</leafValues></_>
    <_>
      <internalNodes>
        0 -1 5213 -868842468 1494087791 650851093 1913767895 -2000104310
        445153288 -1404818852 -553313781</internalNodes>
      <leafValues>
        -2.6533165574073792e-01 2.4226564168930054e-01</leafValues></_>
    <_>
      <internalNodes>
        0 -1 2197 -1114589524 957786296 -1940205899 239133193 1105881127
        -1206771712 -1695692786 -76062037</internalNodes>
      <leafValues>
        -2.8612264990806580e-01 2.1485477685928345e-01</leafValues></_>
    <_>
      <internalNodes>
        0 -1 199 800946712 742695503 1107990040 -1081683776 1430747392
        -266689983 1292395585 2076266912</internalNodes>
      <leafValues>
        -3.9787018299102783e-01 1.4502559602260590e-01</leafValues></_></weakClassifiers></stage12>
</opencv_storage>
