<?xml version="1.0"?>
<opencv_storage>
<stage19>
  <maxWeakCount>31</maxWeakCount>
  <stageThreshold>-1.1050297021865845e+00</stageThreshold>
  <weakClassifiers>
    <_>
      <internalNodes>
        0 -1 3038 -583802933 -23807245 -1715609729 -667418636 1576637147
        -604537091 1577014447 -625215494</internalNodes>
      <leafValues>
        -1.1277882009744644e-01 3.6994507908821106e-01</leafValues></_>
    <_>
      <internalNodes>
        0 -1 241 770696939 539542466 663945454 -2123326 626854775
        1795228623 -804310719 -773872969</internalNodes>
      <leafValues>
        -2.4500074982643127e-01 1.9203718006610870e-01</leafValues></_>
    <_>
      <internalNodes>
        0 -1 4641 1754502932 139781438 -1724817550 306561928 1552028856
        2139728000 213945144 -124930357</internalNodes>
      <leafValues>
        -2.8153687715530396e-01 1.5712621808052063e-01</leafValues></_>
    <_>
      <internalNodes>
        0 -1 6005 -539779622 1504825322 1293405368 1071906137 456896915
        791148976 1665990826 -547364869</internalNodes>
      <leafValues>
        -1.4628483355045319e-01 3.0900377035140991e-01</leafValues></_>
    <_>
      <internalNodes>
        0 -1 3352 -814221570 1943364230 -545717632 437880138 1607795154
        -2100658457 221726553 -218661345</internalNodes>
      <leafValues>
        -1.7133434116840363e-01 2.5709041953086853e-01</leafValues></_>
    <_>
      <internalNodes>
        0 -1 4186 -1969698348 255594197 -2121556051 488375320
        -1556530440 -112680317 671758844 69882952</internalNodes>
      <leafValues>
        -3.0601146817207336e-01 1.3474296033382416e-01</leafValues></_>
    <_>
      <internalNodes>
        0 -1 5533 -330441701 534729055 4394520 2009811724 -238065656
        2090371287 714668680 -507914309</internalNodes>
      <leafValues>
        -2.2726303339004517e-01 1.9554707407951355e-01</leafValues></_>
    <_>
      <internalNodes>
        0 -1 6441 552475376 827627995 -784269170 386196118 1107775736
        1502126274 -867292984 -1539281096</internalNodes>
      <leafValues>
        -3.5522037744522095e-01 1.5482619404792786e-01</leafValues></_>
    <_>
      <internalNodes>
        0 -1 6550 173958414 1792492460 378355747 83415895 9120517
        1184964775 -1123331547 1284291131</internalNodes>
      <leafValues>
        -3.7191262841224670e-01 1.2716297805309296e-01</leafValues></_>
    <_>
      <internalNodes>
        0 -1 4113 -1574961627 -1848626777 -1048473155 -1782922811
        1796610744 -1887745089 -1054340776 -933037764</internalNodes>
      <leafValues>
        -2.4521003663539886e-01 1.9660133123397827e-01</leafValues></_>
    <_>
      <internalNodes>
        0 -1 5466 -611679015 943390063 1065353205 -1275824874 -25256260
        -1184415875 -281478149 -1078636929</internalNodes>
      <leafValues>
        -1.4382570981979370e-01 3.2923591136932373e-01</leafValues></_>
    <_>
      <internalNodes>
        0 -1 4584 648792610 496440888 -806179524 1582510168 1315898382
        -1225826308 755857661 -579103266</internalNodes>
      <leafValues>
        -1.7990182340145111e-01 2.5729101896286011e-01</leafValues></_>
    <_>
      <internalNodes>
        0 -1 2571 2100288443 1939910572 -1678018258 -169511056
        1638876667 1324121531 1726338546 -524842</internalNodes>
      <leafValues>
        -1.7329801619052887e-01 3.1541964411735535e-01</leafValues></_>
    <_>
      <internalNodes>
        0 -1 2652 -1502810032 1007366192 -1905901046 740873576
        -2020982233 1209352672 10747915 507048775</internalNodes>
      <leafValues>
        -4.0513935685157776e-01 1.2088782340288162e-01</leafValues></_>
    <_>
      <internalNodes>
        0 -1 2719 -295327218 309185166 12711490 299081834 -2064800795
        37913697 -230492504 1883764427</internalNodes>
      <leafValues>
        -2.2039562463760376e-01 2.1483725309371948e-01</leafValues></_>
    <_>
      <internalNodes>
        0 -1 4994 1283030852 1074862596 -911124075 -239088970 256774612
        1271628585 -1464899471 -930231546</internalNodes>
      <leafValues>
        -2.9855331778526306e-01 1.6212785243988037e-01</leafValues></_>
    <_>
      <internalNodes>
        0 -1 5920 1583785675 1563876444 422399656 -307167317 2130165742
        501194749 1608767837 -842481697</internalNodes>
      <leafValues>
        -1.7633129656314850e-01 2.8170344233512878e-01</leafValues></_>
    <_>
      <internalNodes>
        0 -1 3322 -195083166 -1051926400 -1057961230 -148488080
        782086297 1254791195 -896354313 -478895631</internalNodes>
      <leafValues>
        -2.4427376687526703e-01 1.9979839026927948e-01</leafValues></_>
    <_>
      <internalNodes>
        0 -1 6015 1742072334 655355033 -535592490 282973134 833223185
        1577680904 -212080700 -448436073</internalNodes>
      <leafValues>
        -3.0029964447021484e-01 1.7453864216804504e-01</leafValues></_>
    <_>
      <internalNodes>
        0 -1 5420 -1593398416 222662832 -1409260781 -1919871471
        1098466065 -862446615 461755756 159883215</internalNodes>
      <leafValues>
        -2.8579092025756836e-01 1.6835312545299530e-01</leafValues></_>
    <_>
      <internalNodes>
        0 -1 347 2068277966 2037329438 1360009431 1644574554 -1757385136
        2051885584 -1995779779 -29065574</internalNodes>
      <leafValues>
        -2.6418718695640564e-01 1.9249603152275085e-01</leafValues></_>
    <_>
      <internalNodes>
        0 -1 2625 134484272 990953240 509102598 681874152 1518756920
        440578242 415652156 2050136197</internalNodes>
      <leafValues>
        -4.8774740099906921e-01 1.0993112623691559e-01</leafValues></_>
    <_>
      <internalNodes>
        0 -1 6268 -1356912323 719950431 469790041 -422174644 -102012626
        -368344628 1028635356 138204060</internalNodes>
      <leafValues>
        -3.1744521856307983e-01 1.5270404517650604e-01</leafValues></_>
    <_>
      <internalNodes>
        0 -1 659 -202457093 2038144884 -295129223 -2641981 -1913274641
        -847421609 -1536788914 -346565121</internalNodes>
      <leafValues>
        -1.2133318930864334e-01 4.0926492214202881e-01</leafValues></_>
    <_>
      <internalNodes>
        0 -1 4914 -470435943 -612370773 -298861715 1429167845 -676098420
        -1997348873 -2004956469 -167905967</internalNodes>
      <leafValues>
        -1.2644527852535248e-01 3.9776718616485596e-01</leafValues></_>
    <_>
      <internalNodes>
        0 -1 6484 -1532008681 710400856 -792345980 -2131590447
        1611630084 328827008 734288139 1943830519</internalNodes>
      <leafValues>
        -3.1807219982147217e-01 1.5615443885326385e-01</leafValues></_>
    <_>
      <internalNodes>
        0 -1 2619 -1768230782 -760671262 1099583200 205738386 1881657686
        -2078080668 -1499879515 842770087</internalNodes>
      <leafValues>
        -3.8497638702392578e-01 1.3936497271060944e-01</leafValues></_>
    <_>
      <internalNodes>
        0 -1 4253 -576717825 -710948733 -1791492777 -381745393
        -1615332610 -150995028 -1565397558 -614642017</internalNodes>
      <leafValues>
        -9.8209954798221588e-02 6.0108041763305664e-01</leafValues></_>
    <_>
      <internalNodes>
        0 -1 12 709601962 -1132183546 -1784866417 2073768515 407073661
        -1131212391 563312466 1069835248</internalNodes>
      <leafValues>
        -3.1780755519866943e-01 1.6922491788864136e-01</leafValues></_>
    <_>
      <internalNodes>
        0 -1 2479 285840610 541857712 -434319054 1074016631 1851033775
        170230177 2027412538 157678330</internalNodes>
      <leafValues>
        -3.1937131285667419e-01 1.6191457211971283e-01</leafValues></_>
    <_>
      <internalNodes>
        0 -1 4542 -2141533598 -233798622 -761472908 -765340680
        1492617372 122430401 27441386 -830221991</internalNodes>
      <leafValues>
        -2.2322216629981995e-01 2.2832654416561127e-01</leafValues></_></weakClassifiers></stage19>
</opencv_storage>
