<?xml version="1.0"?>
<opencv_storage>
<stage9>
  <maxWeakCount>20</maxWeakCount>
  <stageThreshold>-1.1526424884796143e+00</stageThreshold>
  <weakClassifiers>
    <_>
      <internalNodes>
        0 -1 13 716171955 -1627682200 2113929087 2146926334 1333749759
        -4264065 1440700159 -538183693</internalNodes>
      <leafValues>
        -2.3526343703269958e-01 3.7154415249824524e-01</leafValues></_>
    <_>
      <internalNodes>
        0 -1 4993 -16777453 155446537 -1881148621 502267230 803078127
        406564863 1994383955 -908591153</internalNodes>
      <leafValues>
        -2.8394246101379395e-01 3.0516716837882996e-01</leafValues></_>
    <_>
      <internalNodes>
        0 -1 5930 -268703993 727685471 1234793746 850812317 1743194371
        192666182 -461135630 -285413377</internalNodes>
      <leafValues>
        -3.5642179846763611e-01 2.2217278182506561e-01</leafValues></_>
    <_>
      <internalNodes>
        0 -1 1589 -113515786 -430770298 -913252866 545442390 -883725995
        -572790646 -1599187007 -452989961</internalNodes>
      <leafValues>
        -4.2106297612190247e-01 1.7905683815479279e-01</leafValues></_>
    <_>
      <internalNodes>
        0 -1 2082 -380132561 1648593351 -658154406 -263065154 -138451127
        1192339723 -103688496 -168301953</internalNodes>
      <leafValues>
        -3.0287042260169983e-01 2.5605422258377075e-01</leafValues></_>
    <_>
      <internalNodes>
        0 -1 4410 -286614537 -543207445 1006632627 -632325195
        -1107887114 -1378353166 -553773323 -86048795</internalNodes>
      <leafValues>
        -2.3592336475849152e-01 3.3294621109962463e-01</leafValues></_>
    <_>
      <internalNodes>
        0 -1 5126 2019426577 673121592 1598046201 979638789 -1463153935
        804976796 578833307 -17506593</internalNodes>
      <leafValues>
        -2.7887901663780212e-01 2.7260920405387878e-01</leafValues></_>
    <_>
      <internalNodes>
        0 -1 5673 1729096194 576963507 198525602 578492543 1921985284
        1074385408 -1551688970 -723062537</internalNodes>
      <leafValues>
        -5.0476676225662231e-01 1.0950432717800140e-01</leafValues></_>
    <_>
      <internalNodes>
        0 -1 3873 -425824638 1644958084 58760962 -82305664 -1318393355
        215558577 2025941490 -73350155</internalNodes>
      <leafValues>
        -2.9633584618568420e-01 2.2525772452354431e-01</leafValues></_>
    <_>
      <internalNodes>
        0 -1 579 -151548897 1462920973 642719871 2019747047 1718834277
        1299605301 1172067548 -109187077</internalNodes>
      <leafValues>
        -2.4210700392723083e-01 2.8965857625007629e-01</leafValues></_>
    <_>
      <internalNodes>
        0 -1 6599 1766552637 -1369467921 308509689 114219506 1335519833
        120027247 1234299188 81652636</internalNodes>
      <leafValues>
        -4.1553947329521179e-01 1.5896898508071899e-01</leafValues></_>
    <_>
      <internalNodes>
        0 -1 4458 -596736816 486674689 939870208 -1684560831 2127240440
        -11443330 1506257346 -924452019</internalNodes>
      <leafValues>
        -3.0579790472984314e-01 2.2741574048995972e-01</leafValues></_>
    <_>
      <internalNodes>
        0 -1 21 -332741444 -1081701893 -1022831111 1037588895 456272247
        1253804458 1468360676 -1378880857</internalNodes>
      <leafValues>
        -2.7554839849472046e-01 2.6026239991188049e-01</leafValues></_>
    <_>
      <internalNodes>
        0 -1 4984 135531540 -4654340 285217589 1028858688 236881608
        -1698774390 96342172 -1363669935</internalNodes>
      <leafValues>
        -5.5735468864440918e-01 1.2028735876083374e-01</leafValues></_>
    <_>
      <internalNodes>
        0 -1 6025 -506477822 579516234 -766111166 1888481678 1401088932
        51088135 295171044 1146332063</internalNodes>
      <leafValues>
        -4.1127792000770569e-01 1.8200007081031799e-01</leafValues></_>
    <_>
      <internalNodes>
        0 -1 5277 -1772158464 -27860957 1857507480 1358272986 1321738244
        428411137 1854847736 -256456495</internalNodes>
      <leafValues>
        -3.9869424700737000e-01 1.6020853817462921e-01</leafValues></_>
    <_>
      <internalNodes>
        0 -1 6566 683765355 787126169 -1249819324 582808202 1369649408
        1234006080 1652653056 4508532</internalNodes>
      <leafValues>
        -5.7280987501144409e-01 1.3141433894634247e-01</leafValues></_>
    <_>
      <internalNodes>
        0 -1 3587 -285571216 -1626037987 1107464573 -1954353299
        1544431948 -1423230971 1279408204 1028021053</internalNodes>
      <leafValues>
        -3.3291870355606079e-01 2.1886713802814484e-01</leafValues></_>
    <_>
      <internalNodes>
        0 -1 5886 1321201339 506900285 1773924275 2001777671 511658887
        1602076404 -1888560195 -557189153</internalNodes>
      <leafValues>
        -2.1639002859592438e-01 3.3029320836067200e-01</leafValues></_>
    <_>
      <internalNodes>
        0 -1 450 1212591110 248361550 -1541962960 815340799 20959749
        1798196019 341135587 -1068143622</internalNodes>
      <leafValues>
        -3.9662495255470276e-01 1.8123437464237213e-01</leafValues></_></weakClassifiers></stage9>
</opencv_storage>
