<?xml version="1.0"?>
<opencv_storage>
<stage7>
  <maxWeakCount>20</maxWeakCount>
  <stageThreshold>-1.2999501228332520e+00</stageThreshold>
  <weakClassifiers>
    <_>
      <internalNodes>
        0 -1 38 839344350 2066992083 1948570135 2132794155 2031829553
        -82154869 -111687601 -17413</internalNodes>
      <leafValues>
        -3.0434781312942505e-01 2.9133859276771545e-01</leafValues></_>
    <_>
      <internalNodes>
        0 -1 6153 -167826641 1660133247 985375887 34076627 1594519052
        1933199410 -124065028 -117444610</internalNodes>
      <leafValues>
        -3.2111495733261108e-01 2.4923056364059448e-01</leafValues></_>
    <_>
      <internalNodes>
        0 -1 2798 -2010471749 -150756856 134360639 235063946 74187951
        1027442619 1579355023 -93078529</internalNodes>
      <leafValues>
        -3.1249308586120605e-01 2.5118058919906616e-01</leafValues></_>
    <_>
      <internalNodes>
        0 -1 4801 -678175028 1610588111 -50529124 1574297311 -931200876
        1951215614 -2139312821 -105119797</internalNodes>
      <leafValues>
        -1.9750799238681793e-01 3.7190496921539307e-01</leafValues></_>
    <_>
      <internalNodes>
        0 -1 1150 -279974097 759614508 -1021081850 2039927763 978023687
        78355379 -1216120300 -139725825</internalNodes>
      <leafValues>
        -4.0422457456588745e-01 1.5230613946914673e-01</leafValues></_>
    <_>
      <internalNodes>
        0 -1 4431 -1365815802 146689439 -934096004 705713876 329122135
        1874788588 921334868 -85674383</internalNodes>
      <leafValues>
        -4.4124823808670044e-01 1.8689663708209991e-01</leafValues></_>
    <_>
      <internalNodes>
        0 -1 3304 1134362334 -1453989874 1150700631 533136770 1523335339
        -1165811311 1221876447 539448919</internalNodes>
      <leafValues>
        -3.3776354789733887e-01 2.2675375640392303e-01</leafValues></_>
    <_>
      <internalNodes>
        0 -1 2742 -905975154 1656473487 -801111480 1918887388 1168982094
        42568059 -1861034762 -218768485</internalNodes>
      <leafValues>
        -3.3229619264602661e-01 2.1426583826541901e-01</leafValues></_>
    <_>
      <internalNodes>
        0 -1 5462 1644667904 1370846711 -1119498289 -1415938590
        478315445 -627470117 438369448 -815035969</internalNodes>
      <leafValues>
        -3.0382651090621948e-01 2.3035153746604919e-01</leafValues></_>
    <_>
      <internalNodes>
        0 -1 1081 1719207078 1725048950 1585663556 1661484498 1358985721
        1557267338 2015455730 -79495257</internalNodes>
      <leafValues>
        -3.3726853132247925e-01 2.0256166160106659e-01</leafValues></_>
    <_>
      <internalNodes>
        0 -1 5328 -1008872678 289066903 795699200 1562246563 -1846018661
        136313713 1386140593 1827534839</internalNodes>
      <leafValues>
        -2.6289018988609314e-01 2.7457219362258911e-01</leafValues></_>
    <_>
      <internalNodes>
        0 -1 770 -236270273 1576428074 2055090174 2104545191 2146854230
        -311329005 -637682603 -126486557</internalNodes>
      <leafValues>
        -2.5465986132621765e-01 2.7912139892578125e-01</leafValues></_>
    <_>
      <internalNodes>
        0 -1 5175 -2144861103 329437204 -709210755 949375248 -1802687932
        2057342760 -186905890 -935831360</internalNodes>
      <leafValues>
        -3.2104820013046265e-01 2.2691226005554199e-01</leafValues></_>
    <_>
      <internalNodes>
        0 -1 6595 2009856843 -2097161574 -1521674819 617531848
        -842373598 1689495971 -1077998699 1625413562</internalNodes>
      <leafValues>
        -3.6388108134269714e-01 1.8481336534023285e-01</leafValues></_>
    <_>
      <internalNodes>
        0 -1 5428 -1898030320 -1129815902 1501573617 768121520
        -1323771492 183926941 -1784012868 -849863943</internalNodes>
      <leafValues>
        -3.3551910519599915e-01 2.1305714547634125e-01</leafValues></_>
    <_>
      <internalNodes>
        0 -1 3262 -326638097 -1567829622 73705322 -112508622 1351356047
        1684655515 -441235518 -540549027</internalNodes>
      <leafValues>
        -2.6526230573654175e-01 2.6455035805702209e-01</leafValues></_>
    <_>
      <internalNodes>
        0 -1 4457 -925396326 321955856 1480984593 118455111 1346461947
        510185798 1131072344 1133247455</internalNodes>
      <leafValues>
        -2.8873047232627869e-01 2.5282713770866394e-01</leafValues></_>
    <_>
      <internalNodes>
        0 -1 4542 -261887346 933666578 -83962697 322641649 -856586110
        -1126273215 -2139097460 -543697365</internalNodes>
      <leafValues>
        -2.0515537261962891e-01 3.6106511950492859e-01</leafValues></_>
    <_>
      <internalNodes>
        0 -1 820 -343601995 1795356127 1348706655 647668354 1862863872
        1051370042 1095195764 100977525</internalNodes>
      <leafValues>
        -4.7906601428985596e-01 1.6540023684501648e-01</leafValues></_>
    <_>
      <internalNodes>
        0 -1 6455 -1010341098 552301402 1212498462 144044978 271458136
        -393730744 -1148261814 704958402</internalNodes>
      <leafValues>
        -4.1901800036430359e-01 1.5962511301040649e-01</leafValues></_></weakClassifiers></stage7>
</opencv_storage>
